~o
<STREAMINFO> 1 48
<VECSIZE> 48<NULLD><MFCC_D_A_0><DIAGC>
~h "a"
<BEGINHMM>
<NUMSTATES> 6
<STATE> 2
<MEAN> 48
 7.983021e+00 -8.891286e+01 -1.238007e+01 -3.268225e+01 1.538606e+00 2.544342e+01 2.167027e+01 4.320021e+01 1.913208e+01 -3.941394e+00 -1.157166e+00 2.487920e+00 -3.387346e+00 5.664009e+00 6.843229e+00 1.314165e+02 2.472790e+00 -5.007945e+00 -1.872142e+00 -2.377363e+00 7.999008e-01 -7.326012e-01 4.123204e+00 3.319921e+00 2.264949e+00 2.016519e+00 1.377376e+00 7.999168e-01 7.531235e-01 3.691041e-01 -7.061914e-01 9.262633e+00 -1.488360e+00 1.360275e+00 2.558575e-02 3.899403e-01 -2.419751e-01 8.365002e-01 -7.596785e-01 -7.026891e-01 2.548122e-01 -4.945922e-01 -1.712299e-01 -1.115889e-02 -3.786244e-01 -4.395155e-01 -2.132390e-03 -2.624556e+00
<VARIANCE> 48
 6.395183e+01 5.356219e+01 1.302897e+02 1.749496e+02 1.089029e+02 9.785000e+01 6.424810e+01 8.807034e+01 1.258090e+02 7.562211e+01 6.655201e+01 5.505900e+01 1.974149e+01 3.463651e+01 2.600566e+01 4.433759e+01 3.281873e+00 6.582649e+00 6.027651e+00 9.394211e+00 3.317398e+00 4.236659e+00 4.341836e+00 5.743788e+00 1.061201e+01 6.317320e+00 3.771558e+00 3.404480e+00 1.730281e+00 1.623311e+00 1.592016e+00 8.786920e+00 5.466926e-01 1.252262e+00 1.352082e+00 1.979038e+00 1.145850e+00 9.870367e-01 6.923311e-01 1.339638e+00 1.381459e+00 1.076973e+00 1.087602e+00 9.753008e-01 3.901690e-01 3.280884e-01 3.779836e-01 9.268407e-01
<GCONST> 1.766532e+02
<STATE> 3
<MEAN> 48
 8.183383e+00 -8.825992e+01 -1.196751e+01 -3.441084e+01 4.225125e+00 2.818649e+01 2.233416e+01 4.159055e+01 1.955545e+01 -5.068834e+00 4.701077e-01 5.106133e+00 -3.393499e+00 4.248121e+00 5.596191e+00 1.394123e+02 1.159772e+00 -2.811467e-01 -6.819568e-01 -5.370993e-01 4.791110e-01 -1.714207e-01 2.199680e-02 -3.117099e-01 3.000494e-01 -3.290295e-01 -7.960366e-02 1.150174e-01 -4.755564e-01 -6.307565e-01 -5.797945e-01 3.056199e+00 -5.491334e-01 1.498267e+00 2.304796e-01 8.517694e-01 -3.995149e-01 3.759584e-01 -1.234844e+00 -8.845000e-01 -7.871951e-01 -6.478510e-01 -4.706233e-01 -4.127638e-01 -2.805975e-01 -1.059770e-01 2.564516e-01 -2.451273e+00
<VARIANCE> 48
 5.290172e+01 3.986533e+01 1.130974e+02 1.994702e+02 7.203041e+01 9.734498e+01 5.761759e+01 9.299562e+01 2.010453e+02 8.497460e+01 3.621769e+01 3.350862e+01 2.321931e+01 2.116588e+01 1.671960e+01 2.917607e+01 2.338996e+00 4.534441e+00 4.420615e+00 8.256721e+00 3.633029e+00 3.159348e+00 3.769112e+00 5.389915e+00 7.098128e+00 5.919909e+00 5.250049e+00 3.122156e+00 2.100502e+00 1.697664e+00 9.360526e-01 3.857784e+00 4.556500e-01 6.759700e-01 1.038886e+00 1.172489e+00 9.834749e-01 7.889193e-01 7.511865e-01 9.200565e-01 1.763724e+00 1.329976e+00 9.149106e-01 5.019938e-01 4.756320e-01 2.793940e-01 2.833014e-01 7.981154e-01
<GCONST> 1.680391e+02
<STATE> 4
<MEAN> 48
 1.196619e+01 -8.695631e+01 -1.464241e+01 -2.963888e+01 3.888957e+00 2.875703e+01 2.052401e+01 3.952827e+01 1.594940e+01 -7.373933e+00 -1.229711e+00 2.826746e+00 -3.942447e+00 4.162490e+00 5.714196e+00 1.402147e+02 3.065357e-01 4.702100e-01 -3.214515e-01 -1.495894e-01 -8.043630e-02 5.440148e-01 -8.758317e-02 -2.173465e-01 -4.673708e-01 -4.401499e-01 -2.305244e-01 -5.694589e-02 -4.223574e-02 -1.846123e-02 8.620246e-02 -4.807249e-01 -2.662492e-01 1.505283e-01 2.058062e-01 -2.424512e-01 -4.003523e-02 1.383350e-01 -5.756418e-02 -4.008099e-02 -1.514278e-03 2.248920e-02 7.695831e-03 8.113649e-02 -1.761963e-02 -1.404873e-02 5.557567e-02 -7.504309e-01
<VARIANCE> 48
 3.803536e+01 4.083806e+01 1.168463e+02 1.736563e+02 5.642123e+01 6.941061e+01 6.072055e+01 6.491458e+01 6.573618e+01 4.865952e+01 4.567283e+01 5.021239e+01 2.111128e+01 1.781216e+01 1.398062e+01 1.666316e+01 1.415831e+00 2.513566e+00 3.361481e+00 5.739075e+00 3.176621e+00 2.470906e+00 3.171662e+00 3.354363e+00 4.634895e+00 4.743591e+00 3.680967e+00 2.460101e+00 1.471184e+00 1.334001e+00 1.382294e+00 2.541969e+00 3.210611e-01 5.564195e-01 6.531765e-01 9.435843e-01 6.066954e-01 4.164610e-01 6.249573e-01 6.951280e-01 8.660744e-01 1.023690e+00 8.803544e-01 4.702640e-01 2.525148e-01 2.818660e-01 2.813946e-01 3.646647e-01
<GCONST> 1.547666e+02
<STATE> 5
<MEAN> 48
 7.171414e+00 -8.502657e+01 -1.396770e+01 -3.628917e+01 3.273517e+00 3.189600e+01 1.621125e+01 3.468211e+01 1.233221e+01 -9.920173e+00 -3.441421e+00 2.729854e+00 -6.686075e+00 1.700816e+00 5.572675e+00 1.255545e+02 -1.739368e+00 4.693744e-01 6.774690e-01 6.297500e-01 -2.511610e-02 6.557013e-01 -8.540488e-01 -6.410507e-01 -6.505129e-01 -2.493681e-02 2.956004e-02 3.742784e-02 -2.685354e-01 -1.989355e-01 2.091887e-01 -4.044463e+00 -3.967098e-01 1.466338e-02 -1.268879e-02 5.396127e-01 -3.149381e-02 4.444318e-02 -1.039909e-01 -8.306132e-02 -7.687914e-02 -1.093850e-02 5.373932e-02 -2.165662e-02 7.504265e-02 4.075846e-02 4.057300e-02 -3.746618e-01
<VARIANCE> 48
 6.523981e+01 6.764502e+01 1.050669e+02 8.869447e+01 7.202336e+01 7.827905e+01 6.065677e+01 6.116302e+01 9.207873e+01 5.133677e+01 6.006347e+01 4.880367e+01 2.614182e+01 2.139118e+01 1.497358e+01 1.235865e+02 3.493454e+00 5.533304e+00 4.741057e+00 9.996447e+00 3.723677e+00 3.422940e+00 2.670424e+00 3.755982e+00 5.242879e+00 4.962881e+00 3.580677e+00 2.656554e+00 1.245924e+00 1.385163e+00 1.272916e+00 3.739378e+00 6.430974e-01 9.923021e-01 8.376233e-01 1.448833e+00 9.027837e-01 6.219397e-01 4.017215e-01 6.325256e-01 9.680153e-01 1.041800e+00 6.970555e-01 5.282501e-01 2.603610e-01 2.620948e-01 2.494097e-01 4.716187e-01
<GCONST> 1.641702e+02
<TRANSP> 6
 0.000000e+00 1.000000e+00 0.000000e+00 0.000000e+00 0.000000e+00 0.000000e+00
 0.000000e+00 3.002140e-01 6.997860e-01 0.000000e+00 0.000000e+00 0.000000e+00
 0.000000e+00 0.000000e+00 4.738727e-01 5.261272e-01 0.000000e+00 0.000000e+00
 0.000000e+00 0.000000e+00 0.000000e+00 8.349168e-01 1.650832e-01 0.000000e+00
 0.000000e+00 0.000000e+00 0.000000e+00 0.000000e+00 8.420247e-01 1.579753e-01
 0.000000e+00 0.000000e+00 0.000000e+00 0.000000e+00 0.000000e+00 0.000000e+00
<ENDHMM>
~h "b"
<BEGINHMM>
<NUMSTATES> 6
<STATE> 2
<MEAN> 48
 -1.199585e+01 -7.298605e+01 -1.620585e+01 -2.628887e+01 -2.392900e+00 3.944541e+01 1.161288e+01 3.603874e+01 2.491465e+01 -4.093915e+00 -1.009215e+00 1.555061e+00 -5.948486e+00 3.752195e+00 1.047405e+01 8.970027e+01 7.240028e-01 3.386652e-01 -4.170821e-01 -4.360523e-01 -5.804664e-01 -3.810949e-01 8.131191e-02 2.118053e-01 2.791152e-01 8.152592e-02 5.773161e-02 -8.554622e-02 -2.334402e-01 -1.665054e-01 -1.890331e-01 3.330123e-01 1.991696e-01 1.023476e-01 2.986126e-01 4.530114e-01 2.523341e-01 -1.904319e-01 -2.633150e-01 -4.727291e-01 -5.555803e-01 -3.484645e-01 -1.007681e-01 2.382080e-02 7.482438e-02 -4.095154e-02 -7.626486e-02 3.544178e-01
<VARIANCE> 48
 5.832675e+01 6.856738e+01 1.593087e+02 9.996881e+01 8.451856e+01 4.969689e+01 4.788576e+01 7.974625e+01 1.119345e+02 5.800193e+01 4.751594e+01 4.633060e+01 2.951818e+01 2.054680e+01 1.390362e+01 9.206502e+01 5.003428e+00 1.819417e+00 4.352467e+00 3.772097e+00 2.920822e+00 2.692276e+00 4.072944e+00 5.273329e+00 4.830629e+00 3.685900e+00 3.064287e+00 2.888793e+00 1.563809e+00 1.302468e+00 1.095256e+00 2.327070e+00 1.342236e+00 4.976711e-01 9.785537e-01 9.219683e-01 7.362006e-01 6.373321e-01 8.585811e-01 1.163880e+00 1.236002e+00 9.120593e-01 6.844636e-01 5.915973e-01 3.426678e-01 2.920403e-01 2.576416e-01 1.184326e+00
<GCONST> 1.641224e+02
<STATE> 3
<MEAN> 48
 -1.357325e+01 -7.448441e+01 -1.307504e+01 -2.814972e+01 -1.998275e+00 3.722815e+01 1.167815e+01 3.519167e+01 2.082116e+01 -7.391446e+00 -1.737801e+00 3.867948e+00 -6.310391e+00 1.865227e+00 8.599734e+00 9.095635e+01 2.791718e+00 1.320535e+00 5.873241e-01 1.682564e+00 3.968943e-01 -1.434452e+00 -1.267113e+00 -1.773126e+00 -2.427696e+00 -1.985236e+00 -8.345062e-01 -4.524053e-01 3.869176e-01 1.573478e-01 -2.892865e-01 2.787143e+00 1.423501e+00 -9.342123e-01 9.877374e-02 7.724328e-01 1.180732e+00 -4.797136e-01 -1.119044e-01 -5.673926e-01 -8.851532e-01 -6.491056e-02 1.085424e-01 -1.754431e-01 8.638187e-02 1.990558e-01 -3.799713e-02 2.806802e+00
<VARIANCE> 48
 5.881154e+01 1.051525e+02 2.429547e+02 7.251488e+01 1.356253e+02 5.845987e+01 6.367572e+01 6.566085e+01 1.024147e+02 6.295722e+01 4.499221e+01 4.588937e+01 3.167569e+01 3.176992e+01 1.337334e+01 8.638071e+01 5.763039e+00 3.542711e+00 5.226570e+00 4.724792e+00 4.699217e+00 3.249880e+00 5.919117e+00 8.163033e+00 6.648993e+00 4.541237e+00 2.666061e+00 2.499453e+00 1.765754e+00 1.274059e+00 1.375686e+00 6.682321e+00 8.731524e-01 1.269434e+00 1.145061e+00 2.170446e+00 1.896560e+00 9.311981e-01 1.304048e+00 1.469783e+00 1.260931e+00 8.520486e-01 7.681546e-01 7.544867e-01 3.798008e-01 3.216609e-01 3.432487e-01 1.478451e+00
<GCONST> 1.745499e+02
<STATE> 4
<MEAN> 48
 -8.081289e+00 -6.860948e+01 -7.491688e+00 -2.407915e+01 -7.995514e-01 3.530127e+01 5.893369e+00 2.735705e+01 1.174783e+01 -1.408490e+01 -5.498130e+00 2.597556e+00 -5.947069e+00 2.060602e+00 8.484497e+00 9.457426e+01 5.967503e+00 -2.450581e+00 6.177775e-01 2.181543e+00 3.523731e+00 -2.350404e+00 -7.277122e-01 -2.079628e+00 -3.350352e+00 -6.509690e-01 7.786740e-02 -3.394722e-01 3.212076e-01 4.868191e-01 -4.555195e-01 9.969072e+00 5.288054e-01 -2.172549e+00 -4.148079e-01 2.795674e-02 1.102465e+00 -2.438366e-01 8.735853e-01 6.914845e-01 5.243608e-01 1.093558e+00 7.375008e-01 1.668166e-01 2.023250e-02 1.201778e-01 -7.746615e-02 2.883231e+00
<VARIANCE> 48
 4.998597e+01 8.472852e+01 1.806408e+02 6.523429e+01 9.947608e+01 4.257253e+01 4.876138e+01 6.674518e+01 1.296612e+02 4.581672e+01 3.004445e+01 3.317911e+01 1.912005e+01 2.089520e+01 1.060549e+01 1.027188e+02 4.102498e+00 7.907743e+00 9.568300e+00 1.376721e+01 1.299093e+01 6.946120e+00 7.388640e+00 1.164744e+01 1.091388e+01 6.063325e+00 5.196411e+00 4.589882e+00 2.278719e+00 1.862941e+00 2.015900e+00 5.470116e+00 8.400347e-01 9.450279e-01 1.143459e+00 2.123007e+00 1.156196e+00 8.187443e-01 1.216032e+00 1.443874e+00 1.776791e+00 1.204104e+00 5.892777e-01 6.096483e-01 2.879964e-01 2.714265e-01 3.178483e-01 8.309017e-01
<GCONST> 1.765091e+02
<STATE> 5
<MEAN> 48
 3.714064e+00 -7.620812e+01 -9.503749e+00 -1.899218e+01 7.917547e+00 3.236507e+01 6.602660e+00 2.572395e+01 7.129891e+00 -1.275119e+01 -2.500682e+00 2.475589e+00 -4.609430e+00 3.822052e+00 8.070553e+00 1.174016e+02 5.086076e+00 -5.890963e+00 -6.131467e-01 1.308059e+00 4.321274e+00 -2.040458e+00 1.602836e+00 4.032999e-04 -1.029496e+00 1.780083e+00 1.744858e+00 1.950943e-01 3.471694e-01 5.829270e-01 -5.067078e-01 1.249181e+01 -1.244399e+00 -1.039519e+00 -2.141447e-01 -4.390399e-01 -5.513991e-02 3.130631e-01 7.702751e-01 9.552373e-01 1.293698e+00 9.241714e-01 3.838349e-01 1.796601e-01 -5.928247e-02 -3.397861e-02 2.080267e-02 -1.286744e-01
<VARIANCE> 48
 6.555040e+01 8.145631e+01 7.661462e+01 1.374531e+02 1.089828e+02 8.329491e+01 8.408119e+01 1.284454e+02 9.132522e+01 5.424068e+01 3.939531e+01 3.792245e+01 2.028586e+01 1.831373e+01 1.767402e+01 8.397996e+01 3.813002e+00 9.679190e+00 7.164637e+00 2.478002e+01 1.600673e+01 4.619142e+00 8.644794e+00 1.131721e+01 6.789479e+00 5.677268e+00 3.549304e+00 4.735793e+00 1.950746e+00 1.587092e+00 1.679360e+00 3.828780e+00 8.125563e-01 1.304600e+00 1.387225e+00 1.002437e+00 9.743505e-01 9.279882e-01 1.391118e+00 1.837083e+00 1.763580e+00 1.108654e+00 7.590497e-01 7.075213e-01 3.167196e-01 3.238658e-01 3.713061e-01 1.546910e+00
<GCONST> 1.790830e+02
<TRANSP> 6
 0.000000e+00 1.000000e+00 0.000000e+00 0.000000e+00 0.000000e+00 0.000000e+00
 0.000000e+00 7.261599e-01 2.738401e-01 0.000000e+00 0.000000e+00 0.000000e+00
 0.000000e+00 0.000000e+00 3.455178e-01 6.544822e-01 0.000000e+00 0.000000e+00
 0.000000e+00 0.000000e+00 0.000000e+00 2.039270e-01 7.960730e-01 0.000000e+00
 0.000000e+00 0.000000e+00 0.000000e+00 0.000000e+00 1.312196e-01 8.687804e-01
 0.000000e+00 0.000000e+00 0.000000e+00 0.000000e+00 0.000000e+00 0.000000e+00
<ENDHMM>
~h "e"
<BEGINHMM>
<NUMSTATES> 6
<STATE> 2
<MEAN> 48
 4.099534e+00 -9.447115e+01 -8.506812e+00 -9.938076e+00 2.626148e+01 3.250321e+01 6.553693e+00 2.205564e+01 6.931716e+00 -5.493670e+00 4.485086e+00 5.129797e+00 -5.697480e+00 3.742938e+00 7.620493e+00 1.363282e+02 4.959893e-01 -5.079008e+00 8.589833e-01 4.084383e+00 3.978871e+00 -1.638467e+00 -5.811919e-01 -8.581226e-01 6.684557e-02 1.999780e+00 1.545024e+00 -3.998829e-01 -5.545760e-02 4.039246e-01 -2.926728e-01 7.807507e+00 -1.463224e+00 1.324301e+00 3.730140e-01 -6.360113e-01 -1.839509e+00 4.735195e-02 -1.013567e-01 5.498576e-01 7.248505e-01 -1.639558e-01 -6.774155e-01 -2.272159e-01 4.627375e-02 2.595957e-02 1.487056e-01 -2.782241e+00
<VARIANCE> 48
 4.778318e+01 3.979613e+01 8.545860e+01 1.353036e+02 8.036270e+01 4.662270e+01 7.197106e+01 7.846118e+01 5.338506e+01 4.177177e+01 3.175312e+01 2.409687e+01 1.762295e+01 1.621739e+01 1.489528e+01 3.801633e+01 4.398319e+00 7.935844e+00 5.455549e+00 7.717197e+00 5.303576e+00 4.348619e+00 6.699543e+00 9.296195e+00 9.737501e+00 5.907816e+00 2.552667e+00 4.453200e+00 1.292691e+00 1.872781e+00 1.546369e+00 1.044950e+01 5.394702e-01 1.351773e+00 1.107308e+00 1.184473e+00 1.207100e+00 5.364905e-01 1.025178e+00 1.200919e+00 9.508390e-01 9.666031e-01 6.098452e-01 5.011067e-01 2.634574e-01 3.330110e-01 2.857722e-01 7.387011e-01
<GCONST> 1.675182e+02
<STATE> 3
<MEAN> 48
 3.310502e+00 -9.525906e+01 -7.220466e+00 -7.299653e-01 2.684769e+01 3.273130e+01 5.545851e+00 2.083965e+01 7.401112e+00 -4.257251e+00 5.421360e+00 5.133348e+00 -4.606924e+00 4.209111e+00 7.647130e+00 1.410014e+02 -3.748682e-01 -3.672735e-01 1.180208e+00 2.257798e+00 5.925983e-02 -1.408648e+00 -9.488637e-01 -8.484418e-01 -2.040335e-01 8.804828e-02 -5.989445e-01 -8.034625e-01 -6.502368e-02 3.484744e-01 1.858693e-01 1.147602e+00 -2.235033e-01 1.043892e+00 1.645312e-02 -7.032798e-01 -7.948192e-01 1.105887e-01 -7.106894e-02 1.783694e-01 8.098622e-02 -4.137380e-01 -4.697055e-01 -2.373959e-02 -9.883437e-03 -3.028475e-02 1.888690e-01 -1.713212e+00
<VARIANCE> 48
 4.382347e+01 3.581007e+01 5.889367e+01 1.968086e+02 5.329507e+01 7.284399e+01 5.975603e+01 6.013096e+01 9.102927e+01 4.166481e+01 3.477750e+01 4.512628e+01 1.469196e+01 1.872469e+01 1.068396e+01 1.317590e+01 1.973838e+00 3.082664e+00 3.860579e+00 5.914596e+00 3.404530e+00 3.628187e+00 5.143759e+00 6.063435e+00 5.422588e+00 3.428801e+00 2.083990e+00 2.641668e+00 1.360839e+00 1.607417e+00 9.784959e-01 3.524825e+00 4.776637e-01 1.139971e+00 6.366998e-01 1.031267e+00 1.109812e+00 8.268983e-01 9.936432e-01 1.148049e+00 1.304399e+00 8.545387e-01 3.755153e-01 5.487469e-01 2.190039e-01 3.351707e-01 2.248256e-01 1.221188e+00
<GCONST> 1.587280e+02
<STATE> 4
<MEAN> 48
 -2.089993e+00 -9.688892e+01 1.053583e+00 1.969724e+00 2.433947e+01 2.301662e+01 4.976732e-01 1.855356e+01 7.203396e+00 -4.215715e+00 3.730871e-01 -6.572132e-01 -5.540556e+00 6.525192e+00 8.366744e+00 1.391351e+02 -4.193211e-01 1.697940e-01 4.880023e-01 1.861929e-01 1.309584e-01 -3.781101e-01 -4.884387e-01 -7.935451e-02 3.252883e-01 5.896092e-02 -2.215424e-01 4.682855e-02 2.805231e-02 1.124212e-01 9.862886e-02 -1.569721e+00 -4.825805e-02 1.572657e-01 -9.138699e-02 -4.519038e-01 -1.408429e-02 2.505047e-01 6.546177e-03 7.739016e-02 9.115685e-03 -5.794846e-02 2.821592e-02 1.624196e-01 -1.430148e-02 -5.912986e-02 -1.233007e-02 -6.934565e-01
<VARIANCE> 48
 4.151638e+01 3.541906e+01 1.028234e+02 1.335853e+02 5.732273e+01 5.490325e+01 7.269780e+01 6.146080e+01 5.669736e+01 3.497538e+01 3.589381e+01 3.618226e+01 1.685249e+01 1.490311e+01 1.094959e+01 2.503268e+01 1.584906e+00 2.889832e+00 3.325929e+00 3.816969e+00 3.360934e+00 2.912598e+00 4.737149e+00 5.113508e+00 3.768866e+00 3.619347e+00 1.918143e+00 1.698053e+00 1.155724e+00 1.261232e+00 1.026767e+00 2.623579e+00 3.210277e-01 5.179042e-01 7.172702e-01 9.420832e-01 6.498278e-01 6.264663e-01 1.034509e+00 1.139640e+00 8.367474e-01 7.481253e-01 4.150653e-01 3.303325e-01 2.459497e-01 2.852241e-01 2.178236e-01 3.445199e-01
<GCONST> 1.514700e+02
<STATE> 5
<MEAN> 48
 -6.343840e+00 -9.036613e+01 7.897949e-02 -3.133218e+00 2.451085e+01 2.918260e+01 -2.634065e+00 2.070985e+01 1.103540e+01 -4.305805e+00 1.759886e-01 2.904197e+00 -5.440592e+00 5.410097e+00 9.896968e+00 1.148223e+02 -1.724098e+00 1.386729e+00 9.021848e-03 -1.587301e+00 -1.097416e+00 1.314727e+00 -2.295294e-01 8.699762e-01 6.807369e-01 7.014676e-03 -4.666268e-01 1.072724e-01 -1.085343e-01 -2.850137e-01 2.701667e-01 -4.669165e+00 -1.949984e-01 2.800362e-01 -3.258444e-01 -9.711457e-02 -4.811583e-01 2.090278e-01 4.312600e-01 1.297264e-01 -1.001086e-01 -9.200720e-02 5.770709e-02 -3.836084e-02 2.955564e-02 -6.229946e-02 -5.247527e-02 -1.130364e-01
<VARIANCE> 48
 5.308109e+01 6.958369e+01 1.033075e+02 1.175509e+02 6.845377e+01 1.130601e+02 1.115450e+02 1.021937e+02 9.676530e+01 4.604305e+01 3.592099e+01 3.186292e+01 1.531775e+01 1.854618e+01 1.733929e+01 1.879047e+02 3.988080e+00 6.475712e+00 7.337698e+00 1.079782e+01 5.798520e+00 4.830753e+00 8.671726e+00 1.066861e+01 7.395455e+00 4.378329e+00 3.255166e+00 2.456893e+00 1.591248e+00 1.736632e+00 1.256173e+00 1.124478e+01 8.255797e-01 1.405160e+00 1.431175e+00 2.001263e+00 1.166544e+00 8.351387e-01 1.785248e+00 2.282974e+00 1.389565e+00 9.322692e-01 6.026611e-01 4.388802e-01 2.725726e-01 3.448570e-01 2.767373e-01 2.243660e+00
<GCONST> 1.766876e+02
<TRANSP> 6
 0.000000e+00 1.000000e+00 0.000000e+00 0.000000e+00 0.000000e+00 0.000000e+00
 0.000000e+00 4.578728e-01 5.421272e-01 0.000000e+00 0.000000e+00 0.000000e+00
 0.000000e+00 0.000000e+00 5.805190e-01 4.194810e-01 0.000000e+00 0.000000e+00
 0.000000e+00 0.000000e+00 0.000000e+00 8.560054e-01 1.439946e-01 0.000000e+00
 0.000000e+00 0.000000e+00 0.000000e+00 0.000000e+00 8.205374e-01 1.794625e-01
 0.000000e+00 0.000000e+00 0.000000e+00 0.000000e+00 0.000000e+00 0.000000e+00
<ENDHMM>
~h "silence"
<BEGINHMM>
<NUMSTATES> 6
<STATE> 2
<MEAN> 48
 -1.640508e+01 -8.104065e+01 -1.068472e+00 -2.243233e+01 1.003123e+01 3.645440e+01 7.762574e+00 3.028478e+01 1.356552e+01 -7.055247e+00 -2.266949e+00 3.693282e+00 -6.391490e+00 3.110243e+00 9.856899e+00 9.742820e+01 -8.870481e-01 1.319046e+00 -3.161980e-01 4.757077e-01 -7.452435e-01 2.265714e-01 -5.195502e-01 -5.373221e-01 -7.797930e-01 -1.039846e+00 -4.482507e-01 -1.123221e-01 1.047272e-01 -7.693058e-02 -2.331874e-02 -2.098487e+00 -1.139433e-01 -1.077567e-01 -1.792972e-01 -7.745187e-02 -5.483736e-02 8.789369e-02 2.124188e-01 1.394111e-01 2.822770e-01 1.767144e-01 2.686554e-01 1.969229e-01 7.262758e-02 1.741732e-02 -6.032500e-02 6.760515e-02
<VARIANCE> 48
 9.719656e+01 7.827637e+01 1.192232e+02 1.262503e+02 1.164047e+02 6.460763e+01 8.458362e+01 7.498456e+01 8.236755e+01 4.445287e+01 4.103458e+01 3.380423e+01 2.039388e+01 2.748464e+01 1.385797e+01 1.391505e+02 5.595680e+00 5.701066e+00 5.102083e+00 7.331733e+00 5.250930e+00 4.806736e+00 6.883420e+00 8.282503e+00 6.261545e+00 5.647616e+00 3.190530e+00 2.903621e+00 2.095131e+00 2.019604e+00 1.428317e+00 9.706507e+00 2.848547e-01 3.896133e-01 6.694152e-01 8.114432e-01 4.666460e-01 4.052161e-01 7.448224e-01 6.797734e-01 6.958045e-01 6.214265e-01 4.915440e-01 3.679915e-01 2.680365e-01 2.930895e-01 1.764672e-01 3.172323e-01
<GCONST> 1.648787e+02
<STATE> 3
<MEAN> 48
 -1.626289e+01 -7.425144e+01 -5.508127e+00 -1.748600e+01 6.046878e+00 3.614573e+01 6.616792e+00 2.601566e+01 1.161805e+01 -1.066120e+01 -3.402030e+00 4.001474e+00 -5.383335e+00 2.097069e+00 8.859507e+00 9.059391e+01 -1.792417e+00 8.757303e-01 -9.887059e-01 -1.222986e-01 -1.023735e+00 9.451269e-01 4.771539e-01 1.033589e-01 5.923319e-01 -8.247041e-02 4.413239e-01 5.778883e-01 1.736055e-01 -1.028041e-01 3.397674e-02 -2.711452e+00 2.110843e-01 -5.235628e-01 -1.215353e-01 -5.592250e-01 6.395206e-02 2.228068e-01 4.377134e-01 5.631787e-01 6.164849e-01 4.630730e-01 2.668456e-01 1.395936e-01 7.255636e-04 4.076167e-02 7.640465e-03 6.530606e-01
<VARIANCE> 48
 1.136887e+02 2.501152e+02 1.437598e+02 1.219110e+02 1.003990e+02 8.242777e+01 7.572409e+01 9.692683e+01 7.720322e+01 4.951286e+01 4.117110e+01 3.548473e+01 1.747480e+01 2.473725e+01 1.427669e+01 2.938465e+02 5.798779e+00 6.438681e+00 5.754827e+00 7.396443e+00 5.420426e+00 4.681489e+00 5.124692e+00 6.810630e+00 6.370668e+00 4.312241e+00 2.978858e+00 3.111910e+00 2.009069e+00 1.742412e+00 1.557178e+00 7.634075e+00 6.477602e-01 1.101662e+00 1.051630e+00 1.040375e+00 7.712901e-01 8.014942e-01 9.700943e-01 1.265526e+00 1.452104e+00 1.331052e+00 6.880091e-01 6.244105e-01 3.598440e-01 3.573132e-01 2.394405e-01 9.520432e-01
<GCONST> 1.753000e+02
<STATE> 4
<MEAN> 48
 -1.902488e+01 -7.708167e+01 -7.192697e+00 -1.980854e+01 5.304821e+00 4.004458e+01 7.957709e+00 2.827128e+01 1.483922e+01 -8.093048e+00 -1.019105e+00 5.020065e+00 -5.388965e+00 1.841367e+00 9.070238e+00 8.886993e+01 -4.569722e-01 3.640359e-01 -5.201566e-01 -9.919498e-01 -7.193248e-01 7.039433e-01 5.413237e-01 5.680250e-01 9.111158e-01 2.294177e-01 2.050080e-01 1.997061e-01 3.356442e-02 -4.823484e-03 7.497944e-02 -7.735972e-01 4.943779e-01 -1.452966e-01 1.323274e-01 -2.926442e-01 -6.704340e-04 -2.582256e-01 2.927833e-02 2.717909e-01 1.374040e-01 9.721802e-02 -8.668463e-02 -1.850460e-01 -9.830636e-02 5.537173e-02 5.816834e-03 6.777445e-01
<VARIANCE> 48
 6.219936e+01 1.067622e+02 1.537046e+02 1.050482e+02 9.921073e+01 5.952688e+01 6.283661e+01 7.752273e+01 9.396505e+01 6.382300e+01 3.243293e+01 2.721302e+01 2.607874e+01 2.601941e+01 1.726660e+01 1.462060e+02 4.852674e+00 4.211312e+00 5.578195e+00 4.949410e+00 5.486866e+00 3.649624e+00 4.781848e+00 6.111013e+00 7.031713e+00 5.289332e+00 3.638312e+00 2.805140e+00 1.966376e+00 1.827919e+00 1.614031e+00 4.344464e+00 4.934476e-01 8.554912e-01 1.297983e+00 9.221149e-01 1.098474e+00 6.672329e-01 7.787131e-01 1.446725e+00 1.517809e+00 1.243099e+00 5.904994e-01 5.705953e-01 3.974451e-01 4.078969e-01 3.306984e-01 5.432008e-01
<GCONST> 1.707289e+02
<STATE> 5
<MEAN> 48
 -1.752903e+01 -7.751134e+01 -6.068552e+00 -2.474367e+01 4.253148e+00 4.051793e+01 9.518377e+00 3.255996e+01 1.610486e+01 -7.927161e+00 -2.078839e+00 4.879482e+00 -5.229377e+00 2.035596e+00 9.718904e+00 9.131488e+01 2.824844e-01 8.266687e-03 -3.271658e-01 -7.178928e-01 -3.405351e-01 7.675904e-02 3.512516e-01 4.768783e-01 3.630736e-01 1.145196e-01 1.014480e-01 6.926813e-02 -9.314913e-03 1.202066e-01 4.844820e-03 2.241865e-01 1.444819e-01 -4.346745e-02 6.268368e-02 5.522669e-02 7.075156e-02 -1.105438e-01 -8.147689e-02 -3.972120e-02 -4.836791e-04 -8.393945e-03 4.055968e-03 -1.964823e-02 2.662972e-03 3.735997e-02 -3.532861e-02 2.073910e-01
<VARIANCE> 48
 3.503349e+01 6.104391e+01 1.062045e+02 8.109869e+01 6.810524e+01 5.016855e+01 4.933886e+01 6.575565e+01 9.406472e+01 6.320026e+01 3.609706e+01 2.835679e+01 2.347296e+01 2.129728e+01 1.709815e+01 9.787389e+01 2.671700e+00 2.138643e+00 3.601862e+00 3.989537e+00 3.264494e+00 2.602619e+00 3.855025e+00 6.009258e+00 6.212565e+00 4.600277e+00 2.681021e+00 2.483624e+00 2.001200e+00 1.555451e+00 1.070202e+00 1.576068e+00 3.793084e-01 3.164501e-01 4.745307e-01 5.325520e-01 5.015963e-01 3.907860e-01 6.019562e-01 9.130560e-01 1.001133e+00 6.611249e-01 3.974458e-01 3.855887e-01 3.708223e-01 2.574506e-01 1.758035e-01 2.416500e-01
<GCONST> 1.535042e+02
<TRANSP> 6
 0.000000e+00 1.000000e+00 0.000000e+00 0.000000e+00 0.000000e+00 0.000000e+00
 0.000000e+00 3.464822e-01 6.535178e-01 0.000000e+00 0.000000e+00 0.000000e+00
 0.000000e+00 0.000000e+00 2.826605e-01 7.173395e-01 0.000000e+00 0.000000e+00
 0.000000e+00 0.000000e+00 0.000000e+00 4.715045e-01 5.284954e-01 0.000000e+00
 0.000000e+00 0.000000e+00 0.000000e+00 0.000000e+00 7.496558e-01 2.503442e-01
 0.000000e+00 0.000000e+00 0.000000e+00 0.000000e+00 0.000000e+00 0.000000e+00
<ENDHMM>
