~o
<STREAMINFO> 1 42
<VECSIZE> 42<NULLD><MFCC_D_A_0><DIAGC>
~h "ba"
<BEGINHMM>
<NUMSTATES> 5
<STATE> 2
<MEAN> 42
 -1.271820e+001 1.137014e+001 8.522543e+000 8.144505e+000 4.637481e+000 2.163720e+000 1.309896e+000 -7.415114e-001 -3.362341e+000 -6.235234e+000 -5.673399e+000 -4.160880e+000 -1.430345e+000 6.930963e+001 8.157859e-001 2.599309e-002 -7.193413e-002 -3.808749e-001 -5.029337e-001 -6.654423e-001 -6.827229e-002 8.935821e-002 -2.098280e-001 -2.304511e-001 7.119152e-002 1.318642e-001 3.591953e-001 7.093695e-001 1.500679e-002 -5.504354e-001 -5.285814e-001 -4.756659e-001 -3.185498e-001 -3.730358e-001 -7.881625e-003 1.364850e-001 5.820391e-002 1.118395e-001 2.513044e-001 1.126967e-001 1.356843e-001 2.518748e-001
<VARIANCE> 42
 4.078493e+000 7.475167e+000 7.184435e+000 7.719237e+000 8.395831e+000 1.117381e+001 9.515836e+000 1.437206e+001 1.419216e+001 1.758710e+001 1.318094e+001 1.120641e+001 8.544627e+000 5.904124e+000 1.365781e+000 2.521903e+000 3.027690e+000 2.291744e+000 1.791212e+000 2.647665e+000 1.346249e+000 9.646675e-001 1.514927e+000 1.535467e+000 1.336734e+000 9.252250e-001 9.933805e-001 1.424701e+000 3.162951e-001 2.828012e-001 3.167571e-001 3.484276e-001 2.869855e-001 4.376426e-001 2.841651e-001 2.128746e-001 3.623762e-001 3.411507e-001 3.027508e-001 1.995461e-001 2.460934e-001 3.354292e-001
<GCONST> 9.802581e+001
<STATE> 3
<MEAN> 42
 -3.150835e+000 -2.395261e+000 -4.507335e+000 -6.506562e+000 -6.709102e+000 -1.218933e+001 -2.231658e-001 1.649581e+000 -6.463738e+000 -8.612522e+000 -8.536813e-001 -2.043410e+000 2.828715e+000 8.345321e+001 1.378500e+000 -3.665384e+000 -2.656489e+000 -3.161622e+000 -1.735129e+000 -1.929032e+000 5.317295e-001 1.230983e+000 2.069585e-001 -1.957614e-001 1.065763e+000 -1.542525e-001 -1.274906e-001 2.936527e+000 -6.253567e-001 5.532959e-001 5.886477e-001 6.728698e-001 7.507268e-001 1.238301e+000 4.229325e-001 7.475446e-002 5.248202e-001 1.592708e-001 -3.435855e-001 -1.612897e-001 -4.320124e-001 -7.721571e-001
<VARIANCE> 42
 4.655782e+000 3.898516e+001 4.795448e+001 4.259340e+001 2.030650e+001 2.268847e+001 4.255062e+001 2.816096e+001 3.965946e+001 2.991335e+001 3.600866e+001 1.700320e+001 1.770693e+001 1.864508e+001 1.867812e+000 3.623024e+000 4.328868e+000 4.273257e+000 3.392578e+000 7.831421e+000 3.960492e+000 1.242629e+000 4.331185e+000 2.238492e+000 2.966685e+000 1.585256e+000 3.718637e+000 3.078778e+000 1.022517e-001 7.474153e-001 4.298485e-001 6.100554e-001 3.030308e-001 5.602785e-001 5.280112e-001 3.239723e-001 4.952820e-001 3.145136e-001 5.963679e-001 2.634015e-001 3.613273e-001 3.621724e-001
<GCONST> 1.252988e+002
<STATE> 4
<MEAN> 42
 -3.510950e+000 -8.239943e+000 -1.022274e+001 -1.038353e+001 -5.325993e+000 -7.580040e+000 4.094300e+000 4.583647e+000 -2.294701e+000 -9.168803e+000 -2.218958e+000 -4.286595e+000 -8.644591e-001 8.488099e+001 -4.610871e-001 4.179285e-001 3.697211e-002 3.730291e-001 5.259835e-001 9.466257e-001 3.386291e-001 1.029963e-002 2.376704e-001 9.900218e-002 -4.181474e-001 3.410374e-002 -8.882475e-003 -7.020960e-001 -1.813793e-001 2.082471e-001 1.972558e-001 2.820978e-001 1.411451e-001 1.233573e-001 -1.206565e-002 -2.902144e-002 -7.414585e-002 6.092753e-002 7.305108e-002 1.050150e-001 7.585874e-002 -2.526250e-001
<VARIANCE> 42
 3.786164e+000 1.571846e+001 4.156552e+001 2.912534e+001 2.570189e+001 1.391955e+001 3.240484e+001 2.626206e+001 3.936513e+001 5.741422e+001 3.651857e+001 2.113719e+001 2.741209e+001 6.951810e+000 5.175204e-001 1.391920e+000 1.357356e+000 1.323607e+000 1.021604e+000 1.159362e+000 1.072424e+000 8.472545e-001 1.187638e+000 8.149796e-001 1.441670e+000 8.064808e-001 9.675332e-001 6.454042e-001 5.236888e-002 1.744217e-001 1.380664e-001 1.764958e-001 1.883918e-001 1.979467e-001 1.709397e-001 1.659316e-001 2.302575e-001 1.632790e-001 2.411929e-001 1.312791e-001 1.264756e-001 4.614709e-002
<GCONST> 9.346384e+001
<TRANSP> 5
 0.000000e+000 1.000000e+000 0.000000e+000 0.000000e+000 0.000000e+000
 0.000000e+000 9.085506e-001 9.144939e-002 0.000000e+000 0.000000e+000
 0.000000e+000 0.000000e+000 7.468231e-001 2.531769e-001 0.000000e+000
 0.000000e+000 0.000000e+000 0.000000e+000 9.078944e-001 9.210566e-002
 0.000000e+000 0.000000e+000 0.000000e+000 0.000000e+000 0.000000e+000
<ENDHMM>
~h "be"
<BEGINHMM>
<NUMSTATES> 5
<STATE> 2
<MEAN> 42
 -1.210689e+001 1.061001e+001 7.082037e+000 7.998014e+000 5.765864e+000 2.320952e+000 -1.072596e+000 -5.351131e+000 -7.661418e+000 -8.929877e+000 -5.741875e+000 -3.409224e+000 -9.275746e-002 7.044624e+001 8.263582e-001 -2.653385e-001 -2.045444e-001 8.560114e-002 1.284166e-001 -4.743321e-001 -4.143577e-001 -5.844408e-001 -7.408108e-001 -9.903424e-002 1.859277e-001 1.282446e-001 2.533950e-001 7.641706e-001 -3.042079e-002 -5.895346e-001 -4.207970e-001 -1.173313e-001 -3.625305e-004 -3.442594e-001 -1.991171e-001 -1.071951e-001 2.009680e-002 2.778922e-001 2.800590e-001 5.061396e-002 2.625013e-002 2.358175e-001
<VARIANCE> 42
 7.504476e+000 6.558107e+000 5.381271e+000 5.813480e+000 6.273283e+000 9.356744e+000 1.312813e+001 2.991471e+001 2.305733e+001 2.193586e+001 1.587290e+001 1.486356e+001 8.648499e+000 5.863563e+000 1.283985e+000 3.795879e+000 2.407305e+000 6.726045e-001 6.920703e-001 1.963410e+000 2.412897e+000 2.967584e+000 2.830893e+000 1.655520e+000 1.549550e+000 1.057603e+000 8.835109e-001 1.454967e+000 2.334696e-001 3.644347e-001 2.311295e-001 1.469964e-001 1.430770e-001 4.697922e-001 5.064974e-001 5.752476e-001 5.197681e-001 3.123289e-001 2.481727e-001 2.879642e-001 2.291093e-001 2.911156e-001
<GCONST> 9.987875e+001
<STATE> 3
<MEAN> 42
 -4.281583e+000 -6.348405e+000 -3.241051e+000 6.785790e+000 9.421861e+000 -9.914968e+000 -1.306647e+001 -1.499493e+001 -1.595218e+001 -6.505266e+000 1.207114e+000 -2.358804e+000 1.070501e+000 8.368716e+001 8.247748e-001 -2.786103e+000 -8.925415e-001 3.789589e-001 1.923489e-001 -3.292566e+000 -2.169583e+000 -1.370729e+000 -6.921085e-001 9.356932e-001 7.654007e-001 -8.718818e-001 -3.024133e-001 2.159040e+000 -5.175694e-001 7.899613e-001 7.115886e-001 1.398099e-001 -1.838560e-001 4.841426e-001 5.938874e-001 7.389050e-001 7.215733e-001 -4.079174e-002 -3.716810e-001 -2.788761e-002 -3.409233e-002 -7.066627e-001
<VARIANCE> 42
 4.821768e+000 2.509320e+001 9.862890e+000 2.299384e+001 4.192830e+001 7.282461e+001 3.819713e+001 2.439597e+001 2.612154e+001 5.523337e+001 1.850140e+001 4.208689e+001 1.829810e+001 1.195590e+001 1.510194e+000 5.385712e+000 2.912129e+000 1.442653e+000 1.749476e+000 5.939345e+000 4.458641e+000 4.922533e+000 4.050592e+000 2.833652e+000 1.903438e+000 2.999605e+000 1.201033e+000 3.588416e+000 1.121393e-001 4.717213e-001 2.867517e-001 1.799997e-001 1.425558e-001 6.103006e-001 4.143914e-001 5.708794e-001 3.358878e-001 3.550081e-001 2.466608e-001 3.649543e-001 1.522434e-001 2.621480e-001
<GCONST> 1.186540e+002
<STATE> 4
<MEAN> 42
 -7.322760e+000 -7.467029e+000 1.103172e+000 1.088998e+001 7.227634e+000 -2.137244e+001 -1.516974e+001 -1.020819e+001 -1.143181e+001 -2.230828e+000 -1.566111e+000 -7.969206e+000 -7.306954e-003 8.325495e+001 -6.279576e-001 6.636658e-001 4.702073e-001 2.639358e-001 1.679689e-001 3.900731e-001 1.475256e-001 6.967850e-001 8.703644e-001 1.682799e-001 -3.938153e-001 8.264115e-002 1.139718e-001 -8.100989e-001 -1.274193e-001 1.724535e-001 -5.907309e-002 -6.312923e-002 5.908003e-002 4.356345e-001 2.380777e-001 1.027629e-001 1.029746e-001 2.046308e-002 4.605600e-002 9.946679e-002 -2.046570e-002 -2.302217e-001
<VARIANCE> 42
 4.307580e+000 1.968567e+001 1.684499e+001 1.687440e+001 3.141391e+001 7.880962e+001 1.731414e+001 2.166440e+001 3.755733e+001 2.134161e+001 2.262119e+001 3.018404e+001 1.102089e+001 1.070979e+001 3.858525e-001 9.139037e-001 4.506954e-001 7.285475e-001 5.148174e-001 1.826865e+000 1.601556e+000 1.265271e+000 1.285691e+000 9.445565e-001 7.756184e-001 7.098091e-001 5.880051e-001 6.605949e-001 3.400167e-002 1.328780e-001 1.033205e-001 1.345125e-001 1.198311e-001 1.972512e-001 2.570910e-001 1.952005e-001 2.116884e-001 1.660304e-001 1.770693e-001 1.151732e-001 9.665474e-002 4.034539e-002
<GCONST> 8.694646e+001
<TRANSP> 5
 0.000000e+000 1.000000e+000 0.000000e+000 0.000000e+000 0.000000e+000
 0.000000e+000 9.091502e-001 9.084985e-002 0.000000e+000 0.000000e+000
 0.000000e+000 0.000000e+000 7.707573e-001 2.292427e-001 0.000000e+000
 0.000000e+000 0.000000e+000 0.000000e+000 9.066833e-001 9.331676e-002
 0.000000e+000 0.000000e+000 0.000000e+000 0.000000e+000 0.000000e+000
<ENDHMM>
~h "bi"
<BEGINHMM>
<NUMSTATES> 5
<STATE> 2
<MEAN> 42
 -1.314135e+001 1.117150e+001 8.864632e+000 9.293014e+000 5.933992e+000 2.404116e+000 -1.046570e+000 -4.503442e+000 -5.097591e+000 -6.024739e+000 -4.276850e+000 -2.847580e+000 -7.116197e-001 7.050724e+001 4.492229e-001 -6.153982e-002 1.573617e-001 2.843738e-001 2.985931e-001 -1.533087e-001 -1.694311e-001 -2.042716e-001 -2.754149e-001 -1.722851e-001 4.197901e-002 -2.095589e-002 7.258961e-002 4.606724e-001 -1.201180e-001 -5.795836e-001 -2.859172e-001 5.799743e-002 1.331858e-001 -2.665122e-001 -1.065225e-001 -3.700713e-003 -4.451923e-002 2.802176e-002 5.495100e-002 -8.382091e-002 -1.036653e-002 1.726610e-001
<VARIANCE> 42
 4.574682e+000 8.936644e+000 6.517467e+000 6.918623e+000 1.000337e+001 1.874890e+001 1.627542e+001 1.636142e+001 9.742185e+000 1.056760e+001 7.651311e+000 1.033635e+001 6.214034e+000 5.766549e+000 7.374864e-001 2.709403e+000 1.451737e+000 1.213783e+000 1.214307e+000 1.083676e+000 1.662971e+000 1.802786e+000 1.412210e+000 1.159031e+000 1.020720e+000 1.047132e+000 6.920195e-001 6.711839e-001 1.503968e-001 3.795886e-001 1.697273e-001 4.935028e-001 3.312838e-001 5.389826e-001 4.419489e-001 4.276148e-001 4.117176e-001 2.671841e-001 2.930446e-001 3.039108e-001 1.786776e-001 2.082812e-001
<GCONST> 9.388762e+001
<STATE> 3
<MEAN> 42
 -1.032993e+001 -4.184178e+000 5.832153e+000 1.712543e+001 1.248163e+001 -8.713502e+000 -8.357918e+000 -8.571125e+000 -1.165298e+001 -8.597362e+000 -5.516946e+000 -8.015154e+000 -2.080906e+000 8.072552e+001 4.505896e-001 -3.414261e+000 8.955922e-001 2.889611e+000 1.023510e+000 -4.553508e+000 -2.369037e+000 -7.205921e-001 -1.857916e+000 -1.097602e+000 -8.350707e-001 -1.646763e+000 -3.199315e-001 2.392329e+000 -2.720200e-001 8.443597e-001 5.794062e-001 -2.901378e-001 -6.421992e-001 1.367437e-001 4.445258e-001 6.280338e-001 4.434730e-001 4.097476e-002 2.889445e-002 3.654387e-001 7.024880e-002 -5.192232e-001
<VARIANCE> 42
 6.998361e+000 5.235280e+001 2.275425e+001 4.777500e+001 5.071251e+001 1.489048e+002 4.396434e+001 5.114348e+001 3.947743e+001 3.002986e+001 3.790673e+001 3.770744e+001 1.481595e+001 2.492128e+001 7.741350e-001 6.072243e+000 3.262569e+000 3.138544e+000 4.765381e+000 6.311185e+000 4.285973e+000 6.554481e+000 3.649366e+000 2.908492e+000 3.586298e+000 4.000568e+000 1.725904e+000 2.038481e+000 8.540846e-002 9.658070e-001 4.194710e-001 9.158594e-001 3.320579e-001 2.052029e+000 8.890071e-001 7.467166e-001 5.966685e-001 4.714423e-001 6.502307e-001 8.016186e-001 2.046728e-001 4.536411e-001
<GCONST> 1.353427e+002
<STATE> 4
<MEAN> 42
 -1.222561e+001 -5.421742e+000 1.235880e+001 2.178996e+001 9.914627e+000 -1.935503e+001 -9.871827e+000 -2.867905e+000 -1.418893e+001 -1.228275e+001 -7.397632e+000 -8.975513e+000 -1.427055e+000 8.106822e+001 -4.007561e-001 6.708694e-001 8.307534e-002 -2.740567e-001 -2.632574e-001 6.949330e-001 4.325270e-001 3.019843e-001 4.017916e-001 1.590039e-001 -1.264673e-001 2.064939e-001 1.444011e-001 -6.919199e-001 -7.381994e-002 8.049568e-002 -2.315672e-001 -2.456619e-001 -1.630721e-002 4.287640e-001 1.863213e-001 -3.969868e-002 1.650990e-001 1.650214e-001 9.817159e-002 6.587973e-002 4.126506e-003 -1.653259e-001
<VARIANCE> 42
 4.330048e+000 2.425371e+001 1.439124e+001 2.789085e+001 6.263248e+001 1.152923e+002 2.568952e+001 4.412291e+001 2.829289e+001 3.135670e+001 2.440154e+001 1.771412e+001 2.225673e+001 8.897043e+000 1.927704e-001 8.670229e-001 6.890309e-001 1.263448e+000 9.017874e-001 2.399450e+000 1.529312e+000 1.428786e+000 1.326856e+000 1.237846e+000 9.202271e-001 9.726635e-001 7.501550e-001 4.522788e-001 3.055794e-002 1.700498e-001 1.259859e-001 2.449159e-001 1.542124e-001 3.085890e-001 2.819013e-001 2.276300e-001 2.045763e-001 2.022398e-001 2.047637e-001 1.976859e-001 1.242090e-001 4.656777e-002
<GCONST> 9.475911e+001
<TRANSP> 5
 0.000000e+000 1.000000e+000 0.000000e+000 0.000000e+000 0.000000e+000
 0.000000e+000 9.027249e-001 9.727515e-002 0.000000e+000 0.000000e+000
 0.000000e+000 0.000000e+000 7.604742e-001 2.395258e-001 0.000000e+000
 0.000000e+000 0.000000e+000 0.000000e+000 9.222298e-001 7.777022e-002
 0.000000e+000 0.000000e+000 0.000000e+000 0.000000e+000 0.000000e+000
<ENDHMM>
~h "bo"
<BEGINHMM>
<NUMSTATES> 5
<STATE> 2
<MEAN> 42
 -1.259421e+001 1.055541e+001 7.363091e+000 7.111439e+000 3.202052e+000 8.024964e-001 7.661273e-002 -9.950288e-001 -1.817893e+000 -5.167711e+000 -5.714579e+000 -5.928119e+000 -3.593576e+000 7.025578e+001 1.015450e+000 6.134897e-002 1.370131e-002 -4.479843e-001 -8.829358e-001 -1.234012e+000 -4.850679e-001 6.258007e-003 -1.814303e-001 -2.580937e-001 -1.579672e-001 -1.555901e-001 7.651032e-003 8.735473e-001 1.254289e-002 -3.751222e-001 -3.186221e-001 -3.342293e-001 -3.895146e-001 -4.557211e-001 -9.727196e-002 1.520914e-001 3.711997e-002 3.187655e-002 5.880025e-002 7.827086e-002 1.456345e-001 1.765292e-001
<VARIANCE> 42
 1.019697e+001 1.033077e+001 8.287331e+000 1.558882e+001 1.287781e+001 1.740424e+001 9.441323e+000 1.229454e+001 1.319198e+001 2.239791e+001 2.107348e+001 1.337382e+001 6.088517e+000 8.655227e+000 1.429316e+000 2.919913e+000 2.151460e+000 1.947625e+000 2.719856e+000 4.052140e+000 1.820090e+000 1.768587e+000 1.610712e+000 1.763426e+000 1.988348e+000 1.283345e+000 8.314313e-001 1.407893e+000 2.279628e-001 2.704075e-001 2.874667e-001 2.426113e-001 3.512940e-001 5.267311e-001 2.825060e-001 3.043501e-001 3.444253e-001 3.807367e-001 4.526428e-001 2.691835e-001 1.594364e-001 1.742733e-001
<GCONST> 1.034289e+002
<STATE> 3
<MEAN> 42
 -3.512275e+000 2.408694e+000 2.518752e+000 -2.345347e+000 -1.379966e+001 -2.334141e+001 -5.779216e+000 4.781004e+000 -4.940755e+000 -7.840306e+000 -6.094101e+000 -6.490030e+000 -1.224158e+000 8.108423e+001 1.421065e-001 4.756038e-002 6.495631e-002 -3.676740e-001 -8.097638e-001 -9.055095e-001 -3.536213e-001 3.597150e-001 1.720618e-001 5.358152e-002 1.513164e-001 1.502996e-001 1.971497e-001 1.439061e-001 -2.529106e-001 2.602811e-001 1.350476e-001 1.845944e-001 3.267612e-001 5.308741e-001 1.814508e-001 -1.086311e-001 1.068556e-001 1.162786e-001 1.050012e-001 8.630792e-002 -6.063271e-002 -3.207275e-001
<VARIANCE> 42
 2.026872e+000 1.226859e+001 2.400253e+001 1.644082e+001 2.278138e+001 4.543695e+001 6.073302e+001 4.896438e+001 4.517136e+001 2.586832e+001 2.530441e+001 1.091115e+001 3.074578e+001 3.658472e+000 7.758173e-001 1.286665e+000 7.247738e-001 1.084153e+000 2.095538e+000 5.027287e+000 1.807294e+000 1.101715e+000 1.236329e+000 1.102974e+000 8.927045e-001 5.093451e-001 7.266158e-001 1.303425e+000 8.340698e-002 9.707771e-002 1.146623e-001 1.598366e-001 2.076246e-001 3.870848e-001 2.229909e-001 1.920177e-001 1.853487e-001 1.923383e-001 1.632475e-001 9.299666e-002 9.430672e-002 7.848057e-002
<GCONST> 9.408198e+001
<STATE> 4
<MEAN> 42
 -7.804411e+000 9.532844e+000 6.130078e+000 -1.638418e+000 -1.174144e+001 -1.599299e+001 -6.825293e+000 3.366552e+000 -3.018644e-001 -6.218649e+000 -4.476993e+000 -2.584996e+000 -7.888558e-001 7.546216e+001 -1.436932e+000 2.616748e-001 -5.409598e-002 7.321673e-001 1.888780e+000 2.800972e+000 1.224578e+000 -3.706045e-001 3.638621e-001 4.996881e-001 2.819293e-001 3.241326e-001 -2.546597e-001 -1.474914e+000 -2.391799e-001 -5.129688e-001 -3.148873e-001 1.602752e-001 3.941269e-001 3.758986e-001 2.916240e-001 9.269246e-002 2.993627e-002 1.543186e-001 9.471463e-002 -4.227614e-002 -1.534151e-002 -8.845993e-002
<VARIANCE> 42
 7.466472e+000 4.714309e+000 2.323870e+001 1.175875e+001 2.097553e+001 3.117013e+001 4.996593e+001 2.719556e+001 2.595362e+001 1.962005e+001 1.163525e+001 3.462153e+001 2.241146e+001 1.628447e+001 6.377591e-001 1.351908e+000 1.013679e+000 9.957334e-001 1.979947e+000 4.180786e+000 2.386832e+000 2.692695e+000 1.642476e+000 1.180160e+000 1.329541e+000 1.047224e+000 1.011363e+000 4.357261e-001 4.584492e-002 1.182537e-001 1.501985e-001 1.714350e-001 2.602356e-001 3.228306e-001 2.599916e-001 3.106425e-001 2.594852e-001 2.615800e-001 2.310901e-001 1.778831e-001 1.579808e-001 3.571022e-002
<GCONST> 9.727013e+001
<TRANSP> 5
 0.000000e+000 1.000000e+000 0.000000e+000 0.000000e+000 0.000000e+000
 0.000000e+000 9.065693e-001 9.343074e-002 0.000000e+000 0.000000e+000
 0.000000e+000 0.000000e+000 9.179274e-001 8.207258e-002 0.000000e+000
 0.000000e+000 0.000000e+000 0.000000e+000 7.967700e-001 2.032300e-001
 0.000000e+000 0.000000e+000 0.000000e+000 0.000000e+000 0.000000e+000
<ENDHMM>
~h "bu"
<BEGINHMM>
<NUMSTATES> 5
<STATE> 2
<MEAN> 42
 -1.117419e+001 1.092197e+001 8.269953e+000 6.156600e+000 2.165392e+000 -2.534297e+000 -2.301097e+000 -2.715649e+000 -2.971940e+000 -5.316558e+000 -4.578429e+000 -4.977788e+000 -3.356558e+000 7.166976e+001 1.039722e+000 3.387901e-001 4.791029e-001 -4.746777e-001 -1.041287e+000 -1.696115e+000 -9.915078e-001 -8.786414e-002 -4.197658e-001 -6.199092e-001 -2.989244e-001 -2.763693e-001 -1.439923e-001 9.435844e-001 -1.474690e-001 -1.621967e-001 -1.416516e-001 -1.334944e-001 -1.592754e-001 -2.116945e-001 -7.189235e-002 1.440655e-001 5.032766e-002 1.350250e-002 8.917126e-002 1.029476e-001 4.293498e-002 -5.857541e-002
<VARIANCE> 42
 1.407993e+001 1.676388e+001 1.771735e+001 2.878058e+001 3.696010e+001 5.504562e+001 2.236878e+001 1.408248e+001 2.074073e+001 2.449031e+001 1.574875e+001 1.357828e+001 9.236243e+000 2.248032e+001 1.058321e+000 2.786203e+000 3.196442e+000 3.378334e+000 3.562239e+000 4.912143e+000 2.473147e+000 1.685141e+000 2.278778e+000 1.932296e+000 1.717362e+000 1.784752e+000 1.210053e+000 1.155151e+000 2.208029e-001 4.722305e-001 5.828811e-001 6.726611e-001 7.370217e-001 7.155340e-001 4.185070e-001 2.288328e-001 4.099678e-001 3.159696e-001 3.556411e-001 3.270126e-001 2.382088e-001 2.560137e-001
<GCONST> 1.167033e+002
<STATE> 3
<MEAN> 42
 -6.393075e+000 1.063913e+001 9.902914e+000 2.240625e+000 -8.379613e+000 -2.016836e+001 -1.065882e+001 -7.888656e-001 -7.725482e+000 -1.167677e+001 -4.963459e+000 -5.914592e+000 -5.933245e+000 7.662854e+001 -1.544361e-001 3.141751e-001 2.172900e-001 2.006400e-001 -3.962763e-002 6.569195e-002 -2.081472e-001 -1.292234e-001 1.270677e-001 2.270740e-001 2.373165e-001 -5.263226e-003 -1.159319e-001 -2.861993e-001 -1.067865e-001 2.273566e-003 -1.241656e-001 3.661547e-003 1.593664e-001 3.760848e-001 2.089534e-001 -1.031096e-001 9.179412e-002 1.728936e-001 3.061861e-002 2.868296e-002 7.431948e-002 -1.217605e-001
<VARIANCE> 42
 1.203869e+000 7.732923e+000 1.938116e+001 2.508647e+001 2.326567e+001 5.533523e+001 3.009406e+001 3.480282e+001 5.385584e+001 3.623728e+001 2.190024e+001 2.440309e+001 1.640346e+001 6.880035e+000 9.409496e-002 3.263890e-001 4.190045e-001 4.459407e-001 4.278188e-001 9.556659e-001 9.659711e-001 8.050168e-001 1.243051e+000 1.093672e+000 8.604413e-001 5.382499e-001 7.794640e-001 1.511091e-001 3.227199e-002 7.485282e-002 8.357663e-002 9.213526e-002 1.115210e-001 2.960584e-001 2.461544e-001 1.832740e-001 2.907533e-001 1.788361e-001 2.173347e-001 1.316039e-001 1.653138e-001 2.312599e-002
<GCONST> 7.991949e+001
<STATE> 4
<MEAN> 42
 -1.035624e+001 1.267930e+001 9.533765e+000 3.892686e+000 -4.343967e+000 -1.029556e+001 -9.537407e+000 -5.543032e+000 -3.933517e+000 -6.439207e+000 -4.164295e+000 -5.224437e+000 -4.198763e+000 7.159134e+001 -1.363796e+000 -9.579043e-001 -1.174991e+000 3.173488e-001 1.445717e+000 2.529424e+000 1.731911e+000 4.197831e-002 4.942584e-001 9.558927e-001 2.569890e-001 4.852348e-001 4.528010e-001 -1.161520e+000 -2.153821e-001 -5.027989e-001 -3.601573e-001 -1.471591e-001 1.294048e-001 2.749359e-001 3.861733e-001 4.099846e-001 1.087035e-001 1.294427e-001 1.114298e-001 9.195503e-002 1.010429e-001 -5.805491e-002
<VARIANCE> 42
 7.672963e+000 9.310555e+000 1.890026e+001 1.871151e+001 2.790257e+001 3.099155e+001 2.341918e+001 3.211150e+001 3.480148e+001 2.648741e+001 1.156570e+001 1.463958e+001 1.332977e+001 1.363582e+001 2.850696e-001 1.913832e+000 1.465816e+000 1.415866e+000 1.433352e+000 2.613620e+000 2.809891e+000 3.109815e+000 2.232840e+000 1.607128e+000 1.584499e+000 9.455132e-001 7.926160e-001 3.421557e-001 3.842425e-002 2.061033e-001 1.758541e-001 2.875207e-001 2.872107e-001 4.173378e-001 3.469253e-001 3.861895e-001 3.192911e-001 2.276955e-001 2.435075e-001 1.490968e-001 1.291300e-001 6.175481e-002
<GCONST> 9.914063e+001
<TRANSP> 5
 0.000000e+000 1.000000e+000 0.000000e+000 0.000000e+000 0.000000e+000
 0.000000e+000 9.102702e-001 8.972980e-002 0.000000e+000 0.000000e+000
 0.000000e+000 0.000000e+000 9.033322e-001 9.666777e-002 0.000000e+000
 0.000000e+000 0.000000e+000 0.000000e+000 7.964984e-001 2.035016e-001
 0.000000e+000 0.000000e+000 0.000000e+000 0.000000e+000 0.000000e+000
<ENDHMM>
~h "da"
<BEGINHMM>
<NUMSTATES> 5
<STATE> 2
<MEAN> 42
 -1.284641e+001 1.033532e+001 8.077231e+000 9.376139e+000 6.500296e+000 1.535746e+000 -3.146777e+000 -6.525748e+000 -6.328578e+000 -5.923026e+000 -3.634625e+000 -2.681658e+000 -1.148371e+000 6.940398e+001 5.901625e-001 -2.819100e-001 -3.115603e-002 -1.304653e-001 -6.211951e-002 -3.784152e-001 -9.815612e-002 -2.803778e-001 -3.312790e-001 -9.583165e-002 2.140547e-001 2.154199e-001 1.760944e-001 6.692580e-001 -5.657067e-002 -5.451496e-001 -4.426054e-001 -3.976400e-001 -1.902294e-001 -2.633720e-001 9.471412e-002 9.814039e-002 7.048419e-002 5.894477e-002 2.164417e-001 1.310741e-001 8.825400e-002 2.505098e-001
<VARIANCE> 42
 5.648787e+000 9.694293e+000 1.360244e+001 6.150079e+000 8.880782e+000 2.188739e+001 2.023659e+001 1.687688e+001 1.100097e+001 1.038030e+001 1.806245e+001 1.130249e+001 7.514153e+000 1.216530e+001 1.324800e+000 3.891057e+000 2.438235e+000 2.125908e+000 8.901733e-001 1.890320e+000 2.038517e+000 1.994573e+000 1.779961e+000 1.389802e+000 1.276495e+000 8.879890e-001 7.679553e-001 1.783158e+000 3.000558e-001 2.518315e-001 2.463515e-001 2.660684e-001 1.995531e-001 5.181865e-001 3.909460e-001 3.699726e-001 3.917045e-001 3.318872e-001 2.733868e-001 2.023056e-001 2.724569e-001 3.844788e-001
<GCONST> 1.011482e+002
<STATE> 3
<MEAN> 42
 -5.409262e+000 -6.461910e+000 -4.076025e+000 -2.833734e+000 -3.896347e-001 -1.046996e+001 -2.248936e+000 -7.172109e+000 -9.390900e+000 -7.207697e+000 2.607562e+000 1.482317e+000 1.086785e+000 8.441682e+001 1.634966e+000 -2.490731e+000 -2.654360e+000 -2.290339e+000 -1.580225e+000 -1.806247e+000 2.582629e-001 9.111338e-001 1.088227e-001 -2.176068e-001 9.235408e-001 3.395636e-001 1.635039e-001 2.380718e+000 -2.745647e-001 6.265895e-001 2.585604e-001 3.503124e-001 1.659575e-001 9.291275e-001 2.684728e-001 6.088117e-001 5.722470e-001 6.545752e-002 -3.807598e-001 -2.532982e-001 -1.438228e-001 -7.109321e-001
<VARIANCE> 42
 1.119467e+001 1.373596e+001 3.748360e+001 3.884796e+001 2.288821e+001 6.877041e+001 2.573917e+001 3.431584e+001 3.275240e+001 3.283388e+001 5.812619e+001 2.779693e+001 5.039358e+001 1.831360e+001 1.079778e+000 2.640319e+000 2.170734e+000 2.820229e+000 1.746619e+000 9.168382e+000 3.624775e+000 6.953112e+000 4.668982e+000 3.777366e+000 3.873401e+000 3.315326e+000 3.578667e+000 3.560291e+000 1.861042e-001 1.700292e-001 3.230832e-001 3.379484e-001 3.204439e-001 1.192393e+000 4.473548e-001 8.517281e-001 5.985758e-001 8.179852e-001 8.134319e-001 4.856569e-001 4.107948e-001 2.630796e-001
<GCONST> 1.302151e+002
<STATE> 4
<MEAN> 42
 -2.627651e+000 -9.989210e+000 -1.211103e+001 -8.603415e+000 -4.306023e+000 -5.840108e+000 2.152427e+000 2.218354e+000 -3.541556e+000 -1.027982e+001 -2.507967e-001 -2.225859e+000 -7.295198e-001 8.452611e+001 -4.320381e-001 6.512843e-001 2.197966e-001 1.024591e-001 2.209154e-001 1.045590e+000 3.805746e-001 3.943004e-001 3.494314e-001 -1.321126e-001 -7.151229e-001 -1.696535e-001 1.026737e-001 -7.864780e-001 -2.175130e-001 1.565838e-001 2.404657e-001 2.531627e-001 2.232807e-001 3.432520e-002 -8.935690e-003 -1.685531e-001 -1.153745e-001 1.365295e-001 9.273814e-002 6.527452e-002 1.122625e-002 -1.951213e-001
<VARIANCE> 42
 3.887520e+000 2.997605e+001 2.774666e+001 3.167417e+001 2.361490e+001 2.465506e+001 3.470858e+001 2.200334e+001 2.180507e+001 3.672064e+001 3.070461e+001 2.802116e+001 4.706082e+001 9.950440e+000 6.448881e-001 1.164924e+000 1.468355e+000 1.445348e+000 1.808327e+000 1.192551e+000 1.209746e+000 1.152233e+000 1.136778e+000 1.360879e+000 1.392650e+000 6.552154e-001 6.977338e-001 5.761254e-001 4.423317e-002 1.327747e-001 1.505764e-001 1.766400e-001 2.452279e-001 1.698052e-001 1.985453e-001 2.147799e-001 1.807854e-001 2.292874e-001 2.032059e-001 1.354854e-001 9.437273e-002 2.505580e-002
<GCONST> 9.440439e+001
<TRANSP> 5
 0.000000e+000 1.000000e+000 0.000000e+000 0.000000e+000 0.000000e+000
 0.000000e+000 9.116589e-001 8.834114e-002 0.000000e+000 0.000000e+000
 0.000000e+000 0.000000e+000 8.038136e-001 1.961863e-001 0.000000e+000
 0.000000e+000 0.000000e+000 0.000000e+000 9.132908e-001 8.670919e-002
 0.000000e+000 0.000000e+000 0.000000e+000 0.000000e+000 0.000000e+000
<ENDHMM>
~h "de"
<BEGINHMM>
<NUMSTATES> 5
<STATE> 2
<MEAN> 42
 -1.308868e+001 1.045771e+001 9.469509e+000 1.043667e+001 6.492819e+000 4.264704e-001 -4.266157e+000 -6.693263e+000 -5.826039e+000 -5.669849e+000 -4.021512e+000 -3.643632e+000 -2.228518e+000 7.011938e+001 4.520462e-001 -4.043312e-001 -6.899264e-002 -4.291191e-002 1.210346e-001 -1.893921e-001 -1.053795e-001 -2.819211e-001 -2.038339e-001 -5.922031e-002 2.146396e-001 8.700716e-002 6.988954e-002 6.612669e-001 -6.773553e-002 -5.644133e-001 -3.930219e-001 -2.409411e-001 -2.855304e-002 -2.392779e-001 -4.638925e-003 1.844801e-002 -2.244342e-002 2.815994e-002 1.439474e-001 2.061523e-002 5.423995e-002 2.389151e-001
<VARIANCE> 42
 5.361448e+000 7.767032e+000 6.902502e+000 5.935103e+000 9.252408e+000 1.909546e+001 2.113441e+001 1.406667e+001 9.999839e+000 1.404217e+001 1.466404e+001 8.736761e+000 8.516134e+000 5.468011e+000 6.913082e-001 3.628765e+000 2.097111e+000 1.378224e+000 8.537593e-001 1.279484e+000 1.763576e+000 1.861482e+000 1.645517e+000 1.182362e+000 1.011921e+000 5.837364e-001 7.549804e-001 1.324414e+000 1.910437e-001 3.656073e-001 2.427424e-001 2.117762e-001 2.156996e-001 5.455764e-001 5.048022e-001 5.029101e-001 5.740449e-001 2.999025e-001 2.442941e-001 1.642380e-001 1.863551e-001 3.185021e-001
<GCONST> 9.559785e+001
<STATE> 3
<MEAN> 42
 -8.284091e+000 -5.806587e+000 1.211405e+000 6.532955e+000 8.701982e+000 -9.281557e+000 -8.928330e+000 -1.190901e+001 -1.261417e+001 -7.678060e+000 -6.979489e-001 -4.956479e+000 -2.191536e+000 8.298933e+001 1.514333e+000 -3.004921e+000 -1.485676e+000 4.116170e-001 8.168945e-001 -4.317755e+000 -2.706433e+000 -1.831690e+000 -1.996962e+000 -4.201648e-001 4.216239e-001 -9.723195e-001 1.005302e-001 2.799721e+000 -2.266169e-001 7.229728e-001 3.910918e-001 4.756118e-001 -1.453689e-001 4.191787e-002 2.196402e-001 4.020230e-001 6.027415e-001 4.054235e-001 -8.998775e-002 5.036299e-002 8.866680e-002 -6.529173e-001
<VARIANCE> 42
 9.600465e+000 1.476119e+001 1.894876e+001 1.803885e+001 2.820097e+001 1.072910e+002 4.931594e+001 4.042178e+001 5.249473e+001 3.862313e+001 2.486631e+001 1.658520e+001 2.445847e+001 1.392560e+001 6.554182e-001 3.826621e+000 1.601140e+000 2.061527e+000 3.156577e+000 5.422312e+000 3.823905e+000 4.229752e+000 4.625299e+000 4.953802e+000 3.062223e+000 1.789259e+000 2.840373e+000 2.122802e+000 1.997991e-001 3.116405e-001 2.068249e-001 2.568693e-001 4.844607e-001 1.258228e+000 1.036255e+000 6.299259e-001 7.910850e-001 4.950022e-001 4.261859e-001 1.868232e-001 3.050152e-001 2.683697e-001
<GCONST> 1.248214e+002
<STATE> 4
<MEAN> 42
 -7.202240e+000 -8.905286e+000 1.735185e-001 1.139485e+001 8.457573e+000 -2.135765e+001 -1.385556e+001 -1.111642e+001 -1.233266e+001 -4.515982e+000 -1.631644e+000 -6.804841e+000 7.508699e-002 8.396182e+001 -4.170310e-001 6.237326e-001 3.052388e-001 2.966169e-001 2.887308e-003 4.822928e-001 1.599063e-001 5.033177e-001 7.247838e-001 4.212570e-001 -2.885180e-001 1.403102e-001 1.744208e-001 -7.389125e-001 -1.534679e-001 1.943843e-001 5.342542e-002 -9.154538e-002 3.022711e-002 4.951393e-001 2.421703e-001 1.710740e-001 1.636230e-001 2.906371e-002 9.767107e-003 3.293122e-002 -7.136511e-002 -2.271090e-001
<VARIANCE> 42
 4.274536e+000 2.253439e+001 1.586722e+001 2.478041e+001 5.016688e+001 9.969510e+001 1.555197e+001 3.284213e+001 4.261696e+001 5.448308e+001 2.302002e+001 3.261903e+001 2.623583e+001 1.093832e+001 3.033994e-001 1.504021e+000 5.602407e-001 9.185299e-001 1.076538e+000 3.059254e+000 1.394030e+000 1.381368e+000 1.533162e+000 9.234350e-001 7.722934e-001 5.516642e-001 8.025842e-001 6.652067e-001 3.659363e-002 1.885650e-001 1.149338e-001 1.401249e-001 2.034522e-001 2.604918e-001 2.983378e-001 2.383572e-001 2.831449e-001 2.104880e-001 1.611372e-001 1.336703e-001 1.162196e-001 4.149357e-002
<GCONST> 9.510384e+001
<TRANSP> 5
 0.000000e+000 1.000000e+000 0.000000e+000 0.000000e+000 0.000000e+000
 0.000000e+000 9.082332e-001 9.176683e-002 0.000000e+000 0.000000e+000
 0.000000e+000 0.000000e+000 7.453730e-001 2.546271e-001 0.000000e+000
 0.000000e+000 0.000000e+000 0.000000e+000 9.209797e-001 7.902031e-002
 0.000000e+000 0.000000e+000 0.000000e+000 0.000000e+000 0.000000e+000
<ENDHMM>
~h "di"
<BEGINHMM>
<NUMSTATES> 5
<STATE> 2
<MEAN> 42
 -1.314558e+001 1.109911e+001 9.855090e+000 1.060607e+001 6.387600e+000 8.194654e-001 -3.718159e+000 -6.915454e+000 -5.404167e+000 -4.970311e+000 -2.105253e+000 -1.879839e+000 -1.824347e+000 7.106367e+001 3.195500e-001 -4.095724e-001 8.296840e-002 -4.689724e-002 1.938079e-001 -2.693599e-001 -1.589131e-001 -1.873864e-001 1.283409e-002 -1.151616e-001 2.663443e-002 -1.185656e-001 9.887172e-003 6.540164e-001 -1.982978e-001 -6.465577e-001 -3.058836e-001 -1.913328e-001 6.448614e-002 -1.950191e-001 -1.735982e-002 1.720914e-001 1.356725e-001 -1.476328e-002 -3.206658e-002 -1.704867e-001 -1.024458e-002 2.032332e-001
<VARIANCE> 42
 5.284739e+000 8.748673e+000 4.899758e+000 6.032362e+000 8.552625e+000 2.237419e+001 1.944950e+001 2.055584e+001 8.843734e+000 9.757734e+000 7.931134e+000 8.899213e+000 7.158296e+000 5.015186e+000 6.776483e-001 3.636768e+000 1.632457e+000 1.755074e+000 7.329671e-001 1.152503e+000 2.044456e+000 2.295839e+000 1.371170e+000 1.051813e+000 1.375487e+000 1.532791e+000 6.959172e-001 1.029422e+000 1.188125e-001 3.146445e-001 2.359915e-001 3.686806e-001 2.627356e-001 4.368770e-001 6.279345e-001 4.640575e-001 4.241028e-001 3.624643e-001 3.242663e-001 3.502589e-001 1.795119e-001 2.289724e-001
<GCONST> 9.569628e+001
<STATE> 3
<MEAN> 42
 -1.255925e+001 -5.819322e+000 7.832844e+000 1.283148e+001 1.156686e+001 -8.014037e+000 -9.959466e+000 -7.352210e+000 -7.311575e+000 -8.590364e+000 -6.005924e+000 -8.664414e+000 -3.389852e+000 8.252351e+001 5.652492e-001 -2.438168e+000 7.037866e-001 2.407300e+000 1.196633e+000 -3.334770e+000 -2.768369e+000 -2.661900e-001 -1.496782e+000 -1.665118e+000 -1.121603e+000 -1.200595e+000 -2.498880e-001 1.744631e+000 -2.201630e-002 7.868912e-001 2.400437e-001 2.388347e-001 -3.743566e-001 5.244449e-002 3.374589e-001 3.122781e-001 -1.520172e-002 3.752352e-002 1.876137e-001 4.273304e-001 9.587158e-002 -5.547279e-001
<VARIANCE> 42
 1.298418e+001 1.835591e+001 3.107951e+001 5.537226e+001 4.830510e+001 1.215459e+002 7.850581e+001 5.274350e+001 5.356345e+001 5.448670e+001 3.829160e+001 2.126871e+001 2.097075e+001 9.017496e+000 9.239124e-001 4.887669e+000 2.244611e+000 3.463952e+000 3.480445e+000 6.441594e+000 4.245358e+000 4.809849e+000 3.212491e+000 4.943468e+000 3.568136e+000 2.356318e+000 1.832645e+000 1.961553e+000 1.961206e-001 4.408219e-001 4.145554e-001 1.310647e+000 5.442923e-001 1.180010e+000 1.506603e+000 4.813176e-001 7.998970e-001 8.638339e-001 7.151672e-001 3.164177e-001 2.851806e-001 1.632515e-001
<GCONST> 1.341589e+002
<STATE> 4
<MEAN> 42
 -1.219531e+001 -4.608358e+000 1.166489e+001 2.075198e+001 1.138244e+001 -1.935297e+001 -1.321694e+001 -2.086323e+000 -1.171225e+001 -1.476497e+001 -7.941515e+000 -8.383395e+000 -2.896837e+000 8.046959e+001 -3.126761e-001 8.205435e-001 6.270366e-002 -7.178990e-002 -1.710022e-001 5.534947e-001 5.551927e-001 3.100234e-001 2.950187e-001 2.156847e-001 -9.371168e-002 1.571619e-001 1.561268e-001 -7.178949e-001 -7.537786e-002 4.960804e-002 -1.447520e-001 -2.403865e-001 -2.623970e-002 3.763665e-001 1.991774e-001 -1.993254e-002 1.699827e-001 2.005834e-001 4.402354e-002 5.766703e-003 -1.320105e-002 -1.164369e-001
<VARIANCE> 42
 3.891018e+000 2.999254e+001 1.485258e+001 2.126956e+001 5.234333e+001 1.283486e+002 2.093510e+001 6.388035e+001 2.138873e+001 4.228687e+001 2.342445e+001 1.085590e+001 2.570038e+001 1.255022e+001 1.655693e-001 9.480515e-001 6.862758e-001 1.079235e+000 8.407327e-001 2.245750e+000 1.007927e+000 1.182574e+000 1.144740e+000 9.415466e-001 7.790495e-001 7.259429e-001 8.005703e-001 3.154792e-001 2.063766e-002 1.740893e-001 1.255082e-001 1.425102e-001 1.825044e-001 2.555088e-001 2.341821e-001 2.046544e-001 1.919134e-001 1.816937e-001 1.724643e-001 1.190425e-001 1.178818e-001 2.214359e-002
<GCONST> 8.968071e+001
<TRANSP> 5
 0.000000e+000 1.000000e+000 0.000000e+000 0.000000e+000 0.000000e+000
 0.000000e+000 8.972653e-001 1.027347e-001 0.000000e+000 0.000000e+000
 0.000000e+000 0.000000e+000 7.946093e-001 2.053906e-001 0.000000e+000
 0.000000e+000 0.000000e+000 0.000000e+000 9.290869e-001 7.091308e-002
 0.000000e+000 0.000000e+000 0.000000e+000 0.000000e+000 0.000000e+000
<ENDHMM>
~h "do"
<BEGINHMM>
<NUMSTATES> 5
<STATE> 2
<MEAN> 42
 -1.313877e+001 1.050275e+001 9.006146e+000 1.011894e+001 5.920053e+000 5.344821e-001 -3.014548e+000 -5.688074e+000 -6.081036e+000 -6.432542e+000 -3.742282e+000 -2.896621e+000 -1.309905e+000 6.997710e+001 4.786280e-001 -3.938830e-001 9.610017e-002 -7.802353e-003 -2.702175e-002 -2.546796e-001 1.898956e-001 -2.764961e-002 -2.958883e-001 -3.848533e-002 1.684200e-001 9.821446e-002 1.174514e-001 6.637772e-001 -6.543972e-002 -5.540062e-001 -3.782143e-001 -3.661352e-001 -1.830821e-001 -1.770368e-001 1.065927e-001 1.640279e-001 -3.782130e-002 -8.399299e-002 6.856046e-002 6.557148e-002 1.390473e-001 2.189386e-001
<VARIANCE> 42
 4.417026e+000 6.944745e+000 8.246612e+000 8.005664e+000 9.313802e+000 1.879349e+001 1.893563e+001 1.677629e+001 1.425208e+001 1.706073e+001 1.271532e+001 8.375447e+000 6.484612e+000 8.093205e+000 8.985646e-001 4.325395e+000 2.173770e+000 1.405764e+000 7.801373e-001 1.400087e+000 1.729906e+000 1.945253e+000 1.575076e+000 1.547608e+000 1.083178e+000 9.409704e-001 6.715630e-001 1.324167e+000 2.518337e-001 2.994364e-001 1.649489e-001 1.756156e-001 2.003266e-001 4.311354e-001 3.704220e-001 3.103945e-001 5.251654e-001 5.704000e-001 3.061606e-001 2.613236e-001 1.850148e-001 3.042878e-001
<GCONST> 9.707475e+001
<STATE> 3
<MEAN> 42
 -6.837950e+000 -3.545036e+000 2.701476e+000 2.169882e-001 -5.706509e-001 -7.400341e+000 -3.446561e+000 -2.693146e+000 -1.147589e+001 -1.399649e+001 -5.291740e+000 -2.625407e+000 2.991304e+000 8.270985e+001 1.577017e+000 -9.403564e-001 -6.990988e-001 -2.099383e+000 -2.460125e+000 -2.287844e+000 -1.028654e+000 8.271917e-001 -7.375808e-001 -1.810726e+000 -1.038971e+000 -2.678266e-001 9.872115e-001 1.801114e+000 -2.222528e-001 8.684416e-001 3.741226e-001 3.035620e-001 -2.179212e-001 1.445846e-001 8.813690e-002 3.157454e-001 7.530462e-001 6.051344e-001 3.689255e-002 -1.016887e-001 -3.052317e-001 -6.598417e-001
<VARIANCE> 42
 1.366172e+001 1.499440e+001 2.853104e+001 3.298855e+001 4.952967e+001 5.916739e+001 4.090879e+001 4.471564e+001 1.193297e+002 6.194115e+001 3.475405e+001 2.144041e+001 2.611706e+001 1.327446e+001 9.872320e-001 5.488845e+000 3.389676e+000 1.725629e+000 3.573669e+000 5.307281e+000 3.217201e+000 6.068501e+000 1.030265e+001 8.459826e+000 2.562492e+000 2.145047e+000 2.640129e+000 3.222825e+000 2.406133e-001 6.241571e-001 5.946476e-001 4.080570e-001 7.883130e-001 1.107777e+000 5.751458e-001 9.836470e-001 1.180513e+000 1.290956e+000 6.316383e-001 3.616711e-001 5.795642e-001 2.853276e-001
<GCONST> 1.370365e+002
<STATE> 4
<MEAN> 42
 -4.484309e+000 2.162484e+000 2.942151e+000 -3.822355e+000 -1.302265e+001 -1.789477e+001 -4.867982e+000 5.083603e+000 -5.591039e+000 -1.218155e+001 -6.268127e+000 -5.643830e+000 7.043340e-001 8.042599e+001 -4.567853e-001 8.677205e-001 2.318150e-001 2.526260e-001 -4.809102e-002 2.089817e-001 1.853768e-001 1.698139e-001 7.880570e-001 6.247328e-001 1.792540e-001 -1.468328e-002 -4.336624e-001 -7.972739e-001 -1.737021e-001 -6.648213e-002 -2.650004e-002 1.129930e-001 3.697300e-001 3.589530e-001 1.203483e-001 -1.242983e-001 -1.084071e-001 3.679463e-002 8.908898e-002 6.720176e-002 2.333679e-002 -1.113502e-001
<VARIANCE> 42
 4.701862e+000 2.399045e+001 1.978321e+001 1.992106e+001 2.349787e+001 4.032346e+001 5.004361e+001 6.113982e+001 8.019118e+001 4.173036e+001 1.793508e+001 3.165071e+001 2.691098e+001 1.257417e+001 3.917006e-001 5.068814e-001 3.859805e-001 6.571311e-001 2.201200e+000 2.709089e+000 1.326594e+000 1.516459e+000 1.130161e+000 8.420005e-001 8.521845e-001 7.910307e-001 1.039750e+000 3.399109e-001 2.746156e-002 1.467287e-001 7.382879e-002 1.111827e-001 1.853760e-001 1.932835e-001 2.067875e-001 2.231400e-001 1.631757e-001 1.292164e-001 1.670435e-001 1.339672e-001 1.508422e-001 1.941674e-002
<GCONST> 9.085256e+001
<TRANSP> 5
 0.000000e+000 1.000000e+000 0.000000e+000 0.000000e+000 0.000000e+000
 0.000000e+000 9.057922e-001 9.420785e-002 0.000000e+000 0.000000e+000
 0.000000e+000 0.000000e+000 8.088171e-001 1.911829e-001 0.000000e+000
 0.000000e+000 0.000000e+000 0.000000e+000 9.228775e-001 7.712257e-002
 0.000000e+000 0.000000e+000 0.000000e+000 0.000000e+000 0.000000e+000
<ENDHMM>
~h "du"
<BEGINHMM>
<NUMSTATES> 5
<STATE> 2
<MEAN> 42
 -1.339822e+001 1.134255e+001 9.412934e+000 1.034372e+001 5.768930e+000 1.049622e+000 -1.959303e+000 -4.598603e+000 -4.624511e+000 -5.188684e+000 -2.388640e+000 -1.906594e+000 -8.287089e-001 7.012917e+001 5.195706e-001 -4.010579e-001 1.699273e-001 2.238400e-001 2.057103e-001 -4.418386e-001 1.424642e-001 -1.272233e-002 -4.266476e-001 -3.577102e-001 1.854373e-001 7.891727e-002 8.670561e-002 7.659431e-001 -1.314397e-001 -6.353443e-001 -3.966602e-001 -3.952799e-001 -9.719615e-002 -1.422411e-001 1.646273e-001 1.576391e-001 -1.120293e-001 -1.347086e-001 -2.130540e-002 -5.903995e-002 3.652555e-002 2.301154e-001
<VARIANCE> 42
 3.616073e+000 5.926537e+000 6.992612e+000 6.466105e+000 6.302247e+000 1.396976e+001 1.099674e+001 1.122577e+001 9.818046e+000 1.152284e+001 1.030411e+001 8.967487e+000 6.710702e+000 7.042002e+000 9.625489e-001 4.688185e+000 2.047693e+000 1.646538e+000 9.058179e-001 1.343377e+000 2.167069e+000 1.737106e+000 2.589194e+000 1.652145e+000 1.345707e+000 1.026963e+000 9.139203e-001 1.272609e+000 2.328078e-001 2.571005e-001 1.800564e-001 2.831426e-001 1.594850e-001 2.981388e-001 3.441243e-001 2.833827e-001 7.312515e-001 5.283901e-001 4.856692e-001 3.103550e-001 2.069777e-001 2.365535e-001
<GCONST> 9.561739e+001
<STATE> 3
<MEAN> 42
 -8.253067e+000 -7.577985e-001 5.467374e+000 2.395042e+000 2.671243e+000 -6.306793e+000 -1.550354e+000 -2.063411e+000 -1.458785e+001 -1.633776e+001 -7.932798e+000 -7.903000e+000 -1.113139e+000 8.165186e+001 1.007229e+000 1.027756e-001 2.538676e-001 -1.384799e+000 -1.906731e+000 -1.420712e+000 -9.986911e-001 9.144205e-001 -6.021658e-001 -1.661833e+000 -1.688945e+000 -1.674875e+000 -4.555635e-001 8.450338e-001 -1.915368e-001 9.253663e-001 3.773549e-001 3.126080e-001 -3.777973e-001 -8.423689e-003 -1.681972e-001 2.374902e-001 8.972288e-001 6.436726e-001 2.963926e-001 3.649925e-002 -2.843390e-001 -6.675103e-001
<VARIANCE> 42
 8.532009e+000 1.985104e+001 1.563379e+001 3.664198e+001 4.755424e+001 7.013505e+001 3.593596e+001 4.553639e+001 1.124169e+002 7.794192e+001 4.477245e+001 3.049420e+001 4.182676e+001 1.020759e+001 7.473831e-001 6.627317e+000 2.423534e+000 2.820436e+000 3.620988e+000 3.190557e+000 3.437654e+000 6.116450e+000 1.253850e+001 9.817090e+000 4.049981e+000 1.652987e+000 3.070124e+000 3.517928e+000 1.442439e-001 7.704276e-001 4.074133e-001 4.640545e-001 7.401738e-001 4.241764e-001 8.619944e-001 1.178063e+000 1.291169e+000 1.391729e+000 1.158999e+000 4.342122e-001 5.235104e-001 2.605629e-001
<GCONST> 1.375502e+002
<STATE> 4
<MEAN> 42
 -7.696017e+000 1.000187e+001 1.041492e+001 3.266760e+000 -8.145279e+000 -1.580668e+001 -7.191822e+000 -7.568303e-002 -6.919694e+000 -1.207531e+001 -6.039926e+000 -9.138831e+000 -6.788419e+000 7.559999e+001 -4.880802e-001 6.403478e-001 7.478744e-002 3.945947e-001 2.457352e-001 4.161615e-001 1.375484e-002 -4.803922e-001 5.813990e-001 8.778616e-001 4.339924e-001 4.559033e-001 -1.730760e-001 -7.764132e-001 -1.256755e-001 -2.668308e-001 -1.891913e-001 7.847455e-003 3.508448e-001 3.699386e-001 2.246647e-001 -5.872920e-002 -1.407330e-001 -1.290432e-002 -2.498108e-002 1.451106e-001 1.974215e-001 -1.732010e-002
<VARIANCE> 42
 4.121514e+000 1.437545e+001 1.096330e+001 2.557124e+001 2.936399e+001 7.436509e+001 2.577697e+001 3.127879e+001 4.821166e+001 5.496901e+001 2.054653e+001 2.025392e+001 2.351028e+001 1.248959e+001 3.473335e-001 8.952694e-001 5.183216e-001 6.998544e-001 2.247305e+000 3.015307e+000 1.288491e+000 1.572783e+000 1.967487e+000 1.426649e+000 1.224397e+000 9.199233e-001 1.660175e+000 1.793388e-001 2.893499e-002 1.406725e-001 1.023645e-001 1.197615e-001 2.007874e-001 2.199894e-001 2.031297e-001 4.534565e-001 3.414004e-001 2.658286e-001 2.026208e-001 2.084157e-001 2.410481e-001 1.264735e-002
<GCONST> 9.449538e+001
<TRANSP> 5
 0.000000e+000 1.000000e+000 0.000000e+000 0.000000e+000 0.000000e+000
 0.000000e+000 8.942301e-001 1.057699e-001 0.000000e+000 0.000000e+000
 0.000000e+000 0.000000e+000 8.304915e-001 1.695085e-001 0.000000e+000
 0.000000e+000 0.000000e+000 0.000000e+000 9.178489e-001 8.215114e-002
 0.000000e+000 0.000000e+000 0.000000e+000 0.000000e+000 0.000000e+000
<ENDHMM>
~h "fa"
<BEGINHMM>
<NUMSTATES> 5
<STATE> 2
<MEAN> 42
 -2.872392e+001 -1.165186e+001 -3.534600e+000 -8.291686e+000 8.527014e+000 -5.391308e+000 5.445554e+000 -4.437709e+000 9.622250e-001 -5.831545e+000 3.291698e+000 -7.516400e-001 5.228803e+000 7.583377e+001 -1.760952e-001 -2.768613e-001 3.456835e-002 -2.771716e-001 2.347465e-001 -4.353363e-001 1.838931e-001 -4.968743e-001 -1.070942e-002 -4.691705e-001 -9.825733e-003 -2.888777e-001 -5.175542e-002 6.555572e-001 2.487213e-001 1.888071e-001 1.492123e-002 9.676725e-002 -2.107900e-001 2.438740e-002 -1.038201e-001 4.554362e-002 -5.106862e-002 3.026108e-003 -1.075608e-001 -2.216762e-002 -7.899597e-002 -5.979313e-002
<VARIANCE> 42
 6.264471e+000 9.406521e+000 1.606355e+001 1.511440e+001 1.664836e+001 1.839814e+001 2.021574e+001 2.215419e+001 1.361133e+001 2.281112e+001 1.026757e+001 1.069449e+001 9.438085e+000 1.774019e+001 5.475598e-001 6.610389e-001 6.274711e-001 9.665252e-001 9.915138e-001 9.885536e-001 1.005139e+000 7.919708e-001 1.066996e+000 9.268576e-001 1.072422e+000 6.455684e-001 7.855936e-001 6.018207e-001 2.907124e-001 1.791030e-001 1.277528e-001 1.564632e-001 2.223164e-001 1.749872e-001 1.763457e-001 1.427624e-001 1.839616e-001 1.469838e-001 2.700998e-001 1.361714e-001 1.587103e-001 5.939333e-002
<GCONST> 8.587952e+001
<STATE> 3
<MEAN> 42
 -1.227709e+001 -5.961612e+000 -5.180439e+000 -8.437839e+000 -3.232404e+000 -8.449888e+000 -5.794792e-002 -1.491041e+000 -2.237547e+000 -8.502434e+000 -2.392854e+000 -3.992280e+000 9.931638e-001 8.111763e+001 4.146878e+000 6.522264e-001 -1.108824e+000 -6.465955e-001 -2.666963e+000 -1.338934e+000 -4.333242e-001 1.242431e+000 -2.876158e-001 -2.151459e-001 -1.136487e+000 -5.893641e-001 -4.150819e-001 1.492588e+000 -3.170154e-001 -3.220020e-001 -1.688774e-001 -4.151399e-002 2.025985e-001 1.092305e-001 3.694408e-001 1.378672e-001 1.918336e-001 1.805281e-001 2.413268e-001 1.331129e-001 1.097666e-001 -2.687304e-002
<VARIANCE> 42
 1.226930e+002 3.074315e+001 2.802993e+001 2.336679e+001 6.783344e+001 4.197230e+001 2.401014e+001 4.425705e+001 2.733219e+001 3.204223e+001 2.809943e+001 1.450575e+001 1.372289e+001 1.964477e+001 6.545046e+000 5.626760e+000 2.693301e+000 2.171193e+000 4.212654e+000 2.521866e+000 4.029877e+000 3.626622e+000 4.139728e+000 2.677758e+000 3.367922e+000 1.848157e+000 1.662028e+000 1.526450e+000 2.307757e+000 1.022503e+000 4.019386e-001 4.324845e-001 1.301847e+000 7.577781e-001 5.364331e-001 8.204194e-001 7.659568e-001 3.344096e-001 5.316957e-001 3.000440e-001 2.251366e-001 3.042871e-001
<GCONST> 1.331943e+002
<STATE> 4
<MEAN> 42
 -3.096406e+000 -7.667477e+000 -1.201494e+001 -1.021592e+001 -6.404891e+000 -7.659166e+000 4.344888e+000 2.860844e+000 -2.700670e+000 -8.544680e+000 -3.528683e+000 -4.938458e+000 2.805189e-001 8.420532e+001 -5.235693e-001 4.493037e-001 1.919777e-001 4.525537e-001 7.578853e-001 9.972130e-001 3.702121e-001 3.863356e-002 1.015448e-002 5.057517e-002 -4.736980e-002 2.445242e-001 5.406336e-002 -6.623179e-001 -1.999900e-001 1.854927e-001 1.846929e-001 1.796607e-001 1.759293e-001 1.338127e-001 -4.038009e-002 -2.562012e-003 -7.944144e-003 2.065783e-002 3.217981e-002 5.896245e-002 -7.519166e-003 -2.279864e-001
<VARIANCE> 42
 4.919576e+000 2.000755e+001 3.077850e+001 2.953137e+001 2.853032e+001 2.994530e+001 2.889861e+001 2.382447e+001 2.125436e+001 4.749348e+001 2.557398e+001 1.609375e+001 1.917346e+001 8.926456e+000 4.101573e-001 1.345359e+000 1.111852e+000 9.943154e-001 9.798895e-001 7.941729e-001 1.027333e+000 9.374257e-001 6.984160e-001 5.965505e-001 1.001041e+000 7.525164e-001 6.259496e-001 6.035924e-001 5.437077e-002 1.672343e-001 1.143761e-001 1.322074e-001 1.748881e-001 1.899541e-001 1.758689e-001 2.157983e-001 1.369155e-001 1.172713e-001 1.748802e-001 1.040507e-001 9.950254e-002 3.419079e-002
<GCONST> 8.765269e+001
<TRANSP> 5
 0.000000e+000 1.000000e+000 0.000000e+000 0.000000e+000 0.000000e+000
 0.000000e+000 8.975467e-001 1.024533e-001 0.000000e+000 0.000000e+000
 0.000000e+000 0.000000e+000 8.410837e-001 1.589163e-001 0.000000e+000
 0.000000e+000 0.000000e+000 0.000000e+000 9.186151e-001 8.138491e-002
 0.000000e+000 0.000000e+000 0.000000e+000 0.000000e+000 0.000000e+000
<ENDHMM>
~h "fe"
<BEGINHMM>
<NUMSTATES> 5
<STATE> 2
<MEAN> 42
 -2.859060e+001 -1.219281e+001 -2.227077e+000 -6.441530e+000 7.532334e+000 -4.139140e+000 2.921126e+000 -5.150917e+000 8.337077e-001 -4.825119e+000 4.550789e+000 -1.249911e+000 5.376976e+000 7.751884e+001 -1.016187e-001 -3.177768e-001 5.154653e-003 -2.538907e-001 1.668675e-001 -2.482672e-001 6.961396e-002 -3.943219e-001 8.187582e-002 -2.726889e-001 2.024655e-001 -2.236160e-001 -8.081145e-002 5.791613e-001 2.370733e-001 1.750603e-001 4.214641e-005 1.514356e-001 -9.552802e-002 6.533566e-002 -5.846472e-002 3.053466e-002 -8.922263e-002 7.285852e-002 -5.723758e-002 1.397225e-002 -7.725301e-002 -9.358606e-002
<VARIANCE> 42
 7.478034e+000 1.140098e+001 9.777719e+000 1.695344e+001 9.703843e+000 2.378647e+001 2.321180e+001 2.595860e+001 2.651795e+001 2.406135e+001 9.445360e+000 1.123326e+001 9.440994e+000 1.298931e+001 5.872564e-001 6.670999e-001 4.739683e-001 8.769670e-001 8.579283e-001 1.083498e+000 1.165220e+000 1.373389e+000 1.068656e+000 9.672210e-001 7.006050e-001 9.251565e-001 8.163891e-001 5.428780e-001 2.412051e-001 1.572140e-001 9.296153e-002 1.671483e-001 1.724553e-001 2.377841e-001 2.598319e-001 2.387001e-001 3.180029e-001 1.754561e-001 1.784379e-001 1.616705e-001 1.555624e-001 5.676331e-002
<GCONST> 8.731744e+001
<STATE> 3
<MEAN> 42
 -1.281624e+001 -7.840807e+000 -3.707645e+000 -1.099636e+000 5.810560e+000 -6.754227e+000 -4.384450e+000 -1.025929e+001 -9.672153e+000 -3.962544e+000 1.667960e+000 -2.861908e+000 1.250653e+000 8.224210e+001 3.881610e+000 5.376049e-001 -5.179367e-001 1.506503e+000 -7.638972e-002 -1.810437e+000 -2.316018e+000 -1.414244e+000 -2.645361e+000 5.930871e-001 -4.610768e-001 -6.515785e-001 -5.218801e-001 1.389853e+000 -3.956784e-001 -3.493372e-001 -4.657425e-002 9.867119e-003 1.374310e-001 -3.818332e-001 -1.024157e-001 1.047652e-001 3.067138e-001 1.951866e-001 1.836019e-001 -5.850327e-002 1.071601e-001 6.350533e-002
<VARIANCE> 42
 1.050422e+002 2.450628e+001 1.828686e+001 2.535764e+001 2.065310e+001 5.101835e+001 4.282295e+001 3.619910e+001 6.986526e+001 3.667161e+001 2.300929e+001 2.374348e+001 2.421770e+001 1.901730e+001 6.103543e+000 4.726743e+000 1.775925e+000 1.379522e+000 2.202034e+000 4.795590e+000 2.375465e+000 3.347788e+000 5.566754e+000 2.345553e+000 2.734135e+000 1.318709e+000 2.107364e+000 1.430202e+000 2.108596e+000 7.192474e-001 3.458773e-001 2.903684e-001 2.771261e-001 6.897210e-001 5.966521e-001 8.111324e-001 1.671820e+000 3.763675e-001 4.561312e-001 1.791264e-001 2.588801e-001 3.608464e-001
<GCONST> 1.298166e+002
<STATE> 4
<MEAN> 42
 -6.489645e+000 -8.789253e+000 -2.131290e+000 7.778527e+000 7.088521e+000 -2.050393e+001 -1.332922e+001 -1.070104e+001 -1.195300e+001 7.152063e-001 -1.144194e+000 -7.531928e+000 1.157418e+000 8.478585e+001 -5.415051e-001 6.354209e-001 5.583524e-001 6.175827e-001 2.136421e-001 1.936120e-001 2.315318e-003 5.524359e-001 9.600355e-001 1.743287e-001 -3.492551e-001 2.395539e-002 -2.703459e-002 -7.171929e-001 -1.526897e-001 1.718605e-001 3.077171e-002 -5.628600e-002 1.035072e-002 3.934805e-001 2.471072e-001 1.346821e-001 1.281330e-001 -5.035097e-002 -7.964392e-003 8.650209e-002 -3.288266e-002 -2.167230e-001
<VARIANCE> 42
 6.140025e+000 2.684793e+001 2.100207e+001 2.787591e+001 4.050720e+001 9.204737e+001 1.151075e+001 2.445708e+001 3.779596e+001 4.533091e+001 2.729645e+001 3.811116e+001 2.050683e+001 9.945508e+000 3.344696e-001 1.456358e+000 5.641791e-001 1.096529e+000 7.560389e-001 2.561870e+000 1.181149e+000 1.165799e+000 1.489859e+000 9.436455e-001 7.469794e-001 7.453693e-001 7.342921e-001 6.780027e-001 5.508193e-002 2.129754e-001 1.346199e-001 1.545694e-001 1.582978e-001 1.714572e-001 1.589223e-001 1.901711e-001 2.196305e-001 1.717336e-001 1.526414e-001 9.557381e-002 1.086136e-001 4.572703e-002
<GCONST> 9.284871e+001
<TRANSP> 5
 0.000000e+000 1.000000e+000 0.000000e+000 0.000000e+000 0.000000e+000
 0.000000e+000 9.138570e-001 8.614296e-002 0.000000e+000 0.000000e+000
 0.000000e+000 0.000000e+000 8.291786e-001 1.708214e-001 0.000000e+000
 0.000000e+000 0.000000e+000 0.000000e+000 9.226395e-001 7.736041e-002
 0.000000e+000 0.000000e+000 0.000000e+000 0.000000e+000 0.000000e+000
<ENDHMM>
~h "fi"
<BEGINHMM>
<NUMSTATES> 5
<STATE> 2
<MEAN> 42
 -2.944608e+001 -1.042206e+001 -1.322884e+000 -5.138280e+000 8.820283e+000 -3.682446e+000 2.797026e+000 -5.326496e+000 1.479860e-001 -3.193110e+000 5.349270e+000 -1.774427e-001 5.110396e+000 7.625383e+001 -1.198834e-001 -3.723325e-001 9.922525e-002 2.620821e-002 4.172389e-001 -5.307069e-001 -2.077865e-001 -7.615498e-001 -7.118843e-002 -2.512437e-001 6.060617e-002 -2.699439e-001 -3.314200e-002 6.941821e-001 2.732801e-001 1.851549e-001 5.180195e-002 1.981306e-001 -9.623894e-002 4.200880e-002 -1.666218e-001 -5.759151e-002 -1.322463e-001 -2.345437e-002 -1.796264e-001 -1.164046e-001 -1.464280e-001 -5.679299e-002
<VARIANCE> 42
 4.724055e+000 1.121627e+001 1.073836e+001 2.255878e+001 1.197047e+001 2.163781e+001 2.092167e+001 2.870011e+001 1.973069e+001 2.798738e+001 9.603300e+000 1.225130e+001 7.330655e+000 1.316946e+001 6.631109e-001 9.898278e-001 7.771081e-001 8.780439e-001 9.538910e-001 9.492673e-001 1.291334e+000 1.352299e+000 9.994281e-001 1.146280e+000 1.012774e+000 9.316561e-001 7.828464e-001 5.566496e-001 1.920848e-001 2.077781e-001 1.552193e-001 1.426885e-001 1.847507e-001 2.042145e-001 2.815158e-001 2.724569e-001 3.079324e-001 2.296594e-001 2.619965e-001 2.563087e-001 1.667907e-001 6.478992e-002
<GCONST> 9.040545e+001
<STATE> 3
<MEAN> 42
 -1.631083e+001 -7.953924e+000 2.137804e+000 6.309242e+000 1.182478e+001 -7.400845e+000 -9.387087e+000 -1.177761e+001 -1.017162e+001 -7.216218e+000 -1.895833e+000 -8.449369e+000 -1.285527e+000 8.192458e+001 2.656293e+000 3.951073e-001 8.326197e-001 2.814994e+000 4.756587e-001 -1.681803e+000 -2.078696e+000 -1.357743e-001 -1.769424e+000 -7.688873e-001 -1.576717e+000 -1.650318e+000 -8.449714e-001 7.939606e-001 -3.168474e-001 -1.411629e-001 3.619478e-002 1.025822e-002 -6.558006e-002 -2.016877e-001 2.654531e-001 3.827815e-001 2.426991e-001 5.181570e-002 1.091652e-001 2.024490e-001 2.155503e-001 -6.542203e-002
<VARIANCE> 42
 7.733593e+001 2.333772e+001 1.736190e+001 1.021913e+002 4.232372e+001 8.456964e+001 6.429460e+001 2.811033e+001 6.145066e+001 3.261318e+001 3.669146e+001 4.391417e+001 2.045181e+001 1.542462e+001 5.202094e+000 3.566628e+000 1.728354e+000 2.770985e+000 3.172091e+000 6.188176e+000 5.062596e+000 3.727660e+000 6.309854e+000 2.072838e+000 3.034005e+000 3.215492e+000 2.112342e+000 1.274312e+000 1.340081e+000 6.188489e-001 3.459056e-001 7.009998e-001 4.315692e-001 9.496160e-001 1.005091e+000 4.603418e-001 1.176135e+000 4.074885e-001 5.937468e-001 6.882697e-001 3.840961e-001 2.723536e-001
<GCONST> 1.376807e+002
<STATE> 4
<MEAN> 42
 -1.176464e+001 -4.599902e+000 1.017658e+001 1.937317e+001 1.005179e+001 -1.971573e+001 -1.320522e+001 -4.421762e+000 -1.432795e+001 -1.124630e+001 -8.876565e+000 -1.100965e+001 -2.335632e-001 8.104375e+001 -4.943514e-001 8.194233e-001 4.461738e-001 1.503586e-002 -1.945516e-001 5.585973e-001 5.493905e-001 5.317591e-001 6.476889e-001 1.678733e-001 -9.725522e-002 4.791599e-001 1.937371e-001 -7.327642e-001 -7.373210e-002 4.909224e-002 -1.924423e-001 -2.569350e-001 -2.119251e-002 3.943245e-001 2.111248e-001 -1.738748e-002 1.582909e-001 1.423776e-001 1.154317e-001 4.613145e-002 -6.583402e-002 -1.235406e-001
<VARIANCE> 42
 6.207481e+000 3.219199e+001 1.828863e+001 2.167899e+001 5.193015e+001 9.226428e+001 2.604884e+001 3.072283e+001 2.959915e+001 2.945179e+001 1.806452e+001 2.113327e+001 1.609635e+001 1.175074e+001 1.779032e-001 9.185461e-001 9.453768e-001 1.025638e+000 8.136399e-001 2.049939e+000 1.343178e+000 1.059468e+000 1.602498e+000 1.412616e+000 7.915733e-001 7.293625e-001 7.691522e-001 2.985587e-001 3.176787e-002 1.910623e-001 1.532423e-001 1.953124e-001 1.567972e-001 3.138594e-001 3.088121e-001 2.105312e-001 2.195422e-001 1.875579e-001 1.479117e-001 1.272947e-001 1.221565e-001 2.578167e-002
<GCONST> 9.212583e+001
<TRANSP> 5
 0.000000e+000 1.000000e+000 0.000000e+000 0.000000e+000 0.000000e+000
 0.000000e+000 9.013209e-001 9.867906e-002 0.000000e+000 0.000000e+000
 0.000000e+000 0.000000e+000 8.641943e-001 1.358057e-001 0.000000e+000
 0.000000e+000 0.000000e+000 0.000000e+000 9.217782e-001 7.822181e-002
 0.000000e+000 0.000000e+000 0.000000e+000 0.000000e+000 0.000000e+000
<ENDHMM>
~h "fo"
<BEGINHMM>
<NUMSTATES> 5
<STATE> 2
<MEAN> 42
 -2.913310e+001 -9.794337e+000 -1.604523e+000 -9.959046e+000 8.644482e+000 -3.395477e+000 4.681710e+000 -3.530358e+000 9.699568e-001 -6.178823e+000 3.921936e+000 -6.486858e-001 5.301612e+000 7.634280e+001 -5.799160e-002 -1.358642e-001 1.085239e-001 -4.987507e-001 2.210420e-001 -5.294111e-001 5.666225e-002 -4.913725e-001 4.603046e-002 -4.985600e-001 -1.132910e-001 -3.381630e-001 3.074299e-002 6.868088e-001 2.628864e-001 1.987299e-001 1.248763e-002 1.418059e-001 -1.912198e-001 4.638910e-002 -1.006008e-001 1.018116e-001 -4.318490e-002 4.388205e-002 -1.373920e-001 -1.910866e-002 -1.194314e-001 -9.926262e-002
<VARIANCE> 42
 9.759444e+000 1.434710e+001 1.345244e+001 1.983262e+001 1.874711e+001 2.039709e+001 1.833631e+001 2.552357e+001 1.458903e+001 1.785148e+001 1.883387e+001 1.134021e+001 1.014827e+001 2.455519e+001 7.415612e-001 5.753983e-001 6.209590e-001 8.061476e-001 8.825930e-001 9.724547e-001 1.175370e+000 1.449266e+000 1.028132e+000 1.512418e+000 1.026622e+000 8.799765e-001 6.614211e-001 4.619489e-001 1.853372e-001 1.445358e-001 1.274654e-001 1.581722e-001 2.094273e-001 2.218258e-001 2.042758e-001 2.706723e-001 2.102838e-001 2.715812e-001 2.342181e-001 1.719286e-001 1.856902e-001 4.051095e-002
<GCONST> 8.979596e+001
<STATE> 3
<MEAN> 42
 -1.417306e+001 -1.074361e+000 5.794795e-001 -7.460085e+000 -2.656353e+000 -1.017490e+001 -3.468279e+000 -8.313075e-001 -1.852689e+000 -8.693952e+000 -2.629014e+000 -4.994716e+000 -2.935359e-001 7.935021e+001 4.154224e+000 1.880862e+000 6.823940e-001 1.172911e+000 -3.772233e+000 -3.038004e+000 -2.072710e+000 1.464632e+000 -6.644775e-001 -5.222042e-001 -1.397902e+000 -8.379574e-001 -1.079626e+000 8.032546e-001 -2.130983e-001 -2.879924e-001 -5.274507e-002 5.507960e-002 -1.088405e-001 -4.474807e-001 5.995703e-002 1.173826e-001 9.865575e-002 1.105665e-001 2.148736e-001 1.573816e-001 2.242485e-001 7.959881e-002
<VARIANCE> 42
 9.943356e+001 4.504899e+001 2.578875e+001 3.000780e+001 9.857802e+001 9.123749e+001 4.970010e+001 2.977002e+001 4.189562e+001 2.030101e+001 2.810476e+001 2.677408e+001 2.659757e+001 1.259125e+001 3.962259e+000 4.337906e+000 2.911687e+000 2.095978e+000 5.740185e+000 8.255524e+000 3.728389e+000 2.753204e+000 3.300004e+000 2.041665e+000 3.341378e+000 1.742260e+000 3.263197e+000 1.255970e+000 1.803676e+000 1.104532e+000 5.290846e-001 4.716899e-001 1.805105e+000 1.703786e+000 9.464064e-001 5.686565e-001 4.594607e-001 4.304920e-001 6.820033e-001 3.298011e-001 5.695817e-001 2.020403e-001
<GCONST> 1.382868e+002
<STATE> 4
<MEAN> 42
 -4.416348e+000 3.765191e+000 2.243634e+000 -3.201594e+000 -1.604509e+001 -2.337458e+001 -6.427444e+000 4.605317e+000 -3.443948e+000 -7.973787e+000 -4.228560e+000 -5.812462e+000 -8.429372e-001 8.034103e+001 -4.723339e-001 5.292072e-001 1.961099e-001 2.204169e-001 3.807090e-001 6.374659e-001 2.654578e-001 -1.986808e-001 2.015402e-001 4.275501e-001 1.445115e-001 2.990342e-001 4.897479e-002 -6.185488e-001 -2.392702e-001 -1.598122e-002 -2.111296e-002 1.558911e-002 3.412638e-001 4.871511e-001 1.501279e-001 -1.092623e-001 2.153142e-002 6.213942e-002 5.323335e-002 2.127420e-002 -4.353508e-002 -1.782446e-001
<VARIANCE> 42
 5.239724e+000 2.369056e+001 1.914526e+001 2.133088e+001 2.953723e+001 3.678248e+001 5.140725e+001 3.547113e+001 3.321634e+001 2.349748e+001 1.409861e+001 2.689896e+001 1.907436e+001 1.081338e+001 4.809469e-001 1.037131e+000 4.863173e-001 5.939757e-001 1.120865e+000 2.959407e+000 9.158160e-001 9.571624e-001 9.986778e-001 6.730880e-001 6.779544e-001 5.314533e-001 6.006228e-001 4.964162e-001 7.660224e-002 2.528558e-001 1.141702e-001 1.277262e-001 1.656120e-001 3.263313e-001 2.054155e-001 1.408180e-001 1.689080e-001 1.362871e-001 1.122969e-001 1.034255e-001 8.477552e-002 3.038156e-002
<GCONST> 8.813113e+001
<TRANSP> 5
 0.000000e+000 1.000000e+000 0.000000e+000 0.000000e+000 0.000000e+000
 0.000000e+000 9.062940e-001 9.370598e-002 0.000000e+000 0.000000e+000
 0.000000e+000 0.000000e+000 8.264903e-001 1.735097e-001 0.000000e+000
 0.000000e+000 0.000000e+000 0.000000e+000 9.258649e-001 7.413510e-002
 0.000000e+000 0.000000e+000 0.000000e+000 0.000000e+000 0.000000e+000
<ENDHMM>
~h "fu"
<BEGINHMM>
<NUMSTATES> 5
<STATE> 2
<MEAN> 42
 -2.737503e+001 -1.010854e+001 -1.806641e+000 -1.176520e+001 6.563002e+000 -1.786135e+000 3.401486e+000 -4.108415e+000 6.374483e-001 -5.473711e+000 8.270563e-001 -2.026944e-001 5.178370e+000 7.607301e+001 1.484560e-001 -2.009404e-001 -2.535332e-002 -5.148302e-001 3.507220e-002 -5.067230e-001 -1.622816e-002 -5.885992e-001 -1.671491e-002 -4.625826e-001 -1.981943e-001 -3.978194e-001 -1.059992e-001 7.262900e-001 2.244990e-001 2.448496e-001 2.430655e-002 1.695877e-001 -1.795649e-001 3.346061e-002 -8.923328e-002 8.873411e-002 -5.982000e-002 6.577712e-002 -4.788104e-002 -6.190778e-002 -1.455530e-001 -1.167212e-001
<VARIANCE> 42
 8.811399e+000 1.740957e+001 1.005826e+001 3.196537e+001 3.296697e+001 2.781499e+001 2.352867e+001 2.440731e+001 3.241842e+001 3.293660e+001 2.381545e+001 1.462819e+001 1.064378e+001 1.528114e+001 7.447643e-001 7.151042e-001 5.879422e-001 9.607235e-001 1.029016e+000 1.013133e+000 1.238999e+000 1.474954e+000 1.456557e+000 1.815024e+000 1.320458e+000 1.254448e+000 9.275588e-001 6.799148e-001 9.038712e-002 9.643344e-002 1.208744e-001 2.028639e-001 1.877070e-001 2.166048e-001 1.974684e-001 2.402829e-001 3.313110e-001 3.193312e-001 2.837126e-001 2.340348e-001 1.804885e-001 8.971533e-002
<GCONST> 9.576559e+001
<STATE> 3
<MEAN> 42
 -1.376040e+001 1.670854e+000 2.374082e+000 -6.842228e+000 -1.408082e+000 -8.773123e+000 -4.432752e+000 -3.981516e+000 -5.907019e+000 -8.182399e+000 -2.670583e+000 -5.753658e+000 -1.717970e+000 7.837551e+001 2.861750e+000 2.637788e+000 1.773673e+000 1.903436e+000 -2.254258e+000 -2.275590e+000 -2.066072e+000 5.693004e-001 -1.412688e+000 -4.763587e-001 -3.248234e-001 -4.029814e-001 -1.151901e+000 3.341552e-002 -2.548037e-001 -1.303122e-001 1.250475e-001 1.335220e-001 5.587863e-002 -2.915685e-001 -6.804626e-002 6.486354e-002 1.151398e-001 -7.640711e-003 1.678046e-001 1.491854e-001 1.684459e-001 -4.538171e-003
<VARIANCE> 42
 5.794551e+001 6.201237e+001 3.361358e+001 4.809958e+001 6.538094e+001 9.321571e+001 4.674204e+001 3.557551e+001 4.950799e+001 2.778951e+001 1.952458e+001 2.398982e+001 2.772556e+001 7.489852e+000 2.701982e+000 3.812417e+000 2.478289e+000 3.363103e+000 4.351260e+000 8.510127e+000 3.746370e+000 1.513967e+000 4.273527e+000 1.615695e+000 2.588954e+000 1.907238e+000 2.762459e+000 6.987986e-001 8.633630e-001 1.096865e+000 6.119375e-001 6.881179e-001 9.979408e-001 1.610006e+000 7.532059e-001 3.354158e-001 6.013696e-001 3.660687e-001 3.413447e-001 3.441957e-001 4.705595e-001 1.584771e-001
<GCONST> 1.335242e+002
<STATE> 4
<MEAN> 42
 -7.493390e+000 1.153518e+001 1.008366e+001 1.572878e+000 -8.322947e+000 -1.958232e+001 -1.209452e+001 -2.601701e+000 -9.480362e+000 -9.954452e+000 -2.400568e+000 -5.200844e+000 -4.756952e+000 7.635442e+001 -4.213724e-001 2.646162e-001 4.151497e-002 4.031099e-001 4.329902e-001 7.712505e-001 3.642119e-001 -2.880811e-001 3.365435e-001 3.573574e-001 -5.920167e-002 2.226597e-001 4.959178e-002 -5.335085e-001 -1.542366e-001 -1.754120e-001 -2.123237e-001 -9.099909e-002 2.064187e-001 4.144293e-001 2.520515e-001 3.120936e-002 1.183612e-001 1.201545e-001 4.716681e-002 1.687241e-002 4.720529e-002 -8.952539e-002
<VARIANCE> 42
 5.191579e+000 1.172116e+001 1.347978e+001 3.822123e+001 2.696819e+001 5.679236e+001 3.356620e+001 4.699113e+001 5.391301e+001 3.229658e+001 2.783140e+001 2.141107e+001 2.441524e+001 1.038573e+001 2.811758e-001 6.674717e-001 6.531523e-001 8.406801e-001 1.215127e+000 2.221061e+000 1.094162e+000 1.017361e+000 1.331259e+000 1.543459e+000 9.924778e-001 7.298015e-001 1.042216e+000 1.693529e-001 4.146641e-002 1.573128e-001 1.432702e-001 1.808514e-001 2.056619e-001 2.797299e-001 2.031886e-001 2.464379e-001 2.211109e-001 2.537911e-001 1.644896e-001 1.365114e-001 1.746169e-001 1.131893e-002
<GCONST> 9.168190e+001
<TRANSP> 5
 0.000000e+000 1.000000e+000 0.000000e+000 0.000000e+000 0.000000e+000
 0.000000e+000 9.061968e-001 9.380318e-002 0.000000e+000 0.000000e+000
 0.000000e+000 0.000000e+000 8.438749e-001 1.561250e-001 0.000000e+000
 0.000000e+000 0.000000e+000 0.000000e+000 9.242406e-001 7.575940e-002
 0.000000e+000 0.000000e+000 0.000000e+000 0.000000e+000 0.000000e+000
<ENDHMM>
~h "silence"
<BEGINHMM>
<NUMSTATES> 5
<STATE> 2
<MEAN> 42
 -1.710664e+001 8.997896e-001 -1.692303e-001 4.171048e+000 3.279255e+000 -4.061488e-001 8.653461e-001 8.076625e-001 -4.830932e-001 -2.158384e+000 -1.464073e+000 -2.007916e+000 -4.328310e-001 7.017764e+001 -1.286769e+000 -6.527780e-001 -1.005561e+000 -6.611057e-001 -3.218692e-002 1.425110e+000 1.102598e+000 5.699901e-001 6.761025e-001 7.728916e-001 8.330588e-001 6.514541e-001 1.453727e-001 -1.089997e+000 9.680030e-002 -9.035765e-002 -7.996681e-002 -2.018613e-001 -2.963140e-001 -4.618507e-001 -2.694652e-001 -1.470395e-001 -1.379663e-001 -8.610680e-002 1.956159e-002 2.499568e-002 8.574188e-002 1.611963e-001
<VARIANCE> 42
 2.408027e+001 2.658733e+001 3.348365e+001 4.624209e+001 3.047597e+001 3.937094e+001 4.055358e+001 3.016930e+001 2.471123e+001 2.848978e+001 2.500545e+001 2.284837e+001 1.729737e+001 1.813338e+001 8.062245e-001 1.467836e+000 2.101803e+000 2.828441e+000 2.822178e+000 4.010022e+000 2.711676e+000 2.241620e+000 2.315529e+000 1.936624e+000 1.683150e+000 1.478683e+000 1.193929e+000 6.348085e-001 6.144061e-002 2.760124e-001 3.083204e-001 3.317222e-001 3.395353e-001 4.860932e-001 3.852187e-001 3.802382e-001 3.002748e-001 2.671152e-001 2.763089e-001 2.548062e-001 1.958033e-001 4.737901e-002
<GCONST> 1.122310e+002
<STATE> 3
<MEAN> 42
 -2.331223e+001 -8.288157e-001 -2.543049e+000 5.723624e-001 1.756746e+000 1.396251e+000 2.495067e+000 9.537156e-001 1.823422e+000 4.428992e-001 1.971770e+000 1.004862e+000 1.595625e+000 6.704959e+001 -2.524780e-001 -1.123145e-001 -3.331703e-002 -1.863768e-001 2.089318e-002 -1.642982e-002 -7.639390e-002 -7.840589e-002 -5.080431e-002 1.001022e-002 7.857726e-002 6.752301e-002 7.221487e-002 -1.128205e-001 2.003678e-001 6.681265e-002 1.993700e-001 1.615750e-001 1.096898e-001 -5.017737e-002 -8.849788e-002 -8.062991e-002 -1.523302e-001 -1.818766e-001 -1.595847e-001 -1.500765e-001 -9.474839e-002 1.640216e-001
<VARIANCE> 42
 1.045951e+001 8.998388e+000 9.416883e+000 1.107264e+001 1.052214e+001 1.152824e+001 1.181753e+001 1.269204e+001 1.219641e+001 1.306912e+001 1.018498e+001 9.977429e+000 9.160782e+000 9.064025e+000 6.254919e-001 7.508032e-001 6.930855e-001 9.286413e-001 8.907702e-001 9.370186e-001 9.735829e-001 1.106320e+000 1.056135e+000 9.971639e-001 1.027670e+000 1.045236e+000 9.776081e-001 2.404621e-001 8.908333e-002 1.999104e-001 1.523506e-001 1.743572e-001 1.724041e-001 1.878507e-001 2.032505e-001 2.291881e-001 2.306072e-001 2.199599e-001 1.992480e-001 1.884966e-001 1.725174e-001 5.912324e-002
<GCONST> 8.267420e+001
<STATE> 4
<MEAN> 42
 -2.248493e+001 -8.552974e-001 -1.580486e+000 1.599692e+000 2.234356e+000 1.574540e+000 2.156843e+000 9.175858e-001 7.483950e-001 -6.656164e-001 9.805014e-001 3.116747e-002 7.502200e-001 6.721567e+001 7.820298e-001 -1.732296e-001 9.844336e-001 4.017110e-001 2.404898e-001 -2.583788e-001 -5.935436e-001 -8.971308e-001 -1.063373e+000 -1.119234e+000 -7.866812e-001 -7.027427e-001 -4.411935e-001 9.092249e-001 1.022174e-001 -7.686885e-002 3.735396e-001 1.027708e-002 3.084905e-002 -2.090772e-001 -1.141151e-001 -2.907008e-001 -1.379511e-001 -2.194310e-001 -7.845975e-002 -7.150345e-002 6.035018e-002 3.666058e-001
<VARIANCE> 42
 1.215851e+001 2.606257e+001 1.342808e+001 1.888853e+001 1.430122e+001 1.480360e+001 1.398586e+001 1.583126e+001 1.665873e+001 1.773570e+001 1.641512e+001 1.383075e+001 1.173936e+001 1.239750e+001 2.139267e+000 5.859278e+000 2.328776e+000 2.511573e+000 1.891883e+000 1.769762e+000 1.698216e+000 2.133246e+000 2.177416e+000 2.135377e+000 2.018810e+000 1.502933e+000 1.256321e+000 1.816192e+000 2.055234e-001 4.351015e-001 2.669799e-001 2.822643e-001 2.028681e-001 2.292079e-001 2.306631e-001 2.827791e-001 2.889195e-001 2.875201e-001 2.371963e-001 2.123362e-001 1.763554e-001 1.640833e-001
<GCONST> 1.057794e+002
<TRANSP> 5
 0.000000e+000 1.000000e+000 0.000000e+000 0.000000e+000 0.000000e+000
 0.000000e+000 6.609833e-001 3.390167e-001 0.000000e+000 0.000000e+000
 0.000000e+000 0.000000e+000 6.511122e-001 3.488878e-001 0.000000e+000
 0.000000e+000 0.000000e+000 0.000000e+000 4.383726e-001 5.616274e-001
 0.000000e+000 0.000000e+000 0.000000e+000 0.000000e+000 0.000000e+000
<ENDHMM>
~h "cha"
<BEGINHMM>
<NUMSTATES> 5
<STATE> 2
<MEAN> 42
 -2.186548e+001 -1.745146e+001 7.956263e+000 -1.750177e+000 -2.302577e+000 -8.701522e+000 2.461272e-001 -9.868148e+000 -4.063834e+000 -5.558448e+000 1.530077e+000 -4.013634e+000 1.501489e+000 8.279101e+001 2.074512e+000 1.143736e-001 -6.347968e-001 2.239821e-001 3.174572e-001 -1.396105e+000 -9.410471e-001 -8.222535e-001 -1.128141e+000 2.344941e-002 4.119331e-002 -3.045706e-001 -3.515483e-001 1.368298e+000 3.766553e-001 4.921560e-001 -7.323201e-001 3.546204e-002 1.019240e-001 1.431975e-001 7.185081e-002 3.559562e-001 9.076082e-002 3.258729e-001 1.638878e-001 2.354871e-001 2.575072e-002 -3.074663e-001
<VARIANCE> 42
 7.308517e+001 3.407847e+001 5.039071e+001 4.748590e+001 2.243060e+001 3.767430e+001 3.837005e+001 3.272020e+001 3.532881e+001 2.827681e+001 2.214985e+001 1.603921e+001 1.745625e+001 1.274908e+001 9.079428e+000 8.155581e+000 1.155983e+001 5.251145e+000 2.508837e+000 2.494578e+000 3.232811e+000 3.000653e+000 3.408203e+000 3.409154e+000 2.828100e+000 1.784964e+000 2.288460e+000 2.916978e+000 1.228647e+000 1.243608e+000 1.014536e+000 1.270502e+000 6.398022e-001 4.217417e-001 5.812309e-001 5.973355e-001 7.528793e-001 3.883800e-001 6.879249e-001 3.176181e-001 3.444485e-001 3.547884e-001
<GCONST> 1.367950e+002
<STATE> 3
<MEAN> 42
 -2.317769e+000 -1.229969e+001 -1.170341e+001 -4.135551e+000 -3.238292e+000 -1.183259e+001 2.894650e-001 -5.499749e+000 -9.090652e+000 -3.328446e+000 3.960223e+000 -3.017304e+000 -2.062365e+000 8.666805e+001 5.883772e-001 -3.731801e-002 -1.789931e+000 -1.348796e+000 -4.517922e-001 1.079079e+000 1.266824e+000 1.220023e+000 7.738414e-001 -3.740765e-001 -2.742058e-001 2.212868e-001 2.469424e-002 -4.484588e-002 -5.079342e-001 1.272227e-002 5.163287e-001 1.439706e-001 7.532586e-002 2.643564e-001 5.344561e-002 -5.120058e-002 1.978474e-001 -1.688218e-001 -3.441465e-001 -1.096115e-001 4.029500e-002 -2.450305e-001
<VARIANCE> 42
 3.483852e+000 2.024704e+001 2.868498e+001 3.863280e+001 2.998097e+001 2.577186e+001 4.766571e+001 4.199131e+001 2.148066e+001 6.625351e+001 2.577882e+001 2.261032e+001 5.382233e+001 2.153773e+000 7.271913e-001 1.254325e+000 1.910536e+000 1.602133e+000 1.743408e+000 1.946293e+000 1.830778e+000 1.801701e+000 1.140413e+000 1.325426e+000 2.918903e+000 9.476388e-001 1.252283e+000 4.656478e-001 2.719711e-001 3.151843e-001 1.873407e-001 3.297777e-001 3.016140e-001 4.825609e-001 5.795885e-001 3.602998e-001 3.499256e-001 3.047375e-001 2.970997e-001 1.494469e-001 2.849874e-001 3.696319e-002
<GCONST> 1.067834e+002
<STATE> 4
<MEAN> 42
 -4.184298e+000 -6.809587e+000 -1.293249e+001 -6.196613e+000 -2.008728e+000 -3.353503e+000 4.669565e+000 -1.157756e+000 -5.010972e+000 -5.747919e+000 -3.112261e+000 -2.146532e+000 -1.508966e-001 8.160803e+001 -1.055553e+000 1.359877e+000 9.872664e-001 6.462817e-001 7.820293e-001 1.308660e+000 3.639108e-001 4.394076e-001 1.196688e-001 -2.785886e-001 -4.016292e-001 2.506928e-001 1.283548e-001 -1.395973e+000 -2.864766e-001 -2.464291e-002 1.933110e-001 2.046685e-001 1.989048e-001 1.693693e-001 8.855199e-003 -2.046597e-002 -4.237422e-002 7.429602e-002 3.095345e-001 5.934528e-002 -9.596191e-002 -1.855256e-001
<VARIANCE> 42
 7.807709e+000 2.801369e+001 2.533193e+001 2.280914e+001 3.413580e+001 1.890921e+001 2.059916e+001 2.257997e+001 2.323026e+001 5.197176e+001 1.342102e+001 2.240561e+001 3.415462e+001 1.113663e+001 5.953410e-001 7.600546e-001 1.012336e+000 1.352968e+000 1.864531e+000 1.810223e+000 1.116998e+000 1.267636e+000 1.307061e+000 1.301970e+000 1.682305e+000 7.823802e-001 1.592998e+000 4.308508e-001 3.645139e-002 2.463125e-001 2.094094e-001 2.029248e-001 2.840807e-001 2.776285e-001 2.250761e-001 1.981693e-001 2.567249e-001 2.123454e-001 1.743657e-001 1.358969e-001 2.203299e-001 3.114522e-002
<GCONST> 9.665478e+001
<TRANSP> 5
 0.000000e+000 1.000000e+000 0.000000e+000 0.000000e+000 0.000000e+000
 0.000000e+000 8.891506e-001 1.108495e-001 0.000000e+000 0.000000e+000
 0.000000e+000 0.000000e+000 8.515465e-001 1.484535e-001 0.000000e+000
 0.000000e+000 0.000000e+000 0.000000e+000 8.616091e-001 1.383909e-001
 0.000000e+000 0.000000e+000 0.000000e+000 0.000000e+000 0.000000e+000
<ENDHMM>
~h "che"
<BEGINHMM>
<NUMSTATES> 5
<STATE> 2
<MEAN> 42
 -2.738572e+001 -2.082103e+001 1.119168e+001 -3.786238e+000 -2.391351e+000 -7.894498e+000 3.180549e+000 -7.764972e+000 -1.341469e+000 -5.967836e+000 2.896888e+000 -4.188053e+000 2.439012e+000 8.312404e+001 8.212520e-001 -5.049102e-001 8.723024e-001 6.305913e-001 6.785928e-001 -1.337494e+000 -9.193159e-001 -7.390772e-001 -6.524152e-001 -1.582140e-001 -4.026774e-001 -6.958255e-001 -4.278645e-001 1.265884e+000 7.366534e-001 1.011893e+000 -6.698316e-001 6.634197e-001 4.136910e-001 6.742536e-002 -4.082060e-001 9.412648e-002 -2.246995e-001 3.351828e-001 -2.709262e-001 4.482757e-002 -1.150500e-001 -5.351194e-001
<VARIANCE> 42
 1.605481e+001 1.249077e+001 2.211435e+001 3.642112e+001 1.444038e+001 2.952942e+001 2.882005e+001 2.638233e+001 1.705714e+001 2.563216e+001 9.606149e+000 1.182538e+001 1.336688e+001 1.158370e+001 6.726830e+000 7.854000e+000 5.667386e+000 6.737735e+000 2.695329e+000 2.830833e+000 4.386671e+000 2.084388e+000 3.552304e+000 2.844314e+000 2.774507e+000 1.753663e+000 1.580180e+000 4.156672e+000 6.554639e-001 4.566847e-001 4.795234e-001 5.579505e-001 4.223265e-001 5.504241e-001 6.360811e-001 4.500310e-001 8.835554e-001 5.086266e-001 4.646632e-001 3.398245e-001 2.488134e-001 3.186955e-001
<GCONST> 1.249452e+002
<STATE> 3
<MEAN> 42
 -9.049677e+000 -9.651022e+000 5.117487e+000 9.291332e+000 6.467110e+000 -1.490167e+001 -9.742765e+000 -1.235681e+001 -1.212374e+001 -4.126486e+000 -4.557628e+000 -8.605186e+000 -1.721366e+000 8.406936e+001 3.432662e+000 1.630650e+000 -2.676449e+000 1.240139e+000 1.336184e+000 -2.076788e+000 -2.035474e+000 -1.383769e+000 -2.276207e+000 4.912897e-001 -6.563050e-001 -4.012935e-001 3.174101e-001 6.110321e-001 -1.028657e+000 -9.814458e-001 -7.075252e-003 -8.370619e-001 -5.280253e-001 5.016680e-002 6.839186e-001 2.399238e-001 7.132127e-001 3.441493e-002 7.053449e-001 3.545071e-001 3.514795e-001 1.324048e-001
<VARIANCE> 42
 2.028470e+001 9.731090e+000 3.676915e+001 2.486882e+001 6.143934e+001 6.940685e+001 3.013533e+001 3.596881e+001 4.279656e+001 2.409090e+001 2.239504e+001 1.925998e+001 1.865332e+001 4.177391e+000 3.660497e+000 4.657108e+000 1.167104e+000 3.492890e+000 3.118588e+000 4.412392e+000 3.259584e+000 2.865396e+000 4.618757e+000 1.958376e+000 3.747291e+000 1.618336e+000 2.268447e+000 3.813941e-001 2.966654e-001 3.275372e-001 4.863937e-001 2.887244e-001 2.606125e-001 7.095122e-001 4.884601e-001 4.408237e-001 6.793735e-001 3.935113e-001 4.054419e-001 2.916515e-001 2.982409e-001 1.478330e-001
<GCONST> 1.208652e+002
<STATE> 4
<MEAN> 42
 -6.557349e+000 -8.859288e+000 -1.565622e+000 1.016393e+001 5.986812e+000 -2.000941e+001 -1.127024e+001 -1.268078e+001 -1.171932e+001 -1.325586e-001 -3.026066e+000 -7.305564e+000 4.334098e-001 8.324821e+001 -4.334425e-001 7.272078e-001 1.379853e-001 1.799320e-001 1.015365e-001 6.648564e-001 1.540981e-001 6.022614e-001 8.699325e-001 2.919010e-001 1.739993e-001 3.298150e-001 -3.805040e-002 -7.877704e-001 -2.127191e-001 1.248470e-001 1.774151e-001 -5.079518e-003 2.552158e-002 3.707062e-001 1.968190e-001 2.196042e-001 1.860887e-001 -3.570280e-002 -1.985214e-002 2.181382e-002 -7.314095e-002 -2.069559e-001
<VARIANCE> 42
 6.113361e+000 2.318807e+001 1.651873e+001 2.438192e+001 6.271907e+001 6.477380e+001 2.024571e+001 2.562188e+001 4.552639e+001 3.085088e+001 2.919171e+001 2.144051e+001 2.432140e+001 9.000103e+000 4.270635e-001 1.359149e+000 1.011377e+000 1.100162e+000 1.068313e+000 1.766351e+000 1.043345e+000 1.472174e+000 1.152966e+000 1.037048e+000 6.827171e-001 6.010173e-001 7.005449e-001 6.076340e-001 4.644228e-002 1.901252e-001 1.977596e-001 1.530752e-001 2.275705e-001 1.909614e-001 1.767193e-001 2.332281e-001 1.634610e-001 2.126497e-001 1.314494e-001 9.544732e-002 1.212478e-001 3.233163e-002
<GCONST> 9.300898e+001
<TRANSP> 5
 0.000000e+000 1.000000e+000 0.000000e+000 0.000000e+000 0.000000e+000
 0.000000e+000 8.642130e-001 1.357869e-001 0.000000e+000 0.000000e+000
 0.000000e+000 0.000000e+000 7.360122e-001 2.639878e-001 0.000000e+000
 0.000000e+000 0.000000e+000 0.000000e+000 9.137404e-001 8.625966e-002
 0.000000e+000 0.000000e+000 0.000000e+000 0.000000e+000 0.000000e+000
<ENDHMM>
~h "chi"
<BEGINHMM>
<NUMSTATES> 5
<STATE> 2
<MEAN> 42
 -2.869635e+001 -2.048118e+001 1.271675e+001 -2.715234e+000 -1.729667e+000 -7.488474e+000 3.329454e+000 -7.583550e+000 -7.914421e-001 -4.607893e+000 1.330695e+000 -3.699667e+000 3.277912e+000 8.310524e+001 4.906825e-001 -6.479643e-001 1.083117e+000 9.324594e-001 7.005489e-001 -1.155384e+000 -8.862774e-001 -5.328484e-001 -3.158006e-001 -6.808773e-001 -5.400498e-001 -7.663612e-001 -2.749427e-001 1.164248e+000 6.196506e-001 8.688298e-001 -4.651244e-001 6.933189e-001 3.924033e-001 1.015450e-001 -3.814170e-001 1.414310e-001 -2.161701e-001 -1.822548e-002 -2.456212e-001 -7.477061e-002 -1.975284e-001 -4.389013e-001
<VARIANCE> 42
 1.870671e+001 1.918098e+001 2.066387e+001 3.378968e+001 1.736067e+001 4.343733e+001 2.504867e+001 2.180475e+001 1.735350e+001 1.606809e+001 1.180407e+001 1.217467e+001 1.258679e+001 1.414716e+001 5.300136e+000 6.787042e+000 4.435476e+000 6.306623e+000 2.510592e+000 2.871804e+000 3.426621e+000 1.794722e+000 3.085888e+000 1.609378e+000 2.810187e+000 1.278605e+000 2.025130e+000 2.927080e+000 4.760222e-001 4.477971e-001 5.600474e-001 4.066996e-001 3.080199e-001 5.178821e-001 4.521593e-001 4.054558e-001 9.415866e-001 3.856664e-001 4.834904e-001 2.616187e-001 3.501892e-001 1.795394e-001
<GCONST> 1.212941e+002
<STATE> 3
<MEAN> 42
 -1.201236e+001 -1.060333e+001 1.117212e+001 1.670373e+001 8.017520e+000 -1.274845e+001 -1.063484e+001 -9.772980e+000 -1.273318e+001 -1.082155e+001 -8.352652e+000 -1.083570e+001 -2.664206e+000 8.338451e+001 2.910791e+000 1.789399e+000 -1.250105e+000 2.966425e+000 1.231857e+000 -1.744639e+000 -2.057596e+000 5.685566e-002 -2.911819e+000 -1.109678e+000 -9.589459e-001 -8.969041e-001 -4.654800e-001 -1.148474e-001 -9.523062e-001 -7.302428e-001 1.385447e-002 -8.855436e-001 -5.046555e-001 -1.819289e-001 6.704726e-001 4.114113e-001 7.441099e-001 3.571504e-001 6.763201e-001 4.270725e-001 4.450030e-001 7.325072e-002
<VARIANCE> 42
 1.979821e+001 1.477195e+001 3.061947e+001 2.514613e+001 6.813610e+001 8.314719e+001 2.422182e+001 3.135408e+001 4.402364e+001 2.486109e+001 1.773226e+001 2.498107e+001 1.285495e+001 2.630730e+000 3.585399e+000 4.144672e+000 1.509564e+000 4.141315e+000 3.585398e+000 5.917155e+000 3.756866e+000 3.814572e+000 4.748363e+000 3.134965e+000 4.215801e+000 2.239450e+000 2.262338e+000 4.166963e-001 2.727911e-001 2.898782e-001 4.220149e-001 2.780555e-001 3.128337e-001 8.641686e-001 3.974134e-001 4.199902e-001 7.390285e-001 3.600359e-001 4.344923e-001 2.283341e-001 2.923461e-001 4.582089e-002
<GCONST> 1.208122e+002
<STATE> 4
<MEAN> 42
 -1.135105e+001 -5.555025e+000 1.005513e+001 2.056312e+001 8.870886e+000 -1.881874e+001 -1.181142e+001 -4.626618e+000 -1.339249e+001 -1.207510e+001 -9.043056e+000 -9.467902e+000 -2.490145e-001 7.995464e+001 -4.527852e-001 8.809528e-001 3.874996e-002 -2.001503e-001 -2.657364e-002 5.701446e-001 4.067910e-001 3.779151e-001 8.329359e-001 2.627157e-001 -1.264650e-001 3.823413e-001 1.997799e-001 -7.869843e-001 -1.309332e-001 6.945909e-003 -1.005363e-001 -2.395626e-001 -5.155689e-002 3.522095e-001 2.168090e-001 1.100308e-002 2.045643e-001 1.668141e-001 8.464626e-002 4.957360e-002 -5.445927e-002 -1.197621e-001
<VARIANCE> 42
 7.346630e+000 2.953915e+001 2.081044e+001 2.644673e+001 6.260324e+001 8.809218e+001 2.832069e+001 3.913574e+001 3.427208e+001 2.955027e+001 2.163960e+001 1.974581e+001 1.715261e+001 1.043586e+001 2.031707e-001 9.794033e-001 7.704324e-001 1.176988e+000 9.192175e-001 1.848863e+000 1.560472e+000 1.092366e+000 1.325055e+000 1.249520e+000 8.478192e-001 6.789425e-001 6.454725e-001 3.718180e-001 4.087343e-002 2.146447e-001 1.893067e-001 1.720345e-001 1.549104e-001 2.130727e-001 2.589746e-001 1.866136e-001 2.475365e-001 2.272217e-001 1.900076e-001 1.328392e-001 1.141063e-001 3.186817e-002
<GCONST> 9.377322e+001
<TRANSP> 5
 0.000000e+000 1.000000e+000 0.000000e+000 0.000000e+000 0.000000e+000
 0.000000e+000 8.829934e-001 1.170067e-001 0.000000e+000 0.000000e+000
 0.000000e+000 0.000000e+000 7.483936e-001 2.516064e-001 0.000000e+000
 0.000000e+000 0.000000e+000 0.000000e+000 9.188384e-001 8.116157e-002
 0.000000e+000 0.000000e+000 0.000000e+000 0.000000e+000 0.000000e+000
<ENDHMM>
~h "cho"
<BEGINHMM>
<NUMSTATES> 5
<STATE> 2
<MEAN> 42
 -2.448976e+001 -2.305258e+001 8.187580e+000 -4.747092e-002 1.870190e+000 -8.058131e+000 -2.863051e+000 -6.567085e+000 6.133595e-001 -7.473114e+000 -1.921511e-001 -6.321288e-001 1.109246e+000 8.285030e+001 1.337888e+000 -3.771507e-002 4.049037e-001 1.667447e-001 6.193578e-001 -4.648179e-001 -1.098184e+000 -1.941920e+000 -1.300203e+000 -2.836185e-002 -4.626231e-001 -4.385885e-001 -3.578969e-001 1.231601e+000 7.490872e-001 1.296341e+000 -7.698629e-001 1.755570e-001 2.004024e-002 3.551924e-001 7.298068e-002 1.430679e-001 -5.706269e-001 2.791766e-001 3.000279e-002 -8.314728e-002 3.357143e-002 -5.608658e-001
<VARIANCE> 42
 1.930252e+001 2.400892e+001 3.493651e+001 2.010827e+001 2.038291e+001 3.102197e+001 3.483307e+001 4.019857e+001 2.997477e+001 2.724585e+001 3.334600e+001 1.647825e+001 1.716827e+001 9.458334e+000 8.378812e+000 1.529273e+001 7.884007e+000 3.335644e+000 1.056223e+000 4.502899e+000 3.321896e+000 2.169408e+000 7.870180e+000 3.076358e+000 3.136009e+000 1.613747e+000 1.125293e+000 4.586467e+000 8.542196e-001 8.931823e-001 7.709364e-001 6.282600e-001 4.230041e-001 7.905364e-001 6.885543e-001 6.609212e-001 1.278476e+000 6.236388e-001 7.423788e-001 2.782246e-001 3.214682e-001 3.926595e-001
<GCONST> 1.330371e+002
<STATE> 3
<MEAN> 42
 -3.957456e+000 -6.945121e+000 -3.741099e+000 2.145141e-002 4.149938e-001 -8.858303e+000 -5.318386e+000 -1.080734e+001 -1.683750e+001 -6.915348e+000 -4.716939e+000 -4.383862e+000 1.963283e+000 8.392069e+001 2.466789e+000 1.848484e+000 -2.006128e+000 -1.488037e+000 -1.791991e+000 -1.087559e+000 7.929888e-001 1.932314e+000 -1.195682e+000 -8.848496e-001 -2.037421e-001 -5.737755e-001 6.488956e-001 2.465505e-001 -1.012204e+000 -6.344231e-001 6.228393e-001 -2.459298e-001 -3.678781e-001 -2.589141e-001 1.374092e-001 4.999282e-001 1.237970e+000 -1.117683e-002 1.568373e-001 6.650642e-002 -7.675003e-002 -7.917272e-002
<VARIANCE> 42
 1.245483e+001 1.619418e+001 2.235310e+001 2.473406e+001 4.478796e+001 6.037659e+001 3.977147e+001 5.093491e+001 4.053167e+001 6.674987e+001 3.544505e+001 1.506090e+001 2.603516e+001 3.833993e+000 5.091011e+000 4.608557e+000 2.905445e+000 1.447749e+000 2.079041e+000 3.372462e+000 4.204031e+000 3.409965e+000 1.003544e+001 2.830393e+000 2.718669e+000 1.179501e+000 2.623891e+000 5.261423e-001 3.714211e-001 6.837032e-001 3.765007e-001 5.987455e-001 3.378634e-001 7.607444e-001 8.427644e-001 8.704404e-001 6.445540e-001 5.765782e-001 5.362297e-001 2.416312e-001 5.152466e-001 1.708911e-001
<GCONST> 1.271600e+002
<STATE> 4
<MEAN> 42
 -3.542642e+000 8.629748e-001 -2.867852e+000 -4.015981e+000 -1.088688e+001 -1.555013e+001 -1.616100e+000 1.555831e+000 -8.300375e+000 -9.377099e+000 -5.195090e+000 -7.203297e+000 1.251240e+000 7.984599e+001 -6.621913e-001 1.114806e+000 7.105348e-001 2.159951e-001 -1.955275e-001 2.416750e-001 1.815279e-001 5.667274e-001 1.131182e+000 3.463126e-001 -1.333669e-001 -5.912874e-002 -3.582331e-001 -9.494202e-001 -1.955043e-001 -1.256091e-001 4.746293e-002 1.734504e-001 3.823144e-001 3.339281e-001 6.690097e-002 -1.474789e-001 -6.659274e-002 1.300290e-001 6.984875e-002 9.236501e-002 -1.898973e-002 -1.024094e-001
<VARIANCE> 42
 8.339507e+000 3.307910e+001 1.581417e+001 1.943197e+001 4.904851e+001 3.685827e+001 5.308028e+001 1.589690e+001 3.406777e+001 3.288737e+001 2.077596e+001 1.584618e+001 1.470991e+001 1.253570e+001 4.704427e-001 6.928700e-001 5.446356e-001 9.931443e-001 2.747455e+000 2.839064e+000 2.201565e+000 1.485191e+000 1.114555e+000 1.465715e+000 1.064537e+000 8.233902e-001 7.321340e-001 3.687742e-001 3.556700e-002 1.934031e-001 1.355816e-001 1.714597e-001 2.289864e-001 2.440989e-001 3.703680e-001 1.938143e-001 2.183434e-001 2.271987e-001 1.940363e-001 1.386012e-001 1.221103e-001 2.132515e-002
<GCONST> 9.453516e+001
<TRANSP> 5
 0.000000e+000 1.000000e+000 0.000000e+000 0.000000e+000 0.000000e+000
 0.000000e+000 8.600852e-001 1.399148e-001 0.000000e+000 0.000000e+000
 0.000000e+000 0.000000e+000 7.958323e-001 2.041677e-001 0.000000e+000
 0.000000e+000 0.000000e+000 0.000000e+000 9.127763e-001 8.722371e-002
 0.000000e+000 0.000000e+000 0.000000e+000 0.000000e+000 0.000000e+000
<ENDHMM>
~h "chu"
<BEGINHMM>
<NUMSTATES> 5
<STATE> 2
<MEAN> 42
 -2.590991e+001 -2.226275e+001 6.429195e+000 -1.216503e+000 5.546014e+000 -7.024948e+000 -4.087139e+000 -8.947642e+000 5.901070e-001 -6.856244e+000 7.254614e-001 -2.140964e+000 1.579833e+000 8.305251e+001 7.130177e-001 -2.664160e-001 7.699713e-001 3.448380e-002 6.853108e-001 4.575116e-001 -5.335774e-001 -1.854901e+000 -1.024292e+000 -5.818360e-001 -2.422987e-001 -3.542535e-001 -2.813603e-001 1.091102e+000 6.290898e-001 1.243380e+000 -4.056064e-001 3.433816e-001 -1.176911e-001 3.720942e-001 2.433900e-001 2.675114e-001 -4.743504e-001 -4.834803e-002 -2.202164e-001 -7.441487e-002 -5.892006e-002 -5.844007e-001
<VARIANCE> 42
 1.532419e+001 1.676894e+001 2.949794e+001 1.254874e+001 1.974767e+001 3.951208e+001 3.324080e+001 6.795432e+001 4.678022e+001 4.159543e+001 3.828661e+001 1.406583e+001 1.614960e+001 1.101515e+001 5.686785e+000 1.110960e+001 5.030313e+000 3.054084e+000 1.573872e+000 6.311558e+000 4.625504e+000 3.168488e+000 6.983202e+000 3.035800e+000 3.274451e+000 1.615671e+000 1.625924e+000 4.094296e+000 6.639216e-001 4.892980e-001 6.899150e-001 4.052512e-001 3.380182e-001 1.130571e+000 7.747430e-001 1.026266e+000 1.229193e+000 8.445343e-001 8.081588e-001 4.143869e-001 3.358511e-001 2.253513e-001
<GCONST> 1.333259e+002
<STATE> 3
<MEAN> 42
 -7.211155e+000 -1.264493e+000 2.097211e+000 3.494836e+000 3.360278e+000 -5.162041e+000 -4.268075e+000 -7.880407e+000 -1.548790e+001 -1.533247e+001 -9.571362e+000 -9.081867e+000 -2.084641e+000 8.073366e+001 2.101672e+000 3.313302e+000 -4.906181e-001 -4.807114e-002 -1.534941e+000 -1.918896e+000 1.967992e-001 2.604281e+000 -8.715358e-001 -1.189360e+000 -1.511693e+000 -1.684082e+000 -6.459867e-001 -6.058789e-001 -7.697918e-001 -5.214946e-001 3.067084e-001 -3.056057e-001 -1.869214e-001 -3.713118e-001 -9.124475e-002 9.305276e-002 9.036560e-001 5.308439e-001 4.595234e-001 1.762058e-001 -7.583448e-002 1.670854e-002
<VARIANCE> 42
 1.981524e+001 4.012575e+001 2.604861e+001 2.200743e+001 4.691254e+001 7.921378e+001 3.728800e+001 8.740425e+001 7.030029e+001 7.431588e+001 3.200197e+001 2.910749e+001 3.668262e+001 3.276547e+000 4.929389e+000 4.480503e+000 2.221220e+000 2.298385e+000 2.002788e+000 4.586534e+000 3.167865e+000 5.046010e+000 1.243629e+001 4.377110e+000 4.056348e+000 2.153361e+000 3.806305e+000 3.149123e-001 3.326082e-001 4.723550e-001 3.526240e-001 3.992621e-001 3.880920e-001 1.444115e+000 6.850085e-001 1.433658e+000 1.372081e+000 5.725226e-001 4.958823e-001 5.558215e-001 8.549299e-001 5.873108e-002
<GCONST> 1.338472e+002
<STATE> 4
<MEAN> 42
 -7.252187e+000 1.078689e+001 6.222227e+000 1.975156e+000 -5.201599e+000 -1.393966e+001 -5.433881e+000 -8.140768e-001 -8.494754e+000 -1.133610e+001 -7.671059e+000 -1.063148e+001 -6.793460e+000 7.494647e+001 -6.359492e-001 4.609998e-001 3.967943e-001 2.744682e-001 1.255838e-001 6.633196e-001 -4.139764e-002 -3.648759e-001 9.864463e-001 1.061545e+000 5.484378e-001 6.587121e-001 -4.861160e-002 -7.388940e-001 -1.322388e-001 -3.134080e-001 -1.888560e-001 5.311122e-002 3.001395e-001 3.749550e-001 1.609444e-001 -6.403702e-002 -1.010488e-001 1.144280e-002 7.262073e-002 1.427682e-001 2.000455e-001 -2.935595e-002
<VARIANCE> 42
 6.149599e+000 1.162375e+001 1.162188e+001 1.535756e+001 3.398023e+001 5.102274e+001 1.833088e+001 2.564769e+001 3.240503e+001 3.207006e+001 2.511773e+001 1.795223e+001 1.796229e+001 9.098495e+000 3.176667e-001 1.110224e+000 5.742762e-001 5.776487e-001 1.698201e+000 2.105317e+000 1.167584e+000 1.337075e+000 1.262175e+000 1.473226e+000 1.175549e+000 7.879444e-001 1.176961e+000 1.416626e-001 2.231896e-002 1.088039e-001 1.011810e-001 1.226035e-001 1.323890e-001 1.978222e-001 2.145423e-001 3.515077e-001 1.793022e-001 2.255352e-001 1.841628e-001 1.553219e-001 1.411778e-001 1.371691e-002
<GCONST> 8.708955e+001
<TRANSP> 5
 0.000000e+000 1.000000e+000 0.000000e+000 0.000000e+000 0.000000e+000
 0.000000e+000 8.715440e-001 1.284560e-001 0.000000e+000 0.000000e+000
 0.000000e+000 0.000000e+000 8.386492e-001 1.613508e-001 0.000000e+000
 0.000000e+000 0.000000e+000 0.000000e+000 9.040993e-001 9.590071e-002
 0.000000e+000 0.000000e+000 0.000000e+000 0.000000e+000 0.000000e+000
<ENDHMM>
