~o
<STREAMINFO> 1 48
<VECSIZE> 48<NULLD><MFCC_D_A_0><DIAGC>
~h "a"
<BEGINHMM>
<NUMSTATES> 6
<STATE> 2
<MEAN> 48
 4.997120e+01 -4.293215e+01 -3.849215e+01 -4.088074e+00 -3.808915e+01 -3.209548e+01 -4.714185e+00 -5.792701e+00 -1.271914e+01 -6.353485e+00 2.383055e+00 7.232233e+00 6.701070e+00 8.780287e+00 9.092480e+00 1.232501e+02 2.707401e+00 -6.477188e+00 -2.294337e+00 -2.215751e+00 -1.883051e+00 1.894705e+00 2.650970e+00 1.209370e+00 1.665755e+00 6.223688e-01 2.331339e-01 8.038905e-01 6.365207e-01 1.175882e-01 2.531135e-01 7.601599e+00 -1.941507e+00 1.113342e+00 -7.745808e-01 -4.241399e-02 8.671561e-01 -1.789457e-01 1.378096e-01 3.039734e-01 -4.231442e-01 -1.317666e-01 -1.917745e-01 -3.749151e-01 -1.499700e-01 3.750740e-02 1.107028e-01 -2.314280e+00
<VARIANCE> 48
 3.933532e+01 1.208164e+02 8.546922e+01 5.300382e+01 9.176352e+01 5.006339e+01 3.315147e+01 4.566516e+01 5.267669e+01 3.490985e+01 3.170235e+01 3.334816e+01 2.473037e+01 2.282118e+01 1.564434e+01 4.743998e+01 9.203945e+00 1.231811e+01 3.744704e+00 5.467513e+00 5.839751e+00 6.637873e+00 4.980165e+00 4.307204e+00 3.394136e+00 2.915540e+00 3.673293e+00 4.035221e+00 2.709151e+00 2.689550e+00 1.679760e+00 1.417180e+01 9.192933e-01 2.641339e+00 6.740811e-01 1.051065e+00 9.346346e-01 1.246794e+00 1.132246e+00 5.583206e-01 5.414121e-01 7.420077e-01 7.180945e-01 7.821841e-01 5.619758e-01 5.848995e-01 3.712678e-01 1.081820e+00
<GCONST> 1.696241e+02
<STATE> 3
<MEAN> 48
 4.860639e+01 -4.812710e+01 -4.126728e+01 -6.513095e+00 -3.812272e+01 -3.074705e+01 -2.594426e+00 -4.577575e+00 -1.161920e+01 -6.207903e+00 1.609968e+00 6.786528e+00 6.842413e+00 8.972219e+00 1.015856e+01 1.288956e+02 -3.012076e-01 -2.345416e+00 -1.999324e+00 -1.320611e+00 3.597717e-01 1.613305e+00 2.168294e+00 1.292106e+00 9.671314e-01 6.266856e-01 -1.122191e-01 -1.021083e-01 6.710088e-02 -8.541689e-02 1.929470e-01 2.129905e+00 -9.347881e-01 1.467570e+00 2.080954e-01 4.580423e-01 7.713273e-01 -1.465699e-01 -2.516253e-01 -4.750915e-02 -3.831824e-01 -8.315265e-02 -8.225157e-02 -2.586780e-01 -1.437959e-01 -3.783641e-02 -9.003202e-02 -2.003004e+00
<VARIANCE> 48
 3.214602e+01 9.718594e+01 8.481588e+01 6.106052e+01 9.222936e+01 6.390107e+01 6.552398e+01 5.266803e+01 4.705194e+01 2.880806e+01 3.137662e+01 2.580310e+01 2.382685e+01 2.751057e+01 1.543647e+01 2.049093e+01 2.695111e+00 8.823370e+00 2.745794e+00 3.241474e+00 4.343943e+00 5.115952e+00 5.908345e+00 3.616973e+00 3.133408e+00 3.204838e+00 3.413490e+00 2.953149e+00 1.769397e+00 1.878968e+00 1.554223e+00 5.970775e+00 1.255558e+00 1.485936e+00 5.361860e-01 6.367652e-01 9.048725e-01 8.148016e-01 7.973457e-01 5.846071e-01 4.890309e-01 4.601631e-01 6.557318e-01 5.535837e-01 4.348842e-01 4.645996e-01 2.824062e-01 1.050081e+00
<GCONST> 1.605220e+02
<STATE> 4
<MEAN> 48
 4.702780e+01 -5.075353e+01 -4.525528e+01 -7.799217e+00 -3.526779e+01 -2.731438e+01 1.474865e+00 -1.748234e+00 -9.828542e+00 -4.606870e+00 1.327852e+00 5.863967e+00 6.185989e+00 8.486054e+00 1.000701e+01 1.291375e+02 -3.786933e-01 -1.401128e-01 -8.813069e-01 -4.869298e-01 5.868839e-01 8.795363e-01 1.098084e+00 8.559329e-01 3.190827e-01 2.261917e-01 2.250272e-02 -2.969460e-01 -2.179625e-01 -5.648100e-02 6.896463e-04 -7.671226e-01 -1.295022e-01 5.623165e-01 1.271150e-01 9.190322e-02 6.799810e-02 -2.051142e-01 -2.848805e-01 -8.197514e-02 -1.453179e-01 -1.010088e-01 3.841791e-02 -5.137458e-02 -8.019564e-02 -2.617518e-03 -8.992230e-03 -7.857926e-01
<VARIANCE> 48
 2.276793e+01 7.357336e+01 6.023174e+01 5.479495e+01 6.628254e+01 6.558308e+01 7.163321e+01 4.330687e+01 4.986950e+01 3.997856e+01 3.133453e+01 3.441779e+01 1.911096e+01 1.670207e+01 1.381341e+01 2.130008e+01 2.504893e+00 5.104685e+00 1.627416e+00 2.574256e+00 3.160022e+00 3.052399e+00 4.203588e+00 3.160617e+00 3.689831e+00 3.176442e+00 3.452090e+00 3.034513e+00 1.640225e+00 1.356106e+00 1.331907e+00 3.530644e+00 5.229889e-01 9.197360e-01 3.675769e-01 5.493768e-01 6.122158e-01 6.164592e-01 8.919639e-01 6.447324e-01 6.749608e-01 6.044928e-01 7.244501e-01 6.162918e-01 2.923803e-01 2.667911e-01 3.057312e-01 5.216376e-01
<GCONST> 1.522349e+02
<STATE> 5
<MEAN> 48
 4.152627e+01 -4.763855e+01 -5.159245e+01 -8.877563e+00 -3.043738e+01 -2.288544e+01 5.886836e+00 2.895403e+00 -8.393415e+00 -3.252529e+00 2.764480e+00 5.175281e+00 4.879735e+00 7.981871e+00 1.042835e+01 1.151868e+02 -2.029927e+00 7.992222e-01 -4.219904e-01 1.078917e+00 2.754310e-01 -4.329402e-01 -1.943506e-01 5.323728e-02 -4.749807e-02 7.930945e-02 8.782452e-02 3.283412e-02 -1.818460e-02 -6.183453e-02 8.762448e-02 -3.913631e+00 -4.455208e-01 3.587420e-02 1.320175e-01 3.582748e-01 3.964121e-02 -2.674794e-01 -2.246810e-01 -2.260048e-01 -1.571023e-01 -4.142497e-02 -4.471492e-02 -1.735942e-02 7.288537e-02 6.305823e-02 4.788078e-02 -3.590002e-01
<VARIANCE> 48
 4.931396e+01 1.027386e+02 5.776957e+01 8.447133e+01 8.052918e+01 5.675775e+01 5.424427e+01 5.293704e+01 4.961297e+01 4.024949e+01 3.264751e+01 3.381255e+01 2.541818e+01 2.033813e+01 1.805018e+01 1.210536e+02 4.400501e+00 8.187306e+00 2.874595e+00 6.708278e+00 4.881734e+00 4.216485e+00 5.206853e+00 5.056588e+00 4.961044e+00 3.083093e+00 3.094066e+00 3.165637e+00 2.232648e+00 1.678524e+00 1.358068e+00 6.232095e+00 6.777357e-01 1.394217e+00 4.623726e-01 1.244065e+00 1.012323e+00 7.431667e-01 1.067157e+00 1.045889e+00 9.641237e-01 5.905303e-01 7.484688e-01 7.600435e-01 4.395464e-01 3.415548e-01 2.967750e-01 6.036233e-01
<GCONST> 1.659521e+02
<TRANSP> 6
 0.000000e+00 1.000000e+00 0.000000e+00 0.000000e+00 0.000000e+00 0.000000e+00
 0.000000e+00 3.780775e-01 6.219224e-01 0.000000e+00 0.000000e+00 0.000000e+00
 0.000000e+00 0.000000e+00 4.167056e-01 5.832944e-01 0.000000e+00 0.000000e+00
 0.000000e+00 0.000000e+00 0.000000e+00 8.091199e-01 1.908801e-01 0.000000e+00
 0.000000e+00 0.000000e+00 0.000000e+00 0.000000e+00 8.550555e-01 1.449445e-01
 0.000000e+00 0.000000e+00 0.000000e+00 0.000000e+00 0.000000e+00 0.000000e+00
<ENDHMM>
~h "b"
<BEGINHMM>
<NUMSTATES> 6
<STATE> 2
<MEAN> 48
 2.641770e+01 -2.226460e+01 -4.268628e+01 3.565344e+00 -2.550041e+01 -4.322520e+01 -1.790099e+01 -1.368252e+01 -2.535500e+01 -1.195839e+01 -1.264834e+00 7.798423e-01 3.671710e+00 8.704576e+00 9.820980e+00 8.517256e+01 1.185456e+00 7.572051e-01 2.794327e-01 -3.675475e-01 -7.017489e-01 -3.184090e-01 -3.230350e-02 -2.527830e-01 -4.920962e-01 -2.680056e-01 6.423749e-03 2.713485e-01 2.474187e-01 -1.566464e-02 -1.999480e-01 6.789144e-01 -2.361291e-01 -4.616839e-01 -6.212164e-02 -1.860765e-02 1.628135e-01 3.840407e-01 2.872330e-01 3.079163e-01 3.669995e-01 2.484995e-01 1.614743e-01 9.836460e-02 -1.364679e-02 -4.372314e-02 1.615409e-02 1.073600e-01
<VARIANCE> 48
 5.085645e+01 6.770356e+01 3.625673e+01 7.129848e+01 5.638056e+01 3.743375e+01 6.254635e+01 6.930910e+01 5.338310e+01 6.157876e+01 5.116339e+01 4.497134e+01 3.506206e+01 2.472062e+01 1.815520e+01 3.412946e+01 6.036211e+00 3.993651e+00 3.285728e+00 3.367825e+00 3.361322e+00 3.739469e+00 4.891274e+00 5.250562e+00 4.417383e+00 4.360830e+00 3.421621e+00 3.295754e+00 2.412050e+00 2.324197e+00 1.545726e+00 2.288762e+00 9.663558e-01 8.226010e-01 6.925427e-01 7.431515e-01 7.291284e-01 7.693318e-01 8.717550e-01 1.036890e+00 8.382691e-01 8.816954e-01 7.062773e-01 6.422116e-01 4.784508e-01 5.249109e-01 3.336208e-01 8.528802e-01
<GCONST> 1.637090e+02
<STATE> 3
<MEAN> 48
 2.746845e+01 -2.241102e+01 -4.283433e+01 1.867160e+00 -2.724581e+01 -4.192075e+01 -1.594779e+01 -1.227405e+01 -2.346336e+01 -1.091881e+01 -5.681003e-01 2.311771e+00 4.496153e+00 8.922862e+00 9.973469e+00 8.618071e+01 1.586665e+00 -8.690010e-01 1.109805e+00 1.082940e-01 3.983225e-01 1.512263e+00 7.118960e-01 9.370853e-02 5.719878e-01 3.188067e-01 2.106416e-01 4.167994e-01 2.359820e-01 1.692686e-02 -1.494794e-01 2.601674e+00 1.103801e+00 -1.538513e+00 5.154711e-01 4.931886e-01 2.452830e-01 6.330355e-01 -1.732800e-01 -5.037048e-01 3.533276e-01 3.548468e-01 1.716446e-01 7.849725e-02 -5.484683e-02 -7.586230e-02 -1.653639e-02 2.177568e+00
<VARIANCE> 48
 4.128475e+01 1.348228e+02 3.395163e+01 9.833855e+01 5.398315e+01 4.373904e+01 7.863296e+01 9.041472e+01 7.328197e+01 8.961396e+01 4.551653e+01 3.851242e+01 3.224840e+01 2.521025e+01 2.002332e+01 4.032725e+01 7.230195e+00 6.508170e+00 4.594662e+00 6.499721e+00 4.870994e+00 4.890602e+00 5.221771e+00 4.776999e+00 5.115431e+00 4.342028e+00 2.632734e+00 3.333815e+00 2.432492e+00 2.359533e+00 1.650963e+00 9.719848e+00 1.491040e+00 2.135247e+00 8.991828e-01 1.523798e+00 1.543438e+00 1.110890e+00 1.372380e+00 1.068036e+00 1.149787e+00 1.200984e+00 5.531831e-01 8.933219e-01 6.634276e-01 5.550805e-01 3.232894e-01 1.881236e+00
<GCONST> 1.751925e+02
<STATE> 4
<MEAN> 48
 3.007907e+01 -2.483025e+01 -4.013994e+01 2.865982e+00 -2.578061e+01 -3.827206e+01 -1.442371e+01 -1.150528e+01 -2.120020e+01 -9.825624e+00 1.343032e-01 3.027297e+00 4.966102e+00 9.451797e+00 1.009457e+01 9.116038e+01 4.653068e+00 -4.386408e+00 2.395412e+00 1.376659e+00 3.145787e-01 2.353877e+00 5.956188e-02 -1.412245e+00 8.342885e-01 8.424317e-01 5.467290e-01 5.576515e-01 1.149021e-01 -1.777767e-01 -1.797342e-01 8.015586e+00 9.855505e-01 -1.948979e+00 1.624633e-01 3.209000e-01 -3.697932e-01 -5.014898e-02 -4.726248e-01 -6.052080e-01 3.084542e-01 3.576505e-01 1.663899e-01 9.359307e-02 -8.195894e-02 -1.448101e-01 3.979847e-02 2.347334e+00
<VARIANCE> 48
 4.735104e+01 1.751587e+02 5.342990e+01 8.678162e+01 5.985295e+01 6.577469e+01 8.500098e+01 6.942643e+01 4.929967e+01 6.408337e+01 4.358966e+01 3.621502e+01 2.910243e+01 1.836179e+01 1.900222e+01 8.518356e+01 9.703626e+00 1.916600e+01 4.965156e+00 1.308161e+01 1.177192e+01 5.625378e+00 8.111346e+00 6.196542e+00 5.048625e+00 5.949488e+00 3.258898e+00 5.172854e+00 3.602706e+00 3.125973e+00 1.854353e+00 1.364179e+01 1.400167e+00 2.329454e+00 1.457197e+00 1.575295e+00 1.290172e+00 1.304880e+00 1.957736e+00 1.211975e+00 9.760730e-01 9.279994e-01 5.933264e-01 8.996248e-01 5.928782e-01 5.594696e-01 3.777124e-01 1.930857e+00
<GCONST> 1.823782e+02
<STATE> 5
<MEAN> 48
 4.085598e+01 -3.353033e+01 -3.330786e+01 5.825867e+00 -2.533370e+01 -3.361231e+01 -1.474464e+01 -1.445828e+01 -1.947415e+01 -7.956738e+00 1.223455e+00 4.284796e+00 5.292079e+00 8.954752e+00 9.494270e+00 1.095282e+02 5.513012e+00 -7.343045e+00 1.969923e+00 1.260028e+00 -1.089908e+00 1.613403e+00 -8.528480e-01 -2.128674e+00 1.523392e+00 1.419218e+00 7.106998e-01 7.289625e-01 -1.200449e-01 -4.980334e-01 -1.239327e-01 1.058711e+01 -6.484557e-01 -7.654920e-01 -7.563339e-01 -2.910687e-01 -3.191840e-01 -4.380369e-01 -1.870577e-01 5.775968e-02 1.784929e-01 6.522946e-02 -2.040806e-02 -3.589064e-02 -3.184918e-02 9.008814e-03 1.453784e-01 -4.072110e-02
<VARIANCE> 48
 7.070533e+01 2.004386e+02 5.232243e+01 1.106623e+02 1.064851e+02 5.311721e+01 6.550911e+01 7.528855e+01 5.502573e+01 4.883479e+01 5.726670e+01 4.654660e+01 2.817387e+01 2.361674e+01 1.382444e+01 1.453338e+02 8.044750e+00 1.609684e+01 8.543691e+00 1.361050e+01 1.267979e+01 8.764143e+00 1.487118e+01 1.094324e+01 5.410241e+00 6.126976e+00 3.857339e+00 4.762479e+00 4.086647e+00 3.363750e+00 1.927691e+00 9.161870e+00 1.446063e+00 2.745364e+00 9.511663e-01 1.332432e+00 1.307217e+00 1.157264e+00 1.502372e+00 9.623620e-01 7.466574e-01 9.649210e-01 8.459990e-01 9.864056e-01 5.789853e-01 6.069983e-01 3.762309e-01 2.885720e+00
<GCONST> 1.857278e+02
<TRANSP> 6
 0.000000e+00 1.000000e+00 0.000000e+00 0.000000e+00 0.000000e+00 0.000000e+00
 0.000000e+00 8.216732e-01 1.783269e-01 0.000000e+00 0.000000e+00 0.000000e+00
 0.000000e+00 0.000000e+00 3.942150e-01 6.057850e-01 0.000000e+00 0.000000e+00
 0.000000e+00 0.000000e+00 0.000000e+00 3.026793e-01 6.973206e-01 0.000000e+00
 0.000000e+00 0.000000e+00 0.000000e+00 0.000000e+00 1.639764e-01 8.360236e-01
 0.000000e+00 0.000000e+00 0.000000e+00 0.000000e+00 0.000000e+00 0.000000e+00
<ENDHMM>
~h "e"
<BEGINHMM>
<NUMSTATES> 6
<STATE> 2
<MEAN> 48
 4.511706e+01 -5.290099e+01 -3.001702e+01 1.800772e+01 -1.933289e+01 -3.513994e+01 -2.981660e+01 -3.160041e+01 -2.223823e+01 -4.343541e+00 3.695152e+00 4.243942e+00 2.758622e+00 6.798899e+00 1.005846e+01 1.277995e+02 2.242464e+00 -6.612742e+00 2.099944e+00 2.495718e+00 -3.316373e-01 -4.624920e-01 -3.368277e+00 -3.369494e+00 1.050541e+00 1.467185e+00 8.289772e-01 4.111933e-01 -2.530662e-01 -2.682494e-01 2.833380e-01 7.694687e+00 -1.366771e+00 1.488921e+00 -6.264524e-01 -7.498494e-01 -5.412399e-01 -5.891408e-01 7.404082e-01 1.177220e+00 7.762744e-02 -3.011863e-01 -1.451610e-01 -6.470452e-02 1.709272e-01 1.926222e-01 4.300348e-02 -2.413215e+00
<VARIANCE> 48
 4.114256e+01 1.381073e+02 5.209040e+01 3.874306e+01 8.516188e+01 5.383247e+01 4.659013e+01 6.003493e+01 6.915040e+01 8.575034e+01 6.960316e+01 5.538277e+01 4.693329e+01 3.601994e+01 2.155672e+01 5.138046e+01 6.678370e+00 1.484641e+01 5.539576e+00 3.934278e+00 5.369184e+00 4.227778e+00 8.016368e+00 7.746106e+00 4.207193e+00 3.544894e+00 4.713613e+00 5.187082e+00 4.604159e+00 2.712660e+00 1.861580e+00 1.600646e+01 1.060994e+00 2.374072e+00 8.940866e-01 6.737022e-01 1.558228e+00 1.002867e+00 1.395648e+00 1.169137e+00 9.936979e-01 1.069492e+00 7.887386e-01 9.050712e-01 8.394342e-01 6.012397e-01 4.761063e-01 1.144736e+00
<GCONST> 1.787610e+02
<STATE> 3
<MEAN> 48
 4.373463e+01 -6.027782e+01 -2.752333e+01 2.031154e+01 -2.047622e+01 -3.556104e+01 -3.093694e+01 -3.138158e+01 -1.871845e+01 -2.000071e+00 5.409783e+00 5.506839e+00 3.555086e+00 7.459275e+00 1.108110e+01 1.336849e+02 -2.935963e-01 -1.463340e+00 1.125552e+00 8.233063e-01 -4.591390e-01 -7.175277e-01 -8.339802e-01 -1.357078e-01 6.917703e-01 2.313716e-01 1.683859e-01 -4.595221e-03 -2.140952e-01 -9.866899e-02 4.957726e-04 1.397595e+00 -5.775973e-01 1.503285e+00 -3.774886e-01 -4.735134e-01 -3.699863e-02 -1.058988e-01 5.574341e-01 6.969572e-01 -1.924936e-01 -4.197364e-01 -3.038857e-01 -1.138128e-01 2.302719e-02 1.020139e-01 -3.701726e-02 -1.899333e+00
<VARIANCE> 48
 4.787476e+01 1.079595e+02 5.788102e+01 2.933119e+01 5.608958e+01 6.282785e+01 4.773784e+01 5.953678e+01 7.072832e+01 6.328958e+01 5.480328e+01 5.163155e+01 5.071410e+01 3.511238e+01 2.073713e+01 2.591387e+01 3.525166e+00 6.949602e+00 2.748552e+00 2.016844e+00 4.277030e+00 3.663145e+00 5.203039e+00 5.070394e+00 4.092726e+00 3.873744e+00 4.274520e+00 3.404685e+00 2.966272e+00 1.820163e+00 1.668525e+00 5.936502e+00 1.126617e+00 1.551799e+00 9.324390e-01 5.073638e-01 6.407502e-01 8.548717e-01 1.370593e+00 1.292194e+00 6.097880e-01 7.068380e-01 7.942180e-01 8.518319e-01 7.755470e-01 4.680496e-01 3.458472e-01 1.100791e+00
<GCONST> 1.673755e+02
<STATE> 4
<MEAN> 48
 4.207949e+01 -6.021693e+01 -2.395890e+01 2.264881e+01 -2.362984e+01 -3.888393e+01 -3.292014e+01 -3.120068e+01 -1.834534e+01 -4.786804e+00 2.326341e+00 3.565259e+00 1.639740e+00 6.635521e+00 1.025730e+01 1.302228e+02 -4.067200e-01 5.100638e-01 -3.223538e-02 3.108424e-01 -4.033156e-02 -3.348297e-01 -1.858405e-01 -3.790038e-02 1.065928e-02 -1.339213e-01 -3.121210e-01 -1.440004e-01 -5.085256e-02 6.355655e-02 8.335446e-02 -1.513317e+00 -1.374374e-01 4.503906e-01 -2.687670e-01 -7.927445e-02 1.326472e-01 3.312370e-02 1.441339e-01 8.683485e-02 -1.138775e-01 -6.842947e-03 -4.756808e-02 -8.060759e-02 -3.817128e-03 5.185860e-03 -4.419129e-03 -6.924338e-01
<VARIANCE> 48
 4.129144e+01 9.004023e+01 3.581446e+01 2.450266e+01 6.042734e+01 5.750697e+01 4.275698e+01 6.037956e+01 8.399419e+01 6.852386e+01 5.085658e+01 4.280596e+01 2.944889e+01 2.660851e+01 2.082468e+01 3.399015e+01 2.374984e+00 5.514695e+00 2.992874e+00 1.615100e+00 3.389803e+00 3.485833e+00 3.774378e+00 4.106507e+00 4.054005e+00 3.676272e+00 3.311651e+00 2.932829e+00 2.016006e+00 1.580333e+00 1.344871e+00 3.503997e+00 5.389945e-01 8.005139e-01 4.622626e-01 2.985782e-01 5.983170e-01 6.517590e-01 8.639809e-01 9.450236e-01 8.187290e-01 7.681267e-01 6.880930e-01 6.450859e-01 4.246653e-01 3.195279e-01 2.624378e-01 3.950301e-01
<GCONST> 1.563324e+02
<STATE> 5
<MEAN> 48
 3.729971e+01 -5.071680e+01 -2.948714e+01 2.366989e+01 -2.181601e+01 -4.096113e+01 -3.218822e+01 -3.021832e+01 -1.941937e+01 -4.519584e+00 5.273222e-01 1.808784e+00 1.481226e+00 7.128407e+00 1.106564e+01 1.113843e+02 -2.571926e+00 1.869554e+00 -2.678105e+00 -4.613917e-01 6.626648e-01 4.195224e-01 1.890540e+00 2.091391e+00 6.803827e-01 5.504363e-01 -1.704782e-01 -4.478298e-01 -3.414889e-02 -2.001014e-02 -1.110655e-01 -5.216058e+00 -5.846072e-01 -2.224205e-01 -6.054965e-01 -4.275753e-01 1.236490e-01 4.455545e-01 7.315493e-01 7.142703e-01 2.985964e-01 1.719478e-01 1.354050e-01 3.923016e-02 3.658189e-02 -1.921746e-02 -4.198727e-02 -2.430228e-01
<VARIANCE> 48
 4.532122e+01 9.934669e+01 6.325151e+01 4.413296e+01 8.118771e+01 5.642616e+01 4.541168e+01 5.744174e+01 7.405402e+01 5.767075e+01 4.962584e+01 3.584798e+01 3.992411e+01 3.427808e+01 2.059483e+01 1.108351e+02 4.093486e+00 7.647558e+00 4.822752e+00 3.570935e+00 4.441208e+00 6.502100e+00 7.047937e+00 7.691216e+00 6.383637e+00 5.314348e+00 4.845270e+00 3.981601e+00 2.753635e+00 1.774782e+00 1.185675e+00 4.196311e+00 6.411194e-01 9.693160e-01 8.157665e-01 7.106945e-01 8.469738e-01 9.223788e-01 1.024270e+00 1.133195e+00 1.133656e+00 1.085441e+00 9.912386e-01 6.108128e-01 5.271558e-01 3.620669e-01 2.513800e-01 6.598225e-01
<GCONST> 1.701140e+02
<TRANSP> 6
 0.000000e+00 1.000000e+00 0.000000e+00 0.000000e+00 0.000000e+00 0.000000e+00
 0.000000e+00 5.017238e-01 4.982763e-01 0.000000e+00 0.000000e+00 0.000000e+00
 0.000000e+00 0.000000e+00 5.471805e-01 4.528195e-01 0.000000e+00 0.000000e+00
 0.000000e+00 0.000000e+00 0.000000e+00 8.537710e-01 1.462291e-01 0.000000e+00
 0.000000e+00 0.000000e+00 0.000000e+00 0.000000e+00 7.825486e-01 2.174514e-01
 0.000000e+00 0.000000e+00 0.000000e+00 0.000000e+00 0.000000e+00 0.000000e+00
<ENDHMM>
~h "silence"
<BEGINHMM>
<NUMSTATES> 6
<STATE> 2
<MEAN> 48
 1.774224e+01 -4.093768e+01 -4.727373e+01 6.913465e+00 -2.238637e+01 -3.282363e+01 -7.746653e+00 -5.978380e+00 -1.337635e+01 -3.452600e+00 3.002325e+00 3.619906e+00 4.424762e+00 8.798013e+00 1.148862e+01 8.510507e+01 -2.092714e+00 6.743777e-01 -5.416936e-01 1.565839e-01 9.160491e-01 1.848614e-02 2.744815e-01 6.208837e-01 -2.335378e-01 3.050446e-02 2.085146e-01 -2.459069e-01 -2.194963e-01 -4.302735e-02 -5.001224e-02 -2.288139e+00 1.188444e-01 1.518236e-01 1.192381e-01 -2.979544e-01 -7.810888e-02 -1.661870e-01 -2.183643e-01 -2.766332e-02 -4.876036e-02 -6.240887e-02 -6.711260e-03 -4.686203e-02 -1.058369e-01 -3.461986e-02 9.907349e-02 2.915562e-01
<VARIANCE> 48
 1.334144e+02 1.647234e+02 4.572745e+01 1.318857e+02 7.278194e+01 6.751876e+01 1.484469e+02 9.638517e+01 6.277740e+01 6.970671e+01 3.487044e+01 3.089365e+01 3.355995e+01 2.759576e+01 2.095080e+01 1.327385e+02 6.349550e+00 4.818936e+00 4.976790e+00 5.587916e+00 3.261158e+00 4.270346e+00 9.677376e+00 7.044702e+00 4.785613e+00 4.386151e+00 4.568398e+00 3.724612e+00 2.642143e+00 2.304661e+00 1.792898e+00 7.018429e+00 2.573474e-01 7.500435e-01 4.586481e-01 4.723802e-01 4.970113e-01 6.011065e-01 7.461706e-01 7.031796e-01 7.871568e-01 7.365449e-01 5.941663e-01 6.703955e-01 4.933471e-01 2.942441e-01 2.129837e-01 2.733952e-01
<GCONST> 1.676694e+02
<STATE> 3
<MEAN> 48
 1.503644e+01 -3.929874e+01 -4.831658e+01 6.268858e+00 -2.044997e+01 -3.298867e+01 -8.639508e+00 -4.740976e+00 -1.321927e+01 -3.064353e+00 3.363685e+00 2.509457e+00 3.112360e+00 8.089693e+00 1.123147e+01 8.212888e+01 -1.913896e+00 1.243614e+00 -4.043131e-01 -5.980472e-01 6.472440e-01 -2.010168e-01 -1.945378e-01 5.652978e-01 -1.595219e-01 -2.051843e-01 8.275375e-02 -3.083640e-01 -3.592984e-01 -4.866881e-02 1.753835e-01 -2.063893e+00 5.609858e-01 2.571463e-01 2.617401e-01 -2.346391e-01 -2.922739e-01 -1.986945e-01 -2.916969e-01 -3.496980e-01 -2.658557e-01 -2.434450e-01 -1.281455e-01 5.035163e-02 6.894743e-02 8.208098e-02 6.360800e-02 5.315059e-01
<VARIANCE> 48
 1.009466e+02 1.814965e+02 4.744216e+01 1.149761e+02 7.564056e+01 6.018383e+01 1.326906e+02 8.924926e+01 6.055463e+01 7.250069e+01 3.694277e+01 3.557687e+01 3.378584e+01 2.661829e+01 1.976915e+01 1.020705e+02 6.778881e+00 6.086781e+00 3.916109e+00 6.463799e+00 3.736086e+00 3.201976e+00 7.115095e+00 5.246537e+00 4.668164e+00 4.361167e+00 3.529057e+00 3.468231e+00 2.723954e+00 2.215804e+00 1.594896e+00 5.607205e+00 4.715644e-01 9.689463e-01 7.198432e-01 6.110127e-01 6.674784e-01 8.617578e-01 1.166451e+00 1.078008e+00 1.077087e+00 1.065161e+00 9.865042e-01 8.740269e-01 5.687438e-01 4.612077e-01 3.589498e-01 3.585479e-01
<GCONST> 1.716524e+02
<STATE> 4
<MEAN> 48
 1.155114e+01 -3.188858e+01 -4.575750e+01 3.521978e+00 -1.990208e+01 -3.491216e+01 -1.356527e+01 -7.411329e+00 -1.584280e+01 -5.771737e+00 1.802249e+00 9.862302e-01 1.917431e+00 7.825770e+00 1.108521e+01 7.743459e+01 -4.492449e-01 1.713022e+00 3.361095e-01 -6.796501e-01 -7.053754e-02 -4.403416e-01 -5.283095e-01 -1.952151e-01 -6.368390e-01 -6.532499e-01 -3.566138e-01 -2.253733e-01 -8.041819e-02 1.629123e-01 1.173887e-01 -8.834606e-01 8.614354e-01 8.286992e-04 2.055013e-01 1.229977e-01 -3.061270e-01 -1.565763e-01 -1.673244e-02 -2.886952e-01 -2.403738e-01 -1.648941e-01 -1.505536e-01 9.626912e-02 1.277694e-01 6.721344e-02 -2.718646e-02 7.064187e-01
<VARIANCE> 48
 9.230396e+01 3.270952e+02 1.688058e+02 1.053962e+02 6.698694e+01 5.303178e+01 1.907696e+02 1.287639e+02 7.099178e+01 7.671816e+01 4.768832e+01 4.551279e+01 3.512160e+01 2.312283e+01 2.131729e+01 1.078862e+02 1.084853e+01 1.165675e+01 7.792380e+00 5.354944e+00 4.332217e+00 4.108769e+00 1.011076e+01 8.564959e+00 5.842464e+00 5.889954e+00 3.600015e+00 3.764846e+00 2.524463e+00 2.078884e+00 1.616706e+00 7.931437e+00 1.302429e+00 2.563521e+00 1.341583e+00 1.166871e+00 6.630803e-01 7.239611e-01 1.848104e+00 1.520575e+00 1.168446e+00 1.148296e+00 8.293560e-01 8.384969e-01 5.836998e-01 4.772584e-01 3.829038e-01 1.149763e+00
<GCONST> 1.833810e+02
<STATE> 5
<MEAN> 48
 1.692232e+01 -2.959271e+01 -4.681878e+01 3.383805e+00 -2.090997e+01 -3.704496e+01 -1.278044e+01 -6.473967e+00 -1.679087e+01 -6.100942e+00 1.858877e+00 1.685530e+00 3.435259e+00 9.545377e+00 1.201482e+01 8.027145e+01 1.063548e+00 9.839957e-01 3.433317e-01 -2.416889e-01 -5.357569e-01 -6.206166e-01 -3.060703e-01 -4.577777e-01 -7.553899e-01 -5.747224e-01 -3.275290e-01 1.192880e-01 1.865120e-01 2.406667e-01 5.879498e-02 4.821617e-01 2.745584e-01 -1.263165e-01 8.034841e-02 5.816152e-02 -1.459708e-01 -3.779932e-02 5.106536e-02 -4.062644e-02 -2.775855e-02 -5.603251e-03 5.645542e-03 1.002632e-01 6.935007e-02 1.762925e-02 -4.477525e-02 2.724469e-01
<VARIANCE> 48
 6.683836e+01 1.448847e+02 4.904855e+01 8.979329e+01 6.073049e+01 3.976363e+01 1.200016e+02 5.692419e+01 5.411353e+01 5.889850e+01 3.649487e+01 3.651205e+01 3.057163e+01 2.175314e+01 1.488228e+01 4.462182e+01 6.950671e+00 5.180598e+00 4.344869e+00 3.226666e+00 3.190423e+00 3.016680e+00 6.319930e+00 7.175415e+00 5.354761e+00 5.145378e+00 4.219602e+00 3.304236e+00 2.712317e+00 2.145992e+00 1.573591e+00 2.891905e+00 7.165029e-01 5.648003e-01 4.695387e-01 5.494767e-01 4.423267e-01 4.775562e-01 8.522052e-01 8.018408e-01 6.937255e-01 7.424137e-01 6.305127e-01 5.882225e-01 4.525003e-01 3.371282e-01 2.295521e-01 3.660960e-01
<GCONST> 1.619886e+02
<TRANSP> 6
 0.000000e+00 1.000000e+00 0.000000e+00 0.000000e+00 0.000000e+00 0.000000e+00
 0.000000e+00 3.331628e-01 6.668371e-01 0.000000e+00 0.000000e+00 0.000000e+00
 0.000000e+00 0.000000e+00 3.625104e-01 6.374896e-01 0.000000e+00 0.000000e+00
 0.000000e+00 0.000000e+00 0.000000e+00 4.793946e-01 5.206054e-01 0.000000e+00
 0.000000e+00 0.000000e+00 0.000000e+00 0.000000e+00 6.675871e-01 3.324129e-01
 0.000000e+00 0.000000e+00 0.000000e+00 0.000000e+00 0.000000e+00 0.000000e+00
<ENDHMM>
