~h "b"
<BEGINHMM>
<NUMSTATES> 6
<STATE> 2
<MEAN> 48
 -8.096724e+00 -8.191072e+01 -6.567175e+00 -2.204220e+01 8.500560e+00 3.474154e+01 8.988889e+00 3.030886e+01 1.452913e+01 -7.095558e+00 -1.632500e+00 3.485187e+00 -5.470980e+00 3.214300e+00 8.683037e+00 1.087548e+02 1.390761e-01 -2.159541e-02 -1.434437e-01 -2.600038e-02 -2.611869e-02 -1.576309e-02 1.211620e-02 1.340721e-02 -3.791198e-02 -1.300264e-02 4.987293e-02 1.610361e-02 3.439941e-03 2.591974e-02 -2.466608e-02 7.986952e-02 -2.185284e-02 -2.111547e-02 1.180855e-02 -2.732600e-02 -3.328511e-03 1.849845e-02 2.310940e-02 3.373311e-02 3.611933e-02 2.200312e-02 2.617142e-02 1.204631e-02 -1.325147e-03 4.591441e-03 -2.037853e-03 -2.107720e-03
<VARIANCE> 48
 1.620704e+02 1.353042e+02 1.318117e+02 2.177047e+02 1.607757e+02 9.408582e+01 1.062078e+02 1.195692e+02 1.157248e+02 5.908583e+01 4.365096e+01 3.778889e+01 2.227958e+01 2.391764e+01 1.720925e+01 5.318604e+02 6.400585e+00 6.363052e+00 5.091342e+00 8.060604e+00 6.227295e+00 4.136230e+00 5.531610e+00 6.854458e+00 7.041626e+00 5.152329e+00 3.405081e+00 2.774183e+00 1.823386e+00 1.624739e+00 1.366165e+00 1.882880e+01 8.029674e-01 1.062019e+00 9.005082e-01 1.246143e+00 1.001295e+00 6.369998e-01 9.782494e-01 1.233931e+00 1.332567e+00 1.033450e+00 6.532200e-01 5.034956e-01 3.403995e-01 3.136282e-01 2.612098e-01 1.925283e+00
<GCONST> 1.796441e+02
<STATE> 3
<MEAN> 48
 -8.096724e+00 -8.191072e+01 -6.567175e+00 -2.204220e+01 8.500560e+00 3.474154e+01 8.988889e+00 3.030886e+01 1.452913e+01 -7.095558e+00 -1.632500e+00 3.485187e+00 -5.470980e+00 3.214300e+00 8.683037e+00 1.087548e+02 1.390761e-01 -2.159541e-02 -1.434437e-01 -2.600038e-02 -2.611869e-02 -1.576309e-02 1.211620e-02 1.340721e-02 -3.791198e-02 -1.300264e-02 4.987293e-02 1.610361e-02 3.439941e-03 2.591974e-02 -2.466608e-02 7.986952e-02 -2.185284e-02 -2.111547e-02 1.180855e-02 -2.732600e-02 -3.328511e-03 1.849845e-02 2.310940e-02 3.373311e-02 3.611933e-02 2.200312e-02 2.617142e-02 1.204631e-02 -1.325147e-03 4.591441e-03 -2.037853e-03 -2.107720e-03
<VARIANCE> 48
 1.620704e+02 1.353042e+02 1.318117e+02 2.177047e+02 1.607757e+02 9.408582e+01 1.062078e+02 1.195692e+02 1.157248e+02 5.908583e+01 4.365096e+01 3.778889e+01 2.227958e+01 2.391764e+01 1.720925e+01 5.318604e+02 6.400585e+00 6.363052e+00 5.091342e+00 8.060604e+00 6.227295e+00 4.136230e+00 5.531610e+00 6.854458e+00 7.041626e+00 5.152329e+00 3.405081e+00 2.774183e+00 1.823386e+00 1.624739e+00 1.366165e+00 1.882880e+01 8.029674e-01 1.062019e+00 9.005082e-01 1.246143e+00 1.001295e+00 6.369998e-01 9.782494e-01 1.233931e+00 1.332567e+00 1.033450e+00 6.532200e-01 5.034956e-01 3.403995e-01 3.136282e-01 2.612098e-01 1.925283e+00
<GCONST> 1.796441e+02
<STATE> 4
<MEAN> 48
 -8.096724e+00 -8.191072e+01 -6.567175e+00 -2.204220e+01 8.500560e+00 3.474154e+01 8.988889e+00 3.030886e+01 1.452913e+01 -7.095558e+00 -1.632500e+00 3.485187e+00 -5.470980e+00 3.214300e+00 8.683037e+00 1.087548e+02 1.390761e-01 -2.159541e-02 -1.434437e-01 -2.600038e-02 -2.611869e-02 -1.576309e-02 1.211620e-02 1.340721e-02 -3.791198e-02 -1.300264e-02 4.987293e-02 1.610361e-02 3.439941e-03 2.591974e-02 -2.466608e-02 7.986952e-02 -2.185284e-02 -2.111547e-02 1.180855e-02 -2.732600e-02 -3.328511e-03 1.849845e-02 2.310940e-02 3.373311e-02 3.611933e-02 2.200312e-02 2.617142e-02 1.204631e-02 -1.325147e-03 4.591441e-03 -2.037853e-03 -2.107720e-03
<VARIANCE> 48
 1.620704e+02 1.353042e+02 1.318117e+02 2.177047e+02 1.607757e+02 9.408582e+01 1.062078e+02 1.195692e+02 1.157248e+02 5.908583e+01 4.365096e+01 3.778889e+01 2.227958e+01 2.391764e+01 1.720925e+01 5.318604e+02 6.400585e+00 6.363052e+00 5.091342e+00 8.060604e+00 6.227295e+00 4.136230e+00 5.531610e+00 6.854458e+00 7.041626e+00 5.152329e+00 3.405081e+00 2.774183e+00 1.823386e+00 1.624739e+00 1.366165e+00 1.882880e+01 8.029674e-01 1.062019e+00 9.005082e-01 1.246143e+00 1.001295e+00 6.369998e-01 9.782494e-01 1.233931e+00 1.332567e+00 1.033450e+00 6.532200e-01 5.034956e-01 3.403995e-01 3.136282e-01 2.612098e-01 1.925283e+00
<GCONST> 1.796441e+02
<STATE> 5
<MEAN> 48
 -8.096724e+00 -8.191072e+01 -6.567175e+00 -2.204220e+01 8.500560e+00 3.474154e+01 8.988889e+00 3.030886e+01 1.452913e+01 -7.095558e+00 -1.632500e+00 3.485187e+00 -5.470980e+00 3.214300e+00 8.683037e+00 1.087548e+02 1.390761e-01 -2.159541e-02 -1.434437e-01 -2.600038e-02 -2.611869e-02 -1.576309e-02 1.211620e-02 1.340721e-02 -3.791198e-02 -1.300264e-02 4.987293e-02 1.610361e-02 3.439941e-03 2.591974e-02 -2.466608e-02 7.986952e-02 -2.185284e-02 -2.111547e-02 1.180855e-02 -2.732600e-02 -3.328511e-03 1.849845e-02 2.310940e-02 3.373311e-02 3.611933e-02 2.200312e-02 2.617142e-02 1.204631e-02 -1.325147e-03 4.591441e-03 -2.037853e-03 -2.107720e-03
<VARIANCE> 48
 1.620704e+02 1.353042e+02 1.318117e+02 2.177047e+02 1.607757e+02 9.408582e+01 1.062078e+02 1.195692e+02 1.157248e+02 5.908583e+01 4.365096e+01 3.778889e+01 2.227958e+01 2.391764e+01 1.720925e+01 5.318604e+02 6.400585e+00 6.363052e+00 5.091342e+00 8.060604e+00 6.227295e+00 4.136230e+00 5.531610e+00 6.854458e+00 7.041626e+00 5.152329e+00 3.405081e+00 2.774183e+00 1.823386e+00 1.624739e+00 1.366165e+00 1.882880e+01 8.029674e-01 1.062019e+00 9.005082e-01 1.246143e+00 1.001295e+00 6.369998e-01 9.782494e-01 1.233931e+00 1.332567e+00 1.033450e+00 6.532200e-01 5.034956e-01 3.403995e-01 3.136282e-01 2.612098e-01 1.925283e+00
<GCONST> 1.796441e+02
<TRANSP> 6
 0.000000e+00 1.000000e+00 0.000000e+00 0.000000e+00 0.000000e+00 0.000000e+00
 0.000000e+00 6.000000e-01 4.000000e-01 0.000000e+00 0.000000e+00 0.000000e+00
 0.000000e+00 0.000000e+00 6.000000e-01 4.000000e-01 0.000000e+00 0.000000e+00
 0.000000e+00 0.000000e+00 0.000000e+00 7.000000e-01 3.000000e-01 0.000000e+00
 0.000000e+00 0.000000e+00 0.000000e+00 0.000000e+00 7.000000e-01 3.000000e-01
 0.000000e+00 0.000000e+00 0.000000e+00 0.000000e+00 0.000000e+00 0.000000e+00
<ENDHMM>
~h "a"
<BEGINHMM>
<NUMSTATES> 6
<STATE> 2
<MEAN> 48
 -8.096724e+00 -8.191072e+01 -6.567175e+00 -2.204220e+01 8.500560e+00 3.474154e+01 8.988889e+00 3.030886e+01 1.452913e+01 -7.095558e+00 -1.632500e+00 3.485187e+00 -5.470980e+00 3.214300e+00 8.683037e+00 1.087548e+02 1.390761e-01 -2.159541e-02 -1.434437e-01 -2.600038e-02 -2.611869e-02 -1.576309e-02 1.211620e-02 1.340721e-02 -3.791198e-02 -1.300264e-02 4.987293e-02 1.610361e-02 3.439941e-03 2.591974e-02 -2.466608e-02 7.986952e-02 -2.185284e-02 -2.111547e-02 1.180855e-02 -2.732600e-02 -3.328511e-03 1.849845e-02 2.310940e-02 3.373311e-02 3.611933e-02 2.200312e-02 2.617142e-02 1.204631e-02 -1.325147e-03 4.591441e-03 -2.037853e-03 -2.107720e-03
<VARIANCE> 48
 1.620704e+02 1.353042e+02 1.318117e+02 2.177047e+02 1.607757e+02 9.408582e+01 1.062078e+02 1.195692e+02 1.157248e+02 5.908583e+01 4.365096e+01 3.778889e+01 2.227958e+01 2.391764e+01 1.720925e+01 5.318604e+02 6.400585e+00 6.363052e+00 5.091342e+00 8.060604e+00 6.227295e+00 4.136230e+00 5.531610e+00 6.854458e+00 7.041626e+00 5.152329e+00 3.405081e+00 2.774183e+00 1.823386e+00 1.624739e+00 1.366165e+00 1.882880e+01 8.029674e-01 1.062019e+00 9.005082e-01 1.246143e+00 1.001295e+00 6.369998e-01 9.782494e-01 1.233931e+00 1.332567e+00 1.033450e+00 6.532200e-01 5.034956e-01 3.403995e-01 3.136282e-01 2.612098e-01 1.925283e+00
<GCONST> 1.796441e+02
<STATE> 3
<MEAN> 48
 -8.096724e+00 -8.191072e+01 -6.567175e+00 -2.204220e+01 8.500560e+00 3.474154e+01 8.988889e+00 3.030886e+01 1.452913e+01 -7.095558e+00 -1.632500e+00 3.485187e+00 -5.470980e+00 3.214300e+00 8.683037e+00 1.087548e+02 1.390761e-01 -2.159541e-02 -1.434437e-01 -2.600038e-02 -2.611869e-02 -1.576309e-02 1.211620e-02 1.340721e-02 -3.791198e-02 -1.300264e-02 4.987293e-02 1.610361e-02 3.439941e-03 2.591974e-02 -2.466608e-02 7.986952e-02 -2.185284e-02 -2.111547e-02 1.180855e-02 -2.732600e-02 -3.328511e-03 1.849845e-02 2.310940e-02 3.373311e-02 3.611933e-02 2.200312e-02 2.617142e-02 1.204631e-02 -1.325147e-03 4.591441e-03 -2.037853e-03 -2.107720e-03
<VARIANCE> 48
 1.620704e+02 1.353042e+02 1.318117e+02 2.177047e+02 1.607757e+02 9.408582e+01 1.062078e+02 1.195692e+02 1.157248e+02 5.908583e+01 4.365096e+01 3.778889e+01 2.227958e+01 2.391764e+01 1.720925e+01 5.318604e+02 6.400585e+00 6.363052e+00 5.091342e+00 8.060604e+00 6.227295e+00 4.136230e+00 5.531610e+00 6.854458e+00 7.041626e+00 5.152329e+00 3.405081e+00 2.774183e+00 1.823386e+00 1.624739e+00 1.366165e+00 1.882880e+01 8.029674e-01 1.062019e+00 9.005082e-01 1.246143e+00 1.001295e+00 6.369998e-01 9.782494e-01 1.233931e+00 1.332567e+00 1.033450e+00 6.532200e-01 5.034956e-01 3.403995e-01 3.136282e-01 2.612098e-01 1.925283e+00
<GCONST> 1.796441e+02
<STATE> 4
<MEAN> 48
 -8.096724e+00 -8.191072e+01 -6.567175e+00 -2.204220e+01 8.500560e+00 3.474154e+01 8.988889e+00 3.030886e+01 1.452913e+01 -7.095558e+00 -1.632500e+00 3.485187e+00 -5.470980e+00 3.214300e+00 8.683037e+00 1.087548e+02 1.390761e-01 -2.159541e-02 -1.434437e-01 -2.600038e-02 -2.611869e-02 -1.576309e-02 1.211620e-02 1.340721e-02 -3.791198e-02 -1.300264e-02 4.987293e-02 1.610361e-02 3.439941e-03 2.591974e-02 -2.466608e-02 7.986952e-02 -2.185284e-02 -2.111547e-02 1.180855e-02 -2.732600e-02 -3.328511e-03 1.849845e-02 2.310940e-02 3.373311e-02 3.611933e-02 2.200312e-02 2.617142e-02 1.204631e-02 -1.325147e-03 4.591441e-03 -2.037853e-03 -2.107720e-03
<VARIANCE> 48
 1.620704e+02 1.353042e+02 1.318117e+02 2.177047e+02 1.607757e+02 9.408582e+01 1.062078e+02 1.195692e+02 1.157248e+02 5.908583e+01 4.365096e+01 3.778889e+01 2.227958e+01 2.391764e+01 1.720925e+01 5.318604e+02 6.400585e+00 6.363052e+00 5.091342e+00 8.060604e+00 6.227295e+00 4.136230e+00 5.531610e+00 6.854458e+00 7.041626e+00 5.152329e+00 3.405081e+00 2.774183e+00 1.823386e+00 1.624739e+00 1.366165e+00 1.882880e+01 8.029674e-01 1.062019e+00 9.005082e-01 1.246143e+00 1.001295e+00 6.369998e-01 9.782494e-01 1.233931e+00 1.332567e+00 1.033450e+00 6.532200e-01 5.034956e-01 3.403995e-01 3.136282e-01 2.612098e-01 1.925283e+00
<GCONST> 1.796441e+02
<STATE> 5
<MEAN> 48
 -8.096724e+00 -8.191072e+01 -6.567175e+00 -2.204220e+01 8.500560e+00 3.474154e+01 8.988889e+00 3.030886e+01 1.452913e+01 -7.095558e+00 -1.632500e+00 3.485187e+00 -5.470980e+00 3.214300e+00 8.683037e+00 1.087548e+02 1.390761e-01 -2.159541e-02 -1.434437e-01 -2.600038e-02 -2.611869e-02 -1.576309e-02 1.211620e-02 1.340721e-02 -3.791198e-02 -1.300264e-02 4.987293e-02 1.610361e-02 3.439941e-03 2.591974e-02 -2.466608e-02 7.986952e-02 -2.185284e-02 -2.111547e-02 1.180855e-02 -2.732600e-02 -3.328511e-03 1.849845e-02 2.310940e-02 3.373311e-02 3.611933e-02 2.200312e-02 2.617142e-02 1.204631e-02 -1.325147e-03 4.591441e-03 -2.037853e-03 -2.107720e-03
<VARIANCE> 48
 1.620704e+02 1.353042e+02 1.318117e+02 2.177047e+02 1.607757e+02 9.408582e+01 1.062078e+02 1.195692e+02 1.157248e+02 5.908583e+01 4.365096e+01 3.778889e+01 2.227958e+01 2.391764e+01 1.720925e+01 5.318604e+02 6.400585e+00 6.363052e+00 5.091342e+00 8.060604e+00 6.227295e+00 4.136230e+00 5.531610e+00 6.854458e+00 7.041626e+00 5.152329e+00 3.405081e+00 2.774183e+00 1.823386e+00 1.624739e+00 1.366165e+00 1.882880e+01 8.029674e-01 1.062019e+00 9.005082e-01 1.246143e+00 1.001295e+00 6.369998e-01 9.782494e-01 1.233931e+00 1.332567e+00 1.033450e+00 6.532200e-01 5.034956e-01 3.403995e-01 3.136282e-01 2.612098e-01 1.925283e+00
<GCONST> 1.796441e+02
<TRANSP> 6
 0.000000e+00 1.000000e+00 0.000000e+00 0.000000e+00 0.000000e+00 0.000000e+00
 0.000000e+00 6.000000e-01 4.000000e-01 0.000000e+00 0.000000e+00 0.000000e+00
 0.000000e+00 0.000000e+00 6.000000e-01 4.000000e-01 0.000000e+00 0.000000e+00
 0.000000e+00 0.000000e+00 0.000000e+00 7.000000e-01 3.000000e-01 0.000000e+00
 0.000000e+00 0.000000e+00 0.000000e+00 0.000000e+00 7.000000e-01 3.000000e-01
 0.000000e+00 0.000000e+00 0.000000e+00 0.000000e+00 0.000000e+00 0.000000e+00
<ENDHMM>
~h "e"
<BEGINHMM>
<NUMSTATES> 6
<STATE> 2
<MEAN> 48
 -8.096724e+00 -8.191072e+01 -6.567175e+00 -2.204220e+01 8.500560e+00 3.474154e+01 8.988889e+00 3.030886e+01 1.452913e+01 -7.095558e+00 -1.632500e+00 3.485187e+00 -5.470980e+00 3.214300e+00 8.683037e+00 1.087548e+02 1.390761e-01 -2.159541e-02 -1.434437e-01 -2.600038e-02 -2.611869e-02 -1.576309e-02 1.211620e-02 1.340721e-02 -3.791198e-02 -1.300264e-02 4.987293e-02 1.610361e-02 3.439941e-03 2.591974e-02 -2.466608e-02 7.986952e-02 -2.185284e-02 -2.111547e-02 1.180855e-02 -2.732600e-02 -3.328511e-03 1.849845e-02 2.310940e-02 3.373311e-02 3.611933e-02 2.200312e-02 2.617142e-02 1.204631e-02 -1.325147e-03 4.591441e-03 -2.037853e-03 -2.107720e-03
<VARIANCE> 48
 1.620704e+02 1.353042e+02 1.318117e+02 2.177047e+02 1.607757e+02 9.408582e+01 1.062078e+02 1.195692e+02 1.157248e+02 5.908583e+01 4.365096e+01 3.778889e+01 2.227958e+01 2.391764e+01 1.720925e+01 5.318604e+02 6.400585e+00 6.363052e+00 5.091342e+00 8.060604e+00 6.227295e+00 4.136230e+00 5.531610e+00 6.854458e+00 7.041626e+00 5.152329e+00 3.405081e+00 2.774183e+00 1.823386e+00 1.624739e+00 1.366165e+00 1.882880e+01 8.029674e-01 1.062019e+00 9.005082e-01 1.246143e+00 1.001295e+00 6.369998e-01 9.782494e-01 1.233931e+00 1.332567e+00 1.033450e+00 6.532200e-01 5.034956e-01 3.403995e-01 3.136282e-01 2.612098e-01 1.925283e+00
<GCONST> 1.796441e+02
<STATE> 3
<MEAN> 48
 -8.096724e+00 -8.191072e+01 -6.567175e+00 -2.204220e+01 8.500560e+00 3.474154e+01 8.988889e+00 3.030886e+01 1.452913e+01 -7.095558e+00 -1.632500e+00 3.485187e+00 -5.470980e+00 3.214300e+00 8.683037e+00 1.087548e+02 1.390761e-01 -2.159541e-02 -1.434437e-01 -2.600038e-02 -2.611869e-02 -1.576309e-02 1.211620e-02 1.340721e-02 -3.791198e-02 -1.300264e-02 4.987293e-02 1.610361e-02 3.439941e-03 2.591974e-02 -2.466608e-02 7.986952e-02 -2.185284e-02 -2.111547e-02 1.180855e-02 -2.732600e-02 -3.328511e-03 1.849845e-02 2.310940e-02 3.373311e-02 3.611933e-02 2.200312e-02 2.617142e-02 1.204631e-02 -1.325147e-03 4.591441e-03 -2.037853e-03 -2.107720e-03
<VARIANCE> 48
 1.620704e+02 1.353042e+02 1.318117e+02 2.177047e+02 1.607757e+02 9.408582e+01 1.062078e+02 1.195692e+02 1.157248e+02 5.908583e+01 4.365096e+01 3.778889e+01 2.227958e+01 2.391764e+01 1.720925e+01 5.318604e+02 6.400585e+00 6.363052e+00 5.091342e+00 8.060604e+00 6.227295e+00 4.136230e+00 5.531610e+00 6.854458e+00 7.041626e+00 5.152329e+00 3.405081e+00 2.774183e+00 1.823386e+00 1.624739e+00 1.366165e+00 1.882880e+01 8.029674e-01 1.062019e+00 9.005082e-01 1.246143e+00 1.001295e+00 6.369998e-01 9.782494e-01 1.233931e+00 1.332567e+00 1.033450e+00 6.532200e-01 5.034956e-01 3.403995e-01 3.136282e-01 2.612098e-01 1.925283e+00
<GCONST> 1.796441e+02
<STATE> 4
<MEAN> 48
 -8.096724e+00 -8.191072e+01 -6.567175e+00 -2.204220e+01 8.500560e+00 3.474154e+01 8.988889e+00 3.030886e+01 1.452913e+01 -7.095558e+00 -1.632500e+00 3.485187e+00 -5.470980e+00 3.214300e+00 8.683037e+00 1.087548e+02 1.390761e-01 -2.159541e-02 -1.434437e-01 -2.600038e-02 -2.611869e-02 -1.576309e-02 1.211620e-02 1.340721e-02 -3.791198e-02 -1.300264e-02 4.987293e-02 1.610361e-02 3.439941e-03 2.591974e-02 -2.466608e-02 7.986952e-02 -2.185284e-02 -2.111547e-02 1.180855e-02 -2.732600e-02 -3.328511e-03 1.849845e-02 2.310940e-02 3.373311e-02 3.611933e-02 2.200312e-02 2.617142e-02 1.204631e-02 -1.325147e-03 4.591441e-03 -2.037853e-03 -2.107720e-03
<VARIANCE> 48
 1.620704e+02 1.353042e+02 1.318117e+02 2.177047e+02 1.607757e+02 9.408582e+01 1.062078e+02 1.195692e+02 1.157248e+02 5.908583e+01 4.365096e+01 3.778889e+01 2.227958e+01 2.391764e+01 1.720925e+01 5.318604e+02 6.400585e+00 6.363052e+00 5.091342e+00 8.060604e+00 6.227295e+00 4.136230e+00 5.531610e+00 6.854458e+00 7.041626e+00 5.152329e+00 3.405081e+00 2.774183e+00 1.823386e+00 1.624739e+00 1.366165e+00 1.882880e+01 8.029674e-01 1.062019e+00 9.005082e-01 1.246143e+00 1.001295e+00 6.369998e-01 9.782494e-01 1.233931e+00 1.332567e+00 1.033450e+00 6.532200e-01 5.034956e-01 3.403995e-01 3.136282e-01 2.612098e-01 1.925283e+00
<GCONST> 1.796441e+02
<STATE> 5
<MEAN> 48
 -8.096724e+00 -8.191072e+01 -6.567175e+00 -2.204220e+01 8.500560e+00 3.474154e+01 8.988889e+00 3.030886e+01 1.452913e+01 -7.095558e+00 -1.632500e+00 3.485187e+00 -5.470980e+00 3.214300e+00 8.683037e+00 1.087548e+02 1.390761e-01 -2.159541e-02 -1.434437e-01 -2.600038e-02 -2.611869e-02 -1.576309e-02 1.211620e-02 1.340721e-02 -3.791198e-02 -1.300264e-02 4.987293e-02 1.610361e-02 3.439941e-03 2.591974e-02 -2.466608e-02 7.986952e-02 -2.185284e-02 -2.111547e-02 1.180855e-02 -2.732600e-02 -3.328511e-03 1.849845e-02 2.310940e-02 3.373311e-02 3.611933e-02 2.200312e-02 2.617142e-02 1.204631e-02 -1.325147e-03 4.591441e-03 -2.037853e-03 -2.107720e-03
<VARIANCE> 48
 1.620704e+02 1.353042e+02 1.318117e+02 2.177047e+02 1.607757e+02 9.408582e+01 1.062078e+02 1.195692e+02 1.157248e+02 5.908583e+01 4.365096e+01 3.778889e+01 2.227958e+01 2.391764e+01 1.720925e+01 5.318604e+02 6.400585e+00 6.363052e+00 5.091342e+00 8.060604e+00 6.227295e+00 4.136230e+00 5.531610e+00 6.854458e+00 7.041626e+00 5.152329e+00 3.405081e+00 2.774183e+00 1.823386e+00 1.624739e+00 1.366165e+00 1.882880e+01 8.029674e-01 1.062019e+00 9.005082e-01 1.246143e+00 1.001295e+00 6.369998e-01 9.782494e-01 1.233931e+00 1.332567e+00 1.033450e+00 6.532200e-01 5.034956e-01 3.403995e-01 3.136282e-01 2.612098e-01 1.925283e+00
<GCONST> 1.796441e+02
<TRANSP> 6
 0.000000e+00 1.000000e+00 0.000000e+00 0.000000e+00 0.000000e+00 0.000000e+00
 0.000000e+00 6.000000e-01 4.000000e-01 0.000000e+00 0.000000e+00 0.000000e+00
 0.000000e+00 0.000000e+00 6.000000e-01 4.000000e-01 0.000000e+00 0.000000e+00
 0.000000e+00 0.000000e+00 0.000000e+00 7.000000e-01 3.000000e-01 0.000000e+00
 0.000000e+00 0.000000e+00 0.000000e+00 0.000000e+00 7.000000e-01 3.000000e-01
 0.000000e+00 0.000000e+00 0.000000e+00 0.000000e+00 0.000000e+00 0.000000e+00
<ENDHMM>
~h "silence"
<BEGINHMM>
<NUMSTATES> 6
<STATE> 2
<MEAN> 48
 -8.096724e+00 -8.191072e+01 -6.567175e+00 -2.204220e+01 8.500560e+00 3.474154e+01 8.988889e+00 3.030886e+01 1.452913e+01 -7.095558e+00 -1.632500e+00 3.485187e+00 -5.470980e+00 3.214300e+00 8.683037e+00 1.087548e+02 1.390761e-01 -2.159541e-02 -1.434437e-01 -2.600038e-02 -2.611869e-02 -1.576309e-02 1.211620e-02 1.340721e-02 -3.791198e-02 -1.300264e-02 4.987293e-02 1.610361e-02 3.439941e-03 2.591974e-02 -2.466608e-02 7.986952e-02 -2.185284e-02 -2.111547e-02 1.180855e-02 -2.732600e-02 -3.328511e-03 1.849845e-02 2.310940e-02 3.373311e-02 3.611933e-02 2.200312e-02 2.617142e-02 1.204631e-02 -1.325147e-03 4.591441e-03 -2.037853e-03 -2.107720e-03
<VARIANCE> 48
 1.620704e+02 1.353042e+02 1.318117e+02 2.177047e+02 1.607757e+02 9.408582e+01 1.062078e+02 1.195692e+02 1.157248e+02 5.908583e+01 4.365096e+01 3.778889e+01 2.227958e+01 2.391764e+01 1.720925e+01 5.318604e+02 6.400585e+00 6.363052e+00 5.091342e+00 8.060604e+00 6.227295e+00 4.136230e+00 5.531610e+00 6.854458e+00 7.041626e+00 5.152329e+00 3.405081e+00 2.774183e+00 1.823386e+00 1.624739e+00 1.366165e+00 1.882880e+01 8.029674e-01 1.062019e+00 9.005082e-01 1.246143e+00 1.001295e+00 6.369998e-01 9.782494e-01 1.233931e+00 1.332567e+00 1.033450e+00 6.532200e-01 5.034956e-01 3.403995e-01 3.136282e-01 2.612098e-01 1.925283e+00
<GCONST> 1.796441e+02
<STATE> 3
<MEAN> 48
 -8.096724e+00 -8.191072e+01 -6.567175e+00 -2.204220e+01 8.500560e+00 3.474154e+01 8.988889e+00 3.030886e+01 1.452913e+01 -7.095558e+00 -1.632500e+00 3.485187e+00 -5.470980e+00 3.214300e+00 8.683037e+00 1.087548e+02 1.390761e-01 -2.159541e-02 -1.434437e-01 -2.600038e-02 -2.611869e-02 -1.576309e-02 1.211620e-02 1.340721e-02 -3.791198e-02 -1.300264e-02 4.987293e-02 1.610361e-02 3.439941e-03 2.591974e-02 -2.466608e-02 7.986952e-02 -2.185284e-02 -2.111547e-02 1.180855e-02 -2.732600e-02 -3.328511e-03 1.849845e-02 2.310940e-02 3.373311e-02 3.611933e-02 2.200312e-02 2.617142e-02 1.204631e-02 -1.325147e-03 4.591441e-03 -2.037853e-03 -2.107720e-03
<VARIANCE> 48
 1.620704e+02 1.353042e+02 1.318117e+02 2.177047e+02 1.607757e+02 9.408582e+01 1.062078e+02 1.195692e+02 1.157248e+02 5.908583e+01 4.365096e+01 3.778889e+01 2.227958e+01 2.391764e+01 1.720925e+01 5.318604e+02 6.400585e+00 6.363052e+00 5.091342e+00 8.060604e+00 6.227295e+00 4.136230e+00 5.531610e+00 6.854458e+00 7.041626e+00 5.152329e+00 3.405081e+00 2.774183e+00 1.823386e+00 1.624739e+00 1.366165e+00 1.882880e+01 8.029674e-01 1.062019e+00 9.005082e-01 1.246143e+00 1.001295e+00 6.369998e-01 9.782494e-01 1.233931e+00 1.332567e+00 1.033450e+00 6.532200e-01 5.034956e-01 3.403995e-01 3.136282e-01 2.612098e-01 1.925283e+00
<GCONST> 1.796441e+02
<STATE> 4
<MEAN> 48
 -8.096724e+00 -8.191072e+01 -6.567175e+00 -2.204220e+01 8.500560e+00 3.474154e+01 8.988889e+00 3.030886e+01 1.452913e+01 -7.095558e+00 -1.632500e+00 3.485187e+00 -5.470980e+00 3.214300e+00 8.683037e+00 1.087548e+02 1.390761e-01 -2.159541e-02 -1.434437e-01 -2.600038e-02 -2.611869e-02 -1.576309e-02 1.211620e-02 1.340721e-02 -3.791198e-02 -1.300264e-02 4.987293e-02 1.610361e-02 3.439941e-03 2.591974e-02 -2.466608e-02 7.986952e-02 -2.185284e-02 -2.111547e-02 1.180855e-02 -2.732600e-02 -3.328511e-03 1.849845e-02 2.310940e-02 3.373311e-02 3.611933e-02 2.200312e-02 2.617142e-02 1.204631e-02 -1.325147e-03 4.591441e-03 -2.037853e-03 -2.107720e-03
<VARIANCE> 48
 1.620704e+02 1.353042e+02 1.318117e+02 2.177047e+02 1.607757e+02 9.408582e+01 1.062078e+02 1.195692e+02 1.157248e+02 5.908583e+01 4.365096e+01 3.778889e+01 2.227958e+01 2.391764e+01 1.720925e+01 5.318604e+02 6.400585e+00 6.363052e+00 5.091342e+00 8.060604e+00 6.227295e+00 4.136230e+00 5.531610e+00 6.854458e+00 7.041626e+00 5.152329e+00 3.405081e+00 2.774183e+00 1.823386e+00 1.624739e+00 1.366165e+00 1.882880e+01 8.029674e-01 1.062019e+00 9.005082e-01 1.246143e+00 1.001295e+00 6.369998e-01 9.782494e-01 1.233931e+00 1.332567e+00 1.033450e+00 6.532200e-01 5.034956e-01 3.403995e-01 3.136282e-01 2.612098e-01 1.925283e+00
<GCONST> 1.796441e+02
<STATE> 5
<MEAN> 48
 -8.096724e+00 -8.191072e+01 -6.567175e+00 -2.204220e+01 8.500560e+00 3.474154e+01 8.988889e+00 3.030886e+01 1.452913e+01 -7.095558e+00 -1.632500e+00 3.485187e+00 -5.470980e+00 3.214300e+00 8.683037e+00 1.087548e+02 1.390761e-01 -2.159541e-02 -1.434437e-01 -2.600038e-02 -2.611869e-02 -1.576309e-02 1.211620e-02 1.340721e-02 -3.791198e-02 -1.300264e-02 4.987293e-02 1.610361e-02 3.439941e-03 2.591974e-02 -2.466608e-02 7.986952e-02 -2.185284e-02 -2.111547e-02 1.180855e-02 -2.732600e-02 -3.328511e-03 1.849845e-02 2.310940e-02 3.373311e-02 3.611933e-02 2.200312e-02 2.617142e-02 1.204631e-02 -1.325147e-03 4.591441e-03 -2.037853e-03 -2.107720e-03
<VARIANCE> 48
 1.620704e+02 1.353042e+02 1.318117e+02 2.177047e+02 1.607757e+02 9.408582e+01 1.062078e+02 1.195692e+02 1.157248e+02 5.908583e+01 4.365096e+01 3.778889e+01 2.227958e+01 2.391764e+01 1.720925e+01 5.318604e+02 6.400585e+00 6.363052e+00 5.091342e+00 8.060604e+00 6.227295e+00 4.136230e+00 5.531610e+00 6.854458e+00 7.041626e+00 5.152329e+00 3.405081e+00 2.774183e+00 1.823386e+00 1.624739e+00 1.366165e+00 1.882880e+01 8.029674e-01 1.062019e+00 9.005082e-01 1.246143e+00 1.001295e+00 6.369998e-01 9.782494e-01 1.233931e+00 1.332567e+00 1.033450e+00 6.532200e-01 5.034956e-01 3.403995e-01 3.136282e-01 2.612098e-01 1.925283e+00
<GCONST> 1.796441e+02
<TRANSP> 6
 0.000000e+00 1.000000e+00 0.000000e+00 0.000000e+00 0.000000e+00 0.000000e+00
 0.000000e+00 6.000000e-01 4.000000e-01 0.000000e+00 0.000000e+00 0.000000e+00
 0.000000e+00 0.000000e+00 6.000000e-01 4.000000e-01 0.000000e+00 0.000000e+00
 0.000000e+00 0.000000e+00 0.000000e+00 7.000000e-01 3.000000e-01 0.000000e+00
 0.000000e+00 0.000000e+00 0.000000e+00 0.000000e+00 7.000000e-01 3.000000e-01
 0.000000e+00 0.000000e+00 0.000000e+00 0.000000e+00 0.000000e+00 0.000000e+00
<ENDHMM>
~h "b"
<BEGINHMM>
<NUMSTATES> 6
<STATE> 2
<MEAN> 48
 -7.912363e+00 -8.233597e+01 -7.075278e+00 -2.186074e+01 7.915310e+00 3.413623e+01 8.708145e+00 3.019376e+01 1.421412e+01 -7.613860e+00 -1.872171e+00 3.135653e+00 -5.608741e+00 3.074698e+00 8.481321e+00 1.088861e+02 1.347060e-01 -2.437349e-02 -1.349940e-01 -1.314566e-02 -1.597382e-02 -1.733579e-02 -4.955920e-03 3.318179e-03 -1.525795e-02 -1.233014e-02 4.412498e-02 2.148391e-02 2.151918e-03 1.636991e-02 -2.816924e-02 8.047450e-02 -2.484147e-02 -8.270152e-03 -1.616171e-03 -3.339847e-02 -1.621699e-02 1.863883e-02 2.533913e-02 2.467472e-02 2.732585e-02 1.452808e-02 2.519429e-02 8.839272e-03 1.405555e-04 9.428556e-03 -4.792591e-04 -1.376802e-02
<VARIANCE> 48
 1.640841e+02 1.190439e+02 1.545481e+02 2.380419e+02 1.732716e+02 9.431482e+01 1.024363e+02 1.154288e+02 1.059478e+02 5.747204e+01 4.201385e+01 3.886475e+01 2.315384e+01 2.470135e+01 1.734226e+01 5.089727e+02 6.321006e+00 5.994934e+00 4.934690e+00 7.957396e+00 6.118488e+00 4.194604e+00 5.491390e+00 6.576382e+00 6.313538e+00 4.856459e+00 3.381855e+00 2.835692e+00 1.810224e+00 1.670156e+00 1.310347e+00 1.806166e+01 7.782805e-01 1.021625e+00 8.507974e-01 1.202219e+00 1.011068e+00 6.447813e-01 9.794614e-01 1.193643e+00 1.181728e+00 9.630709e-01 6.475467e-01 5.223119e-01 3.383317e-01 3.264967e-01 2.528988e-01 1.783342e+00
<GCONST> 1.788960e+02
<STATE> 3
<MEAN> 48
 -7.912363e+00 -8.233597e+01 -7.075278e+00 -2.186074e+01 7.915310e+00 3.413623e+01 8.708145e+00 3.019376e+01 1.421412e+01 -7.613860e+00 -1.872171e+00 3.135653e+00 -5.608741e+00 3.074698e+00 8.481321e+00 1.088861e+02 1.347060e-01 -2.437349e-02 -1.349940e-01 -1.314566e-02 -1.597382e-02 -1.733579e-02 -4.955920e-03 3.318179e-03 -1.525795e-02 -1.233014e-02 4.412498e-02 2.148391e-02 2.151918e-03 1.636991e-02 -2.816924e-02 8.047450e-02 -2.484147e-02 -8.270152e-03 -1.616171e-03 -3.339847e-02 -1.621699e-02 1.863883e-02 2.533913e-02 2.467472e-02 2.732585e-02 1.452808e-02 2.519429e-02 8.839272e-03 1.405555e-04 9.428556e-03 -4.792591e-04 -1.376802e-02
<VARIANCE> 48
 1.640841e+02 1.190439e+02 1.545481e+02 2.380419e+02 1.732716e+02 9.431482e+01 1.024363e+02 1.154288e+02 1.059478e+02 5.747204e+01 4.201385e+01 3.886475e+01 2.315384e+01 2.470135e+01 1.734226e+01 5.089727e+02 6.321006e+00 5.994934e+00 4.934690e+00 7.957396e+00 6.118488e+00 4.194604e+00 5.491390e+00 6.576382e+00 6.313538e+00 4.856459e+00 3.381855e+00 2.835692e+00 1.810224e+00 1.670156e+00 1.310347e+00 1.806166e+01 7.782805e-01 1.021625e+00 8.507974e-01 1.202219e+00 1.011068e+00 6.447813e-01 9.794614e-01 1.193643e+00 1.181728e+00 9.630709e-01 6.475467e-01 5.223119e-01 3.383317e-01 3.264967e-01 2.528988e-01 1.783342e+00
<GCONST> 1.788960e+02
<STATE> 4
<MEAN> 48
 -7.912363e+00 -8.233597e+01 -7.075278e+00 -2.186074e+01 7.915310e+00 3.413623e+01 8.708145e+00 3.019376e+01 1.421412e+01 -7.613860e+00 -1.872171e+00 3.135653e+00 -5.608741e+00 3.074698e+00 8.481321e+00 1.088861e+02 1.347060e-01 -2.437349e-02 -1.349940e-01 -1.314566e-02 -1.597382e-02 -1.733579e-02 -4.955920e-03 3.318179e-03 -1.525795e-02 -1.233014e-02 4.412498e-02 2.148391e-02 2.151918e-03 1.636991e-02 -2.816924e-02 8.047450e-02 -2.484147e-02 -8.270152e-03 -1.616171e-03 -3.339847e-02 -1.621699e-02 1.863883e-02 2.533913e-02 2.467472e-02 2.732585e-02 1.452808e-02 2.519429e-02 8.839272e-03 1.405555e-04 9.428556e-03 -4.792591e-04 -1.376802e-02
<VARIANCE> 48
 1.640841e+02 1.190439e+02 1.545481e+02 2.380419e+02 1.732716e+02 9.431482e+01 1.024363e+02 1.154288e+02 1.059478e+02 5.747204e+01 4.201385e+01 3.886475e+01 2.315384e+01 2.470135e+01 1.734226e+01 5.089727e+02 6.321006e+00 5.994934e+00 4.934690e+00 7.957396e+00 6.118488e+00 4.194604e+00 5.491390e+00 6.576382e+00 6.313538e+00 4.856459e+00 3.381855e+00 2.835692e+00 1.810224e+00 1.670156e+00 1.310347e+00 1.806166e+01 7.782805e-01 1.021625e+00 8.507974e-01 1.202219e+00 1.011068e+00 6.447813e-01 9.794614e-01 1.193643e+00 1.181728e+00 9.630709e-01 6.475467e-01 5.223119e-01 3.383317e-01 3.264967e-01 2.528988e-01 1.783342e+00
<GCONST> 1.788960e+02
<STATE> 5
<MEAN> 48
 -7.912363e+00 -8.233597e+01 -7.075278e+00 -2.186074e+01 7.915310e+00 3.413623e+01 8.708145e+00 3.019376e+01 1.421412e+01 -7.613860e+00 -1.872171e+00 3.135653e+00 -5.608741e+00 3.074698e+00 8.481321e+00 1.088861e+02 1.347060e-01 -2.437349e-02 -1.349940e-01 -1.314566e-02 -1.597382e-02 -1.733579e-02 -4.955920e-03 3.318179e-03 -1.525795e-02 -1.233014e-02 4.412498e-02 2.148391e-02 2.151918e-03 1.636991e-02 -2.816924e-02 8.047450e-02 -2.484147e-02 -8.270152e-03 -1.616171e-03 -3.339847e-02 -1.621699e-02 1.863883e-02 2.533913e-02 2.467472e-02 2.732585e-02 1.452808e-02 2.519429e-02 8.839272e-03 1.405555e-04 9.428556e-03 -4.792591e-04 -1.376802e-02
<VARIANCE> 48
 1.640841e+02 1.190439e+02 1.545481e+02 2.380419e+02 1.732716e+02 9.431482e+01 1.024363e+02 1.154288e+02 1.059478e+02 5.747204e+01 4.201385e+01 3.886475e+01 2.315384e+01 2.470135e+01 1.734226e+01 5.089727e+02 6.321006e+00 5.994934e+00 4.934690e+00 7.957396e+00 6.118488e+00 4.194604e+00 5.491390e+00 6.576382e+00 6.313538e+00 4.856459e+00 3.381855e+00 2.835692e+00 1.810224e+00 1.670156e+00 1.310347e+00 1.806166e+01 7.782805e-01 1.021625e+00 8.507974e-01 1.202219e+00 1.011068e+00 6.447813e-01 9.794614e-01 1.193643e+00 1.181728e+00 9.630709e-01 6.475467e-01 5.223119e-01 3.383317e-01 3.264967e-01 2.528988e-01 1.783342e+00
<GCONST> 1.788960e+02
<TRANSP> 6
 0.000000e+00 1.000000e+00 0.000000e+00 0.000000e+00 0.000000e+00 0.000000e+00
 0.000000e+00 6.000000e-01 4.000000e-01 0.000000e+00 0.000000e+00 0.000000e+00
 0.000000e+00 0.000000e+00 6.000000e-01 4.000000e-01 0.000000e+00 0.000000e+00
 0.000000e+00 0.000000e+00 0.000000e+00 7.000000e-01 3.000000e-01 0.000000e+00
 0.000000e+00 0.000000e+00 0.000000e+00 0.000000e+00 7.000000e-01 3.000000e-01
 0.000000e+00 0.000000e+00 0.000000e+00 0.000000e+00 0.000000e+00 0.000000e+00
<ENDHMM>
~h "a"
<BEGINHMM>
<NUMSTATES> 6
<STATE> 2
<MEAN> 48
 -7.912363e+00 -8.233597e+01 -7.075278e+00 -2.186074e+01 7.915310e+00 3.413623e+01 8.708145e+00 3.019376e+01 1.421412e+01 -7.613860e+00 -1.872171e+00 3.135653e+00 -5.608741e+00 3.074698e+00 8.481321e+00 1.088861e+02 1.347060e-01 -2.437349e-02 -1.349940e-01 -1.314566e-02 -1.597382e-02 -1.733579e-02 -4.955920e-03 3.318179e-03 -1.525795e-02 -1.233014e-02 4.412498e-02 2.148391e-02 2.151918e-03 1.636991e-02 -2.816924e-02 8.047450e-02 -2.484147e-02 -8.270152e-03 -1.616171e-03 -3.339847e-02 -1.621699e-02 1.863883e-02 2.533913e-02 2.467472e-02 2.732585e-02 1.452808e-02 2.519429e-02 8.839272e-03 1.405555e-04 9.428556e-03 -4.792591e-04 -1.376802e-02
<VARIANCE> 48
 1.640841e+02 1.190439e+02 1.545481e+02 2.380419e+02 1.732716e+02 9.431482e+01 1.024363e+02 1.154288e+02 1.059478e+02 5.747204e+01 4.201385e+01 3.886475e+01 2.315384e+01 2.470135e+01 1.734226e+01 5.089727e+02 6.321006e+00 5.994934e+00 4.934690e+00 7.957396e+00 6.118488e+00 4.194604e+00 5.491390e+00 6.576382e+00 6.313538e+00 4.856459e+00 3.381855e+00 2.835692e+00 1.810224e+00 1.670156e+00 1.310347e+00 1.806166e+01 7.782805e-01 1.021625e+00 8.507974e-01 1.202219e+00 1.011068e+00 6.447813e-01 9.794614e-01 1.193643e+00 1.181728e+00 9.630709e-01 6.475467e-01 5.223119e-01 3.383317e-01 3.264967e-01 2.528988e-01 1.783342e+00
<GCONST> 1.788960e+02
<STATE> 3
<MEAN> 48
 -7.912363e+00 -8.233597e+01 -7.075278e+00 -2.186074e+01 7.915310e+00 3.413623e+01 8.708145e+00 3.019376e+01 1.421412e+01 -7.613860e+00 -1.872171e+00 3.135653e+00 -5.608741e+00 3.074698e+00 8.481321e+00 1.088861e+02 1.347060e-01 -2.437349e-02 -1.349940e-01 -1.314566e-02 -1.597382e-02 -1.733579e-02 -4.955920e-03 3.318179e-03 -1.525795e-02 -1.233014e-02 4.412498e-02 2.148391e-02 2.151918e-03 1.636991e-02 -2.816924e-02 8.047450e-02 -2.484147e-02 -8.270152e-03 -1.616171e-03 -3.339847e-02 -1.621699e-02 1.863883e-02 2.533913e-02 2.467472e-02 2.732585e-02 1.452808e-02 2.519429e-02 8.839272e-03 1.405555e-04 9.428556e-03 -4.792591e-04 -1.376802e-02
<VARIANCE> 48
 1.640841e+02 1.190439e+02 1.545481e+02 2.380419e+02 1.732716e+02 9.431482e+01 1.024363e+02 1.154288e+02 1.059478e+02 5.747204e+01 4.201385e+01 3.886475e+01 2.315384e+01 2.470135e+01 1.734226e+01 5.089727e+02 6.321006e+00 5.994934e+00 4.934690e+00 7.957396e+00 6.118488e+00 4.194604e+00 5.491390e+00 6.576382e+00 6.313538e+00 4.856459e+00 3.381855e+00 2.835692e+00 1.810224e+00 1.670156e+00 1.310347e+00 1.806166e+01 7.782805e-01 1.021625e+00 8.507974e-01 1.202219e+00 1.011068e+00 6.447813e-01 9.794614e-01 1.193643e+00 1.181728e+00 9.630709e-01 6.475467e-01 5.223119e-01 3.383317e-01 3.264967e-01 2.528988e-01 1.783342e+00
<GCONST> 1.788960e+02
<STATE> 4
<MEAN> 48
 -7.912363e+00 -8.233597e+01 -7.075278e+00 -2.186074e+01 7.915310e+00 3.413623e+01 8.708145e+00 3.019376e+01 1.421412e+01 -7.613860e+00 -1.872171e+00 3.135653e+00 -5.608741e+00 3.074698e+00 8.481321e+00 1.088861e+02 1.347060e-01 -2.437349e-02 -1.349940e-01 -1.314566e-02 -1.597382e-02 -1.733579e-02 -4.955920e-03 3.318179e-03 -1.525795e-02 -1.233014e-02 4.412498e-02 2.148391e-02 2.151918e-03 1.636991e-02 -2.816924e-02 8.047450e-02 -2.484147e-02 -8.270152e-03 -1.616171e-03 -3.339847e-02 -1.621699e-02 1.863883e-02 2.533913e-02 2.467472e-02 2.732585e-02 1.452808e-02 2.519429e-02 8.839272e-03 1.405555e-04 9.428556e-03 -4.792591e-04 -1.376802e-02
<VARIANCE> 48
 1.640841e+02 1.190439e+02 1.545481e+02 2.380419e+02 1.732716e+02 9.431482e+01 1.024363e+02 1.154288e+02 1.059478e+02 5.747204e+01 4.201385e+01 3.886475e+01 2.315384e+01 2.470135e+01 1.734226e+01 5.089727e+02 6.321006e+00 5.994934e+00 4.934690e+00 7.957396e+00 6.118488e+00 4.194604e+00 5.491390e+00 6.576382e+00 6.313538e+00 4.856459e+00 3.381855e+00 2.835692e+00 1.810224e+00 1.670156e+00 1.310347e+00 1.806166e+01 7.782805e-01 1.021625e+00 8.507974e-01 1.202219e+00 1.011068e+00 6.447813e-01 9.794614e-01 1.193643e+00 1.181728e+00 9.630709e-01 6.475467e-01 5.223119e-01 3.383317e-01 3.264967e-01 2.528988e-01 1.783342e+00
<GCONST> 1.788960e+02
<STATE> 5
<MEAN> 48
 -7.912363e+00 -8.233597e+01 -7.075278e+00 -2.186074e+01 7.915310e+00 3.413623e+01 8.708145e+00 3.019376e+01 1.421412e+01 -7.613860e+00 -1.872171e+00 3.135653e+00 -5.608741e+00 3.074698e+00 8.481321e+00 1.088861e+02 1.347060e-01 -2.437349e-02 -1.349940e-01 -1.314566e-02 -1.597382e-02 -1.733579e-02 -4.955920e-03 3.318179e-03 -1.525795e-02 -1.233014e-02 4.412498e-02 2.148391e-02 2.151918e-03 1.636991e-02 -2.816924e-02 8.047450e-02 -2.484147e-02 -8.270152e-03 -1.616171e-03 -3.339847e-02 -1.621699e-02 1.863883e-02 2.533913e-02 2.467472e-02 2.732585e-02 1.452808e-02 2.519429e-02 8.839272e-03 1.405555e-04 9.428556e-03 -4.792591e-04 -1.376802e-02
<VARIANCE> 48
 1.640841e+02 1.190439e+02 1.545481e+02 2.380419e+02 1.732716e+02 9.431482e+01 1.024363e+02 1.154288e+02 1.059478e+02 5.747204e+01 4.201385e+01 3.886475e+01 2.315384e+01 2.470135e+01 1.734226e+01 5.089727e+02 6.321006e+00 5.994934e+00 4.934690e+00 7.957396e+00 6.118488e+00 4.194604e+00 5.491390e+00 6.576382e+00 6.313538e+00 4.856459e+00 3.381855e+00 2.835692e+00 1.810224e+00 1.670156e+00 1.310347e+00 1.806166e+01 7.782805e-01 1.021625e+00 8.507974e-01 1.202219e+00 1.011068e+00 6.447813e-01 9.794614e-01 1.193643e+00 1.181728e+00 9.630709e-01 6.475467e-01 5.223119e-01 3.383317e-01 3.264967e-01 2.528988e-01 1.783342e+00
<GCONST> 1.788960e+02
<TRANSP> 6
 0.000000e+00 1.000000e+00 0.000000e+00 0.000000e+00 0.000000e+00 0.000000e+00
 0.000000e+00 6.000000e-01 4.000000e-01 0.000000e+00 0.000000e+00 0.000000e+00
 0.000000e+00 0.000000e+00 6.000000e-01 4.000000e-01 0.000000e+00 0.000000e+00
 0.000000e+00 0.000000e+00 0.000000e+00 7.000000e-01 3.000000e-01 0.000000e+00
 0.000000e+00 0.000000e+00 0.000000e+00 0.000000e+00 7.000000e-01 3.000000e-01
 0.000000e+00 0.000000e+00 0.000000e+00 0.000000e+00 0.000000e+00 0.000000e+00
<ENDHMM>
~h "e"
<BEGINHMM>
<NUMSTATES> 6
<STATE> 2
<MEAN> 48
 -7.912363e+00 -8.233597e+01 -7.075278e+00 -2.186074e+01 7.915310e+00 3.413623e+01 8.708145e+00 3.019376e+01 1.421412e+01 -7.613860e+00 -1.872171e+00 3.135653e+00 -5.608741e+00 3.074698e+00 8.481321e+00 1.088861e+02 1.347060e-01 -2.437349e-02 -1.349940e-01 -1.314566e-02 -1.597382e-02 -1.733579e-02 -4.955920e-03 3.318179e-03 -1.525795e-02 -1.233014e-02 4.412498e-02 2.148391e-02 2.151918e-03 1.636991e-02 -2.816924e-02 8.047450e-02 -2.484147e-02 -8.270152e-03 -1.616171e-03 -3.339847e-02 -1.621699e-02 1.863883e-02 2.533913e-02 2.467472e-02 2.732585e-02 1.452808e-02 2.519429e-02 8.839272e-03 1.405555e-04 9.428556e-03 -4.792591e-04 -1.376802e-02
<VARIANCE> 48
 1.640841e+02 1.190439e+02 1.545481e+02 2.380419e+02 1.732716e+02 9.431482e+01 1.024363e+02 1.154288e+02 1.059478e+02 5.747204e+01 4.201385e+01 3.886475e+01 2.315384e+01 2.470135e+01 1.734226e+01 5.089727e+02 6.321006e+00 5.994934e+00 4.934690e+00 7.957396e+00 6.118488e+00 4.194604e+00 5.491390e+00 6.576382e+00 6.313538e+00 4.856459e+00 3.381855e+00 2.835692e+00 1.810224e+00 1.670156e+00 1.310347e+00 1.806166e+01 7.782805e-01 1.021625e+00 8.507974e-01 1.202219e+00 1.011068e+00 6.447813e-01 9.794614e-01 1.193643e+00 1.181728e+00 9.630709e-01 6.475467e-01 5.223119e-01 3.383317e-01 3.264967e-01 2.528988e-01 1.783342e+00
<GCONST> 1.788960e+02
<STATE> 3
<MEAN> 48
 -7.912363e+00 -8.233597e+01 -7.075278e+00 -2.186074e+01 7.915310e+00 3.413623e+01 8.708145e+00 3.019376e+01 1.421412e+01 -7.613860e+00 -1.872171e+00 3.135653e+00 -5.608741e+00 3.074698e+00 8.481321e+00 1.088861e+02 1.347060e-01 -2.437349e-02 -1.349940e-01 -1.314566e-02 -1.597382e-02 -1.733579e-02 -4.955920e-03 3.318179e-03 -1.525795e-02 -1.233014e-02 4.412498e-02 2.148391e-02 2.151918e-03 1.636991e-02 -2.816924e-02 8.047450e-02 -2.484147e-02 -8.270152e-03 -1.616171e-03 -3.339847e-02 -1.621699e-02 1.863883e-02 2.533913e-02 2.467472e-02 2.732585e-02 1.452808e-02 2.519429e-02 8.839272e-03 1.405555e-04 9.428556e-03 -4.792591e-04 -1.376802e-02
<VARIANCE> 48
 1.640841e+02 1.190439e+02 1.545481e+02 2.380419e+02 1.732716e+02 9.431482e+01 1.024363e+02 1.154288e+02 1.059478e+02 5.747204e+01 4.201385e+01 3.886475e+01 2.315384e+01 2.470135e+01 1.734226e+01 5.089727e+02 6.321006e+00 5.994934e+00 4.934690e+00 7.957396e+00 6.118488e+00 4.194604e+00 5.491390e+00 6.576382e+00 6.313538e+00 4.856459e+00 3.381855e+00 2.835692e+00 1.810224e+00 1.670156e+00 1.310347e+00 1.806166e+01 7.782805e-01 1.021625e+00 8.507974e-01 1.202219e+00 1.011068e+00 6.447813e-01 9.794614e-01 1.193643e+00 1.181728e+00 9.630709e-01 6.475467e-01 5.223119e-01 3.383317e-01 3.264967e-01 2.528988e-01 1.783342e+00
<GCONST> 1.788960e+02
<STATE> 4
<MEAN> 48
 -7.912363e+00 -8.233597e+01 -7.075278e+00 -2.186074e+01 7.915310e+00 3.413623e+01 8.708145e+00 3.019376e+01 1.421412e+01 -7.613860e+00 -1.872171e+00 3.135653e+00 -5.608741e+00 3.074698e+00 8.481321e+00 1.088861e+02 1.347060e-01 -2.437349e-02 -1.349940e-01 -1.314566e-02 -1.597382e-02 -1.733579e-02 -4.955920e-03 3.318179e-03 -1.525795e-02 -1.233014e-02 4.412498e-02 2.148391e-02 2.151918e-03 1.636991e-02 -2.816924e-02 8.047450e-02 -2.484147e-02 -8.270152e-03 -1.616171e-03 -3.339847e-02 -1.621699e-02 1.863883e-02 2.533913e-02 2.467472e-02 2.732585e-02 1.452808e-02 2.519429e-02 8.839272e-03 1.405555e-04 9.428556e-03 -4.792591e-04 -1.376802e-02
<VARIANCE> 48
 1.640841e+02 1.190439e+02 1.545481e+02 2.380419e+02 1.732716e+02 9.431482e+01 1.024363e+02 1.154288e+02 1.059478e+02 5.747204e+01 4.201385e+01 3.886475e+01 2.315384e+01 2.470135e+01 1.734226e+01 5.089727e+02 6.321006e+00 5.994934e+00 4.934690e+00 7.957396e+00 6.118488e+00 4.194604e+00 5.491390e+00 6.576382e+00 6.313538e+00 4.856459e+00 3.381855e+00 2.835692e+00 1.810224e+00 1.670156e+00 1.310347e+00 1.806166e+01 7.782805e-01 1.021625e+00 8.507974e-01 1.202219e+00 1.011068e+00 6.447813e-01 9.794614e-01 1.193643e+00 1.181728e+00 9.630709e-01 6.475467e-01 5.223119e-01 3.383317e-01 3.264967e-01 2.528988e-01 1.783342e+00
<GCONST> 1.788960e+02
<STATE> 5
<MEAN> 48
 -7.912363e+00 -8.233597e+01 -7.075278e+00 -2.186074e+01 7.915310e+00 3.413623e+01 8.708145e+00 3.019376e+01 1.421412e+01 -7.613860e+00 -1.872171e+00 3.135653e+00 -5.608741e+00 3.074698e+00 8.481321e+00 1.088861e+02 1.347060e-01 -2.437349e-02 -1.349940e-01 -1.314566e-02 -1.597382e-02 -1.733579e-02 -4.955920e-03 3.318179e-03 -1.525795e-02 -1.233014e-02 4.412498e-02 2.148391e-02 2.151918e-03 1.636991e-02 -2.816924e-02 8.047450e-02 -2.484147e-02 -8.270152e-03 -1.616171e-03 -3.339847e-02 -1.621699e-02 1.863883e-02 2.533913e-02 2.467472e-02 2.732585e-02 1.452808e-02 2.519429e-02 8.839272e-03 1.405555e-04 9.428556e-03 -4.792591e-04 -1.376802e-02
<VARIANCE> 48
 1.640841e+02 1.190439e+02 1.545481e+02 2.380419e+02 1.732716e+02 9.431482e+01 1.024363e+02 1.154288e+02 1.059478e+02 5.747204e+01 4.201385e+01 3.886475e+01 2.315384e+01 2.470135e+01 1.734226e+01 5.089727e+02 6.321006e+00 5.994934e+00 4.934690e+00 7.957396e+00 6.118488e+00 4.194604e+00 5.491390e+00 6.576382e+00 6.313538e+00 4.856459e+00 3.381855e+00 2.835692e+00 1.810224e+00 1.670156e+00 1.310347e+00 1.806166e+01 7.782805e-01 1.021625e+00 8.507974e-01 1.202219e+00 1.011068e+00 6.447813e-01 9.794614e-01 1.193643e+00 1.181728e+00 9.630709e-01 6.475467e-01 5.223119e-01 3.383317e-01 3.264967e-01 2.528988e-01 1.783342e+00
<GCONST> 1.788960e+02
<TRANSP> 6
 0.000000e+00 1.000000e+00 0.000000e+00 0.000000e+00 0.000000e+00 0.000000e+00
 0.000000e+00 6.000000e-01 4.000000e-01 0.000000e+00 0.000000e+00 0.000000e+00
 0.000000e+00 0.000000e+00 6.000000e-01 4.000000e-01 0.000000e+00 0.000000e+00
 0.000000e+00 0.000000e+00 0.000000e+00 7.000000e-01 3.000000e-01 0.000000e+00
 0.000000e+00 0.000000e+00 0.000000e+00 0.000000e+00 7.000000e-01 3.000000e-01
 0.000000e+00 0.000000e+00 0.000000e+00 0.000000e+00 0.000000e+00 0.000000e+00
<ENDHMM>
~h "silence"
<BEGINHMM>
<NUMSTATES> 6
<STATE> 2
<MEAN> 48
 -7.912363e+00 -8.233597e+01 -7.075278e+00 -2.186074e+01 7.915310e+00 3.413623e+01 8.708145e+00 3.019376e+01 1.421412e+01 -7.613860e+00 -1.872171e+00 3.135653e+00 -5.608741e+00 3.074698e+00 8.481321e+00 1.088861e+02 1.347060e-01 -2.437349e-02 -1.349940e-01 -1.314566e-02 -1.597382e-02 -1.733579e-02 -4.955920e-03 3.318179e-03 -1.525795e-02 -1.233014e-02 4.412498e-02 2.148391e-02 2.151918e-03 1.636991e-02 -2.816924e-02 8.047450e-02 -2.484147e-02 -8.270152e-03 -1.616171e-03 -3.339847e-02 -1.621699e-02 1.863883e-02 2.533913e-02 2.467472e-02 2.732585e-02 1.452808e-02 2.519429e-02 8.839272e-03 1.405555e-04 9.428556e-03 -4.792591e-04 -1.376802e-02
<VARIANCE> 48
 1.640841e+02 1.190439e+02 1.545481e+02 2.380419e+02 1.732716e+02 9.431482e+01 1.024363e+02 1.154288e+02 1.059478e+02 5.747204e+01 4.201385e+01 3.886475e+01 2.315384e+01 2.470135e+01 1.734226e+01 5.089727e+02 6.321006e+00 5.994934e+00 4.934690e+00 7.957396e+00 6.118488e+00 4.194604e+00 5.491390e+00 6.576382e+00 6.313538e+00 4.856459e+00 3.381855e+00 2.835692e+00 1.810224e+00 1.670156e+00 1.310347e+00 1.806166e+01 7.782805e-01 1.021625e+00 8.507974e-01 1.202219e+00 1.011068e+00 6.447813e-01 9.794614e-01 1.193643e+00 1.181728e+00 9.630709e-01 6.475467e-01 5.223119e-01 3.383317e-01 3.264967e-01 2.528988e-01 1.783342e+00
<GCONST> 1.788960e+02
<STATE> 3
<MEAN> 48
 -7.912363e+00 -8.233597e+01 -7.075278e+00 -2.186074e+01 7.915310e+00 3.413623e+01 8.708145e+00 3.019376e+01 1.421412e+01 -7.613860e+00 -1.872171e+00 3.135653e+00 -5.608741e+00 3.074698e+00 8.481321e+00 1.088861e+02 1.347060e-01 -2.437349e-02 -1.349940e-01 -1.314566e-02 -1.597382e-02 -1.733579e-02 -4.955920e-03 3.318179e-03 -1.525795e-02 -1.233014e-02 4.412498e-02 2.148391e-02 2.151918e-03 1.636991e-02 -2.816924e-02 8.047450e-02 -2.484147e-02 -8.270152e-03 -1.616171e-03 -3.339847e-02 -1.621699e-02 1.863883e-02 2.533913e-02 2.467472e-02 2.732585e-02 1.452808e-02 2.519429e-02 8.839272e-03 1.405555e-04 9.428556e-03 -4.792591e-04 -1.376802e-02
<VARIANCE> 48
 1.640841e+02 1.190439e+02 1.545481e+02 2.380419e+02 1.732716e+02 9.431482e+01 1.024363e+02 1.154288e+02 1.059478e+02 5.747204e+01 4.201385e+01 3.886475e+01 2.315384e+01 2.470135e+01 1.734226e+01 5.089727e+02 6.321006e+00 5.994934e+00 4.934690e+00 7.957396e+00 6.118488e+00 4.194604e+00 5.491390e+00 6.576382e+00 6.313538e+00 4.856459e+00 3.381855e+00 2.835692e+00 1.810224e+00 1.670156e+00 1.310347e+00 1.806166e+01 7.782805e-01 1.021625e+00 8.507974e-01 1.202219e+00 1.011068e+00 6.447813e-01 9.794614e-01 1.193643e+00 1.181728e+00 9.630709e-01 6.475467e-01 5.223119e-01 3.383317e-01 3.264967e-01 2.528988e-01 1.783342e+00
<GCONST> 1.788960e+02
<STATE> 4
<MEAN> 48
 -7.912363e+00 -8.233597e+01 -7.075278e+00 -2.186074e+01 7.915310e+00 3.413623e+01 8.708145e+00 3.019376e+01 1.421412e+01 -7.613860e+00 -1.872171e+00 3.135653e+00 -5.608741e+00 3.074698e+00 8.481321e+00 1.088861e+02 1.347060e-01 -2.437349e-02 -1.349940e-01 -1.314566e-02 -1.597382e-02 -1.733579e-02 -4.955920e-03 3.318179e-03 -1.525795e-02 -1.233014e-02 4.412498e-02 2.148391e-02 2.151918e-03 1.636991e-02 -2.816924e-02 8.047450e-02 -2.484147e-02 -8.270152e-03 -1.616171e-03 -3.339847e-02 -1.621699e-02 1.863883e-02 2.533913e-02 2.467472e-02 2.732585e-02 1.452808e-02 2.519429e-02 8.839272e-03 1.405555e-04 9.428556e-03 -4.792591e-04 -1.376802e-02
<VARIANCE> 48
 1.640841e+02 1.190439e+02 1.545481e+02 2.380419e+02 1.732716e+02 9.431482e+01 1.024363e+02 1.154288e+02 1.059478e+02 5.747204e+01 4.201385e+01 3.886475e+01 2.315384e+01 2.470135e+01 1.734226e+01 5.089727e+02 6.321006e+00 5.994934e+00 4.934690e+00 7.957396e+00 6.118488e+00 4.194604e+00 5.491390e+00 6.576382e+00 6.313538e+00 4.856459e+00 3.381855e+00 2.835692e+00 1.810224e+00 1.670156e+00 1.310347e+00 1.806166e+01 7.782805e-01 1.021625e+00 8.507974e-01 1.202219e+00 1.011068e+00 6.447813e-01 9.794614e-01 1.193643e+00 1.181728e+00 9.630709e-01 6.475467e-01 5.223119e-01 3.383317e-01 3.264967e-01 2.528988e-01 1.783342e+00
<GCONST> 1.788960e+02
<STATE> 5
<MEAN> 48
 -7.912363e+00 -8.233597e+01 -7.075278e+00 -2.186074e+01 7.915310e+00 3.413623e+01 8.708145e+00 3.019376e+01 1.421412e+01 -7.613860e+00 -1.872171e+00 3.135653e+00 -5.608741e+00 3.074698e+00 8.481321e+00 1.088861e+02 1.347060e-01 -2.437349e-02 -1.349940e-01 -1.314566e-02 -1.597382e-02 -1.733579e-02 -4.955920e-03 3.318179e-03 -1.525795e-02 -1.233014e-02 4.412498e-02 2.148391e-02 2.151918e-03 1.636991e-02 -2.816924e-02 8.047450e-02 -2.484147e-02 -8.270152e-03 -1.616171e-03 -3.339847e-02 -1.621699e-02 1.863883e-02 2.533913e-02 2.467472e-02 2.732585e-02 1.452808e-02 2.519429e-02 8.839272e-03 1.405555e-04 9.428556e-03 -4.792591e-04 -1.376802e-02
<VARIANCE> 48
 1.640841e+02 1.190439e+02 1.545481e+02 2.380419e+02 1.732716e+02 9.431482e+01 1.024363e+02 1.154288e+02 1.059478e+02 5.747204e+01 4.201385e+01 3.886475e+01 2.315384e+01 2.470135e+01 1.734226e+01 5.089727e+02 6.321006e+00 5.994934e+00 4.934690e+00 7.957396e+00 6.118488e+00 4.194604e+00 5.491390e+00 6.576382e+00 6.313538e+00 4.856459e+00 3.381855e+00 2.835692e+00 1.810224e+00 1.670156e+00 1.310347e+00 1.806166e+01 7.782805e-01 1.021625e+00 8.507974e-01 1.202219e+00 1.011068e+00 6.447813e-01 9.794614e-01 1.193643e+00 1.181728e+00 9.630709e-01 6.475467e-01 5.223119e-01 3.383317e-01 3.264967e-01 2.528988e-01 1.783342e+00
<GCONST> 1.788960e+02
<TRANSP> 6
 0.000000e+00 1.000000e+00 0.000000e+00 0.000000e+00 0.000000e+00 0.000000e+00
 0.000000e+00 6.000000e-01 4.000000e-01 0.000000e+00 0.000000e+00 0.000000e+00
 0.000000e+00 0.000000e+00 6.000000e-01 4.000000e-01 0.000000e+00 0.000000e+00
 0.000000e+00 0.000000e+00 0.000000e+00 7.000000e-01 3.000000e-01 0.000000e+00
 0.000000e+00 0.000000e+00 0.000000e+00 0.000000e+00 7.000000e-01 3.000000e-01
 0.000000e+00 0.000000e+00 0.000000e+00 0.000000e+00 0.000000e+00 0.000000e+00
<ENDHMM>
~h "b"
<BEGINHMM>
<NUMSTATES> 6
<STATE> 2
<MEAN> 48
 -7.201177e+00 -8.141906e+01 -8.799367e+00 -2.036499e+01 6.857493e+00 3.515620e+01 8.921224e+00 2.994259e+01 1.481611e+01 -7.212015e+00 -1.589971e+00 3.252258e+00 -5.465645e+00 2.744164e+00 8.653687e+00 1.075864e+02 1.136693e-01 -1.339015e-02 -1.195002e-01 -1.584895e-02 1.127341e-03 -1.055855e-02 -8.212522e-03 -2.061482e-02 -3.200531e-02 -2.078984e-02 4.474229e-02 3.071111e-02 2.955182e-03 2.070646e-02 -2.571418e-02 6.462470e-02 -1.164503e-02 -2.464203e-02 9.930196e-03 -3.695289e-02 -7.301586e-03 2.067808e-02 3.091308e-02 4.296790e-02 3.577359e-02 2.529381e-02 2.869596e-02 1.230387e-02 -1.153176e-03 1.339307e-03 -5.170110e-03 9.504945e-03
<VARIANCE> 48
 1.702110e+02 1.469985e+02 1.479757e+02 2.365875e+02 1.663947e+02 9.400525e+01 1.001067e+02 1.146944e+02 1.145521e+02 6.083321e+01 4.459296e+01 4.036795e+01 2.327421e+01 2.246140e+01 1.745118e+01 5.450684e+02 6.771390e+00 7.075457e+00 5.319250e+00 8.104167e+00 6.330431e+00 4.349309e+00 5.483747e+00 7.145979e+00 6.935362e+00 5.268703e+00 3.371009e+00 2.868356e+00 1.783888e+00 1.595583e+00 1.356928e+00 1.932744e+01 8.564348e-01 1.187668e+00 9.393587e-01 1.240312e+00 1.037322e+00 6.705362e-01 9.720603e-01 1.291720e+00 1.292361e+00 1.060679e+00 6.416107e-01 5.193194e-01 3.300977e-01 3.077628e-01 2.595632e-01 1.992209e+00
<GCONST> 1.806808e+02
<STATE> 3
<MEAN> 48
 -7.201177e+00 -8.141906e+01 -8.799367e+00 -2.036499e+01 6.857493e+00 3.515620e+01 8.921224e+00 2.994259e+01 1.481611e+01 -7.212015e+00 -1.589971e+00 3.252258e+00 -5.465645e+00 2.744164e+00 8.653687e+00 1.075864e+02 1.136693e-01 -1.339015e-02 -1.195002e-01 -1.584895e-02 1.127341e-03 -1.055855e-02 -8.212522e-03 -2.061482e-02 -3.200531e-02 -2.078984e-02 4.474229e-02 3.071111e-02 2.955182e-03 2.070646e-02 -2.571418e-02 6.462470e-02 -1.164503e-02 -2.464203e-02 9.930196e-03 -3.695289e-02 -7.301586e-03 2.067808e-02 3.091308e-02 4.296790e-02 3.577359e-02 2.529381e-02 2.869596e-02 1.230387e-02 -1.153176e-03 1.339307e-03 -5.170110e-03 9.504945e-03
<VARIANCE> 48
 1.702110e+02 1.469985e+02 1.479757e+02 2.365875e+02 1.663947e+02 9.400525e+01 1.001067e+02 1.146944e+02 1.145521e+02 6.083321e+01 4.459296e+01 4.036795e+01 2.327421e+01 2.246140e+01 1.745118e+01 5.450684e+02 6.771390e+00 7.075457e+00 5.319250e+00 8.104167e+00 6.330431e+00 4.349309e+00 5.483747e+00 7.145979e+00 6.935362e+00 5.268703e+00 3.371009e+00 2.868356e+00 1.783888e+00 1.595583e+00 1.356928e+00 1.932744e+01 8.564348e-01 1.187668e+00 9.393587e-01 1.240312e+00 1.037322e+00 6.705362e-01 9.720603e-01 1.291720e+00 1.292361e+00 1.060679e+00 6.416107e-01 5.193194e-01 3.300977e-01 3.077628e-01 2.595632e-01 1.992209e+00
<GCONST> 1.806808e+02
<STATE> 4
<MEAN> 48
 -7.201177e+00 -8.141906e+01 -8.799367e+00 -2.036499e+01 6.857493e+00 3.515620e+01 8.921224e+00 2.994259e+01 1.481611e+01 -7.212015e+00 -1.589971e+00 3.252258e+00 -5.465645e+00 2.744164e+00 8.653687e+00 1.075864e+02 1.136693e-01 -1.339015e-02 -1.195002e-01 -1.584895e-02 1.127341e-03 -1.055855e-02 -8.212522e-03 -2.061482e-02 -3.200531e-02 -2.078984e-02 4.474229e-02 3.071111e-02 2.955182e-03 2.070646e-02 -2.571418e-02 6.462470e-02 -1.164503e-02 -2.464203e-02 9.930196e-03 -3.695289e-02 -7.301586e-03 2.067808e-02 3.091308e-02 4.296790e-02 3.577359e-02 2.529381e-02 2.869596e-02 1.230387e-02 -1.153176e-03 1.339307e-03 -5.170110e-03 9.504945e-03
<VARIANCE> 48
 1.702110e+02 1.469985e+02 1.479757e+02 2.365875e+02 1.663947e+02 9.400525e+01 1.001067e+02 1.146944e+02 1.145521e+02 6.083321e+01 4.459296e+01 4.036795e+01 2.327421e+01 2.246140e+01 1.745118e+01 5.450684e+02 6.771390e+00 7.075457e+00 5.319250e+00 8.104167e+00 6.330431e+00 4.349309e+00 5.483747e+00 7.145979e+00 6.935362e+00 5.268703e+00 3.371009e+00 2.868356e+00 1.783888e+00 1.595583e+00 1.356928e+00 1.932744e+01 8.564348e-01 1.187668e+00 9.393587e-01 1.240312e+00 1.037322e+00 6.705362e-01 9.720603e-01 1.291720e+00 1.292361e+00 1.060679e+00 6.416107e-01 5.193194e-01 3.300977e-01 3.077628e-01 2.595632e-01 1.992209e+00
<GCONST> 1.806808e+02
<STATE> 5
<MEAN> 48
 -7.201177e+00 -8.141906e+01 -8.799367e+00 -2.036499e+01 6.857493e+00 3.515620e+01 8.921224e+00 2.994259e+01 1.481611e+01 -7.212015e+00 -1.589971e+00 3.252258e+00 -5.465645e+00 2.744164e+00 8.653687e+00 1.075864e+02 1.136693e-01 -1.339015e-02 -1.195002e-01 -1.584895e-02 1.127341e-03 -1.055855e-02 -8.212522e-03 -2.061482e-02 -3.200531e-02 -2.078984e-02 4.474229e-02 3.071111e-02 2.955182e-03 2.070646e-02 -2.571418e-02 6.462470e-02 -1.164503e-02 -2.464203e-02 9.930196e-03 -3.695289e-02 -7.301586e-03 2.067808e-02 3.091308e-02 4.296790e-02 3.577359e-02 2.529381e-02 2.869596e-02 1.230387e-02 -1.153176e-03 1.339307e-03 -5.170110e-03 9.504945e-03
<VARIANCE> 48
 1.702110e+02 1.469985e+02 1.479757e+02 2.365875e+02 1.663947e+02 9.400525e+01 1.001067e+02 1.146944e+02 1.145521e+02 6.083321e+01 4.459296e+01 4.036795e+01 2.327421e+01 2.246140e+01 1.745118e+01 5.450684e+02 6.771390e+00 7.075457e+00 5.319250e+00 8.104167e+00 6.330431e+00 4.349309e+00 5.483747e+00 7.145979e+00 6.935362e+00 5.268703e+00 3.371009e+00 2.868356e+00 1.783888e+00 1.595583e+00 1.356928e+00 1.932744e+01 8.564348e-01 1.187668e+00 9.393587e-01 1.240312e+00 1.037322e+00 6.705362e-01 9.720603e-01 1.291720e+00 1.292361e+00 1.060679e+00 6.416107e-01 5.193194e-01 3.300977e-01 3.077628e-01 2.595632e-01 1.992209e+00
<GCONST> 1.806808e+02
<TRANSP> 6
 0.000000e+00 1.000000e+00 0.000000e+00 0.000000e+00 0.000000e+00 0.000000e+00
 0.000000e+00 6.000000e-01 4.000000e-01 0.000000e+00 0.000000e+00 0.000000e+00
 0.000000e+00 0.000000e+00 6.000000e-01 4.000000e-01 0.000000e+00 0.000000e+00
 0.000000e+00 0.000000e+00 0.000000e+00 7.000000e-01 3.000000e-01 0.000000e+00
 0.000000e+00 0.000000e+00 0.000000e+00 0.000000e+00 7.000000e-01 3.000000e-01
 0.000000e+00 0.000000e+00 0.000000e+00 0.000000e+00 0.000000e+00 0.000000e+00
<ENDHMM>
~h "a"
<BEGINHMM>
<NUMSTATES> 6
<STATE> 2
<MEAN> 48
 -7.201177e+00 -8.141906e+01 -8.799367e+00 -2.036499e+01 6.857493e+00 3.515620e+01 8.921224e+00 2.994259e+01 1.481611e+01 -7.212015e+00 -1.589971e+00 3.252258e+00 -5.465645e+00 2.744164e+00 8.653687e+00 1.075864e+02 1.136693e-01 -1.339015e-02 -1.195002e-01 -1.584895e-02 1.127341e-03 -1.055855e-02 -8.212522e-03 -2.061482e-02 -3.200531e-02 -2.078984e-02 4.474229e-02 3.071111e-02 2.955182e-03 2.070646e-02 -2.571418e-02 6.462470e-02 -1.164503e-02 -2.464203e-02 9.930196e-03 -3.695289e-02 -7.301586e-03 2.067808e-02 3.091308e-02 4.296790e-02 3.577359e-02 2.529381e-02 2.869596e-02 1.230387e-02 -1.153176e-03 1.339307e-03 -5.170110e-03 9.504945e-03
<VARIANCE> 48
 1.702110e+02 1.469985e+02 1.479757e+02 2.365875e+02 1.663947e+02 9.400525e+01 1.001067e+02 1.146944e+02 1.145521e+02 6.083321e+01 4.459296e+01 4.036795e+01 2.327421e+01 2.246140e+01 1.745118e+01 5.450684e+02 6.771390e+00 7.075457e+00 5.319250e+00 8.104167e+00 6.330431e+00 4.349309e+00 5.483747e+00 7.145979e+00 6.935362e+00 5.268703e+00 3.371009e+00 2.868356e+00 1.783888e+00 1.595583e+00 1.356928e+00 1.932744e+01 8.564348e-01 1.187668e+00 9.393587e-01 1.240312e+00 1.037322e+00 6.705362e-01 9.720603e-01 1.291720e+00 1.292361e+00 1.060679e+00 6.416107e-01 5.193194e-01 3.300977e-01 3.077628e-01 2.595632e-01 1.992209e+00
<GCONST> 1.806808e+02
<STATE> 3
<MEAN> 48
 -7.201177e+00 -8.141906e+01 -8.799367e+00 -2.036499e+01 6.857493e+00 3.515620e+01 8.921224e+00 2.994259e+01 1.481611e+01 -7.212015e+00 -1.589971e+00 3.252258e+00 -5.465645e+00 2.744164e+00 8.653687e+00 1.075864e+02 1.136693e-01 -1.339015e-02 -1.195002e-01 -1.584895e-02 1.127341e-03 -1.055855e-02 -8.212522e-03 -2.061482e-02 -3.200531e-02 -2.078984e-02 4.474229e-02 3.071111e-02 2.955182e-03 2.070646e-02 -2.571418e-02 6.462470e-02 -1.164503e-02 -2.464203e-02 9.930196e-03 -3.695289e-02 -7.301586e-03 2.067808e-02 3.091308e-02 4.296790e-02 3.577359e-02 2.529381e-02 2.869596e-02 1.230387e-02 -1.153176e-03 1.339307e-03 -5.170110e-03 9.504945e-03
<VARIANCE> 48
 1.702110e+02 1.469985e+02 1.479757e+02 2.365875e+02 1.663947e+02 9.400525e+01 1.001067e+02 1.146944e+02 1.145521e+02 6.083321e+01 4.459296e+01 4.036795e+01 2.327421e+01 2.246140e+01 1.745118e+01 5.450684e+02 6.771390e+00 7.075457e+00 5.319250e+00 8.104167e+00 6.330431e+00 4.349309e+00 5.483747e+00 7.145979e+00 6.935362e+00 5.268703e+00 3.371009e+00 2.868356e+00 1.783888e+00 1.595583e+00 1.356928e+00 1.932744e+01 8.564348e-01 1.187668e+00 9.393587e-01 1.240312e+00 1.037322e+00 6.705362e-01 9.720603e-01 1.291720e+00 1.292361e+00 1.060679e+00 6.416107e-01 5.193194e-01 3.300977e-01 3.077628e-01 2.595632e-01 1.992209e+00
<GCONST> 1.806808e+02
<STATE> 4
<MEAN> 48
 -7.201177e+00 -8.141906e+01 -8.799367e+00 -2.036499e+01 6.857493e+00 3.515620e+01 8.921224e+00 2.994259e+01 1.481611e+01 -7.212015e+00 -1.589971e+00 3.252258e+00 -5.465645e+00 2.744164e+00 8.653687e+00 1.075864e+02 1.136693e-01 -1.339015e-02 -1.195002e-01 -1.584895e-02 1.127341e-03 -1.055855e-02 -8.212522e-03 -2.061482e-02 -3.200531e-02 -2.078984e-02 4.474229e-02 3.071111e-02 2.955182e-03 2.070646e-02 -2.571418e-02 6.462470e-02 -1.164503e-02 -2.464203e-02 9.930196e-03 -3.695289e-02 -7.301586e-03 2.067808e-02 3.091308e-02 4.296790e-02 3.577359e-02 2.529381e-02 2.869596e-02 1.230387e-02 -1.153176e-03 1.339307e-03 -5.170110e-03 9.504945e-03
<VARIANCE> 48
 1.702110e+02 1.469985e+02 1.479757e+02 2.365875e+02 1.663947e+02 9.400525e+01 1.001067e+02 1.146944e+02 1.145521e+02 6.083321e+01 4.459296e+01 4.036795e+01 2.327421e+01 2.246140e+01 1.745118e+01 5.450684e+02 6.771390e+00 7.075457e+00 5.319250e+00 8.104167e+00 6.330431e+00 4.349309e+00 5.483747e+00 7.145979e+00 6.935362e+00 5.268703e+00 3.371009e+00 2.868356e+00 1.783888e+00 1.595583e+00 1.356928e+00 1.932744e+01 8.564348e-01 1.187668e+00 9.393587e-01 1.240312e+00 1.037322e+00 6.705362e-01 9.720603e-01 1.291720e+00 1.292361e+00 1.060679e+00 6.416107e-01 5.193194e-01 3.300977e-01 3.077628e-01 2.595632e-01 1.992209e+00
<GCONST> 1.806808e+02
<STATE> 5
<MEAN> 48
 -7.201177e+00 -8.141906e+01 -8.799367e+00 -2.036499e+01 6.857493e+00 3.515620e+01 8.921224e+00 2.994259e+01 1.481611e+01 -7.212015e+00 -1.589971e+00 3.252258e+00 -5.465645e+00 2.744164e+00 8.653687e+00 1.075864e+02 1.136693e-01 -1.339015e-02 -1.195002e-01 -1.584895e-02 1.127341e-03 -1.055855e-02 -8.212522e-03 -2.061482e-02 -3.200531e-02 -2.078984e-02 4.474229e-02 3.071111e-02 2.955182e-03 2.070646e-02 -2.571418e-02 6.462470e-02 -1.164503e-02 -2.464203e-02 9.930196e-03 -3.695289e-02 -7.301586e-03 2.067808e-02 3.091308e-02 4.296790e-02 3.577359e-02 2.529381e-02 2.869596e-02 1.230387e-02 -1.153176e-03 1.339307e-03 -5.170110e-03 9.504945e-03
<VARIANCE> 48
 1.702110e+02 1.469985e+02 1.479757e+02 2.365875e+02 1.663947e+02 9.400525e+01 1.001067e+02 1.146944e+02 1.145521e+02 6.083321e+01 4.459296e+01 4.036795e+01 2.327421e+01 2.246140e+01 1.745118e+01 5.450684e+02 6.771390e+00 7.075457e+00 5.319250e+00 8.104167e+00 6.330431e+00 4.349309e+00 5.483747e+00 7.145979e+00 6.935362e+00 5.268703e+00 3.371009e+00 2.868356e+00 1.783888e+00 1.595583e+00 1.356928e+00 1.932744e+01 8.564348e-01 1.187668e+00 9.393587e-01 1.240312e+00 1.037322e+00 6.705362e-01 9.720603e-01 1.291720e+00 1.292361e+00 1.060679e+00 6.416107e-01 5.193194e-01 3.300977e-01 3.077628e-01 2.595632e-01 1.992209e+00
<GCONST> 1.806808e+02
<TRANSP> 6
 0.000000e+00 1.000000e+00 0.000000e+00 0.000000e+00 0.000000e+00 0.000000e+00
 0.000000e+00 6.000000e-01 4.000000e-01 0.000000e+00 0.000000e+00 0.000000e+00
 0.000000e+00 0.000000e+00 6.000000e-01 4.000000e-01 0.000000e+00 0.000000e+00
 0.000000e+00 0.000000e+00 0.000000e+00 7.000000e-01 3.000000e-01 0.000000e+00
 0.000000e+00 0.000000e+00 0.000000e+00 0.000000e+00 7.000000e-01 3.000000e-01
 0.000000e+00 0.000000e+00 0.000000e+00 0.000000e+00 0.000000e+00 0.000000e+00
<ENDHMM>
~h "e"
<BEGINHMM>
<NUMSTATES> 6
<STATE> 2
<MEAN> 48
 -7.201177e+00 -8.141906e+01 -8.799367e+00 -2.036499e+01 6.857493e+00 3.515620e+01 8.921224e+00 2.994259e+01 1.481611e+01 -7.212015e+00 -1.589971e+00 3.252258e+00 -5.465645e+00 2.744164e+00 8.653687e+00 1.075864e+02 1.136693e-01 -1.339015e-02 -1.195002e-01 -1.584895e-02 1.127341e-03 -1.055855e-02 -8.212522e-03 -2.061482e-02 -3.200531e-02 -2.078984e-02 4.474229e-02 3.071111e-02 2.955182e-03 2.070646e-02 -2.571418e-02 6.462470e-02 -1.164503e-02 -2.464203e-02 9.930196e-03 -3.695289e-02 -7.301586e-03 2.067808e-02 3.091308e-02 4.296790e-02 3.577359e-02 2.529381e-02 2.869596e-02 1.230387e-02 -1.153176e-03 1.339307e-03 -5.170110e-03 9.504945e-03
<VARIANCE> 48
 1.702110e+02 1.469985e+02 1.479757e+02 2.365875e+02 1.663947e+02 9.400525e+01 1.001067e+02 1.146944e+02 1.145521e+02 6.083321e+01 4.459296e+01 4.036795e+01 2.327421e+01 2.246140e+01 1.745118e+01 5.450684e+02 6.771390e+00 7.075457e+00 5.319250e+00 8.104167e+00 6.330431e+00 4.349309e+00 5.483747e+00 7.145979e+00 6.935362e+00 5.268703e+00 3.371009e+00 2.868356e+00 1.783888e+00 1.595583e+00 1.356928e+00 1.932744e+01 8.564348e-01 1.187668e+00 9.393587e-01 1.240312e+00 1.037322e+00 6.705362e-01 9.720603e-01 1.291720e+00 1.292361e+00 1.060679e+00 6.416107e-01 5.193194e-01 3.300977e-01 3.077628e-01 2.595632e-01 1.992209e+00
<GCONST> 1.806808e+02
<STATE> 3
<MEAN> 48
 -7.201177e+00 -8.141906e+01 -8.799367e+00 -2.036499e+01 6.857493e+00 3.515620e+01 8.921224e+00 2.994259e+01 1.481611e+01 -7.212015e+00 -1.589971e+00 3.252258e+00 -5.465645e+00 2.744164e+00 8.653687e+00 1.075864e+02 1.136693e-01 -1.339015e-02 -1.195002e-01 -1.584895e-02 1.127341e-03 -1.055855e-02 -8.212522e-03 -2.061482e-02 -3.200531e-02 -2.078984e-02 4.474229e-02 3.071111e-02 2.955182e-03 2.070646e-02 -2.571418e-02 6.462470e-02 -1.164503e-02 -2.464203e-02 9.930196e-03 -3.695289e-02 -7.301586e-03 2.067808e-02 3.091308e-02 4.296790e-02 3.577359e-02 2.529381e-02 2.869596e-02 1.230387e-02 -1.153176e-03 1.339307e-03 -5.170110e-03 9.504945e-03
<VARIANCE> 48
 1.702110e+02 1.469985e+02 1.479757e+02 2.365875e+02 1.663947e+02 9.400525e+01 1.001067e+02 1.146944e+02 1.145521e+02 6.083321e+01 4.459296e+01 4.036795e+01 2.327421e+01 2.246140e+01 1.745118e+01 5.450684e+02 6.771390e+00 7.075457e+00 5.319250e+00 8.104167e+00 6.330431e+00 4.349309e+00 5.483747e+00 7.145979e+00 6.935362e+00 5.268703e+00 3.371009e+00 2.868356e+00 1.783888e+00 1.595583e+00 1.356928e+00 1.932744e+01 8.564348e-01 1.187668e+00 9.393587e-01 1.240312e+00 1.037322e+00 6.705362e-01 9.720603e-01 1.291720e+00 1.292361e+00 1.060679e+00 6.416107e-01 5.193194e-01 3.300977e-01 3.077628e-01 2.595632e-01 1.992209e+00
<GCONST> 1.806808e+02
<STATE> 4
<MEAN> 48
 -7.201177e+00 -8.141906e+01 -8.799367e+00 -2.036499e+01 6.857493e+00 3.515620e+01 8.921224e+00 2.994259e+01 1.481611e+01 -7.212015e+00 -1.589971e+00 3.252258e+00 -5.465645e+00 2.744164e+00 8.653687e+00 1.075864e+02 1.136693e-01 -1.339015e-02 -1.195002e-01 -1.584895e-02 1.127341e-03 -1.055855e-02 -8.212522e-03 -2.061482e-02 -3.200531e-02 -2.078984e-02 4.474229e-02 3.071111e-02 2.955182e-03 2.070646e-02 -2.571418e-02 6.462470e-02 -1.164503e-02 -2.464203e-02 9.930196e-03 -3.695289e-02 -7.301586e-03 2.067808e-02 3.091308e-02 4.296790e-02 3.577359e-02 2.529381e-02 2.869596e-02 1.230387e-02 -1.153176e-03 1.339307e-03 -5.170110e-03 9.504945e-03
<VARIANCE> 48
 1.702110e+02 1.469985e+02 1.479757e+02 2.365875e+02 1.663947e+02 9.400525e+01 1.001067e+02 1.146944e+02 1.145521e+02 6.083321e+01 4.459296e+01 4.036795e+01 2.327421e+01 2.246140e+01 1.745118e+01 5.450684e+02 6.771390e+00 7.075457e+00 5.319250e+00 8.104167e+00 6.330431e+00 4.349309e+00 5.483747e+00 7.145979e+00 6.935362e+00 5.268703e+00 3.371009e+00 2.868356e+00 1.783888e+00 1.595583e+00 1.356928e+00 1.932744e+01 8.564348e-01 1.187668e+00 9.393587e-01 1.240312e+00 1.037322e+00 6.705362e-01 9.720603e-01 1.291720e+00 1.292361e+00 1.060679e+00 6.416107e-01 5.193194e-01 3.300977e-01 3.077628e-01 2.595632e-01 1.992209e+00
<GCONST> 1.806808e+02
<STATE> 5
<MEAN> 48
 -7.201177e+00 -8.141906e+01 -8.799367e+00 -2.036499e+01 6.857493e+00 3.515620e+01 8.921224e+00 2.994259e+01 1.481611e+01 -7.212015e+00 -1.589971e+00 3.252258e+00 -5.465645e+00 2.744164e+00 8.653687e+00 1.075864e+02 1.136693e-01 -1.339015e-02 -1.195002e-01 -1.584895e-02 1.127341e-03 -1.055855e-02 -8.212522e-03 -2.061482e-02 -3.200531e-02 -2.078984e-02 4.474229e-02 3.071111e-02 2.955182e-03 2.070646e-02 -2.571418e-02 6.462470e-02 -1.164503e-02 -2.464203e-02 9.930196e-03 -3.695289e-02 -7.301586e-03 2.067808e-02 3.091308e-02 4.296790e-02 3.577359e-02 2.529381e-02 2.869596e-02 1.230387e-02 -1.153176e-03 1.339307e-03 -5.170110e-03 9.504945e-03
<VARIANCE> 48
 1.702110e+02 1.469985e+02 1.479757e+02 2.365875e+02 1.663947e+02 9.400525e+01 1.001067e+02 1.146944e+02 1.145521e+02 6.083321e+01 4.459296e+01 4.036795e+01 2.327421e+01 2.246140e+01 1.745118e+01 5.450684e+02 6.771390e+00 7.075457e+00 5.319250e+00 8.104167e+00 6.330431e+00 4.349309e+00 5.483747e+00 7.145979e+00 6.935362e+00 5.268703e+00 3.371009e+00 2.868356e+00 1.783888e+00 1.595583e+00 1.356928e+00 1.932744e+01 8.564348e-01 1.187668e+00 9.393587e-01 1.240312e+00 1.037322e+00 6.705362e-01 9.720603e-01 1.291720e+00 1.292361e+00 1.060679e+00 6.416107e-01 5.193194e-01 3.300977e-01 3.077628e-01 2.595632e-01 1.992209e+00
<GCONST> 1.806808e+02
<TRANSP> 6
 0.000000e+00 1.000000e+00 0.000000e+00 0.000000e+00 0.000000e+00 0.000000e+00
 0.000000e+00 6.000000e-01 4.000000e-01 0.000000e+00 0.000000e+00 0.000000e+00
 0.000000e+00 0.000000e+00 6.000000e-01 4.000000e-01 0.000000e+00 0.000000e+00
 0.000000e+00 0.000000e+00 0.000000e+00 7.000000e-01 3.000000e-01 0.000000e+00
 0.000000e+00 0.000000e+00 0.000000e+00 0.000000e+00 7.000000e-01 3.000000e-01
 0.000000e+00 0.000000e+00 0.000000e+00 0.000000e+00 0.000000e+00 0.000000e+00
<ENDHMM>
~h "silence"
<BEGINHMM>
<NUMSTATES> 6
<STATE> 2
<MEAN> 48
 -7.201177e+00 -8.141906e+01 -8.799367e+00 -2.036499e+01 6.857493e+00 3.515620e+01 8.921224e+00 2.994259e+01 1.481611e+01 -7.212015e+00 -1.589971e+00 3.252258e+00 -5.465645e+00 2.744164e+00 8.653687e+00 1.075864e+02 1.136693e-01 -1.339015e-02 -1.195002e-01 -1.584895e-02 1.127341e-03 -1.055855e-02 -8.212522e-03 -2.061482e-02 -3.200531e-02 -2.078984e-02 4.474229e-02 3.071111e-02 2.955182e-03 2.070646e-02 -2.571418e-02 6.462470e-02 -1.164503e-02 -2.464203e-02 9.930196e-03 -3.695289e-02 -7.301586e-03 2.067808e-02 3.091308e-02 4.296790e-02 3.577359e-02 2.529381e-02 2.869596e-02 1.230387e-02 -1.153176e-03 1.339307e-03 -5.170110e-03 9.504945e-03
<VARIANCE> 48
 1.702110e+02 1.469985e+02 1.479757e+02 2.365875e+02 1.663947e+02 9.400525e+01 1.001067e+02 1.146944e+02 1.145521e+02 6.083321e+01 4.459296e+01 4.036795e+01 2.327421e+01 2.246140e+01 1.745118e+01 5.450684e+02 6.771390e+00 7.075457e+00 5.319250e+00 8.104167e+00 6.330431e+00 4.349309e+00 5.483747e+00 7.145979e+00 6.935362e+00 5.268703e+00 3.371009e+00 2.868356e+00 1.783888e+00 1.595583e+00 1.356928e+00 1.932744e+01 8.564348e-01 1.187668e+00 9.393587e-01 1.240312e+00 1.037322e+00 6.705362e-01 9.720603e-01 1.291720e+00 1.292361e+00 1.060679e+00 6.416107e-01 5.193194e-01 3.300977e-01 3.077628e-01 2.595632e-01 1.992209e+00
<GCONST> 1.806808e+02
<STATE> 3
<MEAN> 48
 -7.201177e+00 -8.141906e+01 -8.799367e+00 -2.036499e+01 6.857493e+00 3.515620e+01 8.921224e+00 2.994259e+01 1.481611e+01 -7.212015e+00 -1.589971e+00 3.252258e+00 -5.465645e+00 2.744164e+00 8.653687e+00 1.075864e+02 1.136693e-01 -1.339015e-02 -1.195002e-01 -1.584895e-02 1.127341e-03 -1.055855e-02 -8.212522e-03 -2.061482e-02 -3.200531e-02 -2.078984e-02 4.474229e-02 3.071111e-02 2.955182e-03 2.070646e-02 -2.571418e-02 6.462470e-02 -1.164503e-02 -2.464203e-02 9.930196e-03 -3.695289e-02 -7.301586e-03 2.067808e-02 3.091308e-02 4.296790e-02 3.577359e-02 2.529381e-02 2.869596e-02 1.230387e-02 -1.153176e-03 1.339307e-03 -5.170110e-03 9.504945e-03
<VARIANCE> 48
 1.702110e+02 1.469985e+02 1.479757e+02 2.365875e+02 1.663947e+02 9.400525e+01 1.001067e+02 1.146944e+02 1.145521e+02 6.083321e+01 4.459296e+01 4.036795e+01 2.327421e+01 2.246140e+01 1.745118e+01 5.450684e+02 6.771390e+00 7.075457e+00 5.319250e+00 8.104167e+00 6.330431e+00 4.349309e+00 5.483747e+00 7.145979e+00 6.935362e+00 5.268703e+00 3.371009e+00 2.868356e+00 1.783888e+00 1.595583e+00 1.356928e+00 1.932744e+01 8.564348e-01 1.187668e+00 9.393587e-01 1.240312e+00 1.037322e+00 6.705362e-01 9.720603e-01 1.291720e+00 1.292361e+00 1.060679e+00 6.416107e-01 5.193194e-01 3.300977e-01 3.077628e-01 2.595632e-01 1.992209e+00
<GCONST> 1.806808e+02
<STATE> 4
<MEAN> 48
 -7.201177e+00 -8.141906e+01 -8.799367e+00 -2.036499e+01 6.857493e+00 3.515620e+01 8.921224e+00 2.994259e+01 1.481611e+01 -7.212015e+00 -1.589971e+00 3.252258e+00 -5.465645e+00 2.744164e+00 8.653687e+00 1.075864e+02 1.136693e-01 -1.339015e-02 -1.195002e-01 -1.584895e-02 1.127341e-03 -1.055855e-02 -8.212522e-03 -2.061482e-02 -3.200531e-02 -2.078984e-02 4.474229e-02 3.071111e-02 2.955182e-03 2.070646e-02 -2.571418e-02 6.462470e-02 -1.164503e-02 -2.464203e-02 9.930196e-03 -3.695289e-02 -7.301586e-03 2.067808e-02 3.091308e-02 4.296790e-02 3.577359e-02 2.529381e-02 2.869596e-02 1.230387e-02 -1.153176e-03 1.339307e-03 -5.170110e-03 9.504945e-03
<VARIANCE> 48
 1.702110e+02 1.469985e+02 1.479757e+02 2.365875e+02 1.663947e+02 9.400525e+01 1.001067e+02 1.146944e+02 1.145521e+02 6.083321e+01 4.459296e+01 4.036795e+01 2.327421e+01 2.246140e+01 1.745118e+01 5.450684e+02 6.771390e+00 7.075457e+00 5.319250e+00 8.104167e+00 6.330431e+00 4.349309e+00 5.483747e+00 7.145979e+00 6.935362e+00 5.268703e+00 3.371009e+00 2.868356e+00 1.783888e+00 1.595583e+00 1.356928e+00 1.932744e+01 8.564348e-01 1.187668e+00 9.393587e-01 1.240312e+00 1.037322e+00 6.705362e-01 9.720603e-01 1.291720e+00 1.292361e+00 1.060679e+00 6.416107e-01 5.193194e-01 3.300977e-01 3.077628e-01 2.595632e-01 1.992209e+00
<GCONST> 1.806808e+02
<STATE> 5
<MEAN> 48
 -7.201177e+00 -8.141906e+01 -8.799367e+00 -2.036499e+01 6.857493e+00 3.515620e+01 8.921224e+00 2.994259e+01 1.481611e+01 -7.212015e+00 -1.589971e+00 3.252258e+00 -5.465645e+00 2.744164e+00 8.653687e+00 1.075864e+02 1.136693e-01 -1.339015e-02 -1.195002e-01 -1.584895e-02 1.127341e-03 -1.055855e-02 -8.212522e-03 -2.061482e-02 -3.200531e-02 -2.078984e-02 4.474229e-02 3.071111e-02 2.955182e-03 2.070646e-02 -2.571418e-02 6.462470e-02 -1.164503e-02 -2.464203e-02 9.930196e-03 -3.695289e-02 -7.301586e-03 2.067808e-02 3.091308e-02 4.296790e-02 3.577359e-02 2.529381e-02 2.869596e-02 1.230387e-02 -1.153176e-03 1.339307e-03 -5.170110e-03 9.504945e-03
<VARIANCE> 48
 1.702110e+02 1.469985e+02 1.479757e+02 2.365875e+02 1.663947e+02 9.400525e+01 1.001067e+02 1.146944e+02 1.145521e+02 6.083321e+01 4.459296e+01 4.036795e+01 2.327421e+01 2.246140e+01 1.745118e+01 5.450684e+02 6.771390e+00 7.075457e+00 5.319250e+00 8.104167e+00 6.330431e+00 4.349309e+00 5.483747e+00 7.145979e+00 6.935362e+00 5.268703e+00 3.371009e+00 2.868356e+00 1.783888e+00 1.595583e+00 1.356928e+00 1.932744e+01 8.564348e-01 1.187668e+00 9.393587e-01 1.240312e+00 1.037322e+00 6.705362e-01 9.720603e-01 1.291720e+00 1.292361e+00 1.060679e+00 6.416107e-01 5.193194e-01 3.300977e-01 3.077628e-01 2.595632e-01 1.992209e+00
<GCONST> 1.806808e+02
<TRANSP> 6
 0.000000e+00 1.000000e+00 0.000000e+00 0.000000e+00 0.000000e+00 0.000000e+00
 0.000000e+00 6.000000e-01 4.000000e-01 0.000000e+00 0.000000e+00 0.000000e+00
 0.000000e+00 0.000000e+00 6.000000e-01 4.000000e-01 0.000000e+00 0.000000e+00
 0.000000e+00 0.000000e+00 0.000000e+00 7.000000e-01 3.000000e-01 0.000000e+00
 0.000000e+00 0.000000e+00 0.000000e+00 0.000000e+00 7.000000e-01 3.000000e-01
 0.000000e+00 0.000000e+00 0.000000e+00 0.000000e+00 0.000000e+00 0.000000e+00
<ENDHMM>
~h "b"
<BEGINHMM>
<NUMSTATES> 6
<STATE> 2
<MEAN> 48
 -7.664089e+00 -8.134295e+01 -8.214813e+00 -2.107255e+01 7.508283e+00 3.445746e+01 9.088167e+00 3.019908e+01 1.463160e+01 -7.414081e+00 -1.445869e+00 3.063762e+00 -5.671317e+00 3.100736e+00 8.528409e+00 1.078974e+02 1.179139e-01 -7.912015e-03 -1.237297e-01 -1.788225e-02 -2.159967e-02 -1.809635e-02 -3.762262e-03 -1.971368e-03 -2.898635e-02 -2.766537e-02 3.446672e-02 2.718052e-02 2.544973e-04 1.410253e-02 -2.558303e-02 6.306325e-02 -1.550587e-02 -2.541449e-02 1.125004e-02 -3.137008e-02 -6.027393e-03 1.897153e-02 2.538212e-02 4.106273e-02 3.880647e-02 3.174704e-02 3.171102e-02 8.160106e-03 3.444411e-04 5.578516e-03 -2.312961e-03 5.875596e-03
<VARIANCE> 48
 1.712309e+02 1.428467e+02 1.536381e+02 2.374011e+02 1.746507e+02 9.541919e+01 1.044722e+02 1.210623e+02 1.165361e+02 6.068536e+01 4.510535e+01 3.931261e+01 2.311387e+01 2.411496e+01 1.681411e+01 5.438164e+02 6.748969e+00 6.936021e+00 5.275872e+00 8.039052e+00 6.433656e+00 4.250286e+00 5.661382e+00 7.179824e+00 7.091681e+00 5.273951e+00 3.444988e+00 2.859476e+00 1.802949e+00 1.670229e+00 1.307843e+00 1.899277e+01 8.651392e-01 1.164723e+00 9.388314e-01 1.218834e+00 1.056030e+00 6.621046e-01 1.009818e+00 1.287425e+00 1.326432e+00 1.058541e+00 6.598768e-01 5.200275e-01 3.370036e-01 3.208098e-01 2.485139e-01 1.949742e+00
<GCONST> 1.809808e+02
<STATE> 3
<MEAN> 48
 -7.664089e+00 -8.134295e+01 -8.214813e+00 -2.107255e+01 7.508283e+00 3.445746e+01 9.088167e+00 3.019908e+01 1.463160e+01 -7.414081e+00 -1.445869e+00 3.063762e+00 -5.671317e+00 3.100736e+00 8.528409e+00 1.078974e+02 1.179139e-01 -7.912015e-03 -1.237297e-01 -1.788225e-02 -2.159967e-02 -1.809635e-02 -3.762262e-03 -1.971368e-03 -2.898635e-02 -2.766537e-02 3.446672e-02 2.718052e-02 2.544973e-04 1.410253e-02 -2.558303e-02 6.306325e-02 -1.550587e-02 -2.541449e-02 1.125004e-02 -3.137008e-02 -6.027393e-03 1.897153e-02 2.538212e-02 4.106273e-02 3.880647e-02 3.174704e-02 3.171102e-02 8.160106e-03 3.444411e-04 5.578516e-03 -2.312961e-03 5.875596e-03
<VARIANCE> 48
 1.712309e+02 1.428467e+02 1.536381e+02 2.374011e+02 1.746507e+02 9.541919e+01 1.044722e+02 1.210623e+02 1.165361e+02 6.068536e+01 4.510535e+01 3.931261e+01 2.311387e+01 2.411496e+01 1.681411e+01 5.438164e+02 6.748969e+00 6.936021e+00 5.275872e+00 8.039052e+00 6.433656e+00 4.250286e+00 5.661382e+00 7.179824e+00 7.091681e+00 5.273951e+00 3.444988e+00 2.859476e+00 1.802949e+00 1.670229e+00 1.307843e+00 1.899277e+01 8.651392e-01 1.164723e+00 9.388314e-01 1.218834e+00 1.056030e+00 6.621046e-01 1.009818e+00 1.287425e+00 1.326432e+00 1.058541e+00 6.598768e-01 5.200275e-01 3.370036e-01 3.208098e-01 2.485139e-01 1.949742e+00
<GCONST> 1.809808e+02
<STATE> 4
<MEAN> 48
 -7.664089e+00 -8.134295e+01 -8.214813e+00 -2.107255e+01 7.508283e+00 3.445746e+01 9.088167e+00 3.019908e+01 1.463160e+01 -7.414081e+00 -1.445869e+00 3.063762e+00 -5.671317e+00 3.100736e+00 8.528409e+00 1.078974e+02 1.179139e-01 -7.912015e-03 -1.237297e-01 -1.788225e-02 -2.159967e-02 -1.809635e-02 -3.762262e-03 -1.971368e-03 -2.898635e-02 -2.766537e-02 3.446672e-02 2.718052e-02 2.544973e-04 1.410253e-02 -2.558303e-02 6.306325e-02 -1.550587e-02 -2.541449e-02 1.125004e-02 -3.137008e-02 -6.027393e-03 1.897153e-02 2.538212e-02 4.106273e-02 3.880647e-02 3.174704e-02 3.171102e-02 8.160106e-03 3.444411e-04 5.578516e-03 -2.312961e-03 5.875596e-03
<VARIANCE> 48
 1.712309e+02 1.428467e+02 1.536381e+02 2.374011e+02 1.746507e+02 9.541919e+01 1.044722e+02 1.210623e+02 1.165361e+02 6.068536e+01 4.510535e+01 3.931261e+01 2.311387e+01 2.411496e+01 1.681411e+01 5.438164e+02 6.748969e+00 6.936021e+00 5.275872e+00 8.039052e+00 6.433656e+00 4.250286e+00 5.661382e+00 7.179824e+00 7.091681e+00 5.273951e+00 3.444988e+00 2.859476e+00 1.802949e+00 1.670229e+00 1.307843e+00 1.899277e+01 8.651392e-01 1.164723e+00 9.388314e-01 1.218834e+00 1.056030e+00 6.621046e-01 1.009818e+00 1.287425e+00 1.326432e+00 1.058541e+00 6.598768e-01 5.200275e-01 3.370036e-01 3.208098e-01 2.485139e-01 1.949742e+00
<GCONST> 1.809808e+02
<STATE> 5
<MEAN> 48
 -7.664089e+00 -8.134295e+01 -8.214813e+00 -2.107255e+01 7.508283e+00 3.445746e+01 9.088167e+00 3.019908e+01 1.463160e+01 -7.414081e+00 -1.445869e+00 3.063762e+00 -5.671317e+00 3.100736e+00 8.528409e+00 1.078974e+02 1.179139e-01 -7.912015e-03 -1.237297e-01 -1.788225e-02 -2.159967e-02 -1.809635e-02 -3.762262e-03 -1.971368e-03 -2.898635e-02 -2.766537e-02 3.446672e-02 2.718052e-02 2.544973e-04 1.410253e-02 -2.558303e-02 6.306325e-02 -1.550587e-02 -2.541449e-02 1.125004e-02 -3.137008e-02 -6.027393e-03 1.897153e-02 2.538212e-02 4.106273e-02 3.880647e-02 3.174704e-02 3.171102e-02 8.160106e-03 3.444411e-04 5.578516e-03 -2.312961e-03 5.875596e-03
<VARIANCE> 48
 1.712309e+02 1.428467e+02 1.536381e+02 2.374011e+02 1.746507e+02 9.541919e+01 1.044722e+02 1.210623e+02 1.165361e+02 6.068536e+01 4.510535e+01 3.931261e+01 2.311387e+01 2.411496e+01 1.681411e+01 5.438164e+02 6.748969e+00 6.936021e+00 5.275872e+00 8.039052e+00 6.433656e+00 4.250286e+00 5.661382e+00 7.179824e+00 7.091681e+00 5.273951e+00 3.444988e+00 2.859476e+00 1.802949e+00 1.670229e+00 1.307843e+00 1.899277e+01 8.651392e-01 1.164723e+00 9.388314e-01 1.218834e+00 1.056030e+00 6.621046e-01 1.009818e+00 1.287425e+00 1.326432e+00 1.058541e+00 6.598768e-01 5.200275e-01 3.370036e-01 3.208098e-01 2.485139e-01 1.949742e+00
<GCONST> 1.809808e+02
<TRANSP> 6
 0.000000e+00 1.000000e+00 0.000000e+00 0.000000e+00 0.000000e+00 0.000000e+00
 0.000000e+00 6.000000e-01 4.000000e-01 0.000000e+00 0.000000e+00 0.000000e+00
 0.000000e+00 0.000000e+00 6.000000e-01 4.000000e-01 0.000000e+00 0.000000e+00
 0.000000e+00 0.000000e+00 0.000000e+00 7.000000e-01 3.000000e-01 0.000000e+00
 0.000000e+00 0.000000e+00 0.000000e+00 0.000000e+00 7.000000e-01 3.000000e-01
 0.000000e+00 0.000000e+00 0.000000e+00 0.000000e+00 0.000000e+00 0.000000e+00
<ENDHMM>
~h "a"
<BEGINHMM>
<NUMSTATES> 6
<STATE> 2
<MEAN> 48
 -7.664089e+00 -8.134295e+01 -8.214813e+00 -2.107255e+01 7.508283e+00 3.445746e+01 9.088167e+00 3.019908e+01 1.463160e+01 -7.414081e+00 -1.445869e+00 3.063762e+00 -5.671317e+00 3.100736e+00 8.528409e+00 1.078974e+02 1.179139e-01 -7.912015e-03 -1.237297e-01 -1.788225e-02 -2.159967e-02 -1.809635e-02 -3.762262e-03 -1.971368e-03 -2.898635e-02 -2.766537e-02 3.446672e-02 2.718052e-02 2.544973e-04 1.410253e-02 -2.558303e-02 6.306325e-02 -1.550587e-02 -2.541449e-02 1.125004e-02 -3.137008e-02 -6.027393e-03 1.897153e-02 2.538212e-02 4.106273e-02 3.880647e-02 3.174704e-02 3.171102e-02 8.160106e-03 3.444411e-04 5.578516e-03 -2.312961e-03 5.875596e-03
<VARIANCE> 48
 1.712309e+02 1.428467e+02 1.536381e+02 2.374011e+02 1.746507e+02 9.541919e+01 1.044722e+02 1.210623e+02 1.165361e+02 6.068536e+01 4.510535e+01 3.931261e+01 2.311387e+01 2.411496e+01 1.681411e+01 5.438164e+02 6.748969e+00 6.936021e+00 5.275872e+00 8.039052e+00 6.433656e+00 4.250286e+00 5.661382e+00 7.179824e+00 7.091681e+00 5.273951e+00 3.444988e+00 2.859476e+00 1.802949e+00 1.670229e+00 1.307843e+00 1.899277e+01 8.651392e-01 1.164723e+00 9.388314e-01 1.218834e+00 1.056030e+00 6.621046e-01 1.009818e+00 1.287425e+00 1.326432e+00 1.058541e+00 6.598768e-01 5.200275e-01 3.370036e-01 3.208098e-01 2.485139e-01 1.949742e+00
<GCONST> 1.809808e+02
<STATE> 3
<MEAN> 48
 -7.664089e+00 -8.134295e+01 -8.214813e+00 -2.107255e+01 7.508283e+00 3.445746e+01 9.088167e+00 3.019908e+01 1.463160e+01 -7.414081e+00 -1.445869e+00 3.063762e+00 -5.671317e+00 3.100736e+00 8.528409e+00 1.078974e+02 1.179139e-01 -7.912015e-03 -1.237297e-01 -1.788225e-02 -2.159967e-02 -1.809635e-02 -3.762262e-03 -1.971368e-03 -2.898635e-02 -2.766537e-02 3.446672e-02 2.718052e-02 2.544973e-04 1.410253e-02 -2.558303e-02 6.306325e-02 -1.550587e-02 -2.541449e-02 1.125004e-02 -3.137008e-02 -6.027393e-03 1.897153e-02 2.538212e-02 4.106273e-02 3.880647e-02 3.174704e-02 3.171102e-02 8.160106e-03 3.444411e-04 5.578516e-03 -2.312961e-03 5.875596e-03
<VARIANCE> 48
 1.712309e+02 1.428467e+02 1.536381e+02 2.374011e+02 1.746507e+02 9.541919e+01 1.044722e+02 1.210623e+02 1.165361e+02 6.068536e+01 4.510535e+01 3.931261e+01 2.311387e+01 2.411496e+01 1.681411e+01 5.438164e+02 6.748969e+00 6.936021e+00 5.275872e+00 8.039052e+00 6.433656e+00 4.250286e+00 5.661382e+00 7.179824e+00 7.091681e+00 5.273951e+00 3.444988e+00 2.859476e+00 1.802949e+00 1.670229e+00 1.307843e+00 1.899277e+01 8.651392e-01 1.164723e+00 9.388314e-01 1.218834e+00 1.056030e+00 6.621046e-01 1.009818e+00 1.287425e+00 1.326432e+00 1.058541e+00 6.598768e-01 5.200275e-01 3.370036e-01 3.208098e-01 2.485139e-01 1.949742e+00
<GCONST> 1.809808e+02
<STATE> 4
<MEAN> 48
 -7.664089e+00 -8.134295e+01 -8.214813e+00 -2.107255e+01 7.508283e+00 3.445746e+01 9.088167e+00 3.019908e+01 1.463160e+01 -7.414081e+00 -1.445869e+00 3.063762e+00 -5.671317e+00 3.100736e+00 8.528409e+00 1.078974e+02 1.179139e-01 -7.912015e-03 -1.237297e-01 -1.788225e-02 -2.159967e-02 -1.809635e-02 -3.762262e-03 -1.971368e-03 -2.898635e-02 -2.766537e-02 3.446672e-02 2.718052e-02 2.544973e-04 1.410253e-02 -2.558303e-02 6.306325e-02 -1.550587e-02 -2.541449e-02 1.125004e-02 -3.137008e-02 -6.027393e-03 1.897153e-02 2.538212e-02 4.106273e-02 3.880647e-02 3.174704e-02 3.171102e-02 8.160106e-03 3.444411e-04 5.578516e-03 -2.312961e-03 5.875596e-03
<VARIANCE> 48
 1.712309e+02 1.428467e+02 1.536381e+02 2.374011e+02 1.746507e+02 9.541919e+01 1.044722e+02 1.210623e+02 1.165361e+02 6.068536e+01 4.510535e+01 3.931261e+01 2.311387e+01 2.411496e+01 1.681411e+01 5.438164e+02 6.748969e+00 6.936021e+00 5.275872e+00 8.039052e+00 6.433656e+00 4.250286e+00 5.661382e+00 7.179824e+00 7.091681e+00 5.273951e+00 3.444988e+00 2.859476e+00 1.802949e+00 1.670229e+00 1.307843e+00 1.899277e+01 8.651392e-01 1.164723e+00 9.388314e-01 1.218834e+00 1.056030e+00 6.621046e-01 1.009818e+00 1.287425e+00 1.326432e+00 1.058541e+00 6.598768e-01 5.200275e-01 3.370036e-01 3.208098e-01 2.485139e-01 1.949742e+00
<GCONST> 1.809808e+02
<STATE> 5
<MEAN> 48
 -7.664089e+00 -8.134295e+01 -8.214813e+00 -2.107255e+01 7.508283e+00 3.445746e+01 9.088167e+00 3.019908e+01 1.463160e+01 -7.414081e+00 -1.445869e+00 3.063762e+00 -5.671317e+00 3.100736e+00 8.528409e+00 1.078974e+02 1.179139e-01 -7.912015e-03 -1.237297e-01 -1.788225e-02 -2.159967e-02 -1.809635e-02 -3.762262e-03 -1.971368e-03 -2.898635e-02 -2.766537e-02 3.446672e-02 2.718052e-02 2.544973e-04 1.410253e-02 -2.558303e-02 6.306325e-02 -1.550587e-02 -2.541449e-02 1.125004e-02 -3.137008e-02 -6.027393e-03 1.897153e-02 2.538212e-02 4.106273e-02 3.880647e-02 3.174704e-02 3.171102e-02 8.160106e-03 3.444411e-04 5.578516e-03 -2.312961e-03 5.875596e-03
<VARIANCE> 48
 1.712309e+02 1.428467e+02 1.536381e+02 2.374011e+02 1.746507e+02 9.541919e+01 1.044722e+02 1.210623e+02 1.165361e+02 6.068536e+01 4.510535e+01 3.931261e+01 2.311387e+01 2.411496e+01 1.681411e+01 5.438164e+02 6.748969e+00 6.936021e+00 5.275872e+00 8.039052e+00 6.433656e+00 4.250286e+00 5.661382e+00 7.179824e+00 7.091681e+00 5.273951e+00 3.444988e+00 2.859476e+00 1.802949e+00 1.670229e+00 1.307843e+00 1.899277e+01 8.651392e-01 1.164723e+00 9.388314e-01 1.218834e+00 1.056030e+00 6.621046e-01 1.009818e+00 1.287425e+00 1.326432e+00 1.058541e+00 6.598768e-01 5.200275e-01 3.370036e-01 3.208098e-01 2.485139e-01 1.949742e+00
<GCONST> 1.809808e+02
<TRANSP> 6
 0.000000e+00 1.000000e+00 0.000000e+00 0.000000e+00 0.000000e+00 0.000000e+00
 0.000000e+00 6.000000e-01 4.000000e-01 0.000000e+00 0.000000e+00 0.000000e+00
 0.000000e+00 0.000000e+00 6.000000e-01 4.000000e-01 0.000000e+00 0.000000e+00
 0.000000e+00 0.000000e+00 0.000000e+00 7.000000e-01 3.000000e-01 0.000000e+00
 0.000000e+00 0.000000e+00 0.000000e+00 0.000000e+00 7.000000e-01 3.000000e-01
 0.000000e+00 0.000000e+00 0.000000e+00 0.000000e+00 0.000000e+00 0.000000e+00
<ENDHMM>
~h "e"
<BEGINHMM>
<NUMSTATES> 6
<STATE> 2
<MEAN> 48
 -7.664089e+00 -8.134295e+01 -8.214813e+00 -2.107255e+01 7.508283e+00 3.445746e+01 9.088167e+00 3.019908e+01 1.463160e+01 -7.414081e+00 -1.445869e+00 3.063762e+00 -5.671317e+00 3.100736e+00 8.528409e+00 1.078974e+02 1.179139e-01 -7.912015e-03 -1.237297e-01 -1.788225e-02 -2.159967e-02 -1.809635e-02 -3.762262e-03 -1.971368e-03 -2.898635e-02 -2.766537e-02 3.446672e-02 2.718052e-02 2.544973e-04 1.410253e-02 -2.558303e-02 6.306325e-02 -1.550587e-02 -2.541449e-02 1.125004e-02 -3.137008e-02 -6.027393e-03 1.897153e-02 2.538212e-02 4.106273e-02 3.880647e-02 3.174704e-02 3.171102e-02 8.160106e-03 3.444411e-04 5.578516e-03 -2.312961e-03 5.875596e-03
<VARIANCE> 48
 1.712309e+02 1.428467e+02 1.536381e+02 2.374011e+02 1.746507e+02 9.541919e+01 1.044722e+02 1.210623e+02 1.165361e+02 6.068536e+01 4.510535e+01 3.931261e+01 2.311387e+01 2.411496e+01 1.681411e+01 5.438164e+02 6.748969e+00 6.936021e+00 5.275872e+00 8.039052e+00 6.433656e+00 4.250286e+00 5.661382e+00 7.179824e+00 7.091681e+00 5.273951e+00 3.444988e+00 2.859476e+00 1.802949e+00 1.670229e+00 1.307843e+00 1.899277e+01 8.651392e-01 1.164723e+00 9.388314e-01 1.218834e+00 1.056030e+00 6.621046e-01 1.009818e+00 1.287425e+00 1.326432e+00 1.058541e+00 6.598768e-01 5.200275e-01 3.370036e-01 3.208098e-01 2.485139e-01 1.949742e+00
<GCONST> 1.809808e+02
<STATE> 3
<MEAN> 48
 -7.664089e+00 -8.134295e+01 -8.214813e+00 -2.107255e+01 7.508283e+00 3.445746e+01 9.088167e+00 3.019908e+01 1.463160e+01 -7.414081e+00 -1.445869e+00 3.063762e+00 -5.671317e+00 3.100736e+00 8.528409e+00 1.078974e+02 1.179139e-01 -7.912015e-03 -1.237297e-01 -1.788225e-02 -2.159967e-02 -1.809635e-02 -3.762262e-03 -1.971368e-03 -2.898635e-02 -2.766537e-02 3.446672e-02 2.718052e-02 2.544973e-04 1.410253e-02 -2.558303e-02 6.306325e-02 -1.550587e-02 -2.541449e-02 1.125004e-02 -3.137008e-02 -6.027393e-03 1.897153e-02 2.538212e-02 4.106273e-02 3.880647e-02 3.174704e-02 3.171102e-02 8.160106e-03 3.444411e-04 5.578516e-03 -2.312961e-03 5.875596e-03
<VARIANCE> 48
 1.712309e+02 1.428467e+02 1.536381e+02 2.374011e+02 1.746507e+02 9.541919e+01 1.044722e+02 1.210623e+02 1.165361e+02 6.068536e+01 4.510535e+01 3.931261e+01 2.311387e+01 2.411496e+01 1.681411e+01 5.438164e+02 6.748969e+00 6.936021e+00 5.275872e+00 8.039052e+00 6.433656e+00 4.250286e+00 5.661382e+00 7.179824e+00 7.091681e+00 5.273951e+00 3.444988e+00 2.859476e+00 1.802949e+00 1.670229e+00 1.307843e+00 1.899277e+01 8.651392e-01 1.164723e+00 9.388314e-01 1.218834e+00 1.056030e+00 6.621046e-01 1.009818e+00 1.287425e+00 1.326432e+00 1.058541e+00 6.598768e-01 5.200275e-01 3.370036e-01 3.208098e-01 2.485139e-01 1.949742e+00
<GCONST> 1.809808e+02
<STATE> 4
<MEAN> 48
 -7.664089e+00 -8.134295e+01 -8.214813e+00 -2.107255e+01 7.508283e+00 3.445746e+01 9.088167e+00 3.019908e+01 1.463160e+01 -7.414081e+00 -1.445869e+00 3.063762e+00 -5.671317e+00 3.100736e+00 8.528409e+00 1.078974e+02 1.179139e-01 -7.912015e-03 -1.237297e-01 -1.788225e-02 -2.159967e-02 -1.809635e-02 -3.762262e-03 -1.971368e-03 -2.898635e-02 -2.766537e-02 3.446672e-02 2.718052e-02 2.544973e-04 1.410253e-02 -2.558303e-02 6.306325e-02 -1.550587e-02 -2.541449e-02 1.125004e-02 -3.137008e-02 -6.027393e-03 1.897153e-02 2.538212e-02 4.106273e-02 3.880647e-02 3.174704e-02 3.171102e-02 8.160106e-03 3.444411e-04 5.578516e-03 -2.312961e-03 5.875596e-03
<VARIANCE> 48
 1.712309e+02 1.428467e+02 1.536381e+02 2.374011e+02 1.746507e+02 9.541919e+01 1.044722e+02 1.210623e+02 1.165361e+02 6.068536e+01 4.510535e+01 3.931261e+01 2.311387e+01 2.411496e+01 1.681411e+01 5.438164e+02 6.748969e+00 6.936021e+00 5.275872e+00 8.039052e+00 6.433656e+00 4.250286e+00 5.661382e+00 7.179824e+00 7.091681e+00 5.273951e+00 3.444988e+00 2.859476e+00 1.802949e+00 1.670229e+00 1.307843e+00 1.899277e+01 8.651392e-01 1.164723e+00 9.388314e-01 1.218834e+00 1.056030e+00 6.621046e-01 1.009818e+00 1.287425e+00 1.326432e+00 1.058541e+00 6.598768e-01 5.200275e-01 3.370036e-01 3.208098e-01 2.485139e-01 1.949742e+00
<GCONST> 1.809808e+02
<STATE> 5
<MEAN> 48
 -7.664089e+00 -8.134295e+01 -8.214813e+00 -2.107255e+01 7.508283e+00 3.445746e+01 9.088167e+00 3.019908e+01 1.463160e+01 -7.414081e+00 -1.445869e+00 3.063762e+00 -5.671317e+00 3.100736e+00 8.528409e+00 1.078974e+02 1.179139e-01 -7.912015e-03 -1.237297e-01 -1.788225e-02 -2.159967e-02 -1.809635e-02 -3.762262e-03 -1.971368e-03 -2.898635e-02 -2.766537e-02 3.446672e-02 2.718052e-02 2.544973e-04 1.410253e-02 -2.558303e-02 6.306325e-02 -1.550587e-02 -2.541449e-02 1.125004e-02 -3.137008e-02 -6.027393e-03 1.897153e-02 2.538212e-02 4.106273e-02 3.880647e-02 3.174704e-02 3.171102e-02 8.160106e-03 3.444411e-04 5.578516e-03 -2.312961e-03 5.875596e-03
<VARIANCE> 48
 1.712309e+02 1.428467e+02 1.536381e+02 2.374011e+02 1.746507e+02 9.541919e+01 1.044722e+02 1.210623e+02 1.165361e+02 6.068536e+01 4.510535e+01 3.931261e+01 2.311387e+01 2.411496e+01 1.681411e+01 5.438164e+02 6.748969e+00 6.936021e+00 5.275872e+00 8.039052e+00 6.433656e+00 4.250286e+00 5.661382e+00 7.179824e+00 7.091681e+00 5.273951e+00 3.444988e+00 2.859476e+00 1.802949e+00 1.670229e+00 1.307843e+00 1.899277e+01 8.651392e-01 1.164723e+00 9.388314e-01 1.218834e+00 1.056030e+00 6.621046e-01 1.009818e+00 1.287425e+00 1.326432e+00 1.058541e+00 6.598768e-01 5.200275e-01 3.370036e-01 3.208098e-01 2.485139e-01 1.949742e+00
<GCONST> 1.809808e+02
<TRANSP> 6
 0.000000e+00 1.000000e+00 0.000000e+00 0.000000e+00 0.000000e+00 0.000000e+00
 0.000000e+00 6.000000e-01 4.000000e-01 0.000000e+00 0.000000e+00 0.000000e+00
 0.000000e+00 0.000000e+00 6.000000e-01 4.000000e-01 0.000000e+00 0.000000e+00
 0.000000e+00 0.000000e+00 0.000000e+00 7.000000e-01 3.000000e-01 0.000000e+00
 0.000000e+00 0.000000e+00 0.000000e+00 0.000000e+00 7.000000e-01 3.000000e-01
 0.000000e+00 0.000000e+00 0.000000e+00 0.000000e+00 0.000000e+00 0.000000e+00
<ENDHMM>
~h "silence"
<BEGINHMM>
<NUMSTATES> 6
<STATE> 2
<MEAN> 48
 -7.664089e+00 -8.134295e+01 -8.214813e+00 -2.107255e+01 7.508283e+00 3.445746e+01 9.088167e+00 3.019908e+01 1.463160e+01 -7.414081e+00 -1.445869e+00 3.063762e+00 -5.671317e+00 3.100736e+00 8.528409e+00 1.078974e+02 1.179139e-01 -7.912015e-03 -1.237297e-01 -1.788225e-02 -2.159967e-02 -1.809635e-02 -3.762262e-03 -1.971368e-03 -2.898635e-02 -2.766537e-02 3.446672e-02 2.718052e-02 2.544973e-04 1.410253e-02 -2.558303e-02 6.306325e-02 -1.550587e-02 -2.541449e-02 1.125004e-02 -3.137008e-02 -6.027393e-03 1.897153e-02 2.538212e-02 4.106273e-02 3.880647e-02 3.174704e-02 3.171102e-02 8.160106e-03 3.444411e-04 5.578516e-03 -2.312961e-03 5.875596e-03
<VARIANCE> 48
 1.712309e+02 1.428467e+02 1.536381e+02 2.374011e+02 1.746507e+02 9.541919e+01 1.044722e+02 1.210623e+02 1.165361e+02 6.068536e+01 4.510535e+01 3.931261e+01 2.311387e+01 2.411496e+01 1.681411e+01 5.438164e+02 6.748969e+00 6.936021e+00 5.275872e+00 8.039052e+00 6.433656e+00 4.250286e+00 5.661382e+00 7.179824e+00 7.091681e+00 5.273951e+00 3.444988e+00 2.859476e+00 1.802949e+00 1.670229e+00 1.307843e+00 1.899277e+01 8.651392e-01 1.164723e+00 9.388314e-01 1.218834e+00 1.056030e+00 6.621046e-01 1.009818e+00 1.287425e+00 1.326432e+00 1.058541e+00 6.598768e-01 5.200275e-01 3.370036e-01 3.208098e-01 2.485139e-01 1.949742e+00
<GCONST> 1.809808e+02
<STATE> 3
<MEAN> 48
 -7.664089e+00 -8.134295e+01 -8.214813e+00 -2.107255e+01 7.508283e+00 3.445746e+01 9.088167e+00 3.019908e+01 1.463160e+01 -7.414081e+00 -1.445869e+00 3.063762e+00 -5.671317e+00 3.100736e+00 8.528409e+00 1.078974e+02 1.179139e-01 -7.912015e-03 -1.237297e-01 -1.788225e-02 -2.159967e-02 -1.809635e-02 -3.762262e-03 -1.971368e-03 -2.898635e-02 -2.766537e-02 3.446672e-02 2.718052e-02 2.544973e-04 1.410253e-02 -2.558303e-02 6.306325e-02 -1.550587e-02 -2.541449e-02 1.125004e-02 -3.137008e-02 -6.027393e-03 1.897153e-02 2.538212e-02 4.106273e-02 3.880647e-02 3.174704e-02 3.171102e-02 8.160106e-03 3.444411e-04 5.578516e-03 -2.312961e-03 5.875596e-03
<VARIANCE> 48
 1.712309e+02 1.428467e+02 1.536381e+02 2.374011e+02 1.746507e+02 9.541919e+01 1.044722e+02 1.210623e+02 1.165361e+02 6.068536e+01 4.510535e+01 3.931261e+01 2.311387e+01 2.411496e+01 1.681411e+01 5.438164e+02 6.748969e+00 6.936021e+00 5.275872e+00 8.039052e+00 6.433656e+00 4.250286e+00 5.661382e+00 7.179824e+00 7.091681e+00 5.273951e+00 3.444988e+00 2.859476e+00 1.802949e+00 1.670229e+00 1.307843e+00 1.899277e+01 8.651392e-01 1.164723e+00 9.388314e-01 1.218834e+00 1.056030e+00 6.621046e-01 1.009818e+00 1.287425e+00 1.326432e+00 1.058541e+00 6.598768e-01 5.200275e-01 3.370036e-01 3.208098e-01 2.485139e-01 1.949742e+00
<GCONST> 1.809808e+02
<STATE> 4
<MEAN> 48
 -7.664089e+00 -8.134295e+01 -8.214813e+00 -2.107255e+01 7.508283e+00 3.445746e+01 9.088167e+00 3.019908e+01 1.463160e+01 -7.414081e+00 -1.445869e+00 3.063762e+00 -5.671317e+00 3.100736e+00 8.528409e+00 1.078974e+02 1.179139e-01 -7.912015e-03 -1.237297e-01 -1.788225e-02 -2.159967e-02 -1.809635e-02 -3.762262e-03 -1.971368e-03 -2.898635e-02 -2.766537e-02 3.446672e-02 2.718052e-02 2.544973e-04 1.410253e-02 -2.558303e-02 6.306325e-02 -1.550587e-02 -2.541449e-02 1.125004e-02 -3.137008e-02 -6.027393e-03 1.897153e-02 2.538212e-02 4.106273e-02 3.880647e-02 3.174704e-02 3.171102e-02 8.160106e-03 3.444411e-04 5.578516e-03 -2.312961e-03 5.875596e-03
<VARIANCE> 48
 1.712309e+02 1.428467e+02 1.536381e+02 2.374011e+02 1.746507e+02 9.541919e+01 1.044722e+02 1.210623e+02 1.165361e+02 6.068536e+01 4.510535e+01 3.931261e+01 2.311387e+01 2.411496e+01 1.681411e+01 5.438164e+02 6.748969e+00 6.936021e+00 5.275872e+00 8.039052e+00 6.433656e+00 4.250286e+00 5.661382e+00 7.179824e+00 7.091681e+00 5.273951e+00 3.444988e+00 2.859476e+00 1.802949e+00 1.670229e+00 1.307843e+00 1.899277e+01 8.651392e-01 1.164723e+00 9.388314e-01 1.218834e+00 1.056030e+00 6.621046e-01 1.009818e+00 1.287425e+00 1.326432e+00 1.058541e+00 6.598768e-01 5.200275e-01 3.370036e-01 3.208098e-01 2.485139e-01 1.949742e+00
<GCONST> 1.809808e+02
<STATE> 5
<MEAN> 48
 -7.664089e+00 -8.134295e+01 -8.214813e+00 -2.107255e+01 7.508283e+00 3.445746e+01 9.088167e+00 3.019908e+01 1.463160e+01 -7.414081e+00 -1.445869e+00 3.063762e+00 -5.671317e+00 3.100736e+00 8.528409e+00 1.078974e+02 1.179139e-01 -7.912015e-03 -1.237297e-01 -1.788225e-02 -2.159967e-02 -1.809635e-02 -3.762262e-03 -1.971368e-03 -2.898635e-02 -2.766537e-02 3.446672e-02 2.718052e-02 2.544973e-04 1.410253e-02 -2.558303e-02 6.306325e-02 -1.550587e-02 -2.541449e-02 1.125004e-02 -3.137008e-02 -6.027393e-03 1.897153e-02 2.538212e-02 4.106273e-02 3.880647e-02 3.174704e-02 3.171102e-02 8.160106e-03 3.444411e-04 5.578516e-03 -2.312961e-03 5.875596e-03
<VARIANCE> 48
 1.712309e+02 1.428467e+02 1.536381e+02 2.374011e+02 1.746507e+02 9.541919e+01 1.044722e+02 1.210623e+02 1.165361e+02 6.068536e+01 4.510535e+01 3.931261e+01 2.311387e+01 2.411496e+01 1.681411e+01 5.438164e+02 6.748969e+00 6.936021e+00 5.275872e+00 8.039052e+00 6.433656e+00 4.250286e+00 5.661382e+00 7.179824e+00 7.091681e+00 5.273951e+00 3.444988e+00 2.859476e+00 1.802949e+00 1.670229e+00 1.307843e+00 1.899277e+01 8.651392e-01 1.164723e+00 9.388314e-01 1.218834e+00 1.056030e+00 6.621046e-01 1.009818e+00 1.287425e+00 1.326432e+00 1.058541e+00 6.598768e-01 5.200275e-01 3.370036e-01 3.208098e-01 2.485139e-01 1.949742e+00
<GCONST> 1.809808e+02
<TRANSP> 6
 0.000000e+00 1.000000e+00 0.000000e+00 0.000000e+00 0.000000e+00 0.000000e+00
 0.000000e+00 6.000000e-01 4.000000e-01 0.000000e+00 0.000000e+00 0.000000e+00
 0.000000e+00 0.000000e+00 6.000000e-01 4.000000e-01 0.000000e+00 0.000000e+00
 0.000000e+00 0.000000e+00 0.000000e+00 7.000000e-01 3.000000e-01 0.000000e+00
 0.000000e+00 0.000000e+00 0.000000e+00 0.000000e+00 7.000000e-01 3.000000e-01
 0.000000e+00 0.000000e+00 0.000000e+00 0.000000e+00 0.000000e+00 0.000000e+00
<ENDHMM>
~h "b"
<BEGINHMM>
<NUMSTATES> 6
<STATE> 2
<MEAN> 48
 -7.694245e+00 -8.141565e+01 -8.160605e+00 -2.066015e+01 7.463424e+00 3.444687e+01 9.164647e+00 3.009177e+01 1.445468e+01 -7.359728e+00 -1.305343e+00 3.098198e+00 -5.498931e+00 3.235955e+00 8.492499e+00 1.078187e+02 1.144634e-01 -1.808749e-02 -1.377294e-01 -1.753120e-02 -1.305664e-02 -1.384543e-03 1.112415e-02 2.294261e-03 -2.762405e-02 -1.903999e-02 5.037861e-02 3.254545e-02 4.923260e-03 1.689983e-02 -2.231945e-02 6.092814e-02 -1.633416e-02 -2.815750e-02 6.388208e-03 -3.333504e-02 -5.226916e-04 2.336782e-02 2.530302e-02 4.353677e-02 4.155329e-02 3.244060e-02 3.115419e-02 9.184709e-03 3.306031e-04 7.181603e-03 -3.194711e-03 5.195559e-03
<VARIANCE> 48
 1.690080e+02 1.460625e+02 1.568399e+02 2.416079e+02 1.753693e+02 9.410022e+01 1.048505e+02 1.167040e+02 1.131540e+02 5.993446e+01 4.390870e+01 3.887138e+01 2.270384e+01 2.427283e+01 1.736217e+01 5.450488e+02 6.680453e+00 6.973954e+00 5.304460e+00 8.339702e+00 6.367420e+00 4.305615e+00 5.573622e+00 7.074400e+00 7.032638e+00 5.245241e+00 3.400226e+00 2.829293e+00 1.775001e+00 1.618915e+00 1.318645e+00 1.931112e+01 8.537067e-01 1.162070e+00 9.372407e-01 1.272985e+00 1.053675e+00 6.652842e-01 9.906173e-01 1.262805e+00 1.315049e+00 1.050277e+00 6.447526e-01 5.114938e-01 3.280781e-01 3.077987e-01 2.480834e-01 1.991236e+00
<GCONST> 1.807634e+02
<STATE> 3
<MEAN> 48
 -7.694245e+00 -8.141565e+01 -8.160605e+00 -2.066015e+01 7.463424e+00 3.444687e+01 9.164647e+00 3.009177e+01 1.445468e+01 -7.359728e+00 -1.305343e+00 3.098198e+00 -5.498931e+00 3.235955e+00 8.492499e+00 1.078187e+02 1.144634e-01 -1.808749e-02 -1.377294e-01 -1.753120e-02 -1.305664e-02 -1.384543e-03 1.112415e-02 2.294261e-03 -2.762405e-02 -1.903999e-02 5.037861e-02 3.254545e-02 4.923260e-03 1.689983e-02 -2.231945e-02 6.092814e-02 -1.633416e-02 -2.815750e-02 6.388208e-03 -3.333504e-02 -5.226916e-04 2.336782e-02 2.530302e-02 4.353677e-02 4.155329e-02 3.244060e-02 3.115419e-02 9.184709e-03 3.306031e-04 7.181603e-03 -3.194711e-03 5.195559e-03
<VARIANCE> 48
 1.690080e+02 1.460625e+02 1.568399e+02 2.416079e+02 1.753693e+02 9.410022e+01 1.048505e+02 1.167040e+02 1.131540e+02 5.993446e+01 4.390870e+01 3.887138e+01 2.270384e+01 2.427283e+01 1.736217e+01 5.450488e+02 6.680453e+00 6.973954e+00 5.304460e+00 8.339702e+00 6.367420e+00 4.305615e+00 5.573622e+00 7.074400e+00 7.032638e+00 5.245241e+00 3.400226e+00 2.829293e+00 1.775001e+00 1.618915e+00 1.318645e+00 1.931112e+01 8.537067e-01 1.162070e+00 9.372407e-01 1.272985e+00 1.053675e+00 6.652842e-01 9.906173e-01 1.262805e+00 1.315049e+00 1.050277e+00 6.447526e-01 5.114938e-01 3.280781e-01 3.077987e-01 2.480834e-01 1.991236e+00
<GCONST> 1.807634e+02
<STATE> 4
<MEAN> 48
 -7.694245e+00 -8.141565e+01 -8.160605e+00 -2.066015e+01 7.463424e+00 3.444687e+01 9.164647e+00 3.009177e+01 1.445468e+01 -7.359728e+00 -1.305343e+00 3.098198e+00 -5.498931e+00 3.235955e+00 8.492499e+00 1.078187e+02 1.144634e-01 -1.808749e-02 -1.377294e-01 -1.753120e-02 -1.305664e-02 -1.384543e-03 1.112415e-02 2.294261e-03 -2.762405e-02 -1.903999e-02 5.037861e-02 3.254545e-02 4.923260e-03 1.689983e-02 -2.231945e-02 6.092814e-02 -1.633416e-02 -2.815750e-02 6.388208e-03 -3.333504e-02 -5.226916e-04 2.336782e-02 2.530302e-02 4.353677e-02 4.155329e-02 3.244060e-02 3.115419e-02 9.184709e-03 3.306031e-04 7.181603e-03 -3.194711e-03 5.195559e-03
<VARIANCE> 48
 1.690080e+02 1.460625e+02 1.568399e+02 2.416079e+02 1.753693e+02 9.410022e+01 1.048505e+02 1.167040e+02 1.131540e+02 5.993446e+01 4.390870e+01 3.887138e+01 2.270384e+01 2.427283e+01 1.736217e+01 5.450488e+02 6.680453e+00 6.973954e+00 5.304460e+00 8.339702e+00 6.367420e+00 4.305615e+00 5.573622e+00 7.074400e+00 7.032638e+00 5.245241e+00 3.400226e+00 2.829293e+00 1.775001e+00 1.618915e+00 1.318645e+00 1.931112e+01 8.537067e-01 1.162070e+00 9.372407e-01 1.272985e+00 1.053675e+00 6.652842e-01 9.906173e-01 1.262805e+00 1.315049e+00 1.050277e+00 6.447526e-01 5.114938e-01 3.280781e-01 3.077987e-01 2.480834e-01 1.991236e+00
<GCONST> 1.807634e+02
<STATE> 5
<MEAN> 48
 -7.694245e+00 -8.141565e+01 -8.160605e+00 -2.066015e+01 7.463424e+00 3.444687e+01 9.164647e+00 3.009177e+01 1.445468e+01 -7.359728e+00 -1.305343e+00 3.098198e+00 -5.498931e+00 3.235955e+00 8.492499e+00 1.078187e+02 1.144634e-01 -1.808749e-02 -1.377294e-01 -1.753120e-02 -1.305664e-02 -1.384543e-03 1.112415e-02 2.294261e-03 -2.762405e-02 -1.903999e-02 5.037861e-02 3.254545e-02 4.923260e-03 1.689983e-02 -2.231945e-02 6.092814e-02 -1.633416e-02 -2.815750e-02 6.388208e-03 -3.333504e-02 -5.226916e-04 2.336782e-02 2.530302e-02 4.353677e-02 4.155329e-02 3.244060e-02 3.115419e-02 9.184709e-03 3.306031e-04 7.181603e-03 -3.194711e-03 5.195559e-03
<VARIANCE> 48
 1.690080e+02 1.460625e+02 1.568399e+02 2.416079e+02 1.753693e+02 9.410022e+01 1.048505e+02 1.167040e+02 1.131540e+02 5.993446e+01 4.390870e+01 3.887138e+01 2.270384e+01 2.427283e+01 1.736217e+01 5.450488e+02 6.680453e+00 6.973954e+00 5.304460e+00 8.339702e+00 6.367420e+00 4.305615e+00 5.573622e+00 7.074400e+00 7.032638e+00 5.245241e+00 3.400226e+00 2.829293e+00 1.775001e+00 1.618915e+00 1.318645e+00 1.931112e+01 8.537067e-01 1.162070e+00 9.372407e-01 1.272985e+00 1.053675e+00 6.652842e-01 9.906173e-01 1.262805e+00 1.315049e+00 1.050277e+00 6.447526e-01 5.114938e-01 3.280781e-01 3.077987e-01 2.480834e-01 1.991236e+00
<GCONST> 1.807634e+02
<TRANSP> 6
 0.000000e+00 1.000000e+00 0.000000e+00 0.000000e+00 0.000000e+00 0.000000e+00
 0.000000e+00 6.000000e-01 4.000000e-01 0.000000e+00 0.000000e+00 0.000000e+00
 0.000000e+00 0.000000e+00 6.000000e-01 4.000000e-01 0.000000e+00 0.000000e+00
 0.000000e+00 0.000000e+00 0.000000e+00 7.000000e-01 3.000000e-01 0.000000e+00
 0.000000e+00 0.000000e+00 0.000000e+00 0.000000e+00 7.000000e-01 3.000000e-01
 0.000000e+00 0.000000e+00 0.000000e+00 0.000000e+00 0.000000e+00 0.000000e+00
<ENDHMM>
~h "a"
<BEGINHMM>
<NUMSTATES> 6
<STATE> 2
<MEAN> 48
 -7.694245e+00 -8.141565e+01 -8.160605e+00 -2.066015e+01 7.463424e+00 3.444687e+01 9.164647e+00 3.009177e+01 1.445468e+01 -7.359728e+00 -1.305343e+00 3.098198e+00 -5.498931e+00 3.235955e+00 8.492499e+00 1.078187e+02 1.144634e-01 -1.808749e-02 -1.377294e-01 -1.753120e-02 -1.305664e-02 -1.384543e-03 1.112415e-02 2.294261e-03 -2.762405e-02 -1.903999e-02 5.037861e-02 3.254545e-02 4.923260e-03 1.689983e-02 -2.231945e-02 6.092814e-02 -1.633416e-02 -2.815750e-02 6.388208e-03 -3.333504e-02 -5.226916e-04 2.336782e-02 2.530302e-02 4.353677e-02 4.155329e-02 3.244060e-02 3.115419e-02 9.184709e-03 3.306031e-04 7.181603e-03 -3.194711e-03 5.195559e-03
<VARIANCE> 48
