~o
<STREAMINFO> 1 48
<VECSIZE> 48<NULLD><MFCC_D_A_0><DIAGC>
~h "a"
<BEGINHMM>
<NUMSTATES> 6
<STATE> 2
<MEAN> 48
 4.273581e+01 -4.091696e+01 -4.311409e+01 -5.462851e+00 -3.298755e+01 -3.144174e+01 -3.654677e+00 -3.830858e+00 -1.306470e+01 -6.095433e+00 1.380785e+00 4.920044e+00 5.570357e+00 8.694732e+00 9.921486e+00 1.171939e+02 1.257010e+00 -2.104144e+00 -5.158828e-01 -6.984349e-01 -4.600320e-01 1.145648e+00 1.299505e+00 6.341923e-01 8.400847e-01 3.987352e-01 1.307611e-01 2.588717e-01 1.499208e-01 -1.862686e-02 3.999373e-02 2.708711e+00 -2.809236e-01 2.626164e-01 -8.225651e-02 5.185483e-02 1.314333e-01 -7.212558e-02 -8.453696e-02 -3.812144e-03 -7.036114e-02 -3.483330e-02 -3.006176e-02 -6.733734e-02 -4.442176e-02 5.439387e-03 1.844632e-02 -5.551644e-01
<VARIANCE> 48
 1.135870e+02 2.389554e+02 8.655486e+01 8.296606e+01 8.521700e+01 1.026940e+02 1.059518e+02 6.046075e+01 6.321337e+01 4.448053e+01 3.287343e+01 3.739623e+01 2.508541e+01 2.081925e+01 1.446724e+01 3.400533e+02 1.058623e+01 1.507813e+01 4.515487e+00 4.994619e+00 5.754187e+00 5.398015e+00 5.868868e+00 3.958343e+00 3.851607e+00 3.575575e+00 3.058802e+00 3.575862e+00 2.351984e+00 2.262038e+00 1.455783e+00 2.280703e+01 1.847502e+00 2.531971e+00 7.883094e-01 8.870036e-01 1.002000e+00 9.658132e-01 1.114050e+00 7.709460e-01 6.934410e-01 6.889478e-01 6.339259e-01 6.932444e-01 4.313503e-01 4.713144e-01 3.075258e-01 3.145698e+00
<GCONST> 1.777352e+02
<STATE> 3
<MEAN> 48
 4.487799e+01 -4.499050e+01 -4.448199e+01 -6.902837e+00 -3.367611e+01 -2.906471e+01 -9.508486e-01 -2.423631e+00 -1.136179e+01 -5.293806e+00 1.579897e+00 5.302507e+00 5.777845e+00 8.676794e+00 1.006752e+01 1.219731e+02 5.293043e-01 -1.289183e+00 -6.476932e-01 -5.332478e-01 -1.268766e-01 9.000373e-01 1.019679e+00 5.941945e-01 6.048843e-01 2.881744e-01 6.599148e-02 8.584108e-02 1.688269e-02 -3.060175e-02 6.997450e-02 1.184524e+00 -3.505417e-01 3.830061e-01 -3.440406e-02 1.131635e-01 1.474072e-01 -1.237373e-01 -1.433362e-01 -4.000142e-02 -1.245666e-01 -4.703587e-02 -1.365484e-02 -6.584007e-02 -5.157980e-02 -8.419541e-03 2.906438e-03 -7.394929e-01
<VARIANCE> 48
 7.273140e+01 1.782107e+02 9.304155e+01 7.515157e+01 8.652218e+01 9.341563e+01 9.738433e+01 6.532627e+01 6.066106e+01 4.262772e+01 3.243032e+01 3.508314e+01 2.365739e+01 2.028894e+01 1.476958e+01 2.070078e+02 8.725195e+00 1.326710e+01 3.530173e+00 4.447701e+00 5.223215e+00 4.982994e+00 5.844777e+00 4.093185e+00 4.004220e+00 3.368393e+00 3.092876e+00 3.456246e+00 2.215346e+00 1.992602e+00 1.405836e+00 2.078878e+01 1.398923e+00 1.990914e+00 6.313048e-01 7.789809e-01 8.930289e-01 8.753099e-01 1.082218e+00 8.012581e-01 7.094726e-01 6.475131e-01 6.428061e-01 6.851227e-01 4.112233e-01 4.123262e-01 2.976138e-01 2.077851e+00
<GCONST> 1.732324e+02
<STATE> 4
<MEAN> 48
 4.526106e+01 -4.709402e+01 -4.625961e+01 -7.933593e+00 -3.346469e+01 -2.721437e+01 1.115047e+00 -1.070524e+00 -1.025144e+01 -4.739776e+00 1.671479e+00 5.267016e+00 5.616993e+00 8.551423e+00 1.023284e+01 1.229583e+02 -3.598167e-01 -3.234924e-01 -6.796288e-01 -1.965259e-01 2.120580e-01 5.589519e-01 6.433216e-01 4.769030e-01 2.853127e-01 1.908343e-01 7.430692e-02 -3.950035e-02 -8.989662e-02 -6.050644e-02 5.995289e-02 -6.943815e-01 -3.840967e-01 3.149166e-01 5.506275e-03 1.808897e-01 1.124467e-01 -1.386877e-01 -1.407277e-01 -5.861568e-02 -1.177447e-01 -3.044974e-02 1.582137e-02 -2.739559e-02 -1.749997e-02 -1.132923e-03 -3.741242e-03 -7.322116e-01
<VARIANCE> 48
 5.066692e+01 1.307660e+02 9.045913e+01 7.041030e+01 8.781671e+01 8.104074e+01 8.492600e+01 6.674918e+01 5.742166e+01 4.222446e+01 3.254940e+01 3.471826e+01 2.418405e+01 2.026452e+01 1.517655e+01 1.383256e+02 6.943338e+00 1.080726e+01 2.757365e+00 4.742939e+00 4.639358e+00 4.501784e+00 5.616220e+00 4.413315e+00 4.370707e+00 3.216648e+00 3.247023e+00 3.433698e+00 2.158496e+00 1.747937e+00 1.344786e+00 1.655231e+01 1.009063e+00 1.579618e+00 4.892164e-01 7.949585e-01 8.190588e-01 7.853077e-01 1.021800e+00 8.624392e-01 7.993772e-01 6.257086e-01 6.891925e-01 7.122189e-01 4.127144e-01 3.560112e-01 2.858968e-01 1.234493e+00
<GCONST> 1.691703e+02
<STATE> 5
<MEAN> 48
 4.315393e+01 -4.690141e+01 -4.817463e+01 -7.987192e+00 -3.251504e+01 -2.611088e+01 2.454668e+00 1.266871e-01 -9.776214e+00 -4.249336e+00 1.954369e+00 5.087584e+00 5.307941e+00 8.368214e+00 1.038140e+01 1.187399e+02 -1.439564e+00 3.714624e-01 -6.259109e-01 3.761906e-01 4.403963e-01 1.621507e-01 2.831541e-01 3.102430e-01 1.398300e-02 1.259765e-01 1.375139e-01 -4.918962e-02 -6.788450e-02 -3.523150e-02 5.647761e-02 -2.606885e+00 -3.974352e-01 1.293627e-01 4.625916e-02 2.219462e-01 6.179157e-02 -1.421637e-01 -1.132390e-01 -6.249866e-02 -7.498933e-02 -3.038983e-02 1.849645e-02 1.121021e-02 2.373241e-02 2.030992e-02 1.253858e-02 -5.321703e-01
<VARIANCE> 48
 6.315404e+01 1.245244e+02 8.308448e+01 7.589265e+01 8.995612e+01 7.491312e+01 7.729075e+01 6.359116e+01 5.619524e+01 4.272064e+01 3.363910e+01 3.650704e+01 2.652648e+01 2.116342e+01 1.587000e+01 1.819181e+02 6.315323e+00 9.192423e+00 2.688093e+00 6.031475e+00 4.529702e+00 4.319958e+00 5.539974e+00 4.851736e+00 4.813582e+00 3.200132e+00 3.542213e+00 3.600163e+00 2.227542e+00 1.637332e+00 1.326827e+00 1.137433e+01 8.099411e-01 1.445371e+00 4.636045e-01 9.911373e-01 8.513332e-01 7.458728e-01 1.001324e+00 9.483652e-01 9.274278e-01 6.285915e-01 7.790132e-01 7.738186e-01 4.330443e-01 3.274068e-01 2.832619e-01 9.325015e-01
<GCONST> 1.693927e+02
<TRANSP> 6
 0.000000e+00 1.000000e+00 0.000000e+00 0.000000e+00 0.000000e+00 0.000000e+00
 0.000000e+00 5.649953e-01 4.350047e-01 0.000000e+00 0.000000e+00 0.000000e+00
 0.000000e+00 0.000000e+00 5.649956e-01 4.350044e-01 0.000000e+00 0.000000e+00
 0.000000e+00 0.000000e+00 0.000000e+00 6.564923e-01 3.435077e-01 0.000000e+00
 0.000000e+00 0.000000e+00 0.000000e+00 0.000000e+00 6.564924e-01 3.435076e-01
 0.000000e+00 0.000000e+00 0.000000e+00 0.000000e+00 0.000000e+00 0.000000e+00
<ENDHMM>
~h "b"
<BEGINHMM>
<NUMSTATES> 6
<STATE> 2
<MEAN> 48
 2.671658e+01 -2.541988e+01 -4.255776e+01 3.714962e+00 -2.410400e+01 -4.027423e+01 -1.679079e+01 -1.226345e+01 -2.179416e+01 -9.532991e+00 7.194308e-02 1.716788e+00 3.996658e+00 9.140291e+00 1.038787e+01 8.794423e+01 1.716434e+00 -2.377252e-01 5.481794e-01 -9.467166e-02 -5.459490e-01 -1.157421e-02 -1.730862e-01 -5.369112e-01 -1.926370e-01 -3.445328e-02 -7.921450e-03 1.616146e-01 1.495575e-01 6.975341e-03 -1.551443e-01 1.982298e+00 -1.115015e-01 -4.546022e-01 3.146159e-02 5.052736e-02 4.695456e-02 1.761452e-01 1.031117e-01 1.033209e-01 1.938245e-01 1.255240e-01 7.859710e-02 3.015104e-02 -4.897310e-02 -4.443403e-02 2.480883e-02 2.488825e-01
<VARIANCE> 48
 1.055120e+02 1.461136e+02 5.695252e+01 9.143286e+01 7.094174e+01 5.041072e+01 8.767299e+01 9.301072e+01 7.792619e+01 6.996176e+01 5.044394e+01 4.295153e+01 3.503139e+01 2.584020e+01 1.885536e+01 1.728192e+02 7.026311e+00 1.091822e+01 4.541112e+00 5.173840e+00 4.475441e+00 4.929674e+00 6.284724e+00 6.253370e+00 5.350280e+00 4.603027e+00 3.752346e+00 3.442003e+00 2.660867e+00 2.224246e+00 1.645888e+00 1.101396e+01 1.217820e+00 1.564160e+00 8.465456e-01 9.407040e-01 8.674847e-01 8.921415e-01 1.125891e+00 1.133059e+00 9.847935e-01 9.016808e-01 7.474170e-01 6.970645e-01 5.272033e-01 4.601887e-01 3.303619e-01 1.807588e+00
<GCONST> 1.771904e+02
<STATE> 3
<MEAN> 48
 3.004285e+01 -2.742020e+01 -4.118493e+01 3.725604e+00 -2.516726e+01 -3.974987e+01 -1.683606e+01 -1.312628e+01 -2.160358e+01 -9.213378e+00 3.175048e-01 2.209913e+00 4.158955e+00 8.984814e+00 1.013664e+01 9.304537e+01 1.550125e+00 -1.301229e+00 6.697419e-01 8.597037e-02 -4.074848e-01 3.794814e-01 -2.270731e-02 -3.942904e-01 2.286446e-01 2.289332e-01 1.488507e-01 2.350187e-01 4.848306e-02 -8.780270e-02 -8.428243e-02 2.676365e+00 -4.006408e-02 -4.593381e-01 4.763503e-02 8.622447e-02 4.993521e-02 1.542541e-01 5.363067e-02 3.981646e-02 1.667268e-01 9.942906e-02 5.699837e-02 3.106286e-02 -3.222521e-02 -3.397074e-02 3.095637e-02 3.237988e-01
<VARIANCE> 48
 1.096467e+02 2.125233e+02 6.745718e+01 1.052557e+02 7.404026e+01 5.874994e+01 9.838504e+01 1.088932e+02 7.367522e+01 6.898796e+01 4.944215e+01 4.389704e+01 3.427287e+01 2.606379e+01 1.868644e+01 2.886341e+02 8.078913e+00 1.438415e+01 5.042753e+00 6.255712e+00 5.177322e+00 5.432574e+00 7.044533e+00 6.338007e+00 4.895859e+00 4.502677e+00 3.628241e+00 3.649807e+00 2.803730e+00 2.360645e+00 1.692623e+00 1.723121e+01 1.438737e+00 2.157313e+00 9.036764e-01 1.050612e+00 9.850044e-01 9.909752e-01 1.207453e+00 1.121926e+00 9.076318e-01 8.834893e-01 7.279963e-01 7.480565e-01 5.542321e-01 4.951699e-01 3.449343e-01 2.738449e+00
<GCONST> 1.818668e+02
<STATE> 4
<MEAN> 48
 3.391350e+01 -3.247596e+01 -3.929503e+01 4.311329e+00 -2.604629e+01 -3.828072e+01 -1.676467e+01 -1.414186e+01 -2.057441e+01 -8.424652e+00 8.168846e-01 2.940042e+00 4.158896e+00 8.583103e+00 9.981455e+00 1.011477e+02 1.545650e+00 -2.268909e+00 7.344410e-01 2.902097e-01 -3.237172e-01 6.594999e-01 6.161644e-02 -3.750510e-01 5.476618e-01 4.149060e-01 2.470383e-01 3.061829e-01 1.938676e-02 -1.280132e-01 -1.602736e-02 3.411517e+00 -2.390250e-02 -2.790578e-01 -8.701905e-03 5.317784e-02 1.914994e-02 7.176847e-02 3.463648e-02 1.916513e-02 9.667695e-02 5.000722e-02 2.253692e-02 1.517297e-02 -5.513178e-03 -5.099813e-03 2.484932e-02 1.768568e-01
<VARIANCE> 48
 1.280066e+02 3.063809e+02 8.568531e+01 1.339517e+02 8.089243e+01 7.093101e+01 1.314125e+02 1.437813e+02 7.488924e+01 6.815131e+01 4.753469e+01 4.383382e+01 3.370428e+01 2.642810e+01 1.845780e+01 4.339036e+02 9.651772e+00 1.685939e+01 5.667325e+00 7.027026e+00 5.793931e+00 5.725586e+00 7.976816e+00 6.861586e+00 4.509444e+00 4.569558e+00 3.594820e+00 3.812266e+00 2.921883e+00 2.485204e+00 1.686094e+00 2.213727e+01 1.766374e+00 2.805799e+00 9.461454e-01 1.083506e+00 1.085845e+00 1.053913e+00 1.290669e+00 1.162516e+00 8.409989e-01 8.948045e-01 7.108747e-01 7.765897e-01 5.701103e-01 5.262563e-01 3.492797e-01 3.710155e+00
<GCONST> 1.864739e+02
<STATE> 5
<MEAN> 48
 3.812705e+01 -3.974783e+01 -3.736929e+01 5.317648e+00 -2.688815e+01 -3.624699e+01 -1.645284e+01 -1.514122e+01 -1.869985e+01 -7.051799e+00 1.574178e+00 3.829617e+00 4.210168e+00 8.232428e+00 1.002071e+01 1.112168e+02 1.388735e+00 -2.571465e+00 5.674178e-01 3.205790e-01 -2.834243e-01 7.112834e-01 1.435383e-01 -2.804496e-01 6.983191e-01 4.697898e-01 2.369626e-01 2.781698e-01 1.914415e-02 -9.833804e-02 3.808595e-02 3.419127e+00 -1.363342e-01 5.648305e-02 -9.574731e-02 -1.649077e-02 2.309534e-02 -2.071561e-02 3.292011e-02 5.972369e-02 1.731467e-02 -7.732807e-03 -2.218846e-02 -2.601381e-02 -4.851737e-03 1.550993e-02 1.763602e-02 -2.214378e-01
<VARIANCE> 48
 1.268403e+02 3.467501e+02 1.113916e+02 1.754701e+02 9.246066e+01 8.257855e+01 1.879673e+02 1.865775e+02 8.019341e+01 6.564754e+01 4.531026e+01 4.254743e+01 3.364196e+01 2.632177e+01 1.790811e+01 4.624799e+02 1.033184e+01 1.723025e+01 5.937658e+00 6.692335e+00 5.961733e+00 5.759656e+00 8.238546e+00 7.045362e+00 4.171837e+00 4.426258e+00 3.513953e+00 3.780884e+00 2.829807e+00 2.404373e+00 1.605073e+00 2.426742e+01 1.870614e+00 2.996278e+00 9.250284e-01 9.776492e-01 1.094537e+00 1.035552e+00 1.308309e+00 1.174797e+00 7.842082e-01 8.740709e-01 6.900836e-01 7.613394e-01 5.494631e-01 5.071117e-01 3.352353e-01 3.927069e+00
<GCONST> 1.878348e+02
<TRANSP> 6
 0.000000e+00 1.000000e+00 0.000000e+00 0.000000e+00 0.000000e+00 0.000000e+00
 0.000000e+00 5.624625e-01 4.375375e-01 0.000000e+00 0.000000e+00 0.000000e+00
 0.000000e+00 0.000000e+00 5.624626e-01 4.375374e-01 0.000000e+00 0.000000e+00
 0.000000e+00 0.000000e+00 0.000000e+00 6.545170e-01 3.454830e-01 0.000000e+00
 0.000000e+00 0.000000e+00 0.000000e+00 0.000000e+00 6.545174e-01 3.454826e-01
 0.000000e+00 0.000000e+00 0.000000e+00 0.000000e+00 0.000000e+00 0.000000e+00
<ENDHMM>
~h "e"
<BEGINHMM>
<NUMSTATES> 6
<STATE> 2
<MEAN> 48
 3.960001e+01 -5.109425e+01 -2.931020e+01 1.767528e+01 -2.203251e+01 -3.759074e+01 -2.831861e+01 -2.744001e+01 -2.050844e+01 -5.404187e+00 2.981478e+00 3.998005e+00 3.009769e+00 7.524453e+00 1.050786e+01 1.210236e+02 5.818911e-01 -1.997144e+00 1.032506e+00 1.124511e+00 8.069526e-02 1.212125e-02 -8.947206e-01 -8.197392e-01 4.671582e-01 3.714190e-01 1.304273e-01 6.116856e-02 -1.681947e-01 -8.218299e-02 1.070866e-01 2.126956e+00 -2.038663e-01 4.186446e-01 -2.052930e-01 -1.449086e-01 -1.662990e-02 -7.610852e-02 1.238260e-01 1.629583e-01 -3.708376e-02 -5.962608e-02 -7.183216e-02 -4.887991e-02 8.712964e-03 2.334006e-02 -3.937365e-03 -6.110348e-01
<VARIANCE> 48
 8.597412e+01 3.115786e+02 9.331453e+01 7.863730e+01 6.377038e+01 5.851896e+01 8.342971e+01 1.051337e+02 7.947582e+01 8.042756e+01 5.439392e+01 4.528597e+01 3.830985e+01 2.969332e+01 2.048573e+01 3.550331e+02 8.117132e+00 1.743719e+01 5.224452e+00 4.493921e+00 5.332908e+00 4.804453e+00 7.054201e+00 8.269498e+00 4.113164e+00 4.811368e+00 3.813318e+00 3.659554e+00 2.784342e+00 2.045302e+00 1.564982e+00 2.571790e+01 1.404313e+00 2.624614e+00 8.797637e-01 7.325702e-01 1.006768e+00 9.348412e-01 1.389589e+00 1.476999e+00 8.131256e-01 9.700012e-01 7.167923e-01 7.700529e-01 5.877426e-01 4.313921e-01 3.242912e-01 3.156830e+00
<GCONST> 1.829364e+02
<STATE> 3
<MEAN> 48
 4.037458e+01 -5.441833e+01 -2.752964e+01 1.972927e+01 -2.188463e+01 -3.774713e+01 -3.001638e+01 -2.882846e+01 -1.954098e+01 -4.726137e+00 3.069643e+00 3.974027e+00 2.652625e+00 7.394083e+00 1.071251e+01 1.242305e+02 1.207725e-01 -9.281173e-01 4.932095e-01 7.439591e-01 6.675053e-02 -1.177847e-01 -5.695611e-01 -4.378447e-01 3.495497e-01 2.277203e-01 -5.639082e-02 -7.042753e-02 -1.434904e-01 -3.089822e-02 8.225747e-02 5.918248e-01 -2.328138e-01 4.913489e-01 -2.754044e-01 -1.646335e-01 1.209369e-02 -3.980073e-02 1.694229e-01 1.816804e-01 -5.597028e-02 -4.820688e-02 -7.870080e-02 -6.595252e-02 6.701795e-03 1.482451e-02 -1.333121e-02 -7.449793e-01
<VARIANCE> 48
 7.845467e+01 2.404742e+02 8.043647e+01 6.272328e+01 6.767253e+01 5.881304e+01 6.950667e+01 8.898547e+01 8.186513e+01 7.606928e+01 5.456787e+01 4.650964e+01 3.715462e+01 2.899704e+01 2.008973e+01 2.597278e+02 7.192735e+00 1.514255e+01 5.312394e+00 3.759688e+00 4.846889e+00 4.255241e+00 6.642386e+00 7.624846e+00 4.247243e+00 4.681067e+00 3.747302e+00 3.489221e+00 2.519565e+00 1.828219e+00 1.427426e+00 2.342616e+01 1.211483e+00 2.048274e+00 8.242766e-01 5.956098e-01 8.913958e-01 8.264963e-01 1.279733e+00 1.352719e+00 8.368570e-01 9.565201e-01 7.185084e-01 7.338847e-01 5.349061e-01 3.823207e-01 2.923679e-01 2.275040e+00
<GCONST> 1.785436e+02
<STATE> 4
<MEAN> 48
 3.994310e+01 -5.511827e+01 -2.710110e+01 2.089647e+01 -2.176509e+01 -3.823393e+01 -3.103593e+01 -2.944430e+01 -1.897027e+01 -4.498178e+00 2.496201e+00 3.397518e+00 2.175054e+00 7.241933e+00 1.077215e+01 1.234472e+02 -4.320406e-01 1.946961e-01 -1.862725e-01 3.531267e-01 9.072576e-02 -1.512529e-01 -1.296511e-01 -2.390046e-03 2.258146e-01 1.462167e-01 -2.203399e-01 -2.318811e-01 -1.295979e-01 -2.350042e-03 4.974635e-02 -1.184726e+00 -2.690656e-01 3.988167e-01 -3.027387e-01 -1.541338e-01 3.147097e-02 1.533672e-02 2.111648e-01 2.095783e-01 -2.820441e-02 -4.670707e-03 -3.859083e-02 -5.387327e-02 8.725372e-03 6.130160e-03 -1.228547e-02 -6.976493e-01
<VARIANCE> 48
 8.281969e+01 2.005652e+02 7.538555e+01 5.798483e+01 7.153202e+01 5.832209e+01 6.100101e+01 7.928904e+01 7.924226e+01 6.923801e+01 5.502771e+01 4.812176e+01 3.587872e+01 2.865206e+01 2.018147e+01 2.367226e+02 6.774154e+00 1.276822e+01 5.929720e+00 3.336534e+00 4.477279e+00 4.013031e+00 6.703686e+00 7.242035e+00 4.628419e+00 4.695156e+00 3.806233e+00 3.462753e+00 2.324049e+00 1.731975e+00 1.350640e+00 1.900534e+01 1.107738e+00 1.774496e+00 8.742154e-01 5.559254e-01 8.075132e-01 7.793792e-01 1.252818e+00 1.259237e+00 9.173615e-01 9.888390e-01 7.652319e-01 7.249084e-01 4.925651e-01 3.594445e-01 2.736287e-01 1.664563e+00
<GCONST> 1.762915e+02
<STATE> 5
<MEAN> 48
 3.804790e+01 -5.335376e+01 -2.836722e+01 2.133699e+01 -2.161372e+01 -3.861908e+01 -3.084053e+01 -2.887472e+01 -1.836206e+01 -4.074995e+00 1.778949e+00 2.571949e+00 1.838907e+00 7.275633e+00 1.087835e+01 1.181174e+02 -1.205879e+00 1.108408e+00 -9.794877e-01 -5.675602e-02 1.817176e-01 -5.377080e-02 4.680712e-01 5.933906e-01 2.062210e-01 1.994197e-01 -2.373163e-01 -3.166893e-01 -8.284449e-02 1.343481e-02 2.566925e-02 -2.893138e+00 -3.277501e-01 2.268131e-01 -2.962773e-01 -2.033883e-01 4.518228e-02 8.433861e-02 2.742839e-01 2.824787e-01 3.043087e-02 2.934880e-02 3.044499e-02 -5.040663e-03 3.116018e-02 8.627868e-03 -1.112163e-02 -4.876600e-01
<VARIANCE> 48
 1.013842e+02 2.064356e+02 8.586216e+01 6.519414e+01 7.465784e+01 6.102652e+01 6.768043e+01 7.931342e+01 7.683031e+01 6.247472e+01 5.278096e+01 4.740903e+01 3.565403e+01 2.959519e+01 2.104074e+01 2.812378e+02 7.397846e+00 1.203808e+01 7.421038e+00 3.756143e+00 4.470231e+00 4.610411e+00 8.061636e+00 7.856454e+00 5.311428e+00 4.982485e+00 4.045362e+00 3.766526e+00 2.399965e+00 1.789557e+00 1.341840e+00 1.370969e+01 1.162673e+00 1.943259e+00 1.055413e+00 6.804250e-01 7.956845e-01 8.819458e-01 1.391052e+00 1.264611e+00 1.067797e+00 1.086316e+00 8.487487e-01 7.723079e-01 5.047141e-01 3.698739e-01 2.700686e-01 1.463082e+00
<GCONST> 1.789321e+02
<TRANSP> 6
 0.000000e+00 1.000000e+00 0.000000e+00 0.000000e+00 0.000000e+00 0.000000e+00
 0.000000e+00 5.598945e-01 4.401055e-01 0.000000e+00 0.000000e+00 0.000000e+00
 0.000000e+00 0.000000e+00 5.598948e-01 4.401052e-01 0.000000e+00 0.000000e+00
 0.000000e+00 0.000000e+00 0.000000e+00 6.525112e-01 3.474888e-01 0.000000e+00
 0.000000e+00 0.000000e+00 0.000000e+00 0.000000e+00 6.525109e-01 3.474891e-01
 0.000000e+00 0.000000e+00 0.000000e+00 0.000000e+00 0.000000e+00 0.000000e+00
<ENDHMM>
~h "silence"
<BEGINHMM>
<NUMSTATES> 6
<STATE> 2
<MEAN> 48
 2.323880e+01 -4.156899e+01 -4.433315e+01 5.751880e+00 -2.344542e+01 -3.390707e+01 -1.128563e+01 -8.643257e+00 -1.453473e+01 -4.608123e+00 2.351559e+00 2.952068e+00 3.372401e+00 8.178371e+00 1.102367e+01 9.348479e+01 -1.322567e+00 9.486235e-01 -3.466795e-01 9.663079e-02 5.044043e-01 -3.033652e-02 -4.170883e-02 3.124665e-01 -1.081564e-01 -1.146993e-01 1.669957e-02 -1.752387e-01 -1.720324e-01 -2.212918e-02 -1.716583e-02 -2.152909e+00 2.530826e-02 8.432776e-02 -2.045375e-02 -6.894304e-02 -7.585843e-02 -1.073915e-01 -3.115157e-02 5.383184e-03 -1.140269e-02 1.438284e-03 -3.504690e-02 -1.333284e-02 8.632881e-03 8.428389e-04 5.819767e-02 1.887177e-02
<VARIANCE> 48
 2.607543e+02 2.020814e+02 1.149837e+02 1.776956e+02 8.757332e+01 8.116985e+01 2.261198e+02 1.793722e+02 7.357879e+01 6.576495e+01 4.090179e+01 3.788745e+01 3.353837e+01 2.641028e+01 2.088912e+01 4.380541e+02 6.779692e+00 7.423546e+00 4.655174e+00 4.853784e+00 3.796156e+00 4.204373e+00 7.472183e+00 6.030108e+00 5.398981e+00 4.591599e+00 4.032901e+00 3.704494e+00 2.435782e+00 2.204224e+00 1.619904e+00 8.596931e+00 7.769570e-01 1.135839e+00 6.128194e-01 7.066101e-01 6.455731e-01 7.019963e-01 1.044236e+00 9.396096e-01 8.883550e-01 7.905486e-01 7.182822e-01 7.086138e-01 4.554479e-01 3.433995e-01 2.643247e-01 7.079904e-01
<GCONST> 1.777439e+02
<STATE> 3
<MEAN> 48
 2.076578e+01 -3.891154e+01 -4.496965e+01 5.890332e+00 -2.252020e+01 -3.432371e+01 -1.169465e+01 -8.214297e+00 -1.500120e+01 -4.961630e+00 2.206403e+00 2.475353e+00 3.051480e+00 8.178816e+00 1.109062e+01 8.889229e+01 -9.488987e-01 1.210497e+00 -3.014618e-01 -7.191417e-02 2.668031e-01 -2.770563e-01 -1.262595e-01 1.778631e-01 -2.598700e-01 -1.743830e-01 -9.823229e-02 -1.849881e-01 -8.978736e-02 6.335652e-03 6.173394e-02 -1.811764e+00 2.710211e-01 1.100792e-01 6.270573e-02 -9.411526e-02 -1.200315e-01 -9.474048e-02 -3.767570e-02 -1.046526e-01 -1.120933e-01 -5.613641e-02 -4.555139e-02 2.597704e-02 5.962247e-02 3.219701e-02 1.302787e-02 2.764469e-01
<VARIANCE> 48
 2.068930e+02 2.293978e+02 1.018769e+02 1.589339e+02 8.785516e+01 8.172104e+01 2.158679e+02 1.583519e+02 7.546322e+01 6.962953e+01 4.180142e+01 4.021694e+01 3.452512e+01 2.491877e+01 1.916613e+01 3.162450e+02 9.232461e+00 7.272025e+00 5.339002e+00 5.572279e+00 3.913015e+00 4.299194e+00 7.870317e+00 7.127848e+00 5.451386e+00 4.755811e+00 3.963310e+00 3.593432e+00 2.542579e+00 2.114840e+00 1.561222e+00 8.984914e+00 9.894866e-01 1.312997e+00 7.500226e-01 8.582194e-01 7.390090e-01 8.205028e-01 1.232148e+00 1.174323e+00 1.081304e+00 9.865407e-01 8.573792e-01 7.711719e-01 5.322672e-01 4.320237e-01 3.282399e-01 6.993684e-01
<GCONST> 1.805413e+02
<STATE> 4
<MEAN> 48
 2.017635e+01 -3.530929e+01 -4.538060e+01 5.467247e+00 -2.242296e+01 -3.547058e+01 -1.246058e+01 -8.667676e+00 -1.632533e+01 -5.757011e+00 1.604266e+00 2.022275e+00 3.159754e+00 8.304474e+00 1.114395e+01 8.585956e+01 -2.697223e-01 1.320724e+00 -1.435356e-01 -2.953906e-01 -5.788490e-03 -3.817585e-01 -9.974867e-02 -4.890551e-02 -5.564538e-01 -3.482704e-01 -1.739640e-01 -7.327981e-02 8.791622e-02 1.049448e-01 1.656884e-02 -1.027512e+00 2.838345e-01 -4.431158e-02 7.181911e-02 -7.341623e-02 -1.146314e-01 -3.324115e-02 1.175522e-02 -6.356665e-02 -8.100036e-02 -5.450654e-02 -1.909018e-02 6.304942e-02 5.356982e-02 3.977846e-02 -1.032611e-02 3.593663e-01
<VARIANCE> 48
 1.467884e+02 2.530840e+02 9.937268e+01 1.305346e+02 8.445662e+01 7.880769e+01 1.949148e+02 1.369742e+02 8.426680e+01 7.637074e+01 4.662843e+01 4.192049e+01 3.412390e+01 2.445848e+01 1.898361e+01 1.942396e+02 1.096989e+01 7.343637e+00 5.617491e+00 5.497660e+00 4.440171e+00 4.359661e+00 8.199648e+00 8.019214e+00 5.717986e+00 5.263485e+00 4.135234e+00 3.595127e+00 2.687595e+00 2.066436e+00 1.567232e+00 9.177365e+00 1.031515e+00 1.334477e+00 8.424809e-01 9.117886e-01 7.693155e-01 8.046343e-01 1.272562e+00 1.274026e+00 1.078755e+00 1.016975e+00 8.441784e-01 7.451410e-01 5.444556e-01 4.345613e-01 3.284231e-01 6.913930e-01
<GCONST> 1.807110e+02
<STATE> 5
<MEAN> 48
 1.984256e+01 -3.209157e+01 -4.571909e+01 4.365075e+00 -2.275696e+01 -3.640968e+01 -1.231455e+01 -8.685333e+00 -1.805351e+01 -6.883807e+00 1.176499e+00 2.123834e+00 3.602581e+00 8.697196e+00 1.111488e+01 8.385329e+01 2.730598e-01 7.636241e-01 -2.816452e-02 -4.268125e-01 -2.433100e-01 -3.255732e-01 6.368782e-02 6.758492e-03 -5.462065e-01 -3.884122e-01 -1.260426e-01 1.404969e-01 1.451316e-01 1.637555e-01 -3.004978e-03 -4.958408e-02 2.043172e-01 -2.804677e-01 4.308714e-02 2.794727e-02 -7.543314e-02 3.243679e-02 5.112942e-02 9.594586e-03 4.908397e-02 2.977221e-02 3.052404e-02 9.154453e-02 2.931468e-02 2.024535e-02 -6.751576e-03 3.549152e-01
<VARIANCE> 48
 1.136520e+02 2.344708e+02 8.835948e+01 1.045513e+02 7.352615e+01 6.912945e+01 1.645925e+02 1.112237e+02 8.258050e+01 7.865822e+01 4.624246e+01 4.018869e+01 3.362259e+01 2.390285e+01 1.931364e+01 1.187573e+02 8.930368e+00 7.877375e+00 5.926109e+00 4.874456e+00 4.462113e+00 4.041303e+00 7.686625e+00 7.838798e+00 5.406414e+00 5.242136e+00 3.835853e+00 3.393432e+00 2.814404e+00 2.162336e+00 1.674682e+00 7.954223e+00 8.717315e-01 1.103014e+00 7.430218e-01 7.901612e-01 6.746567e-01 6.811515e-01 1.100336e+00 1.084955e+00 8.872157e-01 8.663323e-01 6.851286e-01 6.428136e-01 5.073636e-01 3.947890e-01 2.878133e-01 7.525952e-01
<GCONST> 1.761422e+02
<TRANSP> 6
 0.000000e+00 1.000000e+00 0.000000e+00 0.000000e+00 0.000000e+00 0.000000e+00
 0.000000e+00 5.624532e-01 4.375468e-01 0.000000e+00 0.000000e+00 0.000000e+00
 0.000000e+00 0.000000e+00 5.624537e-01 4.375464e-01 0.000000e+00 0.000000e+00
 0.000000e+00 0.000000e+00 0.000000e+00 6.545024e-01 3.454976e-01 0.000000e+00
 0.000000e+00 0.000000e+00 0.000000e+00 0.000000e+00 6.545023e-01 3.454977e-01
 0.000000e+00 0.000000e+00 0.000000e+00 0.000000e+00 0.000000e+00 0.000000e+00
<ENDHMM>
