~h "b"
<BEGINHMM>
<NUMSTATES> 6
<STATE> 2
<MEAN> 48
 2.917626e+01 -3.854141e+01 -4.190712e+01 5.426006e+00 -2.436070e+01 -3.501424e+01 -1.340180e+01 -1.117870e+01 -1.672051e+01 -5.880221e+00 1.829637e+00 3.118079e+00 3.983723e+00 8.726974e+00 1.097795e+01 9.876646e+01 1.041688e-01 -4.607884e-02 -2.624988e-02 -1.816752e-02 -3.612641e-02 5.906028e-02 6.331597e-02 -3.373506e-03 -2.212488e-02 -3.415110e-03 -1.060488e-02 2.345127e-02 2.861162e-03 2.014454e-03 1.492373e-03 9.124757e-02 -9.682202e-03 -8.340967e-03 -1.639307e-02 -1.591571e-02 -1.706772e-02 -1.046200e-02 2.818626e-02 2.257001e-02 -3.314658e-04 1.095341e-04 -1.827730e-03 1.815092e-02 1.385178e-02 1.447681e-02 1.367131e-02 -8.100128e-03
<VARIANCE> 48
 2.233184e+02 2.783552e+02 1.254371e+02 1.649079e+02 9.630840e+01 8.472457e+01 2.164875e+02 1.822621e+02 8.358015e+01 6.907524e+01 4.459984e+01 4.153708e+01 3.240025e+01 2.368097e+01 1.793617e+01 4.786710e+02 9.549366e+00 1.202730e+01 5.602659e+00 5.354746e+00 4.873569e+00 4.876786e+00 7.670175e+00 6.958737e+00 5.186863e+00 4.758516e+00 3.800619e+00 3.616135e+00 2.616162e+00 2.142874e+00 1.530334e+00 1.747893e+01 1.177869e+00 1.739348e+00 8.255523e-01 8.470883e-01 8.524553e-01 8.598649e-01 1.213970e+00 1.121052e+00 9.313048e-01 8.989307e-01 7.464564e-01 7.238554e-01 5.082979e-01 4.240603e-01 2.981311e-01 1.719089e+00
<GCONST> 1.841571e+02
<STATE> 3
<MEAN> 48
 2.917626e+01 -3.854141e+01 -4.190712e+01 5.426006e+00 -2.436070e+01 -3.501424e+01 -1.340180e+01 -1.117870e+01 -1.672051e+01 -5.880221e+00 1.829637e+00 3.118079e+00 3.983723e+00 8.726974e+00 1.097795e+01 9.876646e+01 1.041688e-01 -4.607884e-02 -2.624988e-02 -1.816752e-02 -3.612641e-02 5.906028e-02 6.331597e-02 -3.373506e-03 -2.212488e-02 -3.415110e-03 -1.060488e-02 2.345127e-02 2.861162e-03 2.014454e-03 1.492373e-03 9.124757e-02 -9.682202e-03 -8.340967e-03 -1.639307e-02 -1.591571e-02 -1.706772e-02 -1.046200e-02 2.818626e-02 2.257001e-02 -3.314658e-04 1.095341e-04 -1.827730e-03 1.815092e-02 1.385178e-02 1.447681e-02 1.367131e-02 -8.100128e-03
<VARIANCE> 48
 2.233184e+02 2.783552e+02 1.254371e+02 1.649079e+02 9.630840e+01 8.472457e+01 2.164875e+02 1.822621e+02 8.358015e+01 6.907524e+01 4.459984e+01 4.153708e+01 3.240025e+01 2.368097e+01 1.793617e+01 4.786710e+02 9.549366e+00 1.202730e+01 5.602659e+00 5.354746e+00 4.873569e+00 4.876786e+00 7.670175e+00 6.958737e+00 5.186863e+00 4.758516e+00 3.800619e+00 3.616135e+00 2.616162e+00 2.142874e+00 1.530334e+00 1.747893e+01 1.177869e+00 1.739348e+00 8.255523e-01 8.470883e-01 8.524553e-01 8.598649e-01 1.213970e+00 1.121052e+00 9.313048e-01 8.989307e-01 7.464564e-01 7.238554e-01 5.082979e-01 4.240603e-01 2.981311e-01 1.719089e+00
<GCONST> 1.841571e+02
<STATE> 4
<MEAN> 48
 2.917626e+01 -3.854141e+01 -4.190712e+01 5.426006e+00 -2.436070e+01 -3.501424e+01 -1.340180e+01 -1.117870e+01 -1.672051e+01 -5.880221e+00 1.829637e+00 3.118079e+00 3.983723e+00 8.726974e+00 1.097795e+01 9.876646e+01 1.041688e-01 -4.607884e-02 -2.624988e-02 -1.816752e-02 -3.612641e-02 5.906028e-02 6.331597e-02 -3.373506e-03 -2.212488e-02 -3.415110e-03 -1.060488e-02 2.345127e-02 2.861162e-03 2.014454e-03 1.492373e-03 9.124757e-02 -9.682202e-03 -8.340967e-03 -1.639307e-02 -1.591571e-02 -1.706772e-02 -1.046200e-02 2.818626e-02 2.257001e-02 -3.314658e-04 1.095341e-04 -1.827730e-03 1.815092e-02 1.385178e-02 1.447681e-02 1.367131e-02 -8.100128e-03
<VARIANCE> 48
 2.233184e+02 2.783552e+02 1.254371e+02 1.649079e+02 9.630840e+01 8.472457e+01 2.164875e+02 1.822621e+02 8.358015e+01 6.907524e+01 4.459984e+01 4.153708e+01 3.240025e+01 2.368097e+01 1.793617e+01 4.786710e+02 9.549366e+00 1.202730e+01 5.602659e+00 5.354746e+00 4.873569e+00 4.876786e+00 7.670175e+00 6.958737e+00 5.186863e+00 4.758516e+00 3.800619e+00 3.616135e+00 2.616162e+00 2.142874e+00 1.530334e+00 1.747893e+01 1.177869e+00 1.739348e+00 8.255523e-01 8.470883e-01 8.524553e-01 8.598649e-01 1.213970e+00 1.121052e+00 9.313048e-01 8.989307e-01 7.464564e-01 7.238554e-01 5.082979e-01 4.240603e-01 2.981311e-01 1.719089e+00
<GCONST> 1.841571e+02
<STATE> 5
<MEAN> 48
 2.917626e+01 -3.854141e+01 -4.190712e+01 5.426006e+00 -2.436070e+01 -3.501424e+01 -1.340180e+01 -1.117870e+01 -1.672051e+01 -5.880221e+00 1.829637e+00 3.118079e+00 3.983723e+00 8.726974e+00 1.097795e+01 9.876646e+01 1.041688e-01 -4.607884e-02 -2.624988e-02 -1.816752e-02 -3.612641e-02 5.906028e-02 6.331597e-02 -3.373506e-03 -2.212488e-02 -3.415110e-03 -1.060488e-02 2.345127e-02 2.861162e-03 2.014454e-03 1.492373e-03 9.124757e-02 -9.682202e-03 -8.340967e-03 -1.639307e-02 -1.591571e-02 -1.706772e-02 -1.046200e-02 2.818626e-02 2.257001e-02 -3.314658e-04 1.095341e-04 -1.827730e-03 1.815092e-02 1.385178e-02 1.447681e-02 1.367131e-02 -8.100128e-03
<VARIANCE> 48
 2.233184e+02 2.783552e+02 1.254371e+02 1.649079e+02 9.630840e+01 8.472457e+01 2.164875e+02 1.822621e+02 8.358015e+01 6.907524e+01 4.459984e+01 4.153708e+01 3.240025e+01 2.368097e+01 1.793617e+01 4.786710e+02 9.549366e+00 1.202730e+01 5.602659e+00 5.354746e+00 4.873569e+00 4.876786e+00 7.670175e+00 6.958737e+00 5.186863e+00 4.758516e+00 3.800619e+00 3.616135e+00 2.616162e+00 2.142874e+00 1.530334e+00 1.747893e+01 1.177869e+00 1.739348e+00 8.255523e-01 8.470883e-01 8.524553e-01 8.598649e-01 1.213970e+00 1.121052e+00 9.313048e-01 8.989307e-01 7.464564e-01 7.238554e-01 5.082979e-01 4.240603e-01 2.981311e-01 1.719089e+00
<GCONST> 1.841571e+02
<TRANSP> 6
 0.000000e+00 1.000000e+00 0.000000e+00 0.000000e+00 0.000000e+00 0.000000e+00
 0.000000e+00 6.000000e-01 4.000000e-01 0.000000e+00 0.000000e+00 0.000000e+00
 0.000000e+00 0.000000e+00 6.000000e-01 4.000000e-01 0.000000e+00 0.000000e+00
 0.000000e+00 0.000000e+00 0.000000e+00 7.000000e-01 3.000000e-01 0.000000e+00
 0.000000e+00 0.000000e+00 0.000000e+00 0.000000e+00 7.000000e-01 3.000000e-01
 0.000000e+00 0.000000e+00 0.000000e+00 0.000000e+00 0.000000e+00 0.000000e+00
<ENDHMM>
~h "a"
<BEGINHMM>
<NUMSTATES> 6
<STATE> 2
<MEAN> 48
 2.917626e+01 -3.854141e+01 -4.190712e+01 5.426006e+00 -2.436070e+01 -3.501424e+01 -1.340180e+01 -1.117870e+01 -1.672051e+01 -5.880221e+00 1.829637e+00 3.118079e+00 3.983723e+00 8.726974e+00 1.097795e+01 9.876646e+01 1.041688e-01 -4.607884e-02 -2.624988e-02 -1.816752e-02 -3.612641e-02 5.906028e-02 6.331597e-02 -3.373506e-03 -2.212488e-02 -3.415110e-03 -1.060488e-02 2.345127e-02 2.861162e-03 2.014454e-03 1.492373e-03 9.124757e-02 -9.682202e-03 -8.340967e-03 -1.639307e-02 -1.591571e-02 -1.706772e-02 -1.046200e-02 2.818626e-02 2.257001e-02 -3.314658e-04 1.095341e-04 -1.827730e-03 1.815092e-02 1.385178e-02 1.447681e-02 1.367131e-02 -8.100128e-03
<VARIANCE> 48
 2.233184e+02 2.783552e+02 1.254371e+02 1.649079e+02 9.630840e+01 8.472457e+01 2.164875e+02 1.822621e+02 8.358015e+01 6.907524e+01 4.459984e+01 4.153708e+01 3.240025e+01 2.368097e+01 1.793617e+01 4.786710e+02 9.549366e+00 1.202730e+01 5.602659e+00 5.354746e+00 4.873569e+00 4.876786e+00 7.670175e+00 6.958737e+00 5.186863e+00 4.758516e+00 3.800619e+00 3.616135e+00 2.616162e+00 2.142874e+00 1.530334e+00 1.747893e+01 1.177869e+00 1.739348e+00 8.255523e-01 8.470883e-01 8.524553e-01 8.598649e-01 1.213970e+00 1.121052e+00 9.313048e-01 8.989307e-01 7.464564e-01 7.238554e-01 5.082979e-01 4.240603e-01 2.981311e-01 1.719089e+00
<GCONST> 1.841571e+02
<STATE> 3
<MEAN> 48
 2.917626e+01 -3.854141e+01 -4.190712e+01 5.426006e+00 -2.436070e+01 -3.501424e+01 -1.340180e+01 -1.117870e+01 -1.672051e+01 -5.880221e+00 1.829637e+00 3.118079e+00 3.983723e+00 8.726974e+00 1.097795e+01 9.876646e+01 1.041688e-01 -4.607884e-02 -2.624988e-02 -1.816752e-02 -3.612641e-02 5.906028e-02 6.331597e-02 -3.373506e-03 -2.212488e-02 -3.415110e-03 -1.060488e-02 2.345127e-02 2.861162e-03 2.014454e-03 1.492373e-03 9.124757e-02 -9.682202e-03 -8.340967e-03 -1.639307e-02 -1.591571e-02 -1.706772e-02 -1.046200e-02 2.818626e-02 2.257001e-02 -3.314658e-04 1.095341e-04 -1.827730e-03 1.815092e-02 1.385178e-02 1.447681e-02 1.367131e-02 -8.100128e-03
<VARIANCE> 48
 2.233184e+02 2.783552e+02 1.254371e+02 1.649079e+02 9.630840e+01 8.472457e+01 2.164875e+02 1.822621e+02 8.358015e+01 6.907524e+01 4.459984e+01 4.153708e+01 3.240025e+01 2.368097e+01 1.793617e+01 4.786710e+02 9.549366e+00 1.202730e+01 5.602659e+00 5.354746e+00 4.873569e+00 4.876786e+00 7.670175e+00 6.958737e+00 5.186863e+00 4.758516e+00 3.800619e+00 3.616135e+00 2.616162e+00 2.142874e+00 1.530334e+00 1.747893e+01 1.177869e+00 1.739348e+00 8.255523e-01 8.470883e-01 8.524553e-01 8.598649e-01 1.213970e+00 1.121052e+00 9.313048e-01 8.989307e-01 7.464564e-01 7.238554e-01 5.082979e-01 4.240603e-01 2.981311e-01 1.719089e+00
<GCONST> 1.841571e+02
<STATE> 4
<MEAN> 48
 2.917626e+01 -3.854141e+01 -4.190712e+01 5.426006e+00 -2.436070e+01 -3.501424e+01 -1.340180e+01 -1.117870e+01 -1.672051e+01 -5.880221e+00 1.829637e+00 3.118079e+00 3.983723e+00 8.726974e+00 1.097795e+01 9.876646e+01 1.041688e-01 -4.607884e-02 -2.624988e-02 -1.816752e-02 -3.612641e-02 5.906028e-02 6.331597e-02 -3.373506e-03 -2.212488e-02 -3.415110e-03 -1.060488e-02 2.345127e-02 2.861162e-03 2.014454e-03 1.492373e-03 9.124757e-02 -9.682202e-03 -8.340967e-03 -1.639307e-02 -1.591571e-02 -1.706772e-02 -1.046200e-02 2.818626e-02 2.257001e-02 -3.314658e-04 1.095341e-04 -1.827730e-03 1.815092e-02 1.385178e-02 1.447681e-02 1.367131e-02 -8.100128e-03
<VARIANCE> 48
 2.233184e+02 2.783552e+02 1.254371e+02 1.649079e+02 9.630840e+01 8.472457e+01 2.164875e+02 1.822621e+02 8.358015e+01 6.907524e+01 4.459984e+01 4.153708e+01 3.240025e+01 2.368097e+01 1.793617e+01 4.786710e+02 9.549366e+00 1.202730e+01 5.602659e+00 5.354746e+00 4.873569e+00 4.876786e+00 7.670175e+00 6.958737e+00 5.186863e+00 4.758516e+00 3.800619e+00 3.616135e+00 2.616162e+00 2.142874e+00 1.530334e+00 1.747893e+01 1.177869e+00 1.739348e+00 8.255523e-01 8.470883e-01 8.524553e-01 8.598649e-01 1.213970e+00 1.121052e+00 9.313048e-01 8.989307e-01 7.464564e-01 7.238554e-01 5.082979e-01 4.240603e-01 2.981311e-01 1.719089e+00
<GCONST> 1.841571e+02
<STATE> 5
<MEAN> 48
 2.917626e+01 -3.854141e+01 -4.190712e+01 5.426006e+00 -2.436070e+01 -3.501424e+01 -1.340180e+01 -1.117870e+01 -1.672051e+01 -5.880221e+00 1.829637e+00 3.118079e+00 3.983723e+00 8.726974e+00 1.097795e+01 9.876646e+01 1.041688e-01 -4.607884e-02 -2.624988e-02 -1.816752e-02 -3.612641e-02 5.906028e-02 6.331597e-02 -3.373506e-03 -2.212488e-02 -3.415110e-03 -1.060488e-02 2.345127e-02 2.861162e-03 2.014454e-03 1.492373e-03 9.124757e-02 -9.682202e-03 -8.340967e-03 -1.639307e-02 -1.591571e-02 -1.706772e-02 -1.046200e-02 2.818626e-02 2.257001e-02 -3.314658e-04 1.095341e-04 -1.827730e-03 1.815092e-02 1.385178e-02 1.447681e-02 1.367131e-02 -8.100128e-03
<VARIANCE> 48
 2.233184e+02 2.783552e+02 1.254371e+02 1.649079e+02 9.630840e+01 8.472457e+01 2.164875e+02 1.822621e+02 8.358015e+01 6.907524e+01 4.459984e+01 4.153708e+01 3.240025e+01 2.368097e+01 1.793617e+01 4.786710e+02 9.549366e+00 1.202730e+01 5.602659e+00 5.354746e+00 4.873569e+00 4.876786e+00 7.670175e+00 6.958737e+00 5.186863e+00 4.758516e+00 3.800619e+00 3.616135e+00 2.616162e+00 2.142874e+00 1.530334e+00 1.747893e+01 1.177869e+00 1.739348e+00 8.255523e-01 8.470883e-01 8.524553e-01 8.598649e-01 1.213970e+00 1.121052e+00 9.313048e-01 8.989307e-01 7.464564e-01 7.238554e-01 5.082979e-01 4.240603e-01 2.981311e-01 1.719089e+00
<GCONST> 1.841571e+02
<TRANSP> 6
 0.000000e+00 1.000000e+00 0.000000e+00 0.000000e+00 0.000000e+00 0.000000e+00
 0.000000e+00 6.000000e-01 4.000000e-01 0.000000e+00 0.000000e+00 0.000000e+00
 0.000000e+00 0.000000e+00 6.000000e-01 4.000000e-01 0.000000e+00 0.000000e+00
 0.000000e+00 0.000000e+00 0.000000e+00 7.000000e-01 3.000000e-01 0.000000e+00
 0.000000e+00 0.000000e+00 0.000000e+00 0.000000e+00 7.000000e-01 3.000000e-01
 0.000000e+00 0.000000e+00 0.000000e+00 0.000000e+00 0.000000e+00 0.000000e+00
<ENDHMM>
~h "e"
<BEGINHMM>
<NUMSTATES> 6
<STATE> 2
<MEAN> 48
 2.917626e+01 -3.854141e+01 -4.190712e+01 5.426006e+00 -2.436070e+01 -3.501424e+01 -1.340180e+01 -1.117870e+01 -1.672051e+01 -5.880221e+00 1.829637e+00 3.118079e+00 3.983723e+00 8.726974e+00 1.097795e+01 9.876646e+01 1.041688e-01 -4.607884e-02 -2.624988e-02 -1.816752e-02 -3.612641e-02 5.906028e-02 6.331597e-02 -3.373506e-03 -2.212488e-02 -3.415110e-03 -1.060488e-02 2.345127e-02 2.861162e-03 2.014454e-03 1.492373e-03 9.124757e-02 -9.682202e-03 -8.340967e-03 -1.639307e-02 -1.591571e-02 -1.706772e-02 -1.046200e-02 2.818626e-02 2.257001e-02 -3.314658e-04 1.095341e-04 -1.827730e-03 1.815092e-02 1.385178e-02 1.447681e-02 1.367131e-02 -8.100128e-03
<VARIANCE> 48
 2.233184e+02 2.783552e+02 1.254371e+02 1.649079e+02 9.630840e+01 8.472457e+01 2.164875e+02 1.822621e+02 8.358015e+01 6.907524e+01 4.459984e+01 4.153708e+01 3.240025e+01 2.368097e+01 1.793617e+01 4.786710e+02 9.549366e+00 1.202730e+01 5.602659e+00 5.354746e+00 4.873569e+00 4.876786e+00 7.670175e+00 6.958737e+00 5.186863e+00 4.758516e+00 3.800619e+00 3.616135e+00 2.616162e+00 2.142874e+00 1.530334e+00 1.747893e+01 1.177869e+00 1.739348e+00 8.255523e-01 8.470883e-01 8.524553e-01 8.598649e-01 1.213970e+00 1.121052e+00 9.313048e-01 8.989307e-01 7.464564e-01 7.238554e-01 5.082979e-01 4.240603e-01 2.981311e-01 1.719089e+00
<GCONST> 1.841571e+02
<STATE> 3
<MEAN> 48
 2.917626e+01 -3.854141e+01 -4.190712e+01 5.426006e+00 -2.436070e+01 -3.501424e+01 -1.340180e+01 -1.117870e+01 -1.672051e+01 -5.880221e+00 1.829637e+00 3.118079e+00 3.983723e+00 8.726974e+00 1.097795e+01 9.876646e+01 1.041688e-01 -4.607884e-02 -2.624988e-02 -1.816752e-02 -3.612641e-02 5.906028e-02 6.331597e-02 -3.373506e-03 -2.212488e-02 -3.415110e-03 -1.060488e-02 2.345127e-02 2.861162e-03 2.014454e-03 1.492373e-03 9.124757e-02 -9.682202e-03 -8.340967e-03 -1.639307e-02 -1.591571e-02 -1.706772e-02 -1.046200e-02 2.818626e-02 2.257001e-02 -3.314658e-04 1.095341e-04 -1.827730e-03 1.815092e-02 1.385178e-02 1.447681e-02 1.367131e-02 -8.100128e-03
<VARIANCE> 48
 2.233184e+02 2.783552e+02 1.254371e+02 1.649079e+02 9.630840e+01 8.472457e+01 2.164875e+02 1.822621e+02 8.358015e+01 6.907524e+01 4.459984e+01 4.153708e+01 3.240025e+01 2.368097e+01 1.793617e+01 4.786710e+02 9.549366e+00 1.202730e+01 5.602659e+00 5.354746e+00 4.873569e+00 4.876786e+00 7.670175e+00 6.958737e+00 5.186863e+00 4.758516e+00 3.800619e+00 3.616135e+00 2.616162e+00 2.142874e+00 1.530334e+00 1.747893e+01 1.177869e+00 1.739348e+00 8.255523e-01 8.470883e-01 8.524553e-01 8.598649e-01 1.213970e+00 1.121052e+00 9.313048e-01 8.989307e-01 7.464564e-01 7.238554e-01 5.082979e-01 4.240603e-01 2.981311e-01 1.719089e+00
<GCONST> 1.841571e+02
<STATE> 4
<MEAN> 48
 2.917626e+01 -3.854141e+01 -4.190712e+01 5.426006e+00 -2.436070e+01 -3.501424e+01 -1.340180e+01 -1.117870e+01 -1.672051e+01 -5.880221e+00 1.829637e+00 3.118079e+00 3.983723e+00 8.726974e+00 1.097795e+01 9.876646e+01 1.041688e-01 -4.607884e-02 -2.624988e-02 -1.816752e-02 -3.612641e-02 5.906028e-02 6.331597e-02 -3.373506e-03 -2.212488e-02 -3.415110e-03 -1.060488e-02 2.345127e-02 2.861162e-03 2.014454e-03 1.492373e-03 9.124757e-02 -9.682202e-03 -8.340967e-03 -1.639307e-02 -1.591571e-02 -1.706772e-02 -1.046200e-02 2.818626e-02 2.257001e-02 -3.314658e-04 1.095341e-04 -1.827730e-03 1.815092e-02 1.385178e-02 1.447681e-02 1.367131e-02 -8.100128e-03
<VARIANCE> 48
 2.233184e+02 2.783552e+02 1.254371e+02 1.649079e+02 9.630840e+01 8.472457e+01 2.164875e+02 1.822621e+02 8.358015e+01 6.907524e+01 4.459984e+01 4.153708e+01 3.240025e+01 2.368097e+01 1.793617e+01 4.786710e+02 9.549366e+00 1.202730e+01 5.602659e+00 5.354746e+00 4.873569e+00 4.876786e+00 7.670175e+00 6.958737e+00 5.186863e+00 4.758516e+00 3.800619e+00 3.616135e+00 2.616162e+00 2.142874e+00 1.530334e+00 1.747893e+01 1.177869e+00 1.739348e+00 8.255523e-01 8.470883e-01 8.524553e-01 8.598649e-01 1.213970e+00 1.121052e+00 9.313048e-01 8.989307e-01 7.464564e-01 7.238554e-01 5.082979e-01 4.240603e-01 2.981311e-01 1.719089e+00
<GCONST> 1.841571e+02
<STATE> 5
<MEAN> 48
 2.917626e+01 -3.854141e+01 -4.190712e+01 5.426006e+00 -2.436070e+01 -3.501424e+01 -1.340180e+01 -1.117870e+01 -1.672051e+01 -5.880221e+00 1.829637e+00 3.118079e+00 3.983723e+00 8.726974e+00 1.097795e+01 9.876646e+01 1.041688e-01 -4.607884e-02 -2.624988e-02 -1.816752e-02 -3.612641e-02 5.906028e-02 6.331597e-02 -3.373506e-03 -2.212488e-02 -3.415110e-03 -1.060488e-02 2.345127e-02 2.861162e-03 2.014454e-03 1.492373e-03 9.124757e-02 -9.682202e-03 -8.340967e-03 -1.639307e-02 -1.591571e-02 -1.706772e-02 -1.046200e-02 2.818626e-02 2.257001e-02 -3.314658e-04 1.095341e-04 -1.827730e-03 1.815092e-02 1.385178e-02 1.447681e-02 1.367131e-02 -8.100128e-03
<VARIANCE> 48
 2.233184e+02 2.783552e+02 1.254371e+02 1.649079e+02 9.630840e+01 8.472457e+01 2.164875e+02 1.822621e+02 8.358015e+01 6.907524e+01 4.459984e+01 4.153708e+01 3.240025e+01 2.368097e+01 1.793617e+01 4.786710e+02 9.549366e+00 1.202730e+01 5.602659e+00 5.354746e+00 4.873569e+00 4.876786e+00 7.670175e+00 6.958737e+00 5.186863e+00 4.758516e+00 3.800619e+00 3.616135e+00 2.616162e+00 2.142874e+00 1.530334e+00 1.747893e+01 1.177869e+00 1.739348e+00 8.255523e-01 8.470883e-01 8.524553e-01 8.598649e-01 1.213970e+00 1.121052e+00 9.313048e-01 8.989307e-01 7.464564e-01 7.238554e-01 5.082979e-01 4.240603e-01 2.981311e-01 1.719089e+00
<GCONST> 1.841571e+02
<TRANSP> 6
 0.000000e+00 1.000000e+00 0.000000e+00 0.000000e+00 0.000000e+00 0.000000e+00
 0.000000e+00 6.000000e-01 4.000000e-01 0.000000e+00 0.000000e+00 0.000000e+00
 0.000000e+00 0.000000e+00 6.000000e-01 4.000000e-01 0.000000e+00 0.000000e+00
 0.000000e+00 0.000000e+00 0.000000e+00 7.000000e-01 3.000000e-01 0.000000e+00
 0.000000e+00 0.000000e+00 0.000000e+00 0.000000e+00 7.000000e-01 3.000000e-01
 0.000000e+00 0.000000e+00 0.000000e+00 0.000000e+00 0.000000e+00 0.000000e+00
<ENDHMM>
~h "silence"
<BEGINHMM>
<NUMSTATES> 6
<STATE> 2
<MEAN> 48
 2.917626e+01 -3.854141e+01 -4.190712e+01 5.426006e+00 -2.436070e+01 -3.501424e+01 -1.340180e+01 -1.117870e+01 -1.672051e+01 -5.880221e+00 1.829637e+00 3.118079e+00 3.983723e+00 8.726974e+00 1.097795e+01 9.876646e+01 1.041688e-01 -4.607884e-02 -2.624988e-02 -1.816752e-02 -3.612641e-02 5.906028e-02 6.331597e-02 -3.373506e-03 -2.212488e-02 -3.415110e-03 -1.060488e-02 2.345127e-02 2.861162e-03 2.014454e-03 1.492373e-03 9.124757e-02 -9.682202e-03 -8.340967e-03 -1.639307e-02 -1.591571e-02 -1.706772e-02 -1.046200e-02 2.818626e-02 2.257001e-02 -3.314658e-04 1.095341e-04 -1.827730e-03 1.815092e-02 1.385178e-02 1.447681e-02 1.367131e-02 -8.100128e-03
<VARIANCE> 48
 2.233184e+02 2.783552e+02 1.254371e+02 1.649079e+02 9.630840e+01 8.472457e+01 2.164875e+02 1.822621e+02 8.358015e+01 6.907524e+01 4.459984e+01 4.153708e+01 3.240025e+01 2.368097e+01 1.793617e+01 4.786710e+02 9.549366e+00 1.202730e+01 5.602659e+00 5.354746e+00 4.873569e+00 4.876786e+00 7.670175e+00 6.958737e+00 5.186863e+00 4.758516e+00 3.800619e+00 3.616135e+00 2.616162e+00 2.142874e+00 1.530334e+00 1.747893e+01 1.177869e+00 1.739348e+00 8.255523e-01 8.470883e-01 8.524553e-01 8.598649e-01 1.213970e+00 1.121052e+00 9.313048e-01 8.989307e-01 7.464564e-01 7.238554e-01 5.082979e-01 4.240603e-01 2.981311e-01 1.719089e+00
<GCONST> 1.841571e+02
<STATE> 3
<MEAN> 48
 2.917626e+01 -3.854141e+01 -4.190712e+01 5.426006e+00 -2.436070e+01 -3.501424e+01 -1.340180e+01 -1.117870e+01 -1.672051e+01 -5.880221e+00 1.829637e+00 3.118079e+00 3.983723e+00 8.726974e+00 1.097795e+01 9.876646e+01 1.041688e-01 -4.607884e-02 -2.624988e-02 -1.816752e-02 -3.612641e-02 5.906028e-02 6.331597e-02 -3.373506e-03 -2.212488e-02 -3.415110e-03 -1.060488e-02 2.345127e-02 2.861162e-03 2.014454e-03 1.492373e-03 9.124757e-02 -9.682202e-03 -8.340967e-03 -1.639307e-02 -1.591571e-02 -1.706772e-02 -1.046200e-02 2.818626e-02 2.257001e-02 -3.314658e-04 1.095341e-04 -1.827730e-03 1.815092e-02 1.385178e-02 1.447681e-02 1.367131e-02 -8.100128e-03
<VARIANCE> 48
 2.233184e+02 2.783552e+02 1.254371e+02 1.649079e+02 9.630840e+01 8.472457e+01 2.164875e+02 1.822621e+02 8.358015e+01 6.907524e+01 4.459984e+01 4.153708e+01 3.240025e+01 2.368097e+01 1.793617e+01 4.786710e+02 9.549366e+00 1.202730e+01 5.602659e+00 5.354746e+00 4.873569e+00 4.876786e+00 7.670175e+00 6.958737e+00 5.186863e+00 4.758516e+00 3.800619e+00 3.616135e+00 2.616162e+00 2.142874e+00 1.530334e+00 1.747893e+01 1.177869e+00 1.739348e+00 8.255523e-01 8.470883e-01 8.524553e-01 8.598649e-01 1.213970e+00 1.121052e+00 9.313048e-01 8.989307e-01 7.464564e-01 7.238554e-01 5.082979e-01 4.240603e-01 2.981311e-01 1.719089e+00
<GCONST> 1.841571e+02
<STATE> 4
<MEAN> 48
 2.917626e+01 -3.854141e+01 -4.190712e+01 5.426006e+00 -2.436070e+01 -3.501424e+01 -1.340180e+01 -1.117870e+01 -1.672051e+01 -5.880221e+00 1.829637e+00 3.118079e+00 3.983723e+00 8.726974e+00 1.097795e+01 9.876646e+01 1.041688e-01 -4.607884e-02 -2.624988e-02 -1.816752e-02 -3.612641e-02 5.906028e-02 6.331597e-02 -3.373506e-03 -2.212488e-02 -3.415110e-03 -1.060488e-02 2.345127e-02 2.861162e-03 2.014454e-03 1.492373e-03 9.124757e-02 -9.682202e-03 -8.340967e-03 -1.639307e-02 -1.591571e-02 -1.706772e-02 -1.046200e-02 2.818626e-02 2.257001e-02 -3.314658e-04 1.095341e-04 -1.827730e-03 1.815092e-02 1.385178e-02 1.447681e-02 1.367131e-02 -8.100128e-03
<VARIANCE> 48
 2.233184e+02 2.783552e+02 1.254371e+02 1.649079e+02 9.630840e+01 8.472457e+01 2.164875e+02 1.822621e+02 8.358015e+01 6.907524e+01 4.459984e+01 4.153708e+01 3.240025e+01 2.368097e+01 1.793617e+01 4.786710e+02 9.549366e+00 1.202730e+01 5.602659e+00 5.354746e+00 4.873569e+00 4.876786e+00 7.670175e+00 6.958737e+00 5.186863e+00 4.758516e+00 3.800619e+00 3.616135e+00 2.616162e+00 2.142874e+00 1.530334e+00 1.747893e+01 1.177869e+00 1.739348e+00 8.255523e-01 8.470883e-01 8.524553e-01 8.598649e-01 1.213970e+00 1.121052e+00 9.313048e-01 8.989307e-01 7.464564e-01 7.238554e-01 5.082979e-01 4.240603e-01 2.981311e-01 1.719089e+00
<GCONST> 1.841571e+02
<STATE> 5
<MEAN> 48
 2.917626e+01 -3.854141e+01 -4.190712e+01 5.426006e+00 -2.436070e+01 -3.501424e+01 -1.340180e+01 -1.117870e+01 -1.672051e+01 -5.880221e+00 1.829637e+00 3.118079e+00 3.983723e+00 8.726974e+00 1.097795e+01 9.876646e+01 1.041688e-01 -4.607884e-02 -2.624988e-02 -1.816752e-02 -3.612641e-02 5.906028e-02 6.331597e-02 -3.373506e-03 -2.212488e-02 -3.415110e-03 -1.060488e-02 2.345127e-02 2.861162e-03 2.014454e-03 1.492373e-03 9.124757e-02 -9.682202e-03 -8.340967e-03 -1.639307e-02 -1.591571e-02 -1.706772e-02 -1.046200e-02 2.818626e-02 2.257001e-02 -3.314658e-04 1.095341e-04 -1.827730e-03 1.815092e-02 1.385178e-02 1.447681e-02 1.367131e-02 -8.100128e-03
<VARIANCE> 48
 2.233184e+02 2.783552e+02 1.254371e+02 1.649079e+02 9.630840e+01 8.472457e+01 2.164875e+02 1.822621e+02 8.358015e+01 6.907524e+01 4.459984e+01 4.153708e+01 3.240025e+01 2.368097e+01 1.793617e+01 4.786710e+02 9.549366e+00 1.202730e+01 5.602659e+00 5.354746e+00 4.873569e+00 4.876786e+00 7.670175e+00 6.958737e+00 5.186863e+00 4.758516e+00 3.800619e+00 3.616135e+00 2.616162e+00 2.142874e+00 1.530334e+00 1.747893e+01 1.177869e+00 1.739348e+00 8.255523e-01 8.470883e-01 8.524553e-01 8.598649e-01 1.213970e+00 1.121052e+00 9.313048e-01 8.989307e-01 7.464564e-01 7.238554e-01 5.082979e-01 4.240603e-01 2.981311e-01 1.719089e+00
<GCONST> 1.841571e+02
<TRANSP> 6
 0.000000e+00 1.000000e+00 0.000000e+00 0.000000e+00 0.000000e+00 0.000000e+00
 0.000000e+00 6.000000e-01 4.000000e-01 0.000000e+00 0.000000e+00 0.000000e+00
 0.000000e+00 0.000000e+00 6.000000e-01 4.000000e-01 0.000000e+00 0.000000e+00
 0.000000e+00 0.000000e+00 0.000000e+00 7.000000e-01 3.000000e-01 0.000000e+00
 0.000000e+00 0.000000e+00 0.000000e+00 0.000000e+00 7.000000e-01 3.000000e-01
 0.000000e+00 0.000000e+00 0.000000e+00 0.000000e+00 0.000000e+00 0.000000e+00
<ENDHMM>
~h "b"
<BEGINHMM>
<NUMSTATES> 6
<STATE> 2
<MEAN> 48
 2.932975e+01 -3.914888e+01 -4.231756e+01 5.303985e+00 -2.498622e+01 -3.546277e+01 -1.313538e+01 -1.107477e+01 -1.693995e+01 -5.968748e+00 1.593062e+00 2.860301e+00 3.697567e+00 8.343214e+00 1.069434e+01 9.917769e+01 1.035733e-01 -4.730086e-02 -2.293202e-02 -1.735750e-02 -3.926083e-02 5.529758e-02 5.104072e-02 -5.304020e-03 1.193498e-04 1.724515e-02 2.187415e-03 3.064295e-02 -4.456561e-03 3.067859e-03 6.792095e-03 9.239747e-02 -1.194635e-02 8.149008e-03 -1.244664e-02 -2.829825e-02 -1.702613e-02 -1.141388e-02 1.361788e-02 1.367368e-02 -1.098952e-02 -9.837882e-03 -4.293523e-03 2.033289e-02 1.837491e-02 1.751623e-02 1.342705e-02 -1.411164e-02
<VARIANCE> 48
 2.156271e+02 2.603027e+02 1.168157e+02 1.716959e+02 9.077176e+01 8.655019e+01 2.046275e+02 1.785044e+02 8.611819e+01 6.996640e+01 4.566561e+01 4.051889e+01 3.411536e+01 2.504030e+01 1.886452e+01 4.663735e+02 9.250329e+00 1.139866e+01 4.910706e+00 5.161350e+00 4.771814e+00 4.899696e+00 7.095730e+00 6.761796e+00 5.293088e+00 4.607204e+00 3.869055e+00 3.509531e+00 2.630474e+00 2.118596e+00 1.568266e+00 1.730915e+01 1.104458e+00 1.611800e+00 7.272902e-01 8.107935e-01 8.555524e-01 8.583755e-01 1.117252e+00 1.115808e+00 9.375296e-01 8.648067e-01 7.674457e-01 7.109547e-01 5.160632e-01 4.200751e-01 3.069327e-01 1.684835e+00
<GCONST> 1.832855e+02
<STATE> 3
<MEAN> 48
 2.932975e+01 -3.914888e+01 -4.231756e+01 5.303985e+00 -2.498622e+01 -3.546277e+01 -1.313538e+01 -1.107477e+01 -1.693995e+01 -5.968748e+00 1.593062e+00 2.860301e+00 3.697567e+00 8.343214e+00 1.069434e+01 9.917769e+01 1.035733e-01 -4.730086e-02 -2.293202e-02 -1.735750e-02 -3.926083e-02 5.529758e-02 5.104072e-02 -5.304020e-03 1.193498e-04 1.724515e-02 2.187415e-03 3.064295e-02 -4.456561e-03 3.067859e-03 6.792095e-03 9.239747e-02 -1.194635e-02 8.149008e-03 -1.244664e-02 -2.829825e-02 -1.702613e-02 -1.141388e-02 1.361788e-02 1.367368e-02 -1.098952e-02 -9.837882e-03 -4.293523e-03 2.033289e-02 1.837491e-02 1.751623e-02 1.342705e-02 -1.411164e-02
<VARIANCE> 48
 2.156271e+02 2.603027e+02 1.168157e+02 1.716959e+02 9.077176e+01 8.655019e+01 2.046275e+02 1.785044e+02 8.611819e+01 6.996640e+01 4.566561e+01 4.051889e+01 3.411536e+01 2.504030e+01 1.886452e+01 4.663735e+02 9.250329e+00 1.139866e+01 4.910706e+00 5.161350e+00 4.771814e+00 4.899696e+00 7.095730e+00 6.761796e+00 5.293088e+00 4.607204e+00 3.869055e+00 3.509531e+00 2.630474e+00 2.118596e+00 1.568266e+00 1.730915e+01 1.104458e+00 1.611800e+00 7.272902e-01 8.107935e-01 8.555524e-01 8.583755e-01 1.117252e+00 1.115808e+00 9.375296e-01 8.648067e-01 7.674457e-01 7.109547e-01 5.160632e-01 4.200751e-01 3.069327e-01 1.684835e+00
<GCONST> 1.832855e+02
<STATE> 4
<MEAN> 48
 2.932975e+01 -3.914888e+01 -4.231756e+01 5.303985e+00 -2.498622e+01 -3.546277e+01 -1.313538e+01 -1.107477e+01 -1.693995e+01 -5.968748e+00 1.593062e+00 2.860301e+00 3.697567e+00 8.343214e+00 1.069434e+01 9.917769e+01 1.035733e-01 -4.730086e-02 -2.293202e-02 -1.735750e-02 -3.926083e-02 5.529758e-02 5.104072e-02 -5.304020e-03 1.193498e-04 1.724515e-02 2.187415e-03 3.064295e-02 -4.456561e-03 3.067859e-03 6.792095e-03 9.239747e-02 -1.194635e-02 8.149008e-03 -1.244664e-02 -2.829825e-02 -1.702613e-02 -1.141388e-02 1.361788e-02 1.367368e-02 -1.098952e-02 -9.837882e-03 -4.293523e-03 2.033289e-02 1.837491e-02 1.751623e-02 1.342705e-02 -1.411164e-02
<VARIANCE> 48
 2.156271e+02 2.603027e+02 1.168157e+02 1.716959e+02 9.077176e+01 8.655019e+01 2.046275e+02 1.785044e+02 8.611819e+01 6.996640e+01 4.566561e+01 4.051889e+01 3.411536e+01 2.504030e+01 1.886452e+01 4.663735e+02 9.250329e+00 1.139866e+01 4.910706e+00 5.161350e+00 4.771814e+00 4.899696e+00 7.095730e+00 6.761796e+00 5.293088e+00 4.607204e+00 3.869055e+00 3.509531e+00 2.630474e+00 2.118596e+00 1.568266e+00 1.730915e+01 1.104458e+00 1.611800e+00 7.272902e-01 8.107935e-01 8.555524e-01 8.583755e-01 1.117252e+00 1.115808e+00 9.375296e-01 8.648067e-01 7.674457e-01 7.109547e-01 5.160632e-01 4.200751e-01 3.069327e-01 1.684835e+00
<GCONST> 1.832855e+02
<STATE> 5
<MEAN> 48
 2.932975e+01 -3.914888e+01 -4.231756e+01 5.303985e+00 -2.498622e+01 -3.546277e+01 -1.313538e+01 -1.107477e+01 -1.693995e+01 -5.968748e+00 1.593062e+00 2.860301e+00 3.697567e+00 8.343214e+00 1.069434e+01 9.917769e+01 1.035733e-01 -4.730086e-02 -2.293202e-02 -1.735750e-02 -3.926083e-02 5.529758e-02 5.104072e-02 -5.304020e-03 1.193498e-04 1.724515e-02 2.187415e-03 3.064295e-02 -4.456561e-03 3.067859e-03 6.792095e-03 9.239747e-02 -1.194635e-02 8.149008e-03 -1.244664e-02 -2.829825e-02 -1.702613e-02 -1.141388e-02 1.361788e-02 1.367368e-02 -1.098952e-02 -9.837882e-03 -4.293523e-03 2.033289e-02 1.837491e-02 1.751623e-02 1.342705e-02 -1.411164e-02
<VARIANCE> 48
 2.156271e+02 2.603027e+02 1.168157e+02 1.716959e+02 9.077176e+01 8.655019e+01 2.046275e+02 1.785044e+02 8.611819e+01 6.996640e+01 4.566561e+01 4.051889e+01 3.411536e+01 2.504030e+01 1.886452e+01 4.663735e+02 9.250329e+00 1.139866e+01 4.910706e+00 5.161350e+00 4.771814e+00 4.899696e+00 7.095730e+00 6.761796e+00 5.293088e+00 4.607204e+00 3.869055e+00 3.509531e+00 2.630474e+00 2.118596e+00 1.568266e+00 1.730915e+01 1.104458e+00 1.611800e+00 7.272902e-01 8.107935e-01 8.555524e-01 8.583755e-01 1.117252e+00 1.115808e+00 9.375296e-01 8.648067e-01 7.674457e-01 7.109547e-01 5.160632e-01 4.200751e-01 3.069327e-01 1.684835e+00
<GCONST> 1.832855e+02
<TRANSP> 6
 0.000000e+00 1.000000e+00 0.000000e+00 0.000000e+00 0.000000e+00 0.000000e+00
 0.000000e+00 6.000000e-01 4.000000e-01 0.000000e+00 0.000000e+00 0.000000e+00
 0.000000e+00 0.000000e+00 6.000000e-01 4.000000e-01 0.000000e+00 0.000000e+00
 0.000000e+00 0.000000e+00 0.000000e+00 7.000000e-01 3.000000e-01 0.000000e+00
 0.000000e+00 0.000000e+00 0.000000e+00 0.000000e+00 7.000000e-01 3.000000e-01
 0.000000e+00 0.000000e+00 0.000000e+00 0.000000e+00 0.000000e+00 0.000000e+00
<ENDHMM>
~h "a"
<BEGINHMM>
<NUMSTATES> 6
<STATE> 2
<MEAN> 48
 2.932975e+01 -3.914888e+01 -4.231756e+01 5.303985e+00 -2.498622e+01 -3.546277e+01 -1.313538e+01 -1.107477e+01 -1.693995e+01 -5.968748e+00 1.593062e+00 2.860301e+00 3.697567e+00 8.343214e+00 1.069434e+01 9.917769e+01 1.035733e-01 -4.730086e-02 -2.293202e-02 -1.735750e-02 -3.926083e-02 5.529758e-02 5.104072e-02 -5.304020e-03 1.193498e-04 1.724515e-02 2.187415e-03 3.064295e-02 -4.456561e-03 3.067859e-03 6.792095e-03 9.239747e-02 -1.194635e-02 8.149008e-03 -1.244664e-02 -2.829825e-02 -1.702613e-02 -1.141388e-02 1.361788e-02 1.367368e-02 -1.098952e-02 -9.837882e-03 -4.293523e-03 2.033289e-02 1.837491e-02 1.751623e-02 1.342705e-02 -1.411164e-02
<VARIANCE> 48
 2.156271e+02 2.603027e+02 1.168157e+02 1.716959e+02 9.077176e+01 8.655019e+01 2.046275e+02 1.785044e+02 8.611819e+01 6.996640e+01 4.566561e+01 4.051889e+01 3.411536e+01 2.504030e+01 1.886452e+01 4.663735e+02 9.250329e+00 1.139866e+01 4.910706e+00 5.161350e+00 4.771814e+00 4.899696e+00 7.095730e+00 6.761796e+00 5.293088e+00 4.607204e+00 3.869055e+00 3.509531e+00 2.630474e+00 2.118596e+00 1.568266e+00 1.730915e+01 1.104458e+00 1.611800e+00 7.272902e-01 8.107935e-01 8.555524e-01 8.583755e-01 1.117252e+00 1.115808e+00 9.375296e-01 8.648067e-01 7.674457e-01 7.109547e-01 5.160632e-01 4.200751e-01 3.069327e-01 1.684835e+00
<GCONST> 1.832855e+02
<STATE> 3
<MEAN> 48
 2.932975e+01 -3.914888e+01 -4.231756e+01 5.303985e+00 -2.498622e+01 -3.546277e+01 -1.313538e+01 -1.107477e+01 -1.693995e+01 -5.968748e+00 1.593062e+00 2.860301e+00 3.697567e+00 8.343214e+00 1.069434e+01 9.917769e+01 1.035733e-01 -4.730086e-02 -2.293202e-02 -1.735750e-02 -3.926083e-02 5.529758e-02 5.104072e-02 -5.304020e-03 1.193498e-04 1.724515e-02 2.187415e-03 3.064295e-02 -4.456561e-03 3.067859e-03 6.792095e-03 9.239747e-02 -1.194635e-02 8.149008e-03 -1.244664e-02 -2.829825e-02 -1.702613e-02 -1.141388e-02 1.361788e-02 1.367368e-02 -1.098952e-02 -9.837882e-03 -4.293523e-03 2.033289e-02 1.837491e-02 1.751623e-02 1.342705e-02 -1.411164e-02
<VARIANCE> 48
 2.156271e+02 2.603027e+02 1.168157e+02 1.716959e+02 9.077176e+01 8.655019e+01 2.046275e+02 1.785044e+02 8.611819e+01 6.996640e+01 4.566561e+01 4.051889e+01 3.411536e+01 2.504030e+01 1.886452e+01 4.663735e+02 9.250329e+00 1.139866e+01 4.910706e+00 5.161350e+00 4.771814e+00 4.899696e+00 7.095730e+00 6.761796e+00 5.293088e+00 4.607204e+00 3.869055e+00 3.509531e+00 2.630474e+00 2.118596e+00 1.568266e+00 1.730915e+01 1.104458e+00 1.611800e+00 7.272902e-01 8.107935e-01 8.555524e-01 8.583755e-01 1.117252e+00 1.115808e+00 9.375296e-01 8.648067e-01 7.674457e-01 7.109547e-01 5.160632e-01 4.200751e-01 3.069327e-01 1.684835e+00
<GCONST> 1.832855e+02
<STATE> 4
<MEAN> 48
 2.932975e+01 -3.914888e+01 -4.231756e+01 5.303985e+00 -2.498622e+01 -3.546277e+01 -1.313538e+01 -1.107477e+01 -1.693995e+01 -5.968748e+00 1.593062e+00 2.860301e+00 3.697567e+00 8.343214e+00 1.069434e+01 9.917769e+01 1.035733e-01 -4.730086e-02 -2.293202e-02 -1.735750e-02 -3.926083e-02 5.529758e-02 5.104072e-02 -5.304020e-03 1.193498e-04 1.724515e-02 2.187415e-03 3.064295e-02 -4.456561e-03 3.067859e-03 6.792095e-03 9.239747e-02 -1.194635e-02 8.149008e-03 -1.244664e-02 -2.829825e-02 -1.702613e-02 -1.141388e-02 1.361788e-02 1.367368e-02 -1.098952e-02 -9.837882e-03 -4.293523e-03 2.033289e-02 1.837491e-02 1.751623e-02 1.342705e-02 -1.411164e-02
<VARIANCE> 48
 2.156271e+02 2.603027e+02 1.168157e+02 1.716959e+02 9.077176e+01 8.655019e+01 2.046275e+02 1.785044e+02 8.611819e+01 6.996640e+01 4.566561e+01 4.051889e+01 3.411536e+01 2.504030e+01 1.886452e+01 4.663735e+02 9.250329e+00 1.139866e+01 4.910706e+00 5.161350e+00 4.771814e+00 4.899696e+00 7.095730e+00 6.761796e+00 5.293088e+00 4.607204e+00 3.869055e+00 3.509531e+00 2.630474e+00 2.118596e+00 1.568266e+00 1.730915e+01 1.104458e+00 1.611800e+00 7.272902e-01 8.107935e-01 8.555524e-01 8.583755e-01 1.117252e+00 1.115808e+00 9.375296e-01 8.648067e-01 7.674457e-01 7.109547e-01 5.160632e-01 4.200751e-01 3.069327e-01 1.684835e+00
<GCONST> 1.832855e+02
<STATE> 5
<MEAN> 48
 2.932975e+01 -3.914888e+01 -4.231756e+01 5.303985e+00 -2.498622e+01 -3.546277e+01 -1.313538e+01 -1.107477e+01 -1.693995e+01 -5.968748e+00 1.593062e+00 2.860301e+00 3.697567e+00 8.343214e+00 1.069434e+01 9.917769e+01 1.035733e-01 -4.730086e-02 -2.293202e-02 -1.735750e-02 -3.926083e-02 5.529758e-02 5.104072e-02 -5.304020e-03 1.193498e-04 1.724515e-02 2.187415e-03 3.064295e-02 -4.456561e-03 3.067859e-03 6.792095e-03 9.239747e-02 -1.194635e-02 8.149008e-03 -1.244664e-02 -2.829825e-02 -1.702613e-02 -1.141388e-02 1.361788e-02 1.367368e-02 -1.098952e-02 -9.837882e-03 -4.293523e-03 2.033289e-02 1.837491e-02 1.751623e-02 1.342705e-02 -1.411164e-02
<VARIANCE> 48
 2.156271e+02 2.603027e+02 1.168157e+02 1.716959e+02 9.077176e+01 8.655019e+01 2.046275e+02 1.785044e+02 8.611819e+01 6.996640e+01 4.566561e+01 4.051889e+01 3.411536e+01 2.504030e+01 1.886452e+01 4.663735e+02 9.250329e+00 1.139866e+01 4.910706e+00 5.161350e+00 4.771814e+00 4.899696e+00 7.095730e+00 6.761796e+00 5.293088e+00 4.607204e+00 3.869055e+00 3.509531e+00 2.630474e+00 2.118596e+00 1.568266e+00 1.730915e+01 1.104458e+00 1.611800e+00 7.272902e-01 8.107935e-01 8.555524e-01 8.583755e-01 1.117252e+00 1.115808e+00 9.375296e-01 8.648067e-01 7.674457e-01 7.109547e-01 5.160632e-01 4.200751e-01 3.069327e-01 1.684835e+00
<GCONST> 1.832855e+02
<TRANSP> 6
 0.000000e+00 1.000000e+00 0.000000e+00 0.000000e+00 0.000000e+00 0.000000e+00
 0.000000e+00 6.000000e-01 4.000000e-01 0.000000e+00 0.000000e+00 0.000000e+00
 0.000000e+00 0.000000e+00 6.000000e-01 4.000000e-01 0.000000e+00 0.000000e+00
 0.000000e+00 0.000000e+00 0.000000e+00 7.000000e-01 3.000000e-01 0.000000e+00
 0.000000e+00 0.000000e+00 0.000000e+00 0.000000e+00 7.000000e-01 3.000000e-01
 0.000000e+00 0.000000e+00 0.000000e+00 0.000000e+00 0.000000e+00 0.000000e+00
<ENDHMM>
~h "e"
<BEGINHMM>
<NUMSTATES> 6
<STATE> 2
<MEAN> 48
 2.932975e+01 -3.914888e+01 -4.231756e+01 5.303985e+00 -2.498622e+01 -3.546277e+01 -1.313538e+01 -1.107477e+01 -1.693995e+01 -5.968748e+00 1.593062e+00 2.860301e+00 3.697567e+00 8.343214e+00 1.069434e+01 9.917769e+01 1.035733e-01 -4.730086e-02 -2.293202e-02 -1.735750e-02 -3.926083e-02 5.529758e-02 5.104072e-02 -5.304020e-03 1.193498e-04 1.724515e-02 2.187415e-03 3.064295e-02 -4.456561e-03 3.067859e-03 6.792095e-03 9.239747e-02 -1.194635e-02 8.149008e-03 -1.244664e-02 -2.829825e-02 -1.702613e-02 -1.141388e-02 1.361788e-02 1.367368e-02 -1.098952e-02 -9.837882e-03 -4.293523e-03 2.033289e-02 1.837491e-02 1.751623e-02 1.342705e-02 -1.411164e-02
<VARIANCE> 48
 2.156271e+02 2.603027e+02 1.168157e+02 1.716959e+02 9.077176e+01 8.655019e+01 2.046275e+02 1.785044e+02 8.611819e+01 6.996640e+01 4.566561e+01 4.051889e+01 3.411536e+01 2.504030e+01 1.886452e+01 4.663735e+02 9.250329e+00 1.139866e+01 4.910706e+00 5.161350e+00 4.771814e+00 4.899696e+00 7.095730e+00 6.761796e+00 5.293088e+00 4.607204e+00 3.869055e+00 3.509531e+00 2.630474e+00 2.118596e+00 1.568266e+00 1.730915e+01 1.104458e+00 1.611800e+00 7.272902e-01 8.107935e-01 8.555524e-01 8.583755e-01 1.117252e+00 1.115808e+00 9.375296e-01 8.648067e-01 7.674457e-01 7.109547e-01 5.160632e-01 4.200751e-01 3.069327e-01 1.684835e+00
<GCONST> 1.832855e+02
<STATE> 3
<MEAN> 48
 2.932975e+01 -3.914888e+01 -4.231756e+01 5.303985e+00 -2.498622e+01 -3.546277e+01 -1.313538e+01 -1.107477e+01 -1.693995e+01 -5.968748e+00 1.593062e+00 2.860301e+00 3.697567e+00 8.343214e+00 1.069434e+01 9.917769e+01 1.035733e-01 -4.730086e-02 -2.293202e-02 -1.735750e-02 -3.926083e-02 5.529758e-02 5.104072e-02 -5.304020e-03 1.193498e-04 1.724515e-02 2.187415e-03 3.064295e-02 -4.456561e-03 3.067859e-03 6.792095e-03 9.239747e-02 -1.194635e-02 8.149008e-03 -1.244664e-02 -2.829825e-02 -1.702613e-02 -1.141388e-02 1.361788e-02 1.367368e-02 -1.098952e-02 -9.837882e-03 -4.293523e-03 2.033289e-02 1.837491e-02 1.751623e-02 1.342705e-02 -1.411164e-02
<VARIANCE> 48
 2.156271e+02 2.603027e+02 1.168157e+02 1.716959e+02 9.077176e+01 8.655019e+01 2.046275e+02 1.785044e+02 8.611819e+01 6.996640e+01 4.566561e+01 4.051889e+01 3.411536e+01 2.504030e+01 1.886452e+01 4.663735e+02 9.250329e+00 1.139866e+01 4.910706e+00 5.161350e+00 4.771814e+00 4.899696e+00 7.095730e+00 6.761796e+00 5.293088e+00 4.607204e+00 3.869055e+00 3.509531e+00 2.630474e+00 2.118596e+00 1.568266e+00 1.730915e+01 1.104458e+00 1.611800e+00 7.272902e-01 8.107935e-01 8.555524e-01 8.583755e-01 1.117252e+00 1.115808e+00 9.375296e-01 8.648067e-01 7.674457e-01 7.109547e-01 5.160632e-01 4.200751e-01 3.069327e-01 1.684835e+00
<GCONST> 1.832855e+02
<STATE> 4
<MEAN> 48
 2.932975e+01 -3.914888e+01 -4.231756e+01 5.303985e+00 -2.498622e+01 -3.546277e+01 -1.313538e+01 -1.107477e+01 -1.693995e+01 -5.968748e+00 1.593062e+00 2.860301e+00 3.697567e+00 8.343214e+00 1.069434e+01 9.917769e+01 1.035733e-01 -4.730086e-02 -2.293202e-02 -1.735750e-02 -3.926083e-02 5.529758e-02 5.104072e-02 -5.304020e-03 1.193498e-04 1.724515e-02 2.187415e-03 3.064295e-02 -4.456561e-03 3.067859e-03 6.792095e-03 9.239747e-02 -1.194635e-02 8.149008e-03 -1.244664e-02 -2.829825e-02 -1.702613e-02 -1.141388e-02 1.361788e-02 1.367368e-02 -1.098952e-02 -9.837882e-03 -4.293523e-03 2.033289e-02 1.837491e-02 1.751623e-02 1.342705e-02 -1.411164e-02
<VARIANCE> 48
 2.156271e+02 2.603027e+02 1.168157e+02 1.716959e+02 9.077176e+01 8.655019e+01 2.046275e+02 1.785044e+02 8.611819e+01 6.996640e+01 4.566561e+01 4.051889e+01 3.411536e+01 2.504030e+01 1.886452e+01 4.663735e+02 9.250329e+00 1.139866e+01 4.910706e+00 5.161350e+00 4.771814e+00 4.899696e+00 7.095730e+00 6.761796e+00 5.293088e+00 4.607204e+00 3.869055e+00 3.509531e+00 2.630474e+00 2.118596e+00 1.568266e+00 1.730915e+01 1.104458e+00 1.611800e+00 7.272902e-01 8.107935e-01 8.555524e-01 8.583755e-01 1.117252e+00 1.115808e+00 9.375296e-01 8.648067e-01 7.674457e-01 7.109547e-01 5.160632e-01 4.200751e-01 3.069327e-01 1.684835e+00
<GCONST> 1.832855e+02
<STATE> 5
<MEAN> 48
 2.932975e+01 -3.914888e+01 -4.231756e+01 5.303985e+00 -2.498622e+01 -3.546277e+01 -1.313538e+01 -1.107477e+01 -1.693995e+01 -5.968748e+00 1.593062e+00 2.860301e+00 3.697567e+00 8.343214e+00 1.069434e+01 9.917769e+01 1.035733e-01 -4.730086e-02 -2.293202e-02 -1.735750e-02 -3.926083e-02 5.529758e-02 5.104072e-02 -5.304020e-03 1.193498e-04 1.724515e-02 2.187415e-03 3.064295e-02 -4.456561e-03 3.067859e-03 6.792095e-03 9.239747e-02 -1.194635e-02 8.149008e-03 -1.244664e-02 -2.829825e-02 -1.702613e-02 -1.141388e-02 1.361788e-02 1.367368e-02 -1.098952e-02 -9.837882e-03 -4.293523e-03 2.033289e-02 1.837491e-02 1.751623e-02 1.342705e-02 -1.411164e-02
<VARIANCE> 48
 2.156271e+02 2.603027e+02 1.168157e+02 1.716959e+02 9.077176e+01 8.655019e+01 2.046275e+02 1.785044e+02 8.611819e+01 6.996640e+01 4.566561e+01 4.051889e+01 3.411536e+01 2.504030e+01 1.886452e+01 4.663735e+02 9.250329e+00 1.139866e+01 4.910706e+00 5.161350e+00 4.771814e+00 4.899696e+00 7.095730e+00 6.761796e+00 5.293088e+00 4.607204e+00 3.869055e+00 3.509531e+00 2.630474e+00 2.118596e+00 1.568266e+00 1.730915e+01 1.104458e+00 1.611800e+00 7.272902e-01 8.107935e-01 8.555524e-01 8.583755e-01 1.117252e+00 1.115808e+00 9.375296e-01 8.648067e-01 7.674457e-01 7.109547e-01 5.160632e-01 4.200751e-01 3.069327e-01 1.684835e+00
<GCONST> 1.832855e+02
<TRANSP> 6
 0.000000e+00 1.000000e+00 0.000000e+00 0.000000e+00 0.000000e+00 0.000000e+00
 0.000000e+00 6.000000e-01 4.000000e-01 0.000000e+00 0.000000e+00 0.000000e+00
 0.000000e+00 0.000000e+00 6.000000e-01 4.000000e-01 0.000000e+00 0.000000e+00
 0.000000e+00 0.000000e+00 0.000000e+00 7.000000e-01 3.000000e-01 0.000000e+00
 0.000000e+00 0.000000e+00 0.000000e+00 0.000000e+00 7.000000e-01 3.000000e-01
 0.000000e+00 0.000000e+00 0.000000e+00 0.000000e+00 0.000000e+00 0.000000e+00
<ENDHMM>
~h "silence"
<BEGINHMM>
<NUMSTATES> 6
<STATE> 2
<MEAN> 48
 2.932975e+01 -3.914888e+01 -4.231756e+01 5.303985e+00 -2.498622e+01 -3.546277e+01 -1.313538e+01 -1.107477e+01 -1.693995e+01 -5.968748e+00 1.593062e+00 2.860301e+00 3.697567e+00 8.343214e+00 1.069434e+01 9.917769e+01 1.035733e-01 -4.730086e-02 -2.293202e-02 -1.735750e-02 -3.926083e-02 5.529758e-02 5.104072e-02 -5.304020e-03 1.193498e-04 1.724515e-02 2.187415e-03 3.064295e-02 -4.456561e-03 3.067859e-03 6.792095e-03 9.239747e-02 -1.194635e-02 8.149008e-03 -1.244664e-02 -2.829825e-02 -1.702613e-02 -1.141388e-02 1.361788e-02 1.367368e-02 -1.098952e-02 -9.837882e-03 -4.293523e-03 2.033289e-02 1.837491e-02 1.751623e-02 1.342705e-02 -1.411164e-02
<VARIANCE> 48
 2.156271e+02 2.603027e+02 1.168157e+02 1.716959e+02 9.077176e+01 8.655019e+01 2.046275e+02 1.785044e+02 8.611819e+01 6.996640e+01 4.566561e+01 4.051889e+01 3.411536e+01 2.504030e+01 1.886452e+01 4.663735e+02 9.250329e+00 1.139866e+01 4.910706e+00 5.161350e+00 4.771814e+00 4.899696e+00 7.095730e+00 6.761796e+00 5.293088e+00 4.607204e+00 3.869055e+00 3.509531e+00 2.630474e+00 2.118596e+00 1.568266e+00 1.730915e+01 1.104458e+00 1.611800e+00 7.272902e-01 8.107935e-01 8.555524e-01 8.583755e-01 1.117252e+00 1.115808e+00 9.375296e-01 8.648067e-01 7.674457e-01 7.109547e-01 5.160632e-01 4.200751e-01 3.069327e-01 1.684835e+00
<GCONST> 1.832855e+02
<STATE> 3
<MEAN> 48
 2.932975e+01 -3.914888e+01 -4.231756e+01 5.303985e+00 -2.498622e+01 -3.546277e+01 -1.313538e+01 -1.107477e+01 -1.693995e+01 -5.968748e+00 1.593062e+00 2.860301e+00 3.697567e+00 8.343214e+00 1.069434e+01 9.917769e+01 1.035733e-01 -4.730086e-02 -2.293202e-02 -1.735750e-02 -3.926083e-02 5.529758e-02 5.104072e-02 -5.304020e-03 1.193498e-04 1.724515e-02 2.187415e-03 3.064295e-02 -4.456561e-03 3.067859e-03 6.792095e-03 9.239747e-02 -1.194635e-02 8.149008e-03 -1.244664e-02 -2.829825e-02 -1.702613e-02 -1.141388e-02 1.361788e-02 1.367368e-02 -1.098952e-02 -9.837882e-03 -4.293523e-03 2.033289e-02 1.837491e-02 1.751623e-02 1.342705e-02 -1.411164e-02
<VARIANCE> 48
 2.156271e+02 2.603027e+02 1.168157e+02 1.716959e+02 9.077176e+01 8.655019e+01 2.046275e+02 1.785044e+02 8.611819e+01 6.996640e+01 4.566561e+01 4.051889e+01 3.411536e+01 2.504030e+01 1.886452e+01 4.663735e+02 9.250329e+00 1.139866e+01 4.910706e+00 5.161350e+00 4.771814e+00 4.899696e+00 7.095730e+00 6.761796e+00 5.293088e+00 4.607204e+00 3.869055e+00 3.509531e+00 2.630474e+00 2.118596e+00 1.568266e+00 1.730915e+01 1.104458e+00 1.611800e+00 7.272902e-01 8.107935e-01 8.555524e-01 8.583755e-01 1.117252e+00 1.115808e+00 9.375296e-01 8.648067e-01 7.674457e-01 7.109547e-01 5.160632e-01 4.200751e-01 3.069327e-01 1.684835e+00
<GCONST> 1.832855e+02
<STATE> 4
<MEAN> 48
 2.932975e+01 -3.914888e+01 -4.231756e+01 5.303985e+00 -2.498622e+01 -3.546277e+01 -1.313538e+01 -1.107477e+01 -1.693995e+01 -5.968748e+00 1.593062e+00 2.860301e+00 3.697567e+00 8.343214e+00 1.069434e+01 9.917769e+01 1.035733e-01 -4.730086e-02 -2.293202e-02 -1.735750e-02 -3.926083e-02 5.529758e-02 5.104072e-02 -5.304020e-03 1.193498e-04 1.724515e-02 2.187415e-03 3.064295e-02 -4.456561e-03 3.067859e-03 6.792095e-03 9.239747e-02 -1.194635e-02 8.149008e-03 -1.244664e-02 -2.829825e-02 -1.702613e-02 -1.141388e-02 1.361788e-02 1.367368e-02 -1.098952e-02 -9.837882e-03 -4.293523e-03 2.033289e-02 1.837491e-02 1.751623e-02 1.342705e-02 -1.411164e-02
<VARIANCE> 48
 2.156271e+02 2.603027e+02 1.168157e+02 1.716959e+02 9.077176e+01 8.655019e+01 2.046275e+02 1.785044e+02 8.611819e+01 6.996640e+01 4.566561e+01 4.051889e+01 3.411536e+01 2.504030e+01 1.886452e+01 4.663735e+02 9.250329e+00 1.139866e+01 4.910706e+00 5.161350e+00 4.771814e+00 4.899696e+00 7.095730e+00 6.761796e+00 5.293088e+00 4.607204e+00 3.869055e+00 3.509531e+00 2.630474e+00 2.118596e+00 1.568266e+00 1.730915e+01 1.104458e+00 1.611800e+00 7.272902e-01 8.107935e-01 8.555524e-01 8.583755e-01 1.117252e+00 1.115808e+00 9.375296e-01 8.648067e-01 7.674457e-01 7.109547e-01 5.160632e-01 4.200751e-01 3.069327e-01 1.684835e+00
<GCONST> 1.832855e+02
<STATE> 5
<MEAN> 48
 2.932975e+01 -3.914888e+01 -4.231756e+01 5.303985e+00 -2.498622e+01 -3.546277e+01 -1.313538e+01 -1.107477e+01 -1.693995e+01 -5.968748e+00 1.593062e+00 2.860301e+00 3.697567e+00 8.343214e+00 1.069434e+01 9.917769e+01 1.035733e-01 -4.730086e-02 -2.293202e-02 -1.735750e-02 -3.926083e-02 5.529758e-02 5.104072e-02 -5.304020e-03 1.193498e-04 1.724515e-02 2.187415e-03 3.064295e-02 -4.456561e-03 3.067859e-03 6.792095e-03 9.239747e-02 -1.194635e-02 8.149008e-03 -1.244664e-02 -2.829825e-02 -1.702613e-02 -1.141388e-02 1.361788e-02 1.367368e-02 -1.098952e-02 -9.837882e-03 -4.293523e-03 2.033289e-02 1.837491e-02 1.751623e-02 1.342705e-02 -1.411164e-02
<VARIANCE> 48
 2.156271e+02 2.603027e+02 1.168157e+02 1.716959e+02 9.077176e+01 8.655019e+01 2.046275e+02 1.785044e+02 8.611819e+01 6.996640e+01 4.566561e+01 4.051889e+01 3.411536e+01 2.504030e+01 1.886452e+01 4.663735e+02 9.250329e+00 1.139866e+01 4.910706e+00 5.161350e+00 4.771814e+00 4.899696e+00 7.095730e+00 6.761796e+00 5.293088e+00 4.607204e+00 3.869055e+00 3.509531e+00 2.630474e+00 2.118596e+00 1.568266e+00 1.730915e+01 1.104458e+00 1.611800e+00 7.272902e-01 8.107935e-01 8.555524e-01 8.583755e-01 1.117252e+00 1.115808e+00 9.375296e-01 8.648067e-01 7.674457e-01 7.109547e-01 5.160632e-01 4.200751e-01 3.069327e-01 1.684835e+00
<GCONST> 1.832855e+02
<TRANSP> 6
 0.000000e+00 1.000000e+00 0.000000e+00 0.000000e+00 0.000000e+00 0.000000e+00
 0.000000e+00 6.000000e-01 4.000000e-01 0.000000e+00 0.000000e+00 0.000000e+00
 0.000000e+00 0.000000e+00 6.000000e-01 4.000000e-01 0.000000e+00 0.000000e+00
 0.000000e+00 0.000000e+00 0.000000e+00 7.000000e-01 3.000000e-01 0.000000e+00
 0.000000e+00 0.000000e+00 0.000000e+00 0.000000e+00 7.000000e-01 3.000000e-01
 0.000000e+00 0.000000e+00 0.000000e+00 0.000000e+00 0.000000e+00 0.000000e+00
<ENDHMM>
~h "b"
<BEGINHMM>
<NUMSTATES> 6
<STATE> 2
<MEAN> 48
 2.907808e+01 -3.790450e+01 -4.243517e+01 4.722863e+00 -2.410372e+01 -3.563891e+01 -1.439083e+01 -1.133696e+01 -1.714874e+01 -6.583718e+00 1.386958e+00 2.657834e+00 3.408110e+00 8.208614e+00 1.054466e+01 9.860715e+01 7.551520e-02 -3.637973e-02 -1.726437e-02 -7.857329e-03 -2.077739e-02 5.363375e-02 5.253289e-02 4.269507e-03 -7.487345e-03 1.535690e-02 7.145356e-03 2.987679e-02 3.467719e-03 5.627040e-03 1.224741e-02 6.806924e-02 6.279886e-03 -1.084325e-02 -1.607320e-02 -1.599006e-02 -2.032987e-02 -1.384281e-02 2.612941e-02 2.102487e-02 -8.899569e-03 -7.133877e-03 -2.445170e-03 1.682570e-02 1.630553e-02 1.309304e-02 1.056053e-02 5.298259e-03
<VARIANCE> 48
 2.275091e+02 2.960554e+02 1.273641e+02 1.713484e+02 8.487164e+01 8.172602e+01 2.106538e+02 1.838362e+02 8.748185e+01 7.149624e+01 4.654792e+01 4.315168e+01 3.425628e+01 2.511363e+01 1.864121e+01 4.966151e+02 9.736325e+00 1.268396e+01 5.559447e+00 5.645520e+00 4.772959e+00 4.779604e+00 7.611808e+00 7.047042e+00 5.284823e+00 4.749461e+00 3.835272e+00 3.601919e+00 2.639225e+00 2.138891e+00 1.542665e+00 1.797558e+01 1.193100e+00 1.799136e+00 8.101725e-01 9.095623e-01 8.366237e-01 8.489808e-01 1.214274e+00 1.148521e+00 9.488497e-01 8.968443e-01 7.603574e-01 7.210187e-01 5.140604e-01 4.201224e-01 3.021102e-01 1.774066e+00
<GCONST> 1.847766e+02
<STATE> 3
<MEAN> 48
 2.907808e+01 -3.790450e+01 -4.243517e+01 4.722863e+00 -2.410372e+01 -3.563891e+01 -1.439083e+01 -1.133696e+01 -1.714874e+01 -6.583718e+00 1.386958e+00 2.657834e+00 3.408110e+00 8.208614e+00 1.054466e+01 9.860715e+01 7.551520e-02 -3.637973e-02 -1.726437e-02 -7.857329e-03 -2.077739e-02 5.363375e-02 5.253289e-02 4.269507e-03 -7.487345e-03 1.535690e-02 7.145356e-03 2.987679e-02 3.467719e-03 5.627040e-03 1.224741e-02 6.806924e-02 6.279886e-03 -1.084325e-02 -1.607320e-02 -1.599006e-02 -2.032987e-02 -1.384281e-02 2.612941e-02 2.102487e-02 -8.899569e-03 -7.133877e-03 -2.445170e-03 1.682570e-02 1.630553e-02 1.309304e-02 1.056053e-02 5.298259e-03
<VARIANCE> 48
 2.275091e+02 2.960554e+02 1.273641e+02 1.713484e+02 8.487164e+01 8.172602e+01 2.106538e+02 1.838362e+02 8.748185e+01 7.149624e+01 4.654792e+01 4.315168e+01 3.425628e+01 2.511363e+01 1.864121e+01 4.966151e+02 9.736325e+00 1.268396e+01 5.559447e+00 5.645520e+00 4.772959e+00 4.779604e+00 7.611808e+00 7.047042e+00 5.284823e+00 4.749461e+00 3.835272e+00 3.601919e+00 2.639225e+00 2.138891e+00 1.542665e+00 1.797558e+01 1.193100e+00 1.799136e+00 8.101725e-01 9.095623e-01 8.366237e-01 8.489808e-01 1.214274e+00 1.148521e+00 9.488497e-01 8.968443e-01 7.603574e-01 7.210187e-01 5.140604e-01 4.201224e-01 3.021102e-01 1.774066e+00
<GCONST> 1.847766e+02
<STATE> 4
<MEAN> 48
 2.907808e+01 -3.790450e+01 -4.243517e+01 4.722863e+00 -2.410372e+01 -3.563891e+01 -1.439083e+01 -1.133696e+01 -1.714874e+01 -6.583718e+00 1.386958e+00 2.657834e+00 3.408110e+00 8.208614e+00 1.054466e+01 9.860715e+01 7.551520e-02 -3.637973e-02 -1.726437e-02 -7.857329e-03 -2.077739e-02 5.363375e-02 5.253289e-02 4.269507e-03 -7.487345e-03 1.535690e-02 7.145356e-03 2.987679e-02 3.467719e-03 5.627040e-03 1.224741e-02 6.806924e-02 6.279886e-03 -1.084325e-02 -1.607320e-02 -1.599006e-02 -2.032987e-02 -1.384281e-02 2.612941e-02 2.102487e-02 -8.899569e-03 -7.133877e-03 -2.445170e-03 1.682570e-02 1.630553e-02 1.309304e-02 1.056053e-02 5.298259e-03
<VARIANCE> 48
 2.275091e+02 2.960554e+02 1.273641e+02 1.713484e+02 8.487164e+01 8.172602e+01 2.106538e+02 1.838362e+02 8.748185e+01 7.149624e+01 4.654792e+01 4.315168e+01 3.425628e+01 2.511363e+01 1.864121e+01 4.966151e+02 9.736325e+00 1.268396e+01 5.559447e+00 5.645520e+00 4.772959e+00 4.779604e+00 7.611808e+00 7.047042e+00 5.284823e+00 4.749461e+00 3.835272e+00 3.601919e+00 2.639225e+00 2.138891e+00 1.542665e+00 1.797558e+01 1.193100e+00 1.799136e+00 8.101725e-01 9.095623e-01 8.366237e-01 8.489808e-01 1.214274e+00 1.148521e+00 9.488497e-01 8.968443e-01 7.603574e-01 7.210187e-01 5.140604e-01 4.201224e-01 3.021102e-01 1.774066e+00
<GCONST> 1.847766e+02
<STATE> 5
<MEAN> 48
 2.907808e+01 -3.790450e+01 -4.243517e+01 4.722863e+00 -2.410372e+01 -3.563891e+01 -1.439083e+01 -1.133696e+01 -1.714874e+01 -6.583718e+00 1.386958e+00 2.657834e+00 3.408110e+00 8.208614e+00 1.054466e+01 9.860715e+01 7.551520e-02 -3.637973e-02 -1.726437e-02 -7.857329e-03 -2.077739e-02 5.363375e-02 5.253289e-02 4.269507e-03 -7.487345e-03 1.535690e-02 7.145356e-03 2.987679e-02 3.467719e-03 5.627040e-03 1.224741e-02 6.806924e-02 6.279886e-03 -1.084325e-02 -1.607320e-02 -1.599006e-02 -2.032987e-02 -1.384281e-02 2.612941e-02 2.102487e-02 -8.899569e-03 -7.133877e-03 -2.445170e-03 1.682570e-02 1.630553e-02 1.309304e-02 1.056053e-02 5.298259e-03
<VARIANCE> 48
 2.275091e+02 2.960554e+02 1.273641e+02 1.713484e+02 8.487164e+01 8.172602e+01 2.106538e+02 1.838362e+02 8.748185e+01 7.149624e+01 4.654792e+01 4.315168e+01 3.425628e+01 2.511363e+01 1.864121e+01 4.966151e+02 9.736325e+00 1.268396e+01 5.559447e+00 5.645520e+00 4.772959e+00 4.779604e+00 7.611808e+00 7.047042e+00 5.284823e+00 4.749461e+00 3.835272e+00 3.601919e+00 2.639225e+00 2.138891e+00 1.542665e+00 1.797558e+01 1.193100e+00 1.799136e+00 8.101725e-01 9.095623e-01 8.366237e-01 8.489808e-01 1.214274e+00 1.148521e+00 9.488497e-01 8.968443e-01 7.603574e-01 7.210187e-01 5.140604e-01 4.201224e-01 3.021102e-01 1.774066e+00
<GCONST> 1.847766e+02
<TRANSP> 6
 0.000000e+00 1.000000e+00 0.000000e+00 0.000000e+00 0.000000e+00 0.000000e+00
 0.000000e+00 6.000000e-01 4.000000e-01 0.000000e+00 0.000000e+00 0.000000e+00
 0.000000e+00 0.000000e+00 6.000000e-01 4.000000e-01 0.000000e+00 0.000000e+00
 0.000000e+00 0.000000e+00 0.000000e+00 7.000000e-01 3.000000e-01 0.000000e+00
 0.000000e+00 0.000000e+00 0.000000e+00 0.000000e+00 7.000000e-01 3.000000e-01
 0.000000e+00 0.000000e+00 0.000000e+00 0.000000e+00 0.000000e+00 0.000000e+00
<ENDHMM>
~h "a"
<BEGINHMM>
<NUMSTATES> 6
<STATE> 2
<MEAN> 48
 2.907808e+01 -3.790450e+01 -4.243517e+01 4.722863e+00 -2.410372e+01 -3.563891e+01 -1.439083e+01 -1.133696e+01 -1.714874e+01 -6.583718e+00 1.386958e+00 2.657834e+00 3.408110e+00 8.208614e+00 1.054466e+01 9.860715e+01 7.551520e-02 -3.637973e-02 -1.726437e-02 -7.857329e-03 -2.077739e-02 5.363375e-02 5.253289e-02 4.269507e-03 -7.487345e-03 1.535690e-02 7.145356e-03 2.987679e-02 3.467719e-03 5.627040e-03 1.224741e-02 6.806924e-02 6.279886e-03 -1.084325e-02 -1.607320e-02 -1.599006e-02 -2.032987e-02 -1.384281e-02 2.612941e-02 2.102487e-02 -8.899569e-03 -7.133877e-03 -2.445170e-03 1.682570e-02 1.630553e-02 1.309304e-02 1.056053e-02 5.298259e-03
<VARIANCE> 48
 2.275091e+02 2.960554e+02 1.273641e+02 1.713484e+02 8.487164e+01 8.172602e+01 2.106538e+02 1.838362e+02 8.748185e+01 7.149624e+01 4.654792e+01 4.315168e+01 3.425628e+01 2.511363e+01 1.864121e+01 4.966151e+02 9.736325e+00 1.268396e+01 5.559447e+00 5.645520e+00 4.772959e+00 4.779604e+00 7.611808e+00 7.047042e+00 5.284823e+00 4.749461e+00 3.835272e+00 3.601919e+00 2.639225e+00 2.138891e+00 1.542665e+00 1.797558e+01 1.193100e+00 1.799136e+00 8.101725e-01 9.095623e-01 8.366237e-01 8.489808e-01 1.214274e+00 1.148521e+00 9.488497e-01 8.968443e-01 7.603574e-01 7.210187e-01 5.140604e-01 4.201224e-01 3.021102e-01 1.774066e+00
<GCONST> 1.847766e+02
<STATE> 3
<MEAN> 48
 2.907808e+01 -3.790450e+01 -4.243517e+01 4.722863e+00 -2.410372e+01 -3.563891e+01 -1.439083e+01 -1.133696e+01 -1.714874e+01 -6.583718e+00 1.386958e+00 2.657834e+00 3.408110e+00 8.208614e+00 1.054466e+01 9.860715e+01 7.551520e-02 -3.637973e-02 -1.726437e-02 -7.857329e-03 -2.077739e-02 5.363375e-02 5.253289e-02 4.269507e-03 -7.487345e-03 1.535690e-02 7.145356e-03 2.987679e-02 3.467719e-03 5.627040e-03 1.224741e-02 6.806924e-02 6.279886e-03 -1.084325e-02 -1.607320e-02 -1.599006e-02 -2.032987e-02 -1.384281e-02 2.612941e-02 2.102487e-02 -8.899569e-03 -7.133877e-03 -2.445170e-03 1.682570e-02 1.630553e-02 1.309304e-02 1.056053e-02 5.298259e-03
<VARIANCE> 48
 2.275091e+02 2.960554e+02 1.273641e+02 1.713484e+02 8.487164e+01 8.172602e+01 2.106538e+02 1.838362e+02 8.748185e+01 7.149624e+01 4.654792e+01 4.315168e+01 3.425628e+01 2.511363e+01 1.864121e+01 4.966151e+02 9.736325e+00 1.268396e+01 5.559447e+00 5.645520e+00 4.772959e+00 4.779604e+00 7.611808e+00 7.047042e+00 5.284823e+00 4.749461e+00 3.835272e+00 3.601919e+00 2.639225e+00 2.138891e+00 1.542665e+00 1.797558e+01 1.193100e+00 1.799136e+00 8.101725e-01 9.095623e-01 8.366237e-01 8.489808e-01 1.214274e+00 1.148521e+00 9.488497e-01 8.968443e-01 7.603574e-01 7.210187e-01 5.140604e-01 4.201224e-01 3.021102e-01 1.774066e+00
<GCONST> 1.847766e+02
<STATE> 4
<MEAN> 48
 2.907808e+01 -3.790450e+01 -4.243517e+01 4.722863e+00 -2.410372e+01 -3.563891e+01 -1.439083e+01 -1.133696e+01 -1.714874e+01 -6.583718e+00 1.386958e+00 2.657834e+00 3.408110e+00 8.208614e+00 1.054466e+01 9.860715e+01 7.551520e-02 -3.637973e-02 -1.726437e-02 -7.857329e-03 -2.077739e-02 5.363375e-02 5.253289e-02 4.269507e-03 -7.487345e-03 1.535690e-02 7.145356e-03 2.987679e-02 3.467719e-03 5.627040e-03 1.224741e-02 6.806924e-02 6.279886e-03 -1.084325e-02 -1.607320e-02 -1.599006e-02 -2.032987e-02 -1.384281e-02 2.612941e-02 2.102487e-02 -8.899569e-03 -7.133877e-03 -2.445170e-03 1.682570e-02 1.630553e-02 1.309304e-02 1.056053e-02 5.298259e-03
<VARIANCE> 48
 2.275091e+02 2.960554e+02 1.273641e+02 1.713484e+02 8.487164e+01 8.172602e+01 2.106538e+02 1.838362e+02 8.748185e+01 7.149624e+01 4.654792e+01 4.315168e+01 3.425628e+01 2.511363e+01 1.864121e+01 4.966151e+02 9.736325e+00 1.268396e+01 5.559447e+00 5.645520e+00 4.772959e+00 4.779604e+00 7.611808e+00 7.047042e+00 5.284823e+00 4.749461e+00 3.835272e+00 3.601919e+00 2.639225e+00 2.138891e+00 1.542665e+00 1.797558e+01 1.193100e+00 1.799136e+00 8.101725e-01 9.095623e-01 8.366237e-01 8.489808e-01 1.214274e+00 1.148521e+00 9.488497e-01 8.968443e-01 7.603574e-01 7.210187e-01 5.140604e-01 4.201224e-01 3.021102e-01 1.774066e+00
<GCONST> 1.847766e+02
<STATE> 5
<MEAN> 48
 2.907808e+01 -3.790450e+01 -4.243517e+01 4.722863e+00 -2.410372e+01 -3.563891e+01 -1.439083e+01 -1.133696e+01 -1.714874e+01 -6.583718e+00 1.386958e+00 2.657834e+00 3.408110e+00 8.208614e+00 1.054466e+01 9.860715e+01 7.551520e-02 -3.637973e-02 -1.726437e-02 -7.857329e-03 -2.077739e-02 5.363375e-02 5.253289e-02 4.269507e-03 -7.487345e-03 1.535690e-02 7.145356e-03 2.987679e-02 3.467719e-03 5.627040e-03 1.224741e-02 6.806924e-02 6.279886e-03 -1.084325e-02 -1.607320e-02 -1.599006e-02 -2.032987e-02 -1.384281e-02 2.612941e-02 2.102487e-02 -8.899569e-03 -7.133877e-03 -2.445170e-03 1.682570e-02 1.630553e-02 1.309304e-02 1.056053e-02 5.298259e-03
<VARIANCE> 48
 2.275091e+02 2.960554e+02 1.273641e+02 1.713484e+02 8.487164e+01 8.172602e+01 2.106538e+02 1.838362e+02 8.748185e+01 7.149624e+01 4.654792e+01 4.315168e+01 3.425628e+01 2.511363e+01 1.864121e+01 4.966151e+02 9.736325e+00 1.268396e+01 5.559447e+00 5.645520e+00 4.772959e+00 4.779604e+00 7.611808e+00 7.047042e+00 5.284823e+00 4.749461e+00 3.835272e+00 3.601919e+00 2.639225e+00 2.138891e+00 1.542665e+00 1.797558e+01 1.193100e+00 1.799136e+00 8.101725e-01 9.095623e-01 8.366237e-01 8.489808e-01 1.214274e+00 1.148521e+00 9.488497e-01 8.968443e-01 7.603574e-01 7.210187e-01 5.140604e-01 4.201224e-01 3.021102e-01 1.774066e+00
<GCONST> 1.847766e+02
<TRANSP> 6
 0.000000e+00 1.000000e+00 0.000000e+00 0.000000e+00 0.000000e+00 0.000000e+00
 0.000000e+00 6.000000e-01 4.000000e-01 0.000000e+00 0.000000e+00 0.000000e+00
 0.000000e+00 0.000000e+00 6.000000e-01 4.000000e-01 0.000000e+00 0.000000e+00
 0.000000e+00 0.000000e+00 0.000000e+00 7.000000e-01 3.000000e-01 0.000000e+00
 0.000000e+00 0.000000e+00 0.000000e+00 0.000000e+00 7.000000e-01 3.000000e-01
 0.000000e+00 0.000000e+00 0.000000e+00 0.000000e+00 0.000000e+00 0.000000e+00
<ENDHMM>
~h "e"
<BEGINHMM>
<NUMSTATES> 6
<STATE> 2
<MEAN> 48
 2.907808e+01 -3.790450e+01 -4.243517e+01 4.722863e+00 -2.410372e+01 -3.563891e+01 -1.439083e+01 -1.133696e+01 -1.714874e+01 -6.583718e+00 1.386958e+00 2.657834e+00 3.408110e+00 8.208614e+00 1.054466e+01 9.860715e+01 7.551520e-02 -3.637973e-02 -1.726437e-02 -7.857329e-03 -2.077739e-02 5.363375e-02 5.253289e-02 4.269507e-03 -7.487345e-03 1.535690e-02 7.145356e-03 2.987679e-02 3.467719e-03 5.627040e-03 1.224741e-02 6.806924e-02 6.279886e-03 -1.084325e-02 -1.607320e-02 -1.599006e-02 -2.032987e-02 -1.384281e-02 2.612941e-02 2.102487e-02 -8.899569e-03 -7.133877e-03 -2.445170e-03 1.682570e-02 1.630553e-02 1.309304e-02 1.056053e-02 5.298259e-03
<VARIANCE> 48
 2.275091e+02 2.960554e+02 1.273641e+02 1.713484e+02 8.487164e+01 8.172602e+01 2.106538e+02 1.838362e+02 8.748185e+01 7.149624e+01 4.654792e+01 4.315168e+01 3.425628e+01 2.511363e+01 1.864121e+01 4.966151e+02 9.736325e+00 1.268396e+01 5.559447e+00 5.645520e+00 4.772959e+00 4.779604e+00 7.611808e+00 7.047042e+00 5.284823e+00 4.749461e+00 3.835272e+00 3.601919e+00 2.639225e+00 2.138891e+00 1.542665e+00 1.797558e+01 1.193100e+00 1.799136e+00 8.101725e-01 9.095623e-01 8.366237e-01 8.489808e-01 1.214274e+00 1.148521e+00 9.488497e-01 8.968443e-01 7.603574e-01 7.210187e-01 5.140604e-01 4.201224e-01 3.021102e-01 1.774066e+00
<GCONST> 1.847766e+02
<STATE> 3
<MEAN> 48
 2.907808e+01 -3.790450e+01 -4.243517e+01 4.722863e+00 -2.410372e+01 -3.563891e+01 -1.439083e+01 -1.133696e+01 -1.714874e+01 -6.583718e+00 1.386958e+00 2.657834e+00 3.408110e+00 8.208614e+00 1.054466e+01 9.860715e+01 7.551520e-02 -3.637973e-02 -1.726437e-02 -7.857329e-03 -2.077739e-02 5.363375e-02 5.253289e-02 4.269507e-03 -7.487345e-03 1.535690e-02 7.145356e-03 2.987679e-02 3.467719e-03 5.627040e-03 1.224741e-02 6.806924e-02 6.279886e-03 -1.084325e-02 -1.607320e-02 -1.599006e-02 -2.032987e-02 -1.384281e-02 2.612941e-02 2.102487e-02 -8.899569e-03 -7.133877e-03 -2.445170e-03 1.682570e-02 1.630553e-02 1.309304e-02 1.056053e-02 5.298259e-03
<VARIANCE> 48
 2.275091e+02 2.960554e+02 1.273641e+02 1.713484e+02 8.487164e+01 8.172602e+01 2.106538e+02 1.838362e+02 8.748185e+01 7.149624e+01 4.654792e+01 4.315168e+01 3.425628e+01 2.511363e+01 1.864121e+01 4.966151e+02 9.736325e+00 1.268396e+01 5.559447e+00 5.645520e+00 4.772959e+00 4.779604e+00 7.611808e+00 7.047042e+00 5.284823e+00 4.749461e+00 3.835272e+00 3.601919e+00 2.639225e+00 2.138891e+00 1.542665e+00 1.797558e+01 1.193100e+00 1.799136e+00 8.101725e-01 9.095623e-01 8.366237e-01 8.489808e-01 1.214274e+00 1.148521e+00 9.488497e-01 8.968443e-01 7.603574e-01 7.210187e-01 5.140604e-01 4.201224e-01 3.021102e-01 1.774066e+00
<GCONST> 1.847766e+02
<STATE> 4
<MEAN> 48
 2.907808e+01 -3.790450e+01 -4.243517e+01 4.722863e+00 -2.410372e+01 -3.563891e+01 -1.439083e+01 -1.133696e+01 -1.714874e+01 -6.583718e+00 1.386958e+00 2.657834e+00 3.408110e+00 8.208614e+00 1.054466e+01 9.860715e+01 7.551520e-02 -3.637973e-02 -1.726437e-02 -7.857329e-03 -2.077739e-02 5.363375e-02 5.253289e-02 4.269507e-03 -7.487345e-03 1.535690e-02 7.145356e-03 2.987679e-02 3.467719e-03 5.627040e-03 1.224741e-02 6.806924e-02 6.279886e-03 -1.084325e-02 -1.607320e-02 -1.599006e-02 -2.032987e-02 -1.384281e-02 2.612941e-02 2.102487e-02 -8.899569e-03 -7.133877e-03 -2.445170e-03 1.682570e-02 1.630553e-02 1.309304e-02 1.056053e-02 5.298259e-03
<VARIANCE> 48
 2.275091e+02 2.960554e+02 1.273641e+02 1.713484e+02 8.487164e+01 8.172602e+01 2.106538e+02 1.838362e+02 8.748185e+01 7.149624e+01 4.654792e+01 4.315168e+01 3.425628e+01 2.511363e+01 1.864121e+01 4.966151e+02 9.736325e+00 1.268396e+01 5.559447e+00 5.645520e+00 4.772959e+00 4.779604e+00 7.611808e+00 7.047042e+00 5.284823e+00 4.749461e+00 3.835272e+00 3.601919e+00 2.639225e+00 2.138891e+00 1.542665e+00 1.797558e+01 1.193100e+00 1.799136e+00 8.101725e-01 9.095623e-01 8.366237e-01 8.489808e-01 1.214274e+00 1.148521e+00 9.488497e-01 8.968443e-01 7.603574e-01 7.210187e-01 5.140604e-01 4.201224e-01 3.021102e-01 1.774066e+00
<GCONST> 1.847766e+02
<STATE> 5
<MEAN> 48
 2.907808e+01 -3.790450e+01 -4.243517e+01 4.722863e+00 -2.410372e+01 -3.563891e+01 -1.439083e+01 -1.133696e+01 -1.714874e+01 -6.583718e+00 1.386958e+00 2.657834e+00 3.408110e+00 8.208614e+00 1.054466e+01 9.860715e+01 7.551520e-02 -3.637973e-02 -1.726437e-02 -7.857329e-03 -2.077739e-02 5.363375e-02 5.253289e-02 4.269507e-03 -7.487345e-03 1.535690e-02 7.145356e-03 2.987679e-02 3.467719e-03 5.627040e-03 1.224741e-02 6.806924e-02 6.279886e-03 -1.084325e-02 -1.607320e-02 -1.599006e-02 -2.032987e-02 -1.384281e-02 2.612941e-02 2.102487e-02 -8.899569e-03 -7.133877e-03 -2.445170e-03 1.682570e-02 1.630553e-02 1.309304e-02 1.056053e-02 5.298259e-03
<VARIANCE> 48
 2.275091e+02 2.960554e+02 1.273641e+02 1.713484e+02 8.487164e+01 8.172602e+01 2.106538e+02 1.838362e+02 8.748185e+01 7.149624e+01 4.654792e+01 4.315168e+01 3.425628e+01 2.511363e+01 1.864121e+01 4.966151e+02 9.736325e+00 1.268396e+01 5.559447e+00 5.645520e+00 4.772959e+00 4.779604e+00 7.611808e+00 7.047042e+00 5.284823e+00 4.749461e+00 3.835272e+00 3.601919e+00 2.639225e+00 2.138891e+00 1.542665e+00 1.797558e+01 1.193100e+00 1.799136e+00 8.101725e-01 9.095623e-01 8.366237e-01 8.489808e-01 1.214274e+00 1.148521e+00 9.488497e-01 8.968443e-01 7.603574e-01 7.210187e-01 5.140604e-01 4.201224e-01 3.021102e-01 1.774066e+00
<GCONST> 1.847766e+02
<TRANSP> 6
 0.000000e+00 1.000000e+00 0.000000e+00 0.000000e+00 0.000000e+00 0.000000e+00
 0.000000e+00 6.000000e-01 4.000000e-01 0.000000e+00 0.000000e+00 0.000000e+00
 0.000000e+00 0.000000e+00 6.000000e-01 4.000000e-01 0.000000e+00 0.000000e+00
 0.000000e+00 0.000000e+00 0.000000e+00 7.000000e-01 3.000000e-01 0.000000e+00
 0.000000e+00 0.000000e+00 0.000000e+00 0.000000e+00 7.000000e-01 3.000000e-01
 0.000000e+00 0.000000e+00 0.000000e+00 0.000000e+00 0.000000e+00 0.000000e+00
<ENDHMM>
~h "silence"
<BEGINHMM>
<NUMSTATES> 6
<STATE> 2
<MEAN> 48
 2.907808e+01 -3.790450e+01 -4.243517e+01 4.722863e+00 -2.410372e+01 -3.563891e+01 -1.439083e+01 -1.133696e+01 -1.714874e+01 -6.583718e+00 1.386958e+00 2.657834e+00 3.408110e+00 8.208614e+00 1.054466e+01 9.860715e+01 7.551520e-02 -3.637973e-02 -1.726437e-02 -7.857329e-03 -2.077739e-02 5.363375e-02 5.253289e-02 4.269507e-03 -7.487345e-03 1.535690e-02 7.145356e-03 2.987679e-02 3.467719e-03 5.627040e-03 1.224741e-02 6.806924e-02 6.279886e-03 -1.084325e-02 -1.607320e-02 -1.599006e-02 -2.032987e-02 -1.384281e-02 2.612941e-02 2.102487e-02 -8.899569e-03 -7.133877e-03 -2.445170e-03 1.682570e-02 1.630553e-02 1.309304e-02 1.056053e-02 5.298259e-03
<VARIANCE> 48
 2.275091e+02 2.960554e+02 1.273641e+02 1.713484e+02 8.487164e+01 8.172602e+01 2.106538e+02 1.838362e+02 8.748185e+01 7.149624e+01 4.654792e+01 4.315168e+01 3.425628e+01 2.511363e+01 1.864121e+01 4.966151e+02 9.736325e+00 1.268396e+01 5.559447e+00 5.645520e+00 4.772959e+00 4.779604e+00 7.611808e+00 7.047042e+00 5.284823e+00 4.749461e+00 3.835272e+00 3.601919e+00 2.639225e+00 2.138891e+00 1.542665e+00 1.797558e+01 1.193100e+00 1.799136e+00 8.101725e-01 9.095623e-01 8.366237e-01 8.489808e-01 1.214274e+00 1.148521e+00 9.488497e-01 8.968443e-01 7.603574e-01 7.210187e-01 5.140604e-01 4.201224e-01 3.021102e-01 1.774066e+00
<GCONST> 1.847766e+02
<STATE> 3
<MEAN> 48
 2.907808e+01 -3.790450e+01 -4.243517e+01 4.722863e+00 -2.410372e+01 -3.563891e+01 -1.439083e+01 -1.133696e+01 -1.714874e+01 -6.583718e+00 1.386958e+00 2.657834e+00 3.408110e+00 8.208614e+00 1.054466e+01 9.860715e+01 7.551520e-02 -3.637973e-02 -1.726437e-02 -7.857329e-03 -2.077739e-02 5.363375e-02 5.253289e-02 4.269507e-03 -7.487345e-03 1.535690e-02 7.145356e-03 2.987679e-02 3.467719e-03 5.627040e-03 1.224741e-02 6.806924e-02 6.279886e-03 -1.084325e-02 -1.607320e-02 -1.599006e-02 -2.032987e-02 -1.384281e-02 2.612941e-02 2.102487e-02 -8.899569e-03 -7.133877e-03 -2.445170e-03 1.682570e-02 1.630553e-02 1.309304e-02 1.056053e-02 5.298259e-03
<VARIANCE> 48
 2.275091e+02 2.960554e+02 1.273641e+02 1.713484e+02 8.487164e+01 8.172602e+01 2.106538e+02 1.838362e+02 8.748185e+01 7.149624e+01 4.654792e+01 4.315168e+01 3.425628e+01 2.511363e+01 1.864121e+01 4.966151e+02 9.736325e+00 1.268396e+01 5.559447e+00 5.645520e+00 4.772959e+00 4.779604e+00 7.611808e+00 7.047042e+00 5.284823e+00 4.749461e+00 3.835272e+00 3.601919e+00 2.639225e+00 2.138891e+00 1.542665e+00 1.797558e+01 1.193100e+00 1.799136e+00 8.101725e-01 9.095623e-01 8.366237e-01 8.489808e-01 1.214274e+00 1.148521e+00 9.488497e-01 8.968443e-01 7.603574e-01 7.210187e-01 5.140604e-01 4.201224e-01 3.021102e-01 1.774066e+00
<GCONST> 1.847766e+02
<STATE> 4
<MEAN> 48
 2.907808e+01 -3.790450e+01 -4.243517e+01 4.722863e+00 -2.410372e+01 -3.563891e+01 -1.439083e+01 -1.133696e+01 -1.714874e+01 -6.583718e+00 1.386958e+00 2.657834e+00 3.408110e+00 8.208614e+00 1.054466e+01 9.860715e+01 7.551520e-02 -3.637973e-02 -1.726437e-02 -7.857329e-03 -2.077739e-02 5.363375e-02 5.253289e-02 4.269507e-03 -7.487345e-03 1.535690e-02 7.145356e-03 2.987679e-02 3.467719e-03 5.627040e-03 1.224741e-02 6.806924e-02 6.279886e-03 -1.084325e-02 -1.607320e-02 -1.599006e-02 -2.032987e-02 -1.384281e-02 2.612941e-02 2.102487e-02 -8.899569e-03 -7.133877e-03 -2.445170e-03 1.682570e-02 1.630553e-02 1.309304e-02 1.056053e-02 5.298259e-03
<VARIANCE> 48
 2.275091e+02 2.960554e+02 1.273641e+02 1.713484e+02 8.487164e+01 8.172602e+01 2.106538e+02 1.838362e+02 8.748185e+01 7.149624e+01 4.654792e+01 4.315168e+01 3.425628e+01 2.511363e+01 1.864121e+01 4.966151e+02 9.736325e+00 1.268396e+01 5.559447e+00 5.645520e+00 4.772959e+00 4.779604e+00 7.611808e+00 7.047042e+00 5.284823e+00 4.749461e+00 3.835272e+00 3.601919e+00 2.639225e+00 2.138891e+00 1.542665e+00 1.797558e+01 1.193100e+00 1.799136e+00 8.101725e-01 9.095623e-01 8.366237e-01 8.489808e-01 1.214274e+00 1.148521e+00 9.488497e-01 8.968443e-01 7.603574e-01 7.210187e-01 5.140604e-01 4.201224e-01 3.021102e-01 1.774066e+00
<GCONST> 1.847766e+02
<STATE> 5
<MEAN> 48
 2.907808e+01 -3.790450e+01 -4.243517e+01 4.722863e+00 -2.410372e+01 -3.563891e+01 -1.439083e+01 -1.133696e+01 -1.714874e+01 -6.583718e+00 1.386958e+00 2.657834e+00 3.408110e+00 8.208614e+00 1.054466e+01 9.860715e+01 7.551520e-02 -3.637973e-02 -1.726437e-02 -7.857329e-03 -2.077739e-02 5.363375e-02 5.253289e-02 4.269507e-03 -7.487345e-03 1.535690e-02 7.145356e-03 2.987679e-02 3.467719e-03 5.627040e-03 1.224741e-02 6.806924e-02 6.279886e-03 -1.084325e-02 -1.607320e-02 -1.599006e-02 -2.032987e-02 -1.384281e-02 2.612941e-02 2.102487e-02 -8.899569e-03 -7.133877e-03 -2.445170e-03 1.682570e-02 1.630553e-02 1.309304e-02 1.056053e-02 5.298259e-03
<VARIANCE> 48
 2.275091e+02 2.960554e+02 1.273641e+02 1.713484e+02 8.487164e+01 8.172602e+01 2.106538e+02 1.838362e+02 8.748185e+01 7.149624e+01 4.654792e+01 4.315168e+01 3.425628e+01 2.511363e+01 1.864121e+01 4.966151e+02 9.736325e+00 1.268396e+01 5.559447e+00 5.645520e+00 4.772959e+00 4.779604e+00 7.611808e+00 7.047042e+00 5.284823e+00 4.749461e+00 3.835272e+00 3.601919e+00 2.639225e+00 2.138891e+00 1.542665e+00 1.797558e+01 1.193100e+00 1.799136e+00 8.101725e-01 9.095623e-01 8.366237e-01 8.489808e-01 1.214274e+00 1.148521e+00 9.488497e-01 8.968443e-01 7.603574e-01 7.210187e-01 5.140604e-01 4.201224e-01 3.021102e-01 1.774066e+00
<GCONST> 1.847766e+02
<TRANSP> 6
 0.000000e+00 1.000000e+00 0.000000e+00 0.000000e+00 0.000000e+00 0.000000e+00
 0.000000e+00 6.000000e-01 4.000000e-01 0.000000e+00 0.000000e+00 0.000000e+00
 0.000000e+00 0.000000e+00 6.000000e-01 4.000000e-01 0.000000e+00 0.000000e+00
 0.000000e+00 0.000000e+00 0.000000e+00 7.000000e-01 3.000000e-01 0.000000e+00
 0.000000e+00 0.000000e+00 0.000000e+00 0.000000e+00 7.000000e-01 3.000000e-01
 0.000000e+00 0.000000e+00 0.000000e+00 0.000000e+00 0.000000e+00 0.000000e+00
<ENDHMM>
~h "b"
<BEGINHMM>
<NUMSTATES> 6
<STATE> 2
<MEAN> 48
 2.888312e+01 -3.828189e+01 -4.204839e+01 4.809227e+00 -2.470577e+01 -3.553260e+01 -1.406993e+01 -1.145733e+01 -1.712649e+01 -6.515227e+00 1.350140e+00 2.699063e+00 3.502710e+00 8.316470e+00 1.063181e+01 9.860832e+01 8.119527e-02 -2.903042e-02 -3.091389e-03 -1.216465e-02 -3.798627e-02 4.860188e-02 5.735792e-02 7.488546e-03 -2.018899e-02 4.505232e-04 -8.099346e-03 2.638353e-02 2.011543e-03 -2.022956e-03 4.539666e-03 7.278605e-02 3.419105e-03 -9.026160e-03 -1.881643e-02 -1.287603e-02 -1.718785e-02 -1.233150e-02 2.181826e-02 1.597977e-02 -4.636206e-03 -1.017191e-03 -4.765256e-03 1.225155e-02 1.499076e-02 1.422412e-02 1.064545e-02 1.580325e-03
<VARIANCE> 48
 2.220435e+02 2.974900e+02 1.228176e+02 1.653791e+02 9.649391e+01 8.403763e+01 2.138373e+02 1.858476e+02 8.572631e+01 7.008455e+01 4.624612e+01 4.325005e+01 3.411854e+01 2.511781e+01 1.866674e+01 4.939601e+02 9.634181e+00 1.245309e+01 5.583951e+00 5.557728e+00 4.881959e+00 4.798369e+00 7.527784e+00 6.929352e+00 5.112087e+00 4.739811e+00 3.870129e+00 3.608061e+00 2.562583e+00 2.100600e+00 1.553135e+00 1.786219e+01 1.201770e+00 1.755381e+00 8.104897e-01 8.961352e-01 8.534014e-01 8.380418e-01 1.202510e+00 1.115519e+00 9.037132e-01 8.956831e-01 7.665286e-01 7.217236e-01 4.976427e-01 4.167154e-01 3.065018e-01 1.770114e+00
<GCONST> 1.845686e+02
<STATE> 3
<MEAN> 48
 2.888312e+01 -3.828189e+01 -4.204839e+01 4.809227e+00 -2.470577e+01 -3.553260e+01 -1.406993e+01 -1.145733e+01 -1.712649e+01 -6.515227e+00 1.350140e+00 2.699063e+00 3.502710e+00 8.316470e+00 1.063181e+01 9.860832e+01 8.119527e-02 -2.903042e-02 -3.091389e-03 -1.216465e-02 -3.798627e-02 4.860188e-02 5.735792e-02 7.488546e-03 -2.018899e-02 4.505232e-04 -8.099346e-03 2.638353e-02 2.011543e-03 -2.022956e-03 4.539666e-03 7.278605e-02 3.419105e-03 -9.026160e-03 -1.881643e-02 -1.287603e-02 -1.718785e-02 -1.233150e-02 2.181826e-02 1.597977e-02 -4.636206e-03 -1.017191e-03 -4.765256e-03 1.225155e-02 1.499076e-02 1.422412e-02 1.064545e-02 1.580325e-03
<VARIANCE> 48
 2.220435e+02 2.974900e+02 1.228176e+02 1.653791e+02 9.649391e+01 8.403763e+01 2.138373e+02 1.858476e+02 8.572631e+01 7.008455e+01 4.624612e+01 4.325005e+01 3.411854e+01 2.511781e+01 1.866674e+01 4.939601e+02 9.634181e+00 1.245309e+01 5.583951e+00 5.557728e+00 4.881959e+00 4.798369e+00 7.527784e+00 6.929352e+00 5.112087e+00 4.739811e+00 3.870129e+00 3.608061e+00 2.562583e+00 2.100600e+00 1.553135e+00 1.786219e+01 1.201770e+00 1.755381e+00 8.104897e-01 8.961352e-01 8.534014e-01 8.380418e-01 1.202510e+00 1.115519e+00 9.037132e-01 8.956831e-01 7.665286e-01 7.217236e-01 4.976427e-01 4.167154e-01 3.065018e-01 1.770114e+00
<GCONST> 1.845686e+02
<STATE> 4
<MEAN> 48
 2.888312e+01 -3.828189e+01 -4.204839e+01 4.809227e+00 -2.470577e+01 -3.553260e+01 -1.406993e+01 -1.145733e+01 -1.712649e+01 -6.515227e+00 1.350140e+00 2.699063e+00 3.502710e+00 8.316470e+00 1.063181e+01 9.860832e+01 8.119527e-02 -2.903042e-02 -3.091389e-03 -1.216465e-02 -3.798627e-02 4.860188e-02 5.735792e-02 7.488546e-03 -2.018899e-02 4.505232e-04 -8.099346e-03 2.638353e-02 2.011543e-03 -2.022956e-03 4.539666e-03 7.278605e-02 3.419105e-03 -9.026160e-03 -1.881643e-02 -1.287603e-02 -1.718785e-02 -1.233150e-02 2.181826e-02 1.597977e-02 -4.636206e-03 -1.017191e-03 -4.765256e-03 1.225155e-02 1.499076e-02 1.422412e-02 1.064545e-02 1.580325e-03
<VARIANCE> 48
 2.220435e+02 2.974900e+02 1.228176e+02 1.653791e+02 9.649391e+01 8.403763e+01 2.138373e+02 1.858476e+02 8.572631e+01 7.008455e+01 4.624612e+01 4.325005e+01 3.411854e+01 2.511781e+01 1.866674e+01 4.939601e+02 9.634181e+00 1.245309e+01 5.583951e+00 5.557728e+00 4.881959e+00 4.798369e+00 7.527784e+00 6.929352e+00 5.112087e+00 4.739811e+00 3.870129e+00 3.608061e+00 2.562583e+00 2.100600e+00 1.553135e+00 1.786219e+01 1.201770e+00 1.755381e+00 8.104897e-01 8.961352e-01 8.534014e-01 8.380418e-01 1.202510e+00 1.115519e+00 9.037132e-01 8.956831e-01 7.665286e-01 7.217236e-01 4.976427e-01 4.167154e-01 3.065018e-01 1.770114e+00
<GCONST> 1.845686e+02
<STATE> 5
<MEAN> 48
 2.888312e+01 -3.828189e+01 -4.204839e+01 4.809227e+00 -2.470577e+01 -3.553260e+01 -1.406993e+01 -1.145733e+01 -1.712649e+01 -6.515227e+00 1.350140e+00 2.699063e+00 3.502710e+00 8.316470e+00 1.063181e+01 9.860832e+01 8.119527e-02 -2.903042e-02 -3.091389e-03 -1.216465e-02 -3.798627e-02 4.860188e-02 5.735792e-02 7.488546e-03 -2.018899e-02 4.505232e-04 -8.099346e-03 2.638353e-02 2.011543e-03 -2.022956e-03 4.539666e-03 7.278605e-02 3.419105e-03 -9.026160e-03 -1.881643e-02 -1.287603e-02 -1.718785e-02 -1.233150e-02 2.181826e-02 1.597977e-02 -4.636206e-03 -1.017191e-03 -4.765256e-03 1.225155e-02 1.499076e-02 1.422412e-02 1.064545e-02 1.580325e-03
<VARIANCE> 48
 2.220435e+02 2.974900e+02 1.228176e+02 1.653791e+02 9.649391e+01 8.403763e+01 2.138373e+02 1.858476e+02 8.572631e+01 7.008455e+01 4.624612e+01 4.325005e+01 3.411854e+01 2.511781e+01 1.866674e+01 4.939601e+02 9.634181e+00 1.245309e+01 5.583951e+00 5.557728e+00 4.881959e+00 4.798369e+00 7.527784e+00 6.929352e+00 5.112087e+00 4.739811e+00 3.870129e+00 3.608061e+00 2.562583e+00 2.100600e+00 1.553135e+00 1.786219e+01 1.201770e+00 1.755381e+00 8.104897e-01 8.961352e-01 8.534014e-01 8.380418e-01 1.202510e+00 1.115519e+00 9.037132e-01 8.956831e-01 7.665286e-01 7.217236e-01 4.976427e-01 4.167154e-01 3.065018e-01 1.770114e+00
<GCONST> 1.845686e+02
<TRANSP> 6
 0.000000e+00 1.000000e+00 0.000000e+00 0.000000e+00 0.000000e+00 0.000000e+00
 0.000000e+00 6.000000e-01 4.000000e-01 0.000000e+00 0.000000e+00 0.000000e+00
 0.000000e+00 0.000000e+00 6.000000e-01 4.000000e-01 0.000000e+00 0.000000e+00
 0.000000e+00 0.000000e+00 0.000000e+00 7.000000e-01 3.000000e-01 0.000000e+00
 0.000000e+00 0.000000e+00 0.000000e+00 0.000000e+00 7.000000e-01 3.000000e-01
 0.000000e+00 0.000000e+00 0.000000e+00 0.000000e+00 0.000000e+00 0.000000e+00
<ENDHMM>
~h "a"
<BEGINHMM>
<NUMSTATES> 6
<STATE> 2
<MEAN> 48
 2.888312e+01 -3.828189e+01 -4.204839e+01 4.809227e+00 -2.470577e+01 -3.553260e+01 -1.406993e+01 -1.145733e+01 -1.712649e+01 -6.515227e+00 1.350140e+00 2.699063e+00 3.502710e+00 8.316470e+00 1.063181e+01 9.860832e+01 8.119527e-02 -2.903042e-02 -3.091389e-03 -1.216465e-02 -3.798627e-02 4.860188e-02 5.735792e-02 7.488546e-03 -2.018899e-02 4.505232e-04 -8.099346e-03 2.638353e-02 2.011543e-03 -2.022956e-03 4.539666e-03 7.278605e-02 3.419105e-03 -9.026160e-03 -1.881643e-02 -1.287603e-02 -1.718785e-02 -1.233150e-02 2.181826e-02 1.597977e-02 -4.636206e-03 -1.017191e-03 -4.765256e-03 1.225155e-02 1.499076e-02 1.422412e-02 1.064545e-02 1.580325e-03
<VARIANCE> 48
 2.220435e+02 2.974900e+02 1.228176e+02 1.653791e+02 9.649391e+01 8.403763e+01 2.138373e+02 1.858476e+02 8.572631e+01 7.008455e+01 4.624612e+01 4.325005e+01 3.411854e+01 2.511781e+01 1.866674e+01 4.939601e+02 9.634181e+00 1.245309e+01 5.583951e+00 5.557728e+00 4.881959e+00 4.798369e+00 7.527784e+00 6.929352e+00 5.112087e+00 4.739811e+00 3.870129e+00 3.608061e+00 2.562583e+00 2.100600e+00 1.553135e+00 1.786219e+01 1.201770e+00 1.755381e+00 8.104897e-01 8.961352e-01 8.534014e-01 8.380418e-01 1.202510e+00 1.115519e+00 9.037132e-01 8.956831e-01 7.665286e-01 7.217236e-01 4.976427e-01 4.167154e-01 3.065018e-01 1.770114e+00
<GCONST> 1.845686e+02
<STATE> 3
<MEAN> 48
 2.888312e+01 -3.828189e+01 -4.204839e+01 4.809227e+00 -2.470577e+01 -3.553260e+01 -1.406993e+01 -1.145733e+01 -1.712649e+01 -6.515227e+00 1.350140e+00 2.699063e+00 3.502710e+00 8.316470e+00 1.063181e+01 9.860832e+01 8.119527e-02 -2.903042e-02 -3.091389e-03 -1.216465e-02 -3.798627e-02 4.860188e-02 5.735792e-02 7.488546e-03 -2.018899e-02 4.505232e-04 -8.099346e-03 2.638353e-02 2.011543e-03 -2.022956e-03 4.539666e-03 7.278605e-02 3.419105e-03 -9.026160e-03 -1.881643e-02 -1.287603e-02 -1.718785e-02 -1.233150e-02 2.181826e-02 1.597977e-02 -4.636206e-03 -1.017191e-03 -4.765256e-03 1.225155e-02 1.499076e-02 1.422412e-02 1.064545e-02 1.580325e-03
<VARIANCE> 48
 2.220435e+02 2.974900e+02 1.228176e+02 1.653791e+02 9.649391e+01 8.403763e+01 2.138373e+02 1.858476e+02 8.572631e+01 7.008455e+01 4.624612e+01 4.325005e+01 3.411854e+01 2.511781e+01 1.866674e+01 4.939601e+02 9.634181e+00 1.245309e+01 5.583951e+00 5.557728e+00 4.881959e+00 4.798369e+00 7.527784e+00 6.929352e+00 5.112087e+00 4.739811e+00 3.870129e+00 3.608061e+00 2.562583e+00 2.100600e+00 1.553135e+00 1.786219e+01 1.201770e+00 1.755381e+00 8.104897e-01 8.961352e-01 8.534014e-01 8.380418e-01 1.202510e+00 1.115519e+00 9.037132e-01 8.956831e-01 7.665286e-01 7.217236e-01 4.976427e-01 4.167154e-01 3.065018e-01 1.770114e+00
<GCONST> 1.845686e+02
<STATE> 4
<MEAN> 48
 2.888312e+01 -3.828189e+01 -4.204839e+01 4.809227e+00 -2.470577e+01 -3.553260e+01 -1.406993e+01 -1.145733e+01 -1.712649e+01 -6.515227e+00 1.350140e+00 2.699063e+00 3.502710e+00 8.316470e+00 1.063181e+01 9.860832e+01 8.119527e-02 -2.903042e-02 -3.091389e-03 -1.216465e-02 -3.798627e-02 4.860188e-02 5.735792e-02 7.488546e-03 -2.018899e-02 4.505232e-04 -8.099346e-03 2.638353e-02 2.011543e-03 -2.022956e-03 4.539666e-03 7.278605e-02 3.419105e-03 -9.026160e-03 -1.881643e-02 -1.287603e-02 -1.718785e-02 -1.233150e-02 2.181826e-02 1.597977e-02 -4.636206e-03 -1.017191e-03 -4.765256e-03 1.225155e-02 1.499076e-02 1.422412e-02 1.064545e-02 1.580325e-03
<VARIANCE> 48
 2.220435e+02 2.974900e+02 1.228176e+02 1.653791e+02 9.649391e+01 8.403763e+01 2.138373e+02 1.858476e+02 8.572631e+01 7.008455e+01 4.624612e+01 4.325005e+01 3.411854e+01 2.511781e+01 1.866674e+01 4.939601e+02 9.634181e+00 1.245309e+01 5.583951e+00 5.557728e+00 4.881959e+00 4.798369e+00 7.527784e+00 6.929352e+00 5.112087e+00 4.739811e+00 3.870129e+00 3.608061e+00 2.562583e+00 2.100600e+00 1.553135e+00 1.786219e+01 1.201770e+00 1.755381e+00 8.104897e-01 8.961352e-01 8.534014e-01 8.380418e-01 1.202510e+00 1.115519e+00 9.037132e-01 8.956831e-01 7.665286e-01 7.217236e-01 4.976427e-01 4.167154e-01 3.065018e-01 1.770114e+00
<GCONST> 1.845686e+02
<STATE> 5
<MEAN> 48
 2.888312e+01 -3.828189e+01 -4.204839e+01 4.809227e+00 -2.470577e+01 -3.553260e+01 -1.406993e+01 -1.145733e+01 -1.712649e+01 -6.515227e+00 1.350140e+00 2.699063e+00 3.502710e+00 8.316470e+00 1.063181e+01 9.860832e+01 8.119527e-02 -2.903042e-02 -3.091389e-03 -1.216465e-02 -3.798627e-02 4.860188e-02 5.735792e-02 7.488546e-03 -2.018899e-02 4.505232e-04 -8.099346e-03 2.638353e-02 2.011543e-03 -2.022956e-03 4.539666e-03 7.278605e-02 3.419105e-03 -9.026160e-03 -1.881643e-02 -1.287603e-02 -1.718785e-02 -1.233150e-02 2.181826e-02 1.597977e-02 -4.636206e-03 -1.017191e-03 -4.765256e-03 1.225155e-02 1.499076e-02 1.422412e-02 1.064545e-02 1.580325e-03
<VARIANCE> 48
 2.220435e+02 2.974900e+02 1.228176e+02 1.653791e+02 9.649391e+01 8.403763e+01 2.138373e+02 1.858476e+02 8.572631e+01 7.008455e+01 4.624612e+01 4.325005e+01 3.411854e+01 2.511781e+01 1.866674e+01 4.939601e+02 9.634181e+00 1.245309e+01 5.583951e+00 5.557728e+00 4.881959e+00 4.798369e+00 7.527784e+00 6.929352e+00 5.112087e+00 4.739811e+00 3.870129e+00 3.608061e+00 2.562583e+00 2.100600e+00 1.553135e+00 1.786219e+01 1.201770e+00 1.755381e+00 8.104897e-01 8.961352e-01 8.534014e-01 8.380418e-01 1.202510e+00 1.115519e+00 9.037132e-01 8.956831e-01 7.665286e-01 7.217236e-01 4.976427e-01 4.167154e-01 3.065018e-01 1.770114e+00
<GCONST> 1.845686e+02
<TRANSP> 6
 0.000000e+00 1.000000e+00 0.000000e+00 0.000000e+00 0.000000e+00 0.000000e+00
 0.000000e+00 6.000000e-01 4.000000e-01 0.000000e+00 0.000000e+00 0.000000e+00
 0.000000e+00 0.000000e+00 6.000000e-01 4.000000e-01 0.000000e+00 0.000000e+00
 0.000000e+00 0.000000e+00 0.000000e+00 7.000000e-01 3.000000e-01 0.000000e+00
 0.000000e+00 0.000000e+00 0.000000e+00 0.000000e+00 7.000000e-01 3.000000e-01
 0.000000e+00 0.000000e+00 0.000000e+00 0.000000e+00 0.000000e+00 0.000000e+00
<ENDHMM>
~h "e"
<BEGINHMM>
<NUMSTATES> 6
<STATE> 2
<MEAN> 48
 2.888312e+01 -3.828189e+01 -4.204839e+01 4.809227e+00 -2.470577e+01 -3.553260e+01 -1.406993e+01 -1.145733e+01 -1.712649e+01 -6.515227e+00 1.350140e+00 2.699063e+00 3.502710e+00 8.316470e+00 1.063181e+01 9.860832e+01 8.119527e-02 -2.903042e-02 -3.091389e-03 -1.216465e-02 -3.798627e-02 4.860188e-02 5.735792e-02 7.488546e-03 -2.018899e-02 4.505232e-04 -8.099346e-03 2.638353e-02 2.011543e-03 -2.022956e-03 4.539666e-03 7.278605e-02 3.419105e-03 -9.026160e-03 -1.881643e-02 -1.287603e-02 -1.718785e-02 -1.233150e-02 2.181826e-02 1.597977e-02 -4.636206e-03 -1.017191e-03 -4.765256e-03 1.225155e-02 1.499076e-02 1.422412e-02 1.064545e-02 1.580325e-03
<VARIANCE> 48
 2.220435e+02 2.974900e+02 1.228176e+02 1.653791e+02 9.649391e+01 8.403763e+01 2.138373e+02 1.858476e+02 8.572631e+01 7.008455e+01 4.624612e+01 4.325005e+01 3.411854e+01 2.511781e+01 1.866674e+01 4.939601e+02 9.634181e+00 1.245309e+01 5.583951e+00 5.557728e+00 4.881959e+00 4.798369e+00 7.527784e+00 6.929352e+00 5.112087e+00 4.739811e+00 3.870129e+00 3.608061e+00 2.562583e+00 2.100600e+00 1.553135e+00 1.786219e+01 1.201770e+00 1.755381e+00 8.104897e-01 8.961352e-01 8.534014e-01 8.380418e-01 1.202510e+00 1.115519e+00 9.037132e-01 8.956831e-01 7.665286e-01 7.217236e-01 4.976427e-01 4.167154e-01 3.065018e-01 1.770114e+00
<GCONST> 1.845686e+02
<STATE> 3
<MEAN> 48
 2.888312e+01 -3.828189e+01 -4.204839e+01 4.809227e+00 -2.470577e+01 -3.553260e+01 -1.406993e+01 -1.145733e+01 -1.712649e+01 -6.515227e+00 1.350140e+00 2.699063e+00 3.502710e+00 8.316470e+00 1.063181e+01 9.860832e+01 8.119527e-02 -2.903042e-02 -3.091389e-03 -1.216465e-02 -3.798627e-02 4.860188e-02 5.735792e-02 7.488546e-03 -2.018899e-02 4.505232e-04 -8.099346e-03 2.638353e-02 2.011543e-03 -2.022956e-03 4.539666e-03 7.278605e-02 3.419105e-03 -9.026160e-03 -1.881643e-02 -1.287603e-02 -1.718785e-02 -1.233150e-02 2.181826e-02 1.597977e-02 -4.636206e-03 -1.017191e-03 -4.765256e-03 1.225155e-02 1.499076e-02 1.422412e-02 1.064545e-02 1.580325e-03
<VARIANCE> 48
 2.220435e+02 2.974900e+02 1.228176e+02 1.653791e+02 9.649391e+01 8.403763e+01 2.138373e+02 1.858476e+02 8.572631e+01 7.008455e+01 4.624612e+01 4.325005e+01 3.411854e+01 2.511781e+01 1.866674e+01 4.939601e+02 9.634181e+00 1.245309e+01 5.583951e+00 5.557728e+00 4.881959e+00 4.798369e+00 7.527784e+00 6.929352e+00 5.112087e+00 4.739811e+00 3.870129e+00 3.608061e+00 2.562583e+00 2.100600e+00 1.553135e+00 1.786219e+01 1.201770e+00 1.755381e+00 8.104897e-01 8.961352e-01 8.534014e-01 8.380418e-01 1.202510e+00 1.115519e+00 9.037132e-01 8.956831e-01 7.665286e-01 7.217236e-01 4.976427e-01 4.167154e-01 3.065018e-01 1.770114e+00
<GCONST> 1.845686e+02
<STATE> 4
<MEAN> 48
 2.888312e+01 -3.828189e+01 -4.204839e+01 4.809227e+00 -2.470577e+01 -3.553260e+01 -1.406993e+01 -1.145733e+01 -1.712649e+01 -6.515227e+00 1.350140e+00 2.699063e+00 3.502710e+00 8.316470e+00 1.063181e+01 9.860832e+01 8.119527e-02 -2.903042e-02 -3.091389e-03 -1.216465e-02 -3.798627e-02 4.860188e-02 5.735792e-02 7.488546e-03 -2.018899e-02 4.505232e-04 -8.099346e-03 2.638353e-02 2.011543e-03 -2.022956e-03 4.539666e-03 7.278605e-02 3.419105e-03 -9.026160e-03 -1.881643e-02 -1.287603e-02 -1.718785e-02 -1.233150e-02 2.181826e-02 1.597977e-02 -4.636206e-03 -1.017191e-03 -4.765256e-03 1.225155e-02 1.499076e-02 1.422412e-02 1.064545e-02 1.580325e-03
<VARIANCE> 48
 2.220435e+02 2.974900e+02 1.228176e+02 1.653791e+02 9.649391e+01 8.403763e+01 2.138373e+02 1.858476e+02 8.572631e+01 7.008455e+01 4.624612e+01 4.325005e+01 3.411854e+01 2.511781e+01 1.866674e+01 4.939601e+02 9.634181e+00 1.245309e+01 5.583951e+00 5.557728e+00 4.881959e+00 4.798369e+00 7.527784e+00 6.929352e+00 5.112087e+00 4.739811e+00 3.870129e+00 3.608061e+00 2.562583e+00 2.100600e+00 1.553135e+00 1.786219e+01 1.201770e+00 1.755381e+00 8.104897e-01 8.961352e-01 8.534014e-01 8.380418e-01 1.202510e+00 1.115519e+00 9.037132e-01 8.956831e-01 7.665286e-01 7.217236e-01 4.976427e-01 4.167154e-01 3.065018e-01 1.770114e+00
<GCONST> 1.845686e+02
<STATE> 5
<MEAN> 48
 2.888312e+01 -3.828189e+01 -4.204839e+01 4.809227e+00 -2.470577e+01 -3.553260e+01 -1.406993e+01 -1.145733e+01 -1.712649e+01 -6.515227e+00 1.350140e+00 2.699063e+00 3.502710e+00 8.316470e+00 1.063181e+01 9.860832e+01 8.119527e-02 -2.903042e-02 -3.091389e-03 -1.216465e-02 -3.798627e-02 4.860188e-02 5.735792e-02 7.488546e-03 -2.018899e-02 4.505232e-04 -8.099346e-03 2.638353e-02 2.011543e-03 -2.022956e-03 4.539666e-03 7.278605e-02 3.419105e-03 -9.026160e-03 -1.881643e-02 -1.287603e-02 -1.718785e-02 -1.233150e-02 2.181826e-02 1.597977e-02 -4.636206e-03 -1.017191e-03 -4.765256e-03 1.225155e-02 1.499076e-02 1.422412e-02 1.064545e-02 1.580325e-03
<VARIANCE> 48
 2.220435e+02 2.974900e+02 1.228176e+02 1.653791e+02 9.649391e+01 8.403763e+01 2.138373e+02 1.858476e+02 8.572631e+01 7.008455e+01 4.624612e+01 4.325005e+01 3.411854e+01 2.511781e+01 1.866674e+01 4.939601e+02 9.634181e+00 1.245309e+01 5.583951e+00 5.557728e+00 4.881959e+00 4.798369e+00 7.527784e+00 6.929352e+00 5.112087e+00 4.739811e+00 3.870129e+00 3.608061e+00 2.562583e+00 2.100600e+00 1.553135e+00 1.786219e+01 1.201770e+00 1.755381e+00 8.104897e-01 8.961352e-01 8.534014e-01 8.380418e-01 1.202510e+00 1.115519e+00 9.037132e-01 8.956831e-01 7.665286e-01 7.217236e-01 4.976427e-01 4.167154e-01 3.065018e-01 1.770114e+00
<GCONST> 1.845686e+02
<TRANSP> 6
 0.000000e+00 1.000000e+00 0.000000e+00 0.000000e+00 0.000000e+00 0.000000e+00
 0.000000e+00 6.000000e-01 4.000000e-01 0.000000e+00 0.000000e+00 0.000000e+00
 0.000000e+00 0.000000e+00 6.000000e-01 4.000000e-01 0.000000e+00 0.000000e+00
 0.000000e+00 0.000000e+00 0.000000e+00 7.000000e-01 3.000000e-01 0.000000e+00
 0.000000e+00 0.000000e+00 0.000000e+00 0.000000e+00 7.000000e-01 3.000000e-01
 0.000000e+00 0.000000e+00 0.000000e+00 0.000000e+00 0.000000e+00 0.000000e+00
<ENDHMM>
~h "silence"
<BEGINHMM>
<NUMSTATES> 6
<STATE> 2
<MEAN> 48
 2.888312e+01 -3.828189e+01 -4.204839e+01 4.809227e+00 -2.470577e+01 -3.553260e+01 -1.406993e+01 -1.145733e+01 -1.712649e+01 -6.515227e+00 1.350140e+00 2.699063e+00 3.502710e+00 8.316470e+00 1.063181e+01 9.860832e+01 8.119527e-02 -2.903042e-02 -3.091389e-03 -1.216465e-02 -3.798627e-02 4.860188e-02 5.735792e-02 7.488546e-03 -2.018899e-02 4.505232e-04 -8.099346e-03 2.638353e-02 2.011543e-03 -2.022956e-03 4.539666e-03 7.278605e-02 3.419105e-03 -9.026160e-03 -1.881643e-02 -1.287603e-02 -1.718785e-02 -1.233150e-02 2.181826e-02 1.597977e-02 -4.636206e-03 -1.017191e-03 -4.765256e-03 1.225155e-02 1.499076e-02 1.422412e-02 1.064545e-02 1.580325e-03
<VARIANCE> 48
 2.220435e+02 2.974900e+02 1.228176e+02 1.653791e+02 9.649391e+01 8.403763e+01 2.138373e+02 1.858476e+02 8.572631e+01 7.008455e+01 4.624612e+01 4.325005e+01 3.411854e+01 2.511781e+01 1.866674e+01 4.939601e+02 9.634181e+00 1.245309e+01 5.583951e+00 5.557728e+00 4.881959e+00 4.798369e+00 7.527784e+00 6.929352e+00 5.112087e+00 4.739811e+00 3.870129e+00 3.608061e+00 2.562583e+00 2.100600e+00 1.553135e+00 1.786219e+01 1.201770e+00 1.755381e+00 8.104897e-01 8.961352e-01 8.534014e-01 8.380418e-01 1.202510e+00 1.115519e+00 9.037132e-01 8.956831e-01 7.665286e-01 7.217236e-01 4.976427e-01 4.167154e-01 3.065018e-01 1.770114e+00
<GCONST> 1.845686e+02
<STATE> 3
<MEAN> 48
 2.888312e+01 -3.828189e+01 -4.204839e+01 4.809227e+00 -2.470577e+01 -3.553260e+01 -1.406993e+01 -1.145733e+01 -1.712649e+01 -6.515227e+00 1.350140e+00 2.699063e+00 3.502710e+00 8.316470e+00 1.063181e+01 9.860832e+01 8.119527e-02 -2.903042e-02 -3.091389e-03 -1.216465e-02 -3.798627e-02 4.860188e-02 5.735792e-02 7.488546e-03 -2.018899e-02 4.505232e-04 -8.099346e-03 2.638353e-02 2.011543e-03 -2.022956e-03 4.539666e-03 7.278605e-02 3.419105e-03 -9.026160e-03 -1.881643e-02 -1.287603e-02 -1.718785e-02 -1.233150e-02 2.181826e-02 1.597977e-02 -4.636206e-03 -1.017191e-03 -4.765256e-03 1.225155e-02 1.499076e-02 1.422412e-02 1.064545e-02 1.580325e-03
<VARIANCE> 48
 2.220435e+02 2.974900e+02 1.228176e+02 1.653791e+02 9.649391e+01 8.403763e+01 2.138373e+02 1.858476e+02 8.572631e+01 7.008455e+01 4.624612e+01 4.325005e+01 3.411854e+01 2.511781e+01 1.866674e+01 4.939601e+02 9.634181e+00 1.245309e+01 5.583951e+00 5.557728e+00 4.881959e+00 4.798369e+00 7.527784e+00 6.929352e+00 5.112087e+00 4.739811e+00 3.870129e+00 3.608061e+00 2.562583e+00 2.100600e+00 1.553135e+00 1.786219e+01 1.201770e+00 1.755381e+00 8.104897e-01 8.961352e-01 8.534014e-01 8.380418e-01 1.202510e+00 1.115519e+00 9.037132e-01 8.956831e-01 7.665286e-01 7.217236e-01 4.976427e-01 4.167154e-01 3.065018e-01 1.770114e+00
<GCONST> 1.845686e+02
<STATE> 4
<MEAN> 48
 2.888312e+01 -3.828189e+01 -4.204839e+01 4.809227e+00 -2.470577e+01 -3.553260e+01 -1.406993e+01 -1.145733e+01 -1.712649e+01 -6.515227e+00 1.350140e+00 2.699063e+00 3.502710e+00 8.316470e+00 1.063181e+01 9.860832e+01 8.119527e-02 -2.903042e-02 -3.091389e-03 -1.216465e-02 -3.798627e-02 4.860188e-02 5.735792e-02 7.488546e-03 -2.018899e-02 4.505232e-04 -8.099346e-03 2.638353e-02 2.011543e-03 -2.022956e-03 4.539666e-03 7.278605e-02 3.419105e-03 -9.026160e-03 -1.881643e-02 -1.287603e-02 -1.718785e-02 -1.233150e-02 2.181826e-02 1.597977e-02 -4.636206e-03 -1.017191e-03 -4.765256e-03 1.225155e-02 1.499076e-02 1.422412e-02 1.064545e-02 1.580325e-03
<VARIANCE> 48
 2.220435e+02 2.974900e+02 1.228176e+02 1.653791e+02 9.649391e+01 8.403763e+01 2.138373e+02 1.858476e+02 8.572631e+01 7.008455e+01 4.624612e+01 4.325005e+01 3.411854e+01 2.511781e+01 1.866674e+01 4.939601e+02 9.634181e+00 1.245309e+01 5.583951e+00 5.557728e+00 4.881959e+00 4.798369e+00 7.527784e+00 6.929352e+00 5.112087e+00 4.739811e+00 3.870129e+00 3.608061e+00 2.562583e+00 2.100600e+00 1.553135e+00 1.786219e+01 1.201770e+00 1.755381e+00 8.104897e-01 8.961352e-01 8.534014e-01 8.380418e-01 1.202510e+00 1.115519e+00 9.037132e-01 8.956831e-01 7.665286e-01 7.217236e-01 4.976427e-01 4.167154e-01 3.065018e-01 1.770114e+00
<GCONST> 1.845686e+02
<STATE> 5
<MEAN> 48
 2.888312e+01 -3.828189e+01 -4.204839e+01 4.809227e+00 -2.470577e+01 -3.553260e+01 -1.406993e+01 -1.145733e+01 -1.712649e+01 -6.515227e+00 1.350140e+00 2.699063e+00 3.502710e+00 8.316470e+00 1.063181e+01 9.860832e+01 8.119527e-02 -2.903042e-02 -3.091389e-03 -1.216465e-02 -3.798627e-02 4.860188e-02 5.735792e-02 7.488546e-03 -2.018899e-02 4.505232e-04 -8.099346e-03 2.638353e-02 2.011543e-03 -2.022956e-03 4.539666e-03 7.278605e-02 3.419105e-03 -9.026160e-03 -1.881643e-02 -1.287603e-02 -1.718785e-02 -1.233150e-02 2.181826e-02 1.597977e-02 -4.636206e-03 -1.017191e-03 -4.765256e-03 1.225155e-02 1.499076e-02 1.422412e-02 1.064545e-02 1.580325e-03
<VARIANCE> 48
 2.220435e+02 2.974900e+02 1.228176e+02 1.653791e+02 9.649391e+01 8.403763e+01 2.138373e+02 1.858476e+02 8.572631e+01 7.008455e+01 4.624612e+01 4.325005e+01 3.411854e+01 2.511781e+01 1.866674e+01 4.939601e+02 9.634181e+00 1.245309e+01 5.583951e+00 5.557728e+00 4.881959e+00 4.798369e+00 7.527784e+00 6.929352e+00 5.112087e+00 4.739811e+00 3.870129e+00 3.608061e+00 2.562583e+00 2.100600e+00 1.553135e+00 1.786219e+01 1.201770e+00 1.755381e+00 8.104897e-01 8.961352e-01 8.534014e-01 8.380418e-01 1.202510e+00 1.115519e+00 9.037132e-01 8.956831e-01 7.665286e-01 7.217236e-01 4.976427e-01 4.167154e-01 3.065018e-01 1.770114e+00
<GCONST> 1.845686e+02
<TRANSP> 6
 0.000000e+00 1.000000e+00 0.000000e+00 0.000000e+00 0.000000e+00 0.000000e+00
 0.000000e+00 6.000000e-01 4.000000e-01 0.000000e+00 0.000000e+00 0.000000e+00
 0.000000e+00 0.000000e+00 6.000000e-01 4.000000e-01 0.000000e+00 0.000000e+00
 0.000000e+00 0.000000e+00 0.000000e+00 7.000000e-01 3.000000e-01 0.000000e+00
 0.000000e+00 0.000000e+00 0.000000e+00 0.000000e+00 7.000000e-01 3.000000e-01
 0.000000e+00 0.000000e+00 0.000000e+00 0.000000e+00 0.000000e+00 0.000000e+00
<ENDHMM>
~h "b"
<BEGINHMM>
<NUMSTATES> 6
<STATE> 2
<MEAN> 48
 2.907345e+01 -3.836569e+01 -4.224952e+01 4.565687e+00 -2.481422e+01 -3.541245e+01 -1.388798e+01 -1.134015e+01 -1.704354e+01 -6.517693e+00 1.234455e+00 2.585419e+00 3.401020e+00 8.250506e+00 1.057973e+01 9.880023e+01 8.604651e-02 -2.171712e-02 -7.505253e-03 -1.613617e-02 -2.806895e-02 5.420464e-02 5.514712e-02 -3.853842e-03 -3.175321e-02 -1.562465e-02 -1.466134e-02 1.718329e-02 -1.503235e-03 8.097976e-03 1.010431e-02 7.331406e-02 2.529253e-03 -1.087803e-02 -2.043028e-02 -1.287355e-02 -1.529159e-02 -1.238684e-02 2.164021e-02 1.508911e-02 -8.472676e-03 -2.522829e-04 -1.521014e-03 1.752747e-02 1.642234e-02 1.501930e-02 1.123950e-02 1.013721e-03
<VARIANCE> 48
 2.209741e+02 3.013128e+02 1.268119e+02 1.728911e+02 9.220232e+01 8.673363e+01 2.192474e+02 1.811866e+02 8.448870e+01 7.097248e+01 4.556557e+01 4.222224e+01 3.359468e+01 2.496431e+01 1.871919e+01 4.891289e+02 9.668935e+00 1.270365e+01 5.553892e+00 5.594632e+00 4.766590e+00 4.984573e+00 7.698071e+00 6.922039e+00 5.153828e+00 4.689227e+00 3.806273e+00 3.632439e+00 2.608590e+00 2.092801e+00 1.531538e+00 1.780244e+01 1.211423e+00 1.783918e+00 8.175697e-01 8.920258e-01 8.363412e-01 8.744387e-01 1.221439e+00 1.121970e+00 9.179145e-01 8.744461e-01 7.509807e-01 7.278756e-01 5.062586e-01 4.087944e-01 2.974426e-01 1.767997e+00
<GCONST> 1.846319e+02
<STATE> 3
<MEAN> 48
 2.907345e+01 -3.836569e+01 -4.224952e+01 4.565687e+00 -2.481422e+01 -3.541245e+01 -1.388798e+01 -1.134015e+01 -1.704354e+01 -6.517693e+00 1.234455e+00 2.585419e+00 3.401020e+00 8.250506e+00 1.057973e+01 9.880023e+01 8.604651e-02 -2.171712e-02 -7.505253e-03 -1.613617e-02 -2.806895e-02 5.420464e-02 5.514712e-02 -3.853842e-03 -3.175321e-02 -1.562465e-02 -1.466134e-02 1.718329e-02 -1.503235e-03 8.097976e-03 1.010431e-02 7.331406e-02 2.529253e-03 -1.087803e-02 -2.043028e-02 -1.287355e-02 -1.529159e-02 -1.238684e-02 2.164021e-02 1.508911e-02 -8.472676e-03 -2.522829e-04 -1.521014e-03 1.752747e-02 1.642234e-02 1.501930e-02 1.123950e-02 1.013721e-03
<VARIANCE> 48
 2.209741e+02 3.013128e+02 1.268119e+02 1.728911e+02 9.220232e+01 8.673363e+01 2.192474e+02 1.811866e+02 8.448870e+01 7.097248e+01 4.556557e+01 4.222224e+01 3.359468e+01 2.496431e+01 1.871919e+01 4.891289e+02 9.668935e+00 1.270365e+01 5.553892e+00 5.594632e+00 4.766590e+00 4.984573e+00 7.698071e+00 6.922039e+00 5.153828e+00 4.689227e+00 3.806273e+00 3.632439e+00 2.608590e+00 2.092801e+00 1.531538e+00 1.780244e+01 1.211423e+00 1.783918e+00 8.175697e-01 8.920258e-01 8.363412e-01 8.744387e-01 1.221439e+00 1.121970e+00 9.179145e-01 8.744461e-01 7.509807e-01 7.278756e-01 5.062586e-01 4.087944e-01 2.974426e-01 1.767997e+00
<GCONST> 1.846319e+02
<STATE> 4
<MEAN> 48
 2.907345e+01 -3.836569e+01 -4.224952e+01 4.565687e+00 -2.481422e+01 -3.541245e+01 -1.388798e+01 -1.134015e+01 -1.704354e+01 -6.517693e+00 1.234455e+00 2.585419e+00 3.401020e+00 8.250506e+00 1.057973e+01 9.880023e+01 8.604651e-02 -2.171712e-02 -7.505253e-03 -1.613617e-02 -2.806895e-02 5.420464e-02 5.514712e-02 -3.853842e-03 -3.175321e-02 -1.562465e-02 -1.466134e-02 1.718329e-02 -1.503235e-03 8.097976e-03 1.010431e-02 7.331406e-02 2.529253e-03 -1.087803e-02 -2.043028e-02 -1.287355e-02 -1.529159e-02 -1.238684e-02 2.164021e-02 1.508911e-02 -8.472676e-03 -2.522829e-04 -1.521014e-03 1.752747e-02 1.642234e-02 1.501930e-02 1.123950e-02 1.013721e-03
<VARIANCE> 48
 2.209741e+02 3.013128e+02 1.268119e+02 1.728911e+02 9.220232e+01 8.673363e+01 2.192474e+02 1.811866e+02 8.448870e+01 7.097248e+01 4.556557e+01 4.222224e+01 3.359468e+01 2.496431e+01 1.871919e+01 4.891289e+02 9.668935e+00 1.270365e+01 5.553892e+00 5.594632e+00 4.766590e+00 4.984573e+00 7.698071e+00 6.922039e+00 5.153828e+00 4.689227e+00 3.806273e+00 3.632439e+00 2.608590e+00 2.092801e+00 1.531538e+00 1.780244e+01 1.211423e+00 1.783918e+00 8.175697e-01 8.920258e-01 8.363412e-01 8.744387e-01 1.221439e+00 1.121970e+00 9.179145e-01 8.744461e-01 7.509807e-01 7.278756e-01 5.062586e-01 4.087944e-01 2.974426e-01 1.767997e+00
<GCONST> 1.846319e+02
<STATE> 5
<MEAN> 48
 2.907345e+01 -3.836569e+01 -4.224952e+01 4.565687e+00 -2.481422e+01 -3.541245e+01 -1.388798e+01 -1.134015e+01 -1.704354e+01 -6.517693e+00 1.234455e+00 2.585419e+00 3.401020e+00 8.250506e+00 1.057973e+01 9.880023e+01 8.604651e-02 -2.171712e-02 -7.505253e-03 -1.613617e-02 -2.806895e-02 5.420464e-02 5.514712e-02 -3.853842e-03 -3.175321e-02 -1.562465e-02 -1.466134e-02 1.718329e-02 -1.503235e-03 8.097976e-03 1.010431e-02 7.331406e-02 2.529253e-03 -1.087803e-02 -2.043028e-02 -1.287355e-02 -1.529159e-02 -1.238684e-02 2.164021e-02 1.508911e-02 -8.472676e-03 -2.522829e-04 -1.521014e-03 1.752747e-02 1.642234e-02 1.501930e-02 1.123950e-02 1.013721e-03
<VARIANCE> 48
 2.209741e+02 3.013128e+02 1.268119e+02 1.728911e+02 9.220232e+01 8.673363e+01 2.192474e+02 1.811866e+02 8.448870e+01 7.097248e+01 4.556557e+01 4.222224e+01 3.359468e+01 2.496431e+01 1.871919e+01 4.891289e+02 9.668935e+00 1.270365e+01 5.553892e+00 5.594632e+00 4.766590e+00 4.984573e+00 7.698071e+00 6.922039e+00 5.153828e+00 4.689227e+00 3.806273e+00 3.632439e+00 2.608590e+00 2.092801e+00 1.531538e+00 1.780244e+01 1.211423e+00 1.783918e+00 8.175697e-01 8.920258e-01 8.363412e-01 8.744387e-01 1.221439e+00 1.121970e+00 9.179145e-01 8.744461e-01 7.509807e-01 7.278756e-01 5.062586e-01 4.087944e-01 2.974426e-01 1.767997e+00
<GCONST> 1.846319e+02
<TRANSP> 6
 0.000000e+00 1.000000e+00 0.000000e+00 0.000000e+00 0.000000e+00 0.000000e+00
 0.000000e+00 6.000000e-01 4.000000e-01 0.000000e+00 0.000000e+00 0.000000e+00
 0.000000e+00 0.000000e+00 6.000000e-01 4.000000e-01 0.000000e+00 0.000000e+00
 0.000000e+00 0.000000e+00 0.000000e+00 7.000000e-01 3.000000e-01 0.000000e+00
 0.000000e+00 0.000000e+00 0.000000e+00 0.000000e+00 7.000000e-01 3.000000e-01
 0.000000e+00 0.000000e+00 0.000000e+00 0.000000e+00 0.000000e+00 0.000000e+00
<ENDHMM>
~h "a"
<BEGINHMM>
<NUMSTATES> 6
<STATE> 2
<MEAN> 48
