~o
<STREAMINFO> 1 48
<VECSIZE> 48<NULLD><MFCC_D_A_0><DIAGC>
~h "a"
<BEGINHMM>
<NUMSTATES> 6
<STATE> 2
<MEAN> 48
 7.643160e+00 -8.806072e+01 -1.179435e+01 -3.217861e+01 1.503103e+00 2.569593e+01 2.117796e+01 4.234356e+01 1.872711e+01 -4.661567e+00 -1.170634e+00 2.329726e+00 -3.551319e+00 5.259437e+00 6.798990e+00 1.316387e+02 2.646092e+00 -4.395170e+00 -1.832857e+00 -2.309833e+00 7.877777e-01 -7.264884e-01 3.729367e+00 2.817624e+00 1.998277e+00 1.669753e+00 1.184712e+00 7.763638e-01 5.743507e-01 2.354774e-01 -7.234862e-01 8.836496e+00 -1.379550e+00 1.236228e+00 -3.326146e-02 3.280014e-01 -2.037772e-01 8.047845e-01 -7.419997e-01 -6.569900e-01 2.015742e-01 -4.514633e-01 -1.943206e-01 -4.721456e-03 -3.549855e-01 -3.423544e-01 3.597149e-02 -2.519250e+00
<VARIANCE> 48
 6.906052e+01 5.293658e+01 1.334412e+02 1.786332e+02 1.033699e+02 1.070913e+02 7.310949e+01 9.713273e+01 1.468509e+02 8.029887e+01 6.457477e+01 5.004003e+01 2.014064e+01 3.194862e+01 2.336643e+01 5.515809e+01 3.818702e+00 9.151136e+00 5.854550e+00 1.043919e+01 3.830022e+00 4.063130e+00 6.240886e+00 7.521579e+00 1.033440e+01 7.577174e+00 4.338653e+00 3.234596e+00 2.062058e+00 1.801205e+00 1.533880e+00 1.130249e+01 6.229582e-01 1.473507e+00 1.291811e+00 1.731353e+00 1.143410e+00 1.006024e+00 1.015952e+00 1.619262e+00 2.081182e+00 1.355170e+00 1.113288e+00 8.703039e-01 4.206080e-01 3.534526e-01 3.576837e-01 1.099933e+00
<GCONST> 1.807162e+02
<STATE> 3
<MEAN> 48
 8.802122e+00 -8.770385e+01 -1.247901e+01 -3.301425e+01 4.034827e+00 2.766935e+01 2.150505e+01 4.183114e+01 1.993694e+01 -5.225165e+00 -9.504044e-02 4.535892e+00 -3.630140e+00 4.144354e+00 5.815772e+00 1.391212e+02 1.074424e+00 -5.724075e-01 -7.401974e-01 -4.558194e-01 5.517392e-01 -3.296257e-02 4.026512e-01 4.443811e-02 2.333150e-01 -2.142131e-01 -9.169392e-03 1.298426e-01 -2.036820e-01 -4.311044e-01 -5.260570e-01 3.071229e+00 -6.186725e-01 1.270668e+00 1.792436e-01 6.901873e-01 -3.877870e-01 3.899316e-01 -9.652833e-01 -6.831303e-01 -5.826582e-01 -5.013751e-01 -3.559788e-01 -3.352714e-01 -1.991317e-01 -7.554406e-02 2.371345e-01 -2.311398e+00
<VARIANCE> 48
 5.186712e+01 4.215279e+01 1.143725e+02 2.125573e+02 7.968655e+01 8.615746e+01 5.363610e+01 8.573728e+01 1.754458e+02 8.709389e+01 3.692726e+01 4.019867e+01 2.404718e+01 2.104326e+01 1.788550e+01 3.121172e+01 2.052826e+00 5.264233e+00 4.587083e+00 7.566713e+00 3.923561e+00 3.374300e+00 5.173552e+00 6.125977e+00 8.028228e+00 5.970199e+00 5.147037e+00 3.472875e+00 2.188478e+00 1.690556e+00 1.108256e+00 5.385887e+00 4.807044e-01 1.002237e+00 9.526880e-01 1.488806e+00 9.240843e-01 6.731842e-01 1.072753e+00 1.066870e+00 1.633080e+00 1.347430e+00 9.383296e-01 6.285270e-01 4.907775e-01 3.013534e-01 3.114919e-01 1.005109e+00
<GCONST> 1.710451e+02
<STATE> 4
<MEAN> 48
 1.159640e+01 -8.739621e+01 -1.505672e+01 -3.007946e+01 3.363963e+00 2.772554e+01 2.103574e+01 4.023359e+01 1.648117e+01 -7.425600e+00 -1.281108e+00 2.455100e+00 -4.055814e+00 4.358511e+00 5.591905e+00 1.401074e+02 3.547946e-01 4.567515e-01 -4.101321e-01 -2.045168e-01 -9.638631e-02 5.684878e-01 -1.124979e-01 -1.871166e-01 -3.751325e-01 -5.188466e-01 -2.652716e-01 -7.195006e-02 -9.757617e-02 -2.663874e-02 7.299004e-02 -3.130985e-01 -2.821107e-01 2.428003e-01 2.271312e-01 -8.925135e-02 -9.304753e-02 1.300204e-01 -1.668668e-01 -1.163394e-01 -6.700524e-02 -4.079018e-02 -3.822381e-02 7.010399e-02 -1.900122e-02 -2.417677e-02 7.574099e-02 -8.607742e-01
<VARIANCE> 48
 4.334974e+01 4.179140e+01 1.296737e+02 2.014069e+02 6.376169e+01 7.416176e+01 6.906697e+01 7.131807e+01 7.551479e+01 5.320424e+01 4.773513e+01 5.331797e+01 2.209673e+01 1.987374e+01 1.518060e+01 2.244566e+01 1.554396e+00 3.079606e+00 3.475880e+00 6.083790e+00 3.564849e+00 2.573779e+00 3.333755e+00 3.462864e+00 5.052415e+00 5.250499e+00 3.699338e+00 2.432615e+00 1.539082e+00 1.406710e+00 1.360031e+00 3.163275e+00 3.213571e-01 6.963595e-01 6.541905e-01 1.051646e+00 7.159123e-01 4.522699e-01 7.318801e-01 7.583310e-01 1.027512e+00 1.162226e+00 8.759701e-01 4.465265e-01 2.549109e-01 3.021372e-01 2.832507e-01 5.145809e-01
<GCONST> 1.590591e+02
<STATE> 5
<MEAN> 48
 8.784386e+00 -8.502197e+01 -1.405643e+01 -3.517306e+01 3.566521e+00 3.196857e+01 1.735647e+01 3.563398e+01 1.291381e+01 -9.265351e+00 -2.743028e+00 3.100669e+00 -5.933333e+00 2.195518e+00 5.593631e+00 1.294200e+02 -1.324023e+00 4.635876e-01 6.234496e-01 3.951422e-01 -1.248574e-02 5.397572e-01 -7.115652e-01 -6.252670e-01 -6.156259e-01 -8.451489e-02 -4.628174e-02 -1.078382e-02 -2.552117e-01 -1.564660e-01 2.026974e-01 -3.298261e+00 -3.718088e-01 -9.468202e-03 5.594349e-02 3.573758e-01 1.977299e-02 4.393406e-02 -1.008381e-01 -8.533147e-02 -7.515820e-02 2.127507e-02 6.108729e-02 -7.965842e-03 4.020809e-02 2.051389e-02 3.876433e-02 -4.336768e-01
<VARIANCE> 48
 5.819682e+01 6.049784e+01 9.908645e+01 9.653987e+01 6.347890e+01 6.721884e+01 5.721294e+01 5.807345e+01 8.115449e+01 4.995392e+01 5.624469e+01 4.674625e+01 2.555504e+01 2.069578e+01 1.440001e+01 1.298022e+02 3.821209e+00 4.594079e+00 4.233453e+00 9.307867e+00 3.210354e+00 3.012580e+00 2.573706e+00 3.471833e+00 4.612265e+00 4.491930e+00 3.649400e+00 2.652251e+00 1.226986e+00 1.364848e+00 1.306078e+00 5.327166e+00 5.832803e-01 8.480745e-01 7.759680e-01 1.470296e+00 7.111412e-01 5.382134e-01 4.075249e-01 5.980912e-01 8.662313e-01 9.609815e-01 7.609985e-01 5.432282e-01 2.567714e-01 2.649910e-01 2.652279e-01 4.440229e-01
<GCONST> 1.619209e+02
<TRANSP> 6
 0.000000e+00 1.000000e+00 0.000000e+00 0.000000e+00 0.000000e+00 0.000000e+00
 0.000000e+00 3.744130e-01 6.255870e-01 0.000000e+00 0.000000e+00 0.000000e+00
 0.000000e+00 0.000000e+00 4.269978e-01 5.730022e-01 0.000000e+00 0.000000e+00
 0.000000e+00 0.000000e+00 0.000000e+00 7.728711e-01 2.271288e-01 0.000000e+00
 0.000000e+00 0.000000e+00 0.000000e+00 0.000000e+00 8.691329e-01 1.308671e-01
 0.000000e+00 0.000000e+00 0.000000e+00 0.000000e+00 0.000000e+00 0.000000e+00
<ENDHMM>
~h "b"
<BEGINHMM>
<NUMSTATES> 6
<STATE> 2
<MEAN> 48
 -1.240188e+01 -7.333918e+01 -1.491478e+01 -2.712749e+01 -1.831540e+00 3.948951e+01 1.104400e+01 3.462655e+01 2.303285e+01 -4.980509e+00 -1.274916e+00 1.873407e+00 -6.481398e+00 3.245436e+00 1.031928e+01 9.026256e+01 1.026588e+00 3.602137e-01 -3.994529e-01 -2.635509e-01 -3.735090e-01 -5.318802e-01 -7.584019e-02 1.055555e-01 1.001413e-01 -1.905345e-01 -1.904980e-01 -1.756588e-01 -2.138294e-01 -4.990075e-02 -2.221006e-01 6.036896e-01 2.745862e-01 3.777340e-02 3.094812e-01 4.900394e-01 2.954080e-01 -2.581700e-01 -2.379839e-01 -4.432213e-01 -5.694522e-01 -3.151220e-01 -9.247553e-02 -2.464252e-03 8.728667e-02 -2.885253e-02 -9.045553e-02 5.037180e-01
<VARIANCE> 48
 5.591367e+01 7.308452e+01 1.772127e+02 9.698151e+01 9.857313e+01 4.636291e+01 4.781776e+01 6.834377e+01 1.183437e+02 6.008266e+01 4.450991e+01 4.693860e+01 2.680298e+01 2.068461e+01 1.336441e+01 9.023019e+01 4.936041e+00 1.916713e+00 4.515435e+00 4.003620e+00 3.379084e+00 2.783500e+00 4.257858e+00 5.356758e+00 5.217180e+00 4.079210e+00 3.098010e+00 3.041893e+00 1.585768e+00 1.257627e+00 1.093950e+00 2.407551e+00 1.387465e+00 5.348191e-01 9.588192e-01 9.171378e-01 9.065446e-01 7.143296e-01 8.765001e-01 1.150432e+00 1.231010e+00 8.439991e-01 6.209442e-01 6.537058e-01 3.703854e-01 2.947181e-01 2.684246e-01 1.420182e+00
<GCONST> 1.653056e+02
<STATE> 3
<MEAN> 48
 -1.232849e+01 -7.439561e+01 -1.362576e+01 -2.820717e+01 -1.830468e+00 3.726130e+01 1.111162e+01 3.460446e+01 2.000572e+01 -8.377831e+00 -2.835245e+00 3.015455e+00 -6.652997e+00 1.831524e+00 8.368660e+00 9.181409e+01 2.569121e+00 7.755183e-01 5.196078e-01 1.318213e+00 4.638538e-01 -1.406247e+00 -8.264485e-01 -1.373238e+00 -2.084958e+00 -1.381765e+00 -4.312191e-01 -2.697578e-01 3.325736e-01 5.974036e-02 -3.903244e-01 2.834517e+00 1.179045e+00 -9.143594e-01 1.246315e-01 6.108718e-01 1.045685e+00 -4.320485e-01 -2.956371e-02 -4.636083e-01 -7.575667e-01 5.586661e-02 2.017292e-01 -4.640009e-02 1.334547e-01 1.807593e-01 -1.864903e-02 2.487062e+00
<VARIANCE> 48
 6.297490e+01 9.786112e+01 2.387805e+02 7.595217e+01 1.335801e+02 5.646243e+01 6.046418e+01 6.372102e+01 1.201261e+02 6.927196e+01 4.831870e+01 4.210616e+01 2.873947e+01 2.730311e+01 1.256785e+01 9.716612e+01 7.603551e+00 4.508628e+00 4.999102e+00 4.612487e+00 5.673597e+00 3.594341e+00 6.227844e+00 7.410235e+00 7.695945e+00 4.995839e+00 3.095354e+00 2.572332e+00 1.724998e+00 1.312372e+00 1.420966e+00 1.049019e+01 1.255613e+00 1.570467e+00 1.160151e+00 2.015470e+00 1.961964e+00 8.910908e-01 1.278976e+00 1.420954e+00 1.343051e+00 1.063758e+00 8.581790e-01 6.770340e-01 3.248417e-01 3.018634e-01 3.172103e-01 2.329126e+00
<GCONST> 1.769882e+02
<STATE> 4
<MEAN> 48
 -7.945447e+00 -7.096540e+01 -8.283075e+00 -2.483507e+01 3.297896e-01 3.481809e+01 7.286213e+00 2.884345e+01 1.272449e+01 -1.208615e+01 -4.078560e+00 2.930512e+00 -5.691103e+00 2.448590e+00 8.518249e+00 9.657963e+01 5.388122e+00 -2.285340e+00 5.672614e-01 2.157052e+00 3.255405e+00 -2.085250e+00 -6.236540e-01 -2.073238e+00 -3.238753e+00 -6.524200e-01 3.181899e-01 -1.751129e-01 4.374858e-01 5.242501e-01 -4.032771e-01 9.150663e+00 5.120291e-01 -1.849673e+00 -3.164380e-01 2.156178e-01 1.031935e+00 -1.820366e-01 6.549211e-01 4.375497e-01 3.259735e-01 8.271091e-01 5.656558e-01 1.030684e-01 -9.747555e-03 1.365583e-01 -4.335526e-02 2.651151e+00
<VARIANCE> 48
 6.701572e+01 1.129446e+02 1.689050e+02 7.628832e+01 1.109123e+02 4.876155e+01 6.169817e+01 7.980772e+01 1.290197e+02 6.216304e+01 4.044387e+01 3.592623e+01 2.143552e+01 2.459660e+01 1.338153e+01 1.333023e+02 6.622617e+00 1.065771e+01 8.660563e+00 1.369753e+01 1.283327e+01 6.706985e+00 7.337093e+00 1.142202e+01 1.015195e+01 6.613170e+00 5.004695e+00 4.512192e+00 2.362849e+00 1.846743e+00 1.971763e+00 1.273610e+01 1.083358e+00 1.398167e+00 1.089384e+00 2.323979e+00 1.244776e+00 8.181128e-01 1.435304e+00 1.697003e+00 1.834136e+00 1.417715e+00 7.354046e-01 6.666444e-01 2.963070e-01 2.891959e-01 3.250559e-01 1.542922e+00
<GCONST> 1.830219e+02
<STATE> 5
<MEAN> 48
 3.036355e+00 -7.746994e+01 -9.430875e+00 -1.904065e+01 8.742448e+00 3.221529e+01 7.407951e+00 2.620068e+01 7.720232e+00 -1.196353e+01 -1.585676e+00 3.069285e+00 -5.083625e+00 3.701371e+00 7.850839e+00 1.172651e+02 4.746402e+00 -5.534242e+00 -5.404810e-01 1.845898e+00 4.261762e+00 -1.953757e+00 1.233500e+00 -2.229925e-01 -1.149590e+00 1.542121e+00 1.553998e+00 1.425009e-01 3.361685e-01 5.867501e-01 -4.036812e-01 1.194193e+01 -1.155375e+00 -8.620132e-01 -1.690979e-01 -3.603422e-01 -1.193572e-01 2.815213e-01 6.278406e-01 8.611353e-01 1.201534e+00 8.201568e-01 2.486971e-01 7.124759e-02 -4.100849e-02 -2.223999e-02 1.966357e-02 -1.279938e-01
<VARIANCE> 48
 7.433650e+01 1.310055e+02 9.423426e+01 1.552083e+02 1.110113e+02 7.548642e+01 8.599003e+01 1.197405e+02 9.324361e+01 5.961554e+01 5.026083e+01 3.587601e+01 1.944553e+01 1.941602e+01 1.710713e+01 1.265297e+02 5.295565e+00 1.114660e+01 7.093767e+00 2.422766e+01 1.503771e+01 5.195163e+00 9.047316e+00 1.244307e+01 7.190497e+00 6.381160e+00 3.983235e+00 5.170385e+00 1.810545e+00 1.682241e+00 1.752911e+00 6.405312e+00 9.879034e-01 2.000802e+00 1.486115e+00 1.265088e+00 1.276044e+00 9.212157e-01 1.451427e+00 1.648858e+00 1.780079e+00 1.304280e+00 8.966187e-01 7.054023e-01 3.608021e-01 3.274460e-01 3.674948e-01 2.737375e+00
<GCONST> 1.842910e+02
<TRANSP> 6
 0.000000e+00 1.000000e+00 0.000000e+00 0.000000e+00 0.000000e+00 0.000000e+00
 0.000000e+00 6.805049e-01 3.194951e-01 0.000000e+00 0.000000e+00 0.000000e+00
 0.000000e+00 0.000000e+00 3.387617e-01 6.612383e-01 0.000000e+00 0.000000e+00
 0.000000e+00 0.000000e+00 0.000000e+00 2.485255e-01 7.514744e-01 0.000000e+00
 0.000000e+00 0.000000e+00 0.000000e+00 0.000000e+00 1.633518e-01 8.366482e-01
 0.000000e+00 0.000000e+00 0.000000e+00 0.000000e+00 0.000000e+00 0.000000e+00
<ENDHMM>
~h "e"
<BEGINHMM>
<NUMSTATES> 6
<STATE> 2
<MEAN> 48
 3.785332e+00 -9.357058e+01 -8.063631e+00 -8.379333e+00 2.611725e+01 3.293454e+01 5.802474e+00 2.120980e+01 6.180624e+00 -6.182521e+00 3.797753e+00 5.159364e+00 -4.713482e+00 4.401825e+00 7.925933e+00 1.364238e+02 5.365654e-01 -4.313910e+00 1.038000e+00 4.062039e+00 3.461538e+00 -1.629190e+00 -8.913482e-01 -1.212116e+00 -2.879273e-01 1.701804e+00 1.124124e+00 -5.362942e-01 -1.913482e-02 4.017479e-01 -3.124791e-01 6.997860e+00 -1.197457e+00 1.150176e+00 3.523518e-01 -7.587898e-01 -1.611407e+00 -5.165033e-03 -1.035585e-03 5.603994e-01 7.040248e-01 -1.381699e-01 -5.710815e-01 -2.162479e-01 -7.827101e-02 -6.717548e-02 1.190223e-01 -2.480790e+00
<VARIANCE> 48
 4.627100e+01 5.342923e+01 7.860217e+01 1.372499e+02 7.403780e+01 5.298108e+01 6.173132e+01 7.481493e+01 5.424331e+01 4.627502e+01 3.216908e+01 3.557800e+01 1.650935e+01 1.597377e+01 1.353348e+01 4.465664e+01 4.318406e+00 1.044726e+01 4.783240e+00 6.787051e+00 8.374411e+00 3.962882e+00 5.889649e+00 7.867832e+00 8.195270e+00 6.178714e+00 2.935580e+00 4.522685e+00 1.568942e+00 1.694381e+00 1.508513e+00 1.736337e+01 8.850224e-01 1.865937e+00 9.606705e-01 1.150823e+00 1.422044e+00 6.189345e-01 1.169329e+00 1.681005e+00 1.081707e+00 1.038119e+00 6.364539e-01 6.016443e-01 2.521710e-01 3.755386e-01 2.918748e-01 1.191147e+00
<GCONST> 1.711533e+02
<STATE> 3
<MEAN> 48
 2.934796e+00 -9.579112e+01 -6.735356e+00 5.699925e-01 2.550767e+01 3.006898e+01 4.760663e+00 2.002275e+01 6.276628e+00 -4.778979e+00 4.282870e+00 3.706443e+00 -4.652054e+00 4.474656e+00 7.517708e+00 1.406998e+02 -3.771295e-01 -7.671201e-01 1.143236e+00 2.044911e+00 4.682396e-01 -1.365427e+00 -8.729826e-01 -6.491815e-01 1.004863e-01 4.817421e-01 -3.441589e-01 -7.506195e-01 -1.553650e-01 2.354191e-01 1.517756e-01 1.335921e+00 -2.912371e-01 9.301618e-01 -1.090392e-03 -7.832848e-01 -7.970948e-01 2.243432e-01 6.367377e-02 3.062871e-01 1.332353e-01 -3.142883e-01 -3.411798e-01 6.130783e-02 -8.988902e-03 -4.112941e-02 1.444432e-01 -1.694029e+00
<VARIANCE> 48
 4.089703e+01 3.394681e+01 6.495477e+01 2.089290e+02 6.346130e+01 6.998392e+01 6.959538e+01 6.197306e+01 6.915984e+01 3.599998e+01 3.863689e+01 4.338568e+01 1.807125e+01 1.811910e+01 1.193419e+01 1.878192e+01 2.126101e+00 4.517434e+00 3.571368e+00 6.034456e+00 4.048019e+00 3.552004e+00 5.352942e+00 6.367408e+00 5.373684e+00 3.646407e+00 2.986646e+00 2.225538e+00 1.240866e+00 1.575348e+00 9.894899e-01 5.845925e+00 5.657425e-01 1.184346e+00 6.358855e-01 1.012653e+00 1.352258e+00 7.637197e-01 1.007880e+00 1.082237e+00 1.066030e+00 8.479270e-01 5.739747e-01 5.084327e-01 2.079317e-01 3.167617e-01 2.286226e-01 1.486289e+00
<GCONST> 1.611541e+02
<STATE> 4
<MEAN> 48
 -8.369446e-01 -9.648790e+01 -7.309191e-01 2.107812e+00 2.468630e+01 2.472127e+01 1.074939e+00 1.862691e+01 7.026736e+00 -4.273556e+00 1.204966e+00 2.591530e-01 -5.468849e+00 5.945768e+00 8.364452e+00 1.391815e+02 -5.513651e-01 2.140117e-01 5.823720e-01 2.325261e-01 -1.065165e-03 -3.769429e-01 -5.458328e-01 -8.409547e-02 3.005947e-01 -7.803872e-03 -2.603393e-01 -5.180181e-02 1.026072e-03 9.975553e-02 1.510649e-01 -1.362016e+00 -9.446495e-02 1.813542e-01 -7.566588e-02 -4.494033e-01 -5.900413e-02 2.428933e-01 1.373980e-02 1.144193e-01 6.953371e-02 -4.303742e-02 -2.221752e-03 1.468066e-01 1.842171e-02 -4.696739e-02 5.346717e-03 -7.572049e-01
<VARIANCE> 48
 4.593944e+01 3.809995e+01 1.027543e+02 1.457980e+02 5.941222e+01 6.847432e+01 7.091657e+01 6.190940e+01 6.456802e+01 3.812142e+01 3.793012e+01 4.132524e+01 1.734676e+01 1.423221e+01 1.004100e+01 3.395428e+01 1.696485e+00 3.199295e+00 3.319398e+00 4.714321e+00 3.341312e+00 3.201986e+00 5.111569e+00 5.866644e+00 4.427442e+00 3.723787e+00 1.900924e+00 1.725947e+00 1.197320e+00 1.279170e+00 9.891971e-01 3.224554e+00 3.459171e-01 6.558874e-01 6.890580e-01 9.154658e-01 7.184519e-01 6.461185e-01 1.102371e+00 1.246270e+00 9.623036e-01 7.935678e-01 4.095029e-01 3.358716e-01 2.353016e-01 2.762462e-01 2.111179e-01 4.623049e-01
<GCONST> 1.545867e+02
<STATE> 5
<MEAN> 48
 -6.389324e+00 -9.187371e+01 1.989752e+00 -2.736132e+00 2.496392e+01 2.675767e+01 -2.734859e+00 1.986309e+01 1.045691e+01 -4.190626e+00 -2.231043e-01 1.751644e+00 -5.666180e+00 6.095204e+00 9.404540e+00 1.200213e+02 -1.354169e+00 1.104553e+00 8.357856e-02 -1.237166e+00 -7.250979e-01 9.151791e-01 -2.902626e-01 6.801526e-01 6.238104e-01 -4.542995e-03 -4.470360e-01 1.906350e-01 -4.291699e-02 -1.794732e-01 2.176123e-01 -4.210539e+00 -1.745053e-01 2.799992e-01 -3.048604e-01 -1.418733e-01 -3.994519e-01 2.337692e-01 3.300163e-01 1.257551e-01 -9.856167e-02 -1.086097e-01 2.644534e-02 -1.930377e-02 2.148221e-03 -7.394157e-02 -2.247069e-02 -2.528013e-01
<VARIANCE> 48
 4.300332e+01 7.271772e+01 9.672781e+01 1.063819e+02 6.524546e+01 1.053399e+02 1.015189e+02 9.267306e+01 8.746001e+01 4.265459e+01 3.573199e+01 3.336146e+01 1.393124e+01 1.917517e+01 1.697121e+01 2.381646e+02 3.957677e+00 5.913842e+00 6.864053e+00 9.633159e+00 5.432806e+00 4.804204e+00 7.836405e+00 9.728615e+00 6.698147e+00 4.188334e+00 2.942412e+00 2.204699e+00 1.452705e+00 1.750792e+00 1.270640e+00 1.055787e+01 7.352069e-01 1.232065e+00 1.343903e+00 1.804741e+00 1.079481e+00 7.646700e-01 1.688808e+00 2.048435e+00 1.246739e+00 8.771929e-01 5.485703e-01 4.083897e-01 2.816823e-01 3.352619e-01 2.743769e-01 1.960290e+00
<GCONST> 1.738135e+02
<TRANSP> 6
 0.000000e+00 1.000000e+00 0.000000e+00 0.000000e+00 0.000000e+00 0.000000e+00
 0.000000e+00 4.558864e-01 5.441136e-01 0.000000e+00 0.000000e+00 0.000000e+00
 0.000000e+00 0.000000e+00 5.473345e-01 4.526656e-01 0.000000e+00 0.000000e+00
 0.000000e+00 0.000000e+00 0.000000e+00 8.273398e-01 1.726601e-01 0.000000e+00
 0.000000e+00 0.000000e+00 0.000000e+00 0.000000e+00 8.435950e-01 1.564051e-01
 0.000000e+00 0.000000e+00 0.000000e+00 0.000000e+00 0.000000e+00 0.000000e+00
<ENDHMM>
~h "silence"
<BEGINHMM>
<NUMSTATES> 6
<STATE> 2
<MEAN> 48
 -1.531184e+01 -8.122937e+01 -1.766970e+00 -2.146992e+01 9.644450e+00 3.624805e+01 7.609244e+00 2.980989e+01 1.351547e+01 -7.099132e+00 -2.125445e+00 3.811835e+00 -6.147860e+00 2.766387e+00 9.572641e+00 9.809354e+01 -1.026402e+00 1.284026e+00 -3.429413e-01 4.875314e-01 -6.875786e-01 2.993981e-01 -5.570789e-01 -5.093449e-01 -7.056932e-01 -8.866216e-01 -4.049605e-01 -8.061092e-02 6.531189e-02 -1.760336e-01 -8.365840e-03 -2.318614e+00 -8.557849e-02 -7.236759e-02 -2.473307e-01 -1.094707e-01 -9.215093e-02 1.210349e-01 2.298937e-01 1.832177e-01 3.058634e-01 1.858046e-01 2.427341e-01 1.573390e-01 6.405158e-02 2.685945e-02 -5.798645e-02 8.456803e-02
<VARIANCE> 48
 1.088511e+02 9.541614e+01 1.201224e+02 1.319463e+02 1.232260e+02 7.112053e+01 8.906407e+01 7.927988e+01 8.947987e+01 5.117198e+01 4.133338e+01 3.531506e+01 2.030156e+01 2.664539e+01 1.510015e+01 1.727453e+02 5.497567e+00 5.897509e+00 4.948320e+00 7.231930e+00 5.184077e+00 5.114833e+00 6.788378e+00 8.827806e+00 6.727434e+00 6.003266e+00 3.206186e+00 3.081844e+00 2.194547e+00 1.970468e+00 1.456048e+00 9.818219e+00 3.117175e-01 5.448903e-01 7.073680e-01 9.201931e-01 5.054855e-01 4.373799e-01 7.109113e-01 7.585284e-01 8.235878e-01 6.753051e-01 4.502319e-01 3.728048e-01 2.625389e-01 2.794644e-01 1.774040e-01 3.357579e-01
<GCONST> 1.673603e+02
<STATE> 3
<MEAN> 48
 -1.688846e+01 -7.721716e+01 -3.626838e+00 -1.929429e+01 8.071980e+00 3.633532e+01 6.653870e+00 2.760474e+01 1.232360e+01 -9.313152e+00 -3.028104e+00 4.135355e+00 -5.548278e+00 2.406927e+00 9.167568e+00 9.284402e+01 -1.367308e+00 8.508351e-01 -8.419539e-01 -6.035270e-02 -8.802135e-01 7.716573e-01 2.254032e-01 5.835265e-02 3.451214e-01 -9.605081e-02 2.820391e-01 3.734049e-01 1.409980e-01 -8.386493e-02 -1.257407e-02 -2.310932e+00 1.982911e-01 -2.602967e-01 -1.437802e-01 -4.074092e-01 -5.487353e-02 1.434603e-01 3.318272e-01 2.955132e-01 3.726134e-01 2.357015e-01 1.524909e-01 7.118054e-02 -2.676113e-02 4.448841e-02 -3.364941e-03 4.693689e-01
<VARIANCE> 48
 1.033397e+02 2.035381e+02 1.379133e+02 1.348846e+02 1.011269e+02 7.800316e+01 7.109148e+01 9.156139e+01 7.988132e+01 5.297381e+01 4.043170e+01 3.346483e+01 2.080933e+01 2.686226e+01 1.526890e+01 2.444800e+02 4.803600e+00 4.987681e+00 5.273971e+00 6.654515e+00 5.114626e+00 4.181315e+00 4.886622e+00 5.963722e+00 5.717209e+00 4.528994e+00 2.961380e+00 3.063196e+00 2.025366e+00 1.789069e+00 1.536091e+00 6.534997e+00 5.478014e-01 9.034160e-01 9.681723e-01 1.032110e+00 7.317917e-01 7.342516e-01 9.712346e-01 1.237122e+00 1.484377e+00 1.252577e+00 6.869326e-01 6.142677e-01 3.892691e-01 3.889124e-01 2.534365e-01 8.020986e-01
<GCONST> 1.732256e+02
<STATE> 4
<MEAN> 48
 -1.840492e+01 -7.796326e+01 -5.979611e+00 -2.068627e+01 6.036786e+00 3.932032e+01 7.664446e+00 2.904704e+01 1.436953e+01 -7.984469e+00 -1.659851e+00 4.658162e+00 -5.559419e+00 2.118278e+00 9.252532e+00 9.052608e+01 -5.596806e-01 5.575153e-01 -7.259079e-01 -8.381073e-01 -8.731501e-01 7.514961e-01 5.452303e-01 3.303403e-01 6.180946e-01 3.066003e-02 1.464462e-01 1.440991e-01 -3.606569e-03 -2.896604e-02 8.177046e-02 -1.079769e+00 3.808532e-01 -1.369506e-01 1.166532e-01 -3.085467e-01 -9.849465e-03 -1.748105e-01 8.477093e-02 1.929225e-01 1.560149e-01 7.581868e-02 -2.581078e-02 -5.589889e-02 -4.337684e-02 2.955876e-02 4.807539e-03 5.931504e-01
<VARIANCE> 48
 6.832863e+01 1.058312e+02 1.365680e+02 1.126376e+02 9.486382e+01 6.292896e+01 6.417060e+01 8.035443e+01 9.587527e+01 6.113953e+01 3.608702e+01 2.917738e+01 2.499048e+01 2.513162e+01 1.723221e+01 1.509632e+02 4.744774e+00 3.956692e+00 5.295747e+00 5.317375e+00 4.913764e+00 3.418677e+00 4.645591e+00 5.165689e+00 6.489320e+00 4.681219e+00 3.116061e+00 2.663515e+00 1.955634e+00 1.728897e+00 1.324121e+00 4.842605e+00 4.837149e-01 7.746280e-01 1.146332e+00 9.069772e-01 1.003906e+00 7.031147e-01 7.812407e-01 1.352256e+00 1.442259e+00 1.168007e+00 6.263655e-01 6.049677e-01 4.059159e-01 3.863105e-01 3.062445e-01 5.251895e-01
<GCONST> 1.694405e+02
<STATE> 5
<MEAN> 48
 -1.712677e+01 -7.609304e+01 -8.025263e+00 -2.373886e+01 2.967052e+00 4.081655e+01 9.976926e+00 3.265224e+01 1.743541e+01 -7.703744e+00 -1.704661e+00 4.720123e+00 -5.015777e+00 2.163617e+00 9.829548e+00 8.986472e+01 2.116740e-01 3.676252e-02 -2.870784e-01 -8.125943e-01 -4.507714e-01 1.202021e-01 4.072080e-01 5.913766e-01 5.394130e-01 1.798617e-01 1.753281e-01 1.156156e-01 -4.065930e-03 9.028922e-02 1.277011e-02 1.672307e-01 1.834468e-01 -8.859597e-02 9.034255e-02 5.817626e-02 1.185234e-01 -1.288039e-01 -1.015931e-01 8.221488e-03 4.782334e-03 1.740630e-02 1.379008e-02 -3.621655e-02 -3.851007e-03 4.059378e-02 -4.467512e-02 2.690901e-01
<VARIANCE> 48
 3.877680e+01 7.208964e+01 1.219955e+02 8.416516e+01 6.934158e+01 5.087305e+01 5.079476e+01 7.912267e+01 1.032125e+02 6.420981e+01 3.692146e+01 3.069502e+01 2.460956e+01 2.194618e+01 1.657928e+01 1.043823e+02 3.493928e+00 2.617608e+00 4.062487e+00 4.043706e+00 3.538506e+00 2.986719e+00 4.004373e+00 6.529197e+00 6.644689e+00 4.802670e+00 2.976551e+00 2.488125e+00 1.922903e+00 1.588730e+00 1.147441e+00 2.335003e+00 4.796402e-01 4.148721e-01 6.104523e-01 5.771787e-01 5.435875e-01 4.111215e-01 6.353629e-01 1.047749e+00 1.073576e+00 7.663136e-01 4.371930e-01 3.848855e-01 3.473319e-01 2.551796e-01 1.793655e-01 3.771462e-01
<GCONST> 1.579819e+02
<TRANSP> 6
 0.000000e+00 1.000000e+00 0.000000e+00 0.000000e+00 0.000000e+00 0.000000e+00
 0.000000e+00 3.201851e-01 6.798149e-01 0.000000e+00 0.000000e+00 0.000000e+00
 0.000000e+00 0.000000e+00 3.652606e-01 6.347394e-01 0.000000e+00 0.000000e+00
 0.000000e+00 0.000000e+00 0.000000e+00 4.923216e-01 5.076784e-01 0.000000e+00
 0.000000e+00 0.000000e+00 0.000000e+00 0.000000e+00 7.627312e-01 2.372688e-01
 0.000000e+00 0.000000e+00 0.000000e+00 0.000000e+00 0.000000e+00 0.000000e+00
<ENDHMM>
