~o
<STREAMINFO> 1 48
<VECSIZE> 48<NULLD><MFCC_D_A_0><DIAGC>
~h "a"
<BEGINHMM>
<NUMSTATES> 6
<STATE> 2
<MEAN> 48
 5.134686e+01 -4.187790e+01 -3.784713e+01 -3.664158e+00 -3.888543e+01 -3.305175e+01 -6.148343e+00 -7.152280e+00 -1.364279e+01 -6.432256e+00 3.271669e+00 8.339469e+00 7.402140e+00 8.993137e+00 8.996693e+00 1.221965e+02 3.229648e+00 -6.926096e+00 -2.057837e+00 -2.183968e+00 -2.495707e+00 1.396861e+00 2.480366e+00 9.840769e-01 1.677319e+00 7.031198e-01 1.594501e-01 6.790579e-01 5.464548e-01 -8.704542e-02 1.479011e-01 8.429214e+00 -2.274923e+00 9.087149e-01 -9.233596e-01 -1.060354e-01 1.028203e+00 -2.538443e-02 2.287968e-01 4.481046e-01 -3.668096e-01 -2.161344e-01 -2.660426e-01 -4.724361e-01 -2.329412e-01 4.960993e-02 1.753067e-01 -2.399639e+00
<VARIANCE> 48
 2.979550e+01 1.128480e+02 9.338396e+01 5.585496e+01 8.677280e+01 5.337374e+01 4.078111e+01 5.483797e+01 5.956708e+01 3.380420e+01 3.601205e+01 3.691673e+01 2.367487e+01 2.226289e+01 1.710873e+01 2.963643e+01 6.874849e+00 9.675513e+00 4.626350e+00 6.366093e+00 5.758399e+00 7.498418e+00 4.948800e+00 3.790232e+00 3.735230e+00 3.003853e+00 4.372657e+00 4.674751e+00 3.170925e+00 2.879436e+00 1.592106e+00 8.617402e+00 5.974107e-01 2.739690e+00 6.905746e-01 1.065972e+00 9.135881e-01 1.340754e+00 1.254702e+00 6.228147e-01 7.450115e-01 8.665393e-01 7.330824e-01 7.970167e-01 5.390472e-01 5.990093e-01 4.346099e-01 5.932123e-01
<GCONST> 1.695718e+02
<STATE> 3
<MEAN> 48
 4.850113e+01 -4.654203e+01 -4.072022e+01 -6.320475e+00 -3.770257e+01 -3.179511e+01 -3.388024e+00 -5.129847e+00 -1.217256e+01 -6.444501e+00 9.039346e-01 6.254920e+00 7.230942e+00 9.409371e+00 1.038627e+01 1.286929e+02 -5.343759e-01 -2.344788e+00 -2.086522e+00 -1.443431e+00 7.486427e-01 1.719654e+00 2.084985e+00 1.456210e+00 1.056131e+00 6.569146e-01 -1.007845e-01 -3.180327e-01 -1.281334e-01 -1.002225e-01 2.605069e-01 2.242755e+00 -9.868171e-01 1.565080e+00 1.789988e-01 5.051428e-01 8.308057e-01 -3.946589e-02 -1.442741e-01 7.565219e-02 -3.179927e-01 -3.827379e-02 -1.150391e-02 -2.188950e-01 -1.857661e-01 -7.813021e-02 -1.192387e-01 -2.221469e+00
<VARIANCE> 48
 3.005959e+01 8.644724e+01 9.103045e+01 6.697655e+01 1.017480e+02 5.792545e+01 5.306959e+01 5.102008e+01 4.745956e+01 2.264545e+01 3.025090e+01 2.272608e+01 2.590857e+01 3.096018e+01 1.402263e+01 1.840825e+01 2.030632e+00 8.137009e+00 3.118523e+00 3.128109e+00 3.612766e+00 5.158667e+00 7.372065e+00 4.493717e+00 3.269302e+00 3.100311e+00 3.259209e+00 2.716431e+00 1.862038e+00 2.479052e+00 1.593879e+00 4.599587e+00 9.005489e-01 1.521134e+00 5.395275e-01 6.717586e-01 7.952591e-01 7.897851e-01 6.682761e-01 5.328743e-01 4.679823e-01 4.928997e-01 6.544608e-01 5.290281e-01 4.149863e-01 4.715365e-01 2.277204e-01 9.607416e-01
<GCONST> 1.587859e+02
<STATE> 4
<MEAN> 48
 4.689781e+01 -5.137418e+01 -4.621875e+01 -7.990261e+00 -3.441684e+01 -2.650755e+01 1.857445e+00 -1.597642e+00 -9.925151e+00 -4.695981e+00 1.223104e+00 5.480555e+00 5.853079e+00 8.324094e+00 9.853665e+00 1.290174e+02 -3.709013e-01 -1.836413e-01 -7.345548e-01 -4.210231e-01 4.007367e-01 7.332495e-01 9.315157e-01 8.207772e-01 4.321639e-01 2.796412e-01 1.233450e-01 -1.644411e-01 -2.013843e-01 -5.255041e-02 -2.440615e-03 -7.256309e-01 -1.014085e-01 5.295720e-01 8.409180e-02 2.989140e-02 5.659046e-02 -1.741307e-01 -2.520319e-01 -6.061735e-02 -1.005492e-01 -7.995052e-02 2.914761e-02 -3.260821e-02 -5.790243e-02 -2.376256e-04 3.348085e-03 -6.969272e-01
<VARIANCE> 48
 2.081967e+01 6.692934e+01 6.384864e+01 5.603535e+01 5.993541e+01 6.259634e+01 7.385013e+01 4.815729e+01 4.723227e+01 4.013726e+01 3.042363e+01 3.498879e+01 1.803443e+01 1.546964e+01 1.338532e+01 1.884149e+01 2.353578e+00 4.051730e+00 1.401564e+00 2.279334e+00 2.717239e+00 2.791673e+00 3.913109e+00 3.448611e+00 3.495324e+00 2.975706e+00 3.343758e+00 3.124634e+00 1.605947e+00 1.224503e+00 1.259237e+00 2.507464e+00 4.581845e-01 8.481118e-01 3.324118e-01 5.117877e-01 5.286754e-01 6.069916e-01 8.871329e-01 6.961590e-01 6.675709e-01 5.859190e-01 7.213689e-01 6.199822e-01 2.790872e-01 2.542834e-01 2.966592e-01 4.256727e-01
<GCONST> 1.494919e+02
<STATE> 5
<MEAN> 48
 3.994297e+01 -4.687242e+01 -5.190518e+01 -7.769433e+00 -2.985331e+01 -2.299959e+01 5.551787e+00 2.855239e+00 -8.368522e+00 -3.015285e+00 3.011447e+00 5.113939e+00 4.570729e+00 7.836462e+00 1.063300e+01 1.115588e+02 -2.412257e+00 8.507246e-01 -2.918927e-01 1.428479e+00 2.460639e-01 -5.701009e-01 -3.032605e-01 -1.368201e-01 -2.677709e-01 -2.537164e-02 1.054214e-01 1.283606e-01 1.242258e-01 -5.770327e-03 1.196868e-01 -4.463123e+00 -4.937854e-01 -1.935338e-02 1.476165e-01 3.587631e-01 3.042982e-02 -3.028061e-01 -2.320620e-01 -2.431491e-01 -1.818572e-01 -4.692827e-02 -4.209678e-02 1.176095e-03 1.190299e-01 9.510832e-02 4.633655e-02 -2.822805e-01
<VARIANCE> 48
 5.191837e+01 1.139723e+02 6.329871e+01 9.612822e+01 8.905770e+01 5.784367e+01 6.477876e+01 6.135230e+01 5.478008e+01 4.460023e+01 3.619291e+01 3.901561e+01 2.838541e+01 2.107943e+01 1.867874e+01 1.154946e+02 4.644647e+00 9.960051e+00 3.438390e+00 7.259287e+00 5.454437e+00 4.457128e+00 5.430362e+00 5.068231e+00 5.266546e+00 3.449358e+00 3.619386e+00 3.529578e+00 2.500514e+00 1.800334e+00 1.432942e+00 5.423166e+00 7.511547e-01 1.620074e+00 5.654362e-01 1.408882e+00 1.138777e+00 7.577211e-01 1.188916e+00 1.119276e+00 1.055704e+00 6.728045e-01 9.301391e-01 8.950418e-01 4.931749e-01 3.558463e-01 3.084802e-01 7.395858e-01
<GCONST> 1.704999e+02
<TRANSP> 6
 0.000000e+00 1.000000e+00 0.000000e+00 0.000000e+00 0.000000e+00 0.000000e+00
 0.000000e+00 3.800932e-01 6.199068e-01 0.000000e+00 0.000000e+00 0.000000e+00
 0.000000e+00 0.000000e+00 4.689893e-01 5.310107e-01 0.000000e+00 0.000000e+00
 0.000000e+00 0.000000e+00 0.000000e+00 8.483327e-01 1.516672e-01 0.000000e+00
 0.000000e+00 0.000000e+00 0.000000e+00 0.000000e+00 8.398317e-01 1.601683e-01
 0.000000e+00 0.000000e+00 0.000000e+00 0.000000e+00 0.000000e+00 0.000000e+00
<ENDHMM>
~h "b"
<BEGINHMM>
<NUMSTATES> 6
<STATE> 2
<MEAN> 48
 2.721592e+01 -2.288869e+01 -4.249178e+01 4.223976e+00 -2.594743e+01 -4.322816e+01 -1.745000e+01 -1.389191e+01 -2.532158e+01 -1.173512e+01 -1.343265e+00 7.328848e-01 3.758936e+00 8.661927e+00 9.907114e+00 8.595628e+01 8.989125e-01 6.497189e-01 1.962549e-01 -4.384807e-01 -7.587880e-01 -4.076437e-01 -7.023179e-02 -2.078652e-01 -4.033249e-01 -2.678623e-01 7.046487e-03 2.994522e-01 2.546126e-01 4.447096e-03 -1.635244e-01 4.754427e-01 -4.015736e-01 -4.169731e-01 -1.342061e-01 -8.015199e-02 1.827631e-01 3.874952e-01 3.279416e-01 4.108190e-01 4.143098e-01 2.787551e-01 1.910060e-01 8.706746e-02 -1.170600e-02 -1.071048e-02 3.717035e-02 -8.018209e-02
<VARIANCE> 48
 4.316293e+01 6.467922e+01 4.026431e+01 7.259456e+01 5.197651e+01 3.505194e+01 6.343279e+01 6.945297e+01 5.259888e+01 5.542950e+01 4.814733e+01 4.209846e+01 3.395209e+01 2.476910e+01 1.791300e+01 2.851743e+01 4.961696e+00 3.694361e+00 3.170397e+00 3.176397e+00 3.140770e+00 3.196856e+00 4.855193e+00 5.056453e+00 4.469319e+00 4.057942e+00 3.408403e+00 3.378207e+00 2.489508e+00 2.209992e+00 1.440130e+00 1.851815e+00 6.553251e-01 6.610701e-01 6.487409e-01 6.671810e-01 6.360453e-01 7.319161e-01 8.988560e-01 9.397784e-01 7.798875e-01 7.898933e-01 6.935049e-01 6.413393e-01 4.830043e-01 4.790902e-01 3.037727e-01 4.752900e-01
<GCONST> 1.600459e+02
<STATE> 3
<MEAN> 48
 2.626171e+01 -2.393013e+01 -4.325996e+01 1.778715e+00 -2.817047e+01 -4.229736e+01 -1.517801e+01 -1.086414e+01 -2.118565e+01 -9.254124e+00 -4.203081e-01 2.363057e+00 4.764941e+00 9.446904e+00 1.012835e+01 8.560925e+01 1.066282e+00 -4.479908e-01 1.075077e+00 -9.124643e-02 6.412299e-01 1.875253e+00 1.030464e+00 3.177224e-01 3.394951e-01 1.367461e-01 2.291758e-01 4.549101e-01 1.589235e-01 5.992203e-02 -1.172386e-01 1.964035e+00 1.383110e+00 -1.382854e+00 7.079105e-01 5.533729e-01 3.745201e-01 7.315162e-01 -2.618724e-01 -7.191538e-01 6.186287e-02 1.359511e-01 1.020404e-01 5.945278e-02 -7.976262e-02 -1.113746e-01 -1.322173e-02 2.446048e+00
<VARIANCE> 48
 3.232747e+01 1.629802e+02 3.411055e+01 1.037527e+02 5.515394e+01 4.280226e+01 8.354691e+01 8.847217e+01 7.599741e+01 9.510500e+01 4.490080e+01 4.070231e+01 3.307445e+01 2.422956e+01 2.013894e+01 3.962591e+01 4.443532e+00 5.298652e+00 4.029355e+00 5.100345e+00 3.507102e+00 4.393182e+00 4.463287e+00 4.268481e+00 4.825392e+00 3.824592e+00 2.576504e+00 3.144981e+00 2.446113e+00 2.377330e+00 1.494962e+00 5.868511e+00 1.120721e+00 2.412463e+00 7.514291e-01 1.521347e+00 1.452372e+00 9.833059e-01 1.373122e+00 8.797984e-01 1.177355e+00 1.245249e+00 5.323071e-01 9.684190e-01 6.710489e-01 5.352156e-01 3.235542e-01 1.245770e+00
<GCONST> 1.716637e+02
<STATE> 4
<MEAN> 48
 2.823642e+01 -2.221172e+01 -4.017712e+01 2.348783e+00 -2.434499e+01 -3.751001e+01 -1.369370e+01 -1.036261e+01 -2.187319e+01 -1.022215e+01 7.650738e-01 3.031401e+00 4.488626e+00 9.343859e+00 1.055487e+01 8.820074e+01 5.280643e+00 -4.676911e+00 2.710544e+00 1.816463e+00 6.994461e-01 2.513507e+00 -3.002032e-01 -1.933810e+00 5.905396e-01 7.859486e-01 3.785440e-01 4.810416e-01 5.837788e-02 -3.180629e-01 -1.847524e-01 8.805270e+00 1.263766e+00 -2.381093e+00 1.822563e-01 4.105557e-01 -5.587138e-01 -1.426432e-01 -5.807924e-01 -7.265138e-01 4.442390e-01 4.768525e-01 2.167979e-01 1.774386e-01 -7.321781e-03 -1.453067e-01 -4.045045e-03 2.808755e+00
<VARIANCE> 48
 2.573847e+01 1.339004e+02 4.895633e+01 7.935674e+01 6.050137e+01 6.686293e+01 6.827325e+01 4.533955e+01 3.778803e+01 6.369138e+01 3.881520e+01 3.456013e+01 2.742817e+01 1.688940e+01 1.688081e+01 3.897815e+01 6.543602e+00 1.850159e+01 4.386516e+00 1.337811e+01 1.192701e+01 5.314764e+00 1.035529e+01 6.432088e+00 5.449003e+00 6.832858e+00 3.416367e+00 5.442065e+00 3.720398e+00 2.841826e+00 1.939273e+00 6.518281e+00 8.712198e-01 1.366473e+00 1.272236e+00 1.428361e+00 1.157171e+00 1.238523e+00 1.690817e+00 9.776714e-01 7.156675e-01 7.962279e-01 5.936376e-01 8.163640e-01 5.782323e-01 5.934402e-01 3.436960e-01 5.681098e-01
<GCONST> 1.748821e+02
<STATE> 5
<MEAN> 48
 3.990004e+01 -3.059569e+01 -3.296186e+01 6.299510e+00 -2.274084e+01 -3.328223e+01 -1.485078e+01 -1.406510e+01 -1.998199e+01 -8.015754e+00 1.009638e+00 3.621790e+00 4.707947e+00 8.769510e+00 9.464978e+00 1.081949e+02 6.521528e+00 -7.965187e+00 2.299671e+00 1.456944e+00 -1.384591e+00 1.677723e+00 -1.025623e+00 -2.613437e+00 1.483436e+00 1.480273e+00 8.216491e-01 8.836842e-01 -1.425555e-02 -4.128877e-01 -1.196536e-01 1.182806e+01 -6.343451e-01 -9.677332e-01 -8.589370e-01 -3.882167e-01 -6.231416e-01 -6.271098e-01 -1.580824e-01 8.620476e-02 3.183851e-01 2.052027e-01 4.747633e-02 4.076398e-02 5.142680e-02 1.843999e-02 1.242584e-01 7.708407e-02
<VARIANCE> 48
 5.499825e+01 1.451282e+02 4.678564e+01 1.254903e+02 8.680177e+01 5.294873e+01 8.605237e+01 8.943406e+01 6.468360e+01 5.301689e+01 5.544003e+01 4.003374e+01 2.994059e+01 2.635635e+01 1.461399e+01 7.927937e+01 5.234586e+00 1.545355e+01 8.651961e+00 1.464422e+01 1.300460e+01 8.660473e+00 1.616521e+01 1.026130e+01 5.286812e+00 6.157899e+00 3.478456e+00 4.740883e+00 4.344119e+00 3.435142e+00 2.119831e+00 2.448498e+00 8.805318e-01 1.997487e+00 7.970793e-01 1.441526e+00 1.068677e+00 8.877648e-01 1.470683e+00 9.014852e-01 9.558523e-01 9.936683e-01 9.207443e-01 1.043405e+00 6.535990e-01 6.612056e-01 3.905054e-01 1.316428e+00
<GCONST> 1.818761e+02
<TRANSP> 6
 0.000000e+00 1.000000e+00 0.000000e+00 0.000000e+00 0.000000e+00 0.000000e+00
 0.000000e+00 8.336228e-01 1.663772e-01 0.000000e+00 0.000000e+00 0.000000e+00
 0.000000e+00 0.000000e+00 4.572833e-01 5.427167e-01 0.000000e+00 0.000000e+00
 0.000000e+00 0.000000e+00 0.000000e+00 2.466239e-01 7.533761e-01 0.000000e+00
 0.000000e+00 0.000000e+00 0.000000e+00 0.000000e+00 9.696417e-02 9.030358e-01
 0.000000e+00 0.000000e+00 0.000000e+00 0.000000e+00 0.000000e+00 0.000000e+00
<ENDHMM>
~h "e"
<BEGINHMM>
<NUMSTATES> 6
<STATE> 2
<MEAN> 48
 4.651673e+01 -5.292620e+01 -2.879631e+01 1.838966e+01 -2.084697e+01 -3.519357e+01 -3.000641e+01 -3.258104e+01 -2.373313e+01 -6.183155e+00 2.533836e+00 3.566248e+00 1.725673e+00 5.833592e+00 9.460419e+00 1.275469e+02 2.409788e+00 -6.949172e+00 2.075728e+00 2.656079e+00 -4.437247e-01 -6.370410e-01 -3.602921e+00 -3.643091e+00 1.134405e+00 1.593925e+00 7.527260e-01 3.549321e-01 -3.062012e-01 -4.519892e-01 1.815618e-01 8.156821e+00 -1.652548e+00 1.598508e+00 -8.270763e-01 -8.205867e-01 -3.814552e-01 -6.472863e-01 7.577715e-01 1.270029e+00 1.273476e-01 -2.021656e-01 -8.328335e-02 -1.866218e-02 3.033490e-01 3.210193e-01 1.013018e-01 -2.579296e+00
<VARIANCE> 48
 3.047790e+01 1.177218e+02 5.304166e+01 4.050916e+01 8.705790e+01 5.573855e+01 4.528095e+01 5.392164e+01 6.219603e+01 8.809405e+01 7.846986e+01 5.619164e+01 4.058458e+01 3.294698e+01 2.094105e+01 3.233018e+01 5.306279e+00 1.391844e+01 5.419912e+00 4.110693e+00 5.024674e+00 4.095158e+00 5.908987e+00 5.500432e+00 4.678548e+00 3.650134e+00 5.600408e+00 5.689106e+00 4.418853e+00 2.731936e+00 1.893964e+00 1.058141e+01 7.111355e-01 2.108989e+00 8.012096e-01 6.967770e-01 1.664331e+00 1.057003e+00 1.328738e+00 1.107811e+00 1.089864e+00 1.107821e+00 7.955948e-01 7.879478e-01 7.319999e-01 6.347934e-01 5.390351e-01 6.546903e-01
<GCONST> 1.754663e+02
<STATE> 3
<MEAN> 48
 4.346870e+01 -6.039702e+01 -2.948767e+01 1.949763e+01 -1.880379e+01 -3.464810e+01 -3.032341e+01 -3.078285e+01 -1.748901e+01 6.032800e-02 6.810852e+00 6.440019e+00 4.900797e+00 8.682818e+00 1.192978e+01 1.342141e+02 -3.208939e-01 -1.187887e+00 9.889802e-01 6.240476e-01 -6.227400e-01 -6.232555e-01 -5.138927e-01 9.930497e-02 7.175820e-01 1.707472e-01 8.770061e-02 -9.331468e-02 -2.666814e-01 -4.646972e-02 3.364657e-02 1.094076e+00 -5.226820e-01 1.694725e+00 -2.495604e-01 -4.069783e-01 -3.359792e-02 -1.606558e-01 5.097351e-01 7.126490e-01 -2.120778e-01 -4.804244e-01 -3.402921e-01 -1.485367e-01 -7.019167e-02 -1.471354e-02 -1.132394e-01 -2.043395e+00
<VARIANCE> 48
 5.101050e+01 1.085977e+02 6.502306e+01 3.191948e+01 5.175390e+01 6.002914e+01 5.241277e+01 6.122716e+01 5.826047e+01 4.792944e+01 4.885732e+01 5.397858e+01 5.530347e+01 3.307100e+01 1.717919e+01 2.309117e+01 3.698402e+00 7.066923e+00 2.549153e+00 1.757081e+00 4.575512e+00 3.643958e+00 4.707416e+00 4.701050e+00 4.272027e+00 4.221717e+00 4.174494e+00 3.370236e+00 3.049056e+00 1.784840e+00 1.666505e+00 4.616908e+00 1.129303e+00 1.349117e+00 9.258240e-01 5.107569e-01 7.728494e-01 8.511754e-01 1.550931e+00 1.307342e+00 5.365400e-01 7.196876e-01 7.733472e-01 9.140513e-01 8.514331e-01 4.568396e-01 3.125474e-01 9.253920e-01
<GCONST> 1.663189e+02
<STATE> 4
<MEAN> 48
 4.196631e+01 -6.055754e+01 -2.353720e+01 2.278940e+01 -2.428362e+01 -3.925556e+01 -3.317000e+01 -3.107697e+01 -1.806559e+01 -5.056230e+00 1.904290e+00 3.302409e+00 1.332247e+00 6.360580e+00 9.987023e+00 1.300618e+02 -4.084649e-01 5.207829e-01 -2.158324e-02 3.331662e-01 -4.918854e-03 -3.426283e-01 -1.998297e-01 -1.094940e-01 -5.620455e-02 -1.423578e-01 -3.092832e-01 -6.292839e-02 4.211589e-02 7.689752e-02 8.431728e-02 -1.534734e+00 -1.124859e-01 4.140051e-01 -2.361009e-01 -6.437489e-02 1.151710e-01 3.440396e-02 1.238037e-01 3.287091e-02 -1.567874e-01 -1.967541e-02 -4.476793e-02 -1.014046e-01 -1.629269e-02 1.525677e-02 2.088179e-02 -6.317562e-01
<VARIANCE> 48
 3.923780e+01 8.496778e+01 2.871600e+01 2.237092e+01 5.859446e+01 5.690680e+01 4.184266e+01 6.025062e+01 8.502190e+01 6.531853e+01 4.749877e+01 3.966042e+01 2.451085e+01 2.579545e+01 2.144367e+01 3.104684e+01 2.032296e+00 5.135429e+00 3.028025e+00 1.597667e+00 3.098627e+00 3.556320e+00 3.418147e+00 3.878470e+00 4.079008e+00 3.579429e+00 3.307611e+00 2.874983e+00 1.943093e+00 1.587633e+00 1.315804e+00 2.834959e+00 4.452469e-01 7.096780e-01 4.445373e-01 2.888432e-01 5.706562e-01 6.458511e-01 8.179264e-01 9.095240e-01 8.253416e-01 7.709055e-01 7.218896e-01 6.479697e-01 3.864441e-01 2.885450e-01 2.530287e-01 2.922101e-01
<GCONST> 1.536268e+02
<STATE> 5
<MEAN> 48
 3.645798e+01 -4.914042e+01 -3.051020e+01 2.364049e+01 -2.103807e+01 -4.092312e+01 -3.160288e+01 -2.970917e+01 -1.980968e+01 -4.514130e+00 5.174060e-01 1.647372e+00 1.417983e+00 7.128374e+00 1.119330e+01 1.091126e+02 -2.856523e+00 1.942767e+00 -2.970562e+00 -6.388942e-01 7.499200e-01 5.405092e-01 2.126196e+00 2.415008e+00 7.920683e-01 6.022871e-01 -1.356342e-01 -4.846491e-01 -3.084455e-02 4.289570e-02 -1.356687e-01 -5.556771e+00 -5.873351e-01 -3.315005e-01 -5.907578e-01 -5.030985e-01 7.398059e-02 4.874382e-01 7.713723e-01 7.533661e-01 3.552180e-01 1.807756e-01 1.764405e-01 1.002706e-01 7.061995e-02 -1.449603e-02 -5.446357e-02 -1.244240e-01
<VARIANCE> 48
 4.528764e+01 9.612118e+01 7.055190e+01 4.663840e+01 8.015434e+01 5.667136e+01 4.919191e+01 6.354477e+01 7.659434e+01 6.403271e+01 4.941392e+01 3.621239e+01 4.162259e+01 3.385888e+01 2.007473e+01 1.029786e+02 3.885874e+00 7.945754e+00 4.299694e+00 4.263196e+00 4.372324e+00 6.505267e+00 7.686228e+00 7.376580e+00 5.791374e+00 5.313075e+00 4.872727e+00 4.123114e+00 2.904091e+00 1.959379e+00 1.241456e+00 3.620554e+00 6.514364e-01 8.316777e-01 8.593569e-01 7.650644e-01 8.717940e-01 9.148774e-01 9.748676e-01 1.055188e+00 1.096436e+00 1.121471e+00 9.387432e-01 5.951381e-01 5.563338e-01 3.960497e-01 2.602462e-01 6.688087e-01
<GCONST> 1.705626e+02
<TRANSP> 6
 0.000000e+00 1.000000e+00 0.000000e+00 0.000000e+00 0.000000e+00 0.000000e+00
 0.000000e+00 4.416741e-01 5.583260e-01 0.000000e+00 0.000000e+00 0.000000e+00
 0.000000e+00 0.000000e+00 6.136477e-01 3.863523e-01 0.000000e+00 0.000000e+00
 0.000000e+00 0.000000e+00 0.000000e+00 8.555065e-01 1.444934e-01 0.000000e+00
 0.000000e+00 0.000000e+00 0.000000e+00 0.000000e+00 7.833400e-01 2.166600e-01
 0.000000e+00 0.000000e+00 0.000000e+00 0.000000e+00 0.000000e+00 0.000000e+00
<ENDHMM>
~h "silence"
<BEGINHMM>
<NUMSTATES> 6
<STATE> 2
<MEAN> 48
 1.699388e+01 -4.110420e+01 -4.738731e+01 7.093763e+00 -2.252032e+01 -3.315783e+01 -7.843508e+00 -6.011200e+00 -1.345031e+01 -3.554110e+00 3.036653e+00 3.845015e+00 4.858879e+00 9.267064e+00 1.167707e+01 8.441773e+01 -2.033141e+00 7.582158e-01 -5.989029e-01 -3.708994e-02 9.514714e-01 -3.849480e-02 1.901080e-01 5.920296e-01 -2.192551e-01 6.048339e-02 3.272317e-01 -1.323380e-01 -1.644060e-01 -5.404695e-02 -8.693128e-02 -2.175113e+00 1.676857e-01 1.793487e-01 1.162387e-01 -2.947921e-01 -7.146405e-02 -1.150810e-01 -1.962568e-01 -1.811832e-02 -3.212361e-02 -5.538924e-02 -2.471417e-02 -8.612665e-02 -1.759522e-01 -9.300984e-02 8.196665e-02 2.875138e-01
<VARIANCE> 48
 1.154946e+02 1.729354e+02 4.041052e+01 1.223258e+02 7.348702e+01 6.757148e+01 1.433009e+02 9.108514e+01 6.426365e+01 7.267703e+01 3.252721e+01 3.026709e+01 3.373944e+01 2.909789e+01 2.155190e+01 1.198531e+02 6.331929e+00 4.738284e+00 4.780780e+00 5.825173e+00 3.496745e+00 4.007518e+00 9.502860e+00 6.583510e+00 4.720630e+00 4.271339e+00 4.333484e+00 3.433375e+00 2.675426e+00 2.205163e+00 1.775922e+00 6.275879e+00 1.840540e-01 7.242961e-01 4.794860e-01 4.219376e-01 4.759426e-01 5.867200e-01 6.525691e-01 6.568114e-01 7.929434e-01 7.298281e-01 5.175492e-01 6.167293e-01 4.630083e-01 2.929968e-01 2.134927e-01 2.761487e-01
<GCONST> 1.658409e+02
<STATE> 3
<MEAN> 48
 1.452905e+01 -4.041420e+01 -4.860538e+01 7.254233e+00 -2.029094e+01 -3.285028e+01 -7.587205e+00 -4.316282e+00 -1.306574e+01 -1.993621e+00 4.110003e+00 2.824823e+00 3.531654e+00 8.010185e+00 1.099424e+01 8.194225e+01 -1.752663e+00 1.406319e+00 -4.149853e-01 -8.139439e-01 4.864209e-01 -2.258556e-01 -9.866671e-02 7.005212e-01 -1.913852e-01 -2.826345e-01 6.990209e-03 -4.267067e-01 -4.460056e-01 -5.982758e-02 1.991155e-01 -1.946075e+00 6.304004e-01 2.858857e-01 3.556646e-01 -1.615158e-01 -3.183343e-01 -2.328673e-01 -4.142848e-01 -4.992515e-01 -3.693815e-01 -3.676309e-01 -2.588261e-01 1.886080e-02 5.881304e-02 1.354837e-01 1.194276e-01 5.581021e-01
<VARIANCE> 48
 6.938789e+01 1.536950e+02 3.641591e+01 9.203271e+01 7.263242e+01 5.296535e+01 1.141687e+02 8.276289e+01 5.750961e+01 6.539123e+01 3.483174e+01 3.271138e+01 3.249186e+01 2.535170e+01 1.905593e+01 7.414586e+01 5.796679e+00 5.772035e+00 2.973197e+00 5.888297e+00 4.096837e+00 3.106015e+00 6.886582e+00 4.772880e+00 5.037035e+00 4.541710e+00 2.967626e+00 3.421032e+00 2.584489e+00 2.311742e+00 1.404693e+00 4.700979e+00 3.213430e-01 8.433106e-01 6.749980e-01 5.747213e-01 6.233937e-01 8.779170e-01 1.232901e+00 1.027230e+00 9.647155e-01 9.888384e-01 8.896230e-01 7.968298e-01 5.766954e-01 5.036725e-01 3.883035e-01 2.798445e-01
<GCONST> 1.673223e+02
<STATE> 4
<MEAN> 48
 9.936307e+00 -2.868058e+01 -4.492861e+01 1.607627e+00 -1.938013e+01 -3.522401e+01 -1.577211e+01 -8.301158e+00 -1.689992e+01 -7.999232e+00 5.760436e-01 1.673918e-01 1.188087e+00 7.541509e+00 1.092350e+01 7.539877e+01 -2.990035e-01 1.636404e+00 4.748118e-01 -5.307875e-01 1.401378e-02 -3.135181e-01 -5.300326e-01 -1.650403e-01 -5.179372e-01 -6.418436e-01 -4.987635e-01 -3.723493e-01 -1.864602e-01 1.947856e-01 1.623105e-01 -7.120366e-01 1.006085e+00 -1.287362e-01 1.402289e-01 2.440911e-01 -3.444649e-01 -2.177788e-01 7.897021e-02 -2.397465e-01 -1.936217e-01 -1.894207e-02 -6.100535e-02 1.304573e-01 1.482015e-01 3.830750e-02 -4.961471e-02 8.254451e-01
<VARIANCE> 48
 9.776734e+01 3.433150e+02 1.935661e+02 1.082534e+02 7.263620e+01 5.566824e+01 2.087580e+02 1.377994e+02 7.781680e+01 8.464503e+01 5.324021e+01 4.807073e+01 3.389331e+01 2.235533e+01 2.106026e+01 1.088572e+02 1.338420e+01 1.307108e+01 9.070249e+00 5.637689e+00 4.785644e+00 4.334997e+00 1.116176e+01 9.302190e+00 6.091187e+00 6.550907e+00 3.590122e+00 3.617328e+00 2.321763e+00 2.209092e+00 1.856689e+00 9.061444e+00 1.622041e+00 2.891915e+00 1.472934e+00 1.370387e+00 7.506226e-01 7.562491e-01 2.046002e+00 1.686819e+00 1.305014e+00 1.276902e+00 7.959877e-01 8.477334e-01 5.761329e-01 4.992553e-01 3.826824e-01 1.312753e+00
<GCONST> 1.867547e+02
<STATE> 5
<MEAN> 48
 1.558312e+01 -2.987023e+01 -4.738540e+01 3.047906e+00 -2.010989e+01 -3.662317e+01 -1.279248e+01 -5.778418e+00 -1.618627e+01 -5.616993e+00 2.464573e+00 1.897682e+00 3.260453e+00 9.563061e+00 1.212399e+01 7.935188e+01 1.406962e+00 1.120442e+00 4.454696e-01 -1.082753e-01 -5.349736e-01 -7.591285e-01 -5.279230e-01 -7.165002e-01 -8.934834e-01 -5.933581e-01 -3.418143e-01 1.041341e-01 2.108262e-01 2.261278e-01 3.831772e-02 6.993244e-01 3.179487e-01 -5.462506e-02 1.190891e-01 5.602586e-02 -1.935783e-01 -9.408771e-02 4.779437e-03 -1.152237e-01 -9.208862e-02 -7.244406e-02 -4.852245e-02 1.018078e-01 9.201074e-02 1.683623e-02 -7.374197e-02 2.718220e-01
<VARIANCE> 48
 5.885515e+01 1.451482e+02 3.691131e+01 8.990784e+01 5.371158e+01 3.505069e+01 1.165878e+02 5.495431e+01 4.990926e+01 5.547943e+01 3.413564e+01 3.557671e+01 3.051410e+01 2.142735e+01 1.578423e+01 4.191952e+01 7.050118e+00 5.169036e+00 4.145074e+00 2.917472e+00 3.013465e+00 3.223335e+00 5.756713e+00 7.106723e+00 5.331011e+00 5.225692e+00 4.319371e+00 3.146797e+00 2.664669e+00 2.146601e+00 1.679999e+00 2.813617e+00 5.675067e-01 5.227491e-01 4.226902e-01 4.460714e-01 4.101067e-01 4.361688e-01 7.229468e-01 7.128673e-01 6.427096e-01 7.148603e-01 6.293784e-01 5.722395e-01 4.299724e-01 3.272773e-01 2.383897e-01 2.673322e-01
<GCONST> 1.592163e+02
<TRANSP> 6
 0.000000e+00 1.000000e+00 0.000000e+00 0.000000e+00 0.000000e+00 0.000000e+00
 0.000000e+00 3.768882e-01 6.231118e-01 0.000000e+00 0.000000e+00 0.000000e+00
 0.000000e+00 0.000000e+00 3.343996e-01 6.656003e-01 0.000000e+00 0.000000e+00
 0.000000e+00 0.000000e+00 0.000000e+00 4.138449e-01 5.861552e-01 0.000000e+00
 0.000000e+00 0.000000e+00 0.000000e+00 0.000000e+00 6.297174e-01 3.702827e-01
 0.000000e+00 0.000000e+00 0.000000e+00 0.000000e+00 0.000000e+00 0.000000e+00
<ENDHMM>
