~o
<STREAMINFO> 1 48
<VECSIZE> 48<NULLD><MFCC_D_A_0><DIAGC>
~h "a"
<BEGINHMM>
<NUMSTATES> 6
<STATE> 2
<MEAN> 48
 4.891828e+00 -8.326780e+01 -1.255073e+01 -2.983783e+01 2.116538e+00 2.985976e+01 1.721766e+01 3.731535e+01 1.639275e+01 -7.621602e+00 -1.891761e+00 2.621235e+00 -4.947479e+00 3.508338e+00 6.561827e+00 1.263917e+02 1.589349e+00 -8.705177e-01 -4.417510e-01 -6.208529e-01 2.924819e-01 -4.026369e-01 6.556590e-01 3.949931e-01 -3.867660e-02 2.627756e-02 5.656888e-02 7.201870e-02 1.287381e-01 7.426513e-02 -1.895508e-01 3.108324e+00 -2.489094e-01 1.785944e-01 1.213698e-02 -1.529935e-02 -5.055189e-02 1.677826e-01 -1.234142e-01 -6.977050e-02 4.349276e-03 -4.916289e-02 -2.840661e-02 5.000604e-03 -3.640393e-02 -3.460415e-02 4.107352e-02 -5.760217e-01
<VARIANCE> 48
 1.493706e+02 1.070592e+02 1.440744e+02 1.648058e+02 8.635825e+01 8.660474e+01 8.447240e+01 9.080080e+01 1.268591e+02 6.574454e+01 4.638771e+01 4.735563e+01 2.363091e+01 2.562474e+01 1.930277e+01 4.274366e+02 7.119199e+00 8.624976e+00 5.269779e+00 8.344666e+00 4.873793e+00 4.558650e+00 6.590701e+00 6.835101e+00 8.294433e+00 6.068316e+00 4.272971e+00 3.307014e+00 1.846439e+00 1.727470e+00 1.604476e+00 2.631273e+01 1.097172e+00 1.560410e+00 9.495543e-01 1.478694e+00 8.982863e-01 7.928533e-01 1.255886e+00 1.352073e+00 1.680685e+00 1.256677e+00 9.075468e-01 6.240206e-01 3.456144e-01 3.405290e-01 3.299726e-01 3.622777e+00
<GCONST> 1.835503e+02
<STATE> 3
<MEAN> 48
 7.871120e+00 -8.478400e+01 -1.349924e+01 -3.126945e+01 2.675910e+00 2.937563e+01 1.836072e+01 3.802084e+01 1.628831e+01 -7.696599e+00 -1.872887e+00 2.774035e+00 -4.757953e+00 3.595417e+00 6.240374e+00 1.319975e+02 9.297526e-01 -3.781981e-01 -3.285756e-01 -5.716022e-01 1.605873e-01 -1.658122e-02 3.027613e-01 1.669600e-01 -1.159599e-01 -1.153945e-01 -2.922799e-02 6.035907e-02 2.636815e-02 -2.455275e-02 -9.764019e-02 1.505344e+00 -3.238232e-01 2.076609e-01 9.463085e-02 5.573547e-02 -4.302182e-02 1.608901e-01 -1.613244e-01 -1.153996e-01 -6.540573e-02 -5.280928e-02 -3.056606e-02 -5.552626e-03 -4.589054e-02 -4.576693e-02 3.721199e-02 -7.703193e-01
<VARIANCE> 48
 1.060232e+02 8.092849e+01 1.333366e+02 1.780042e+02 7.406953e+01 8.272683e+01 7.433472e+01 8.709180e+01 1.171145e+02 6.206796e+01 4.777839e+01 4.982642e+01 2.430984e+01 2.388400e+01 1.734552e+01 2.609692e+02 6.013655e+00 7.084000e+00 4.923304e+00 8.476732e+00 4.353003e+00 4.055841e+00 5.574934e+00 5.773109e+00 7.079077e+00 5.900934e+00 4.388871e+00 3.184666e+00 1.755325e+00 1.680011e+00 1.478043e+00 2.376578e+01 7.947292e-01 1.223630e+00 8.963671e-01 1.482873e+00 8.371623e-01 6.950817e-01 1.010027e+00 1.119938e+00 1.432617e+00 1.235172e+00 9.337247e-01 6.122357e-01 3.286200e-01 3.307966e-01 3.053424e-01 2.391141e+00
<GCONST> 1.784465e+02
<STATE> 4
<MEAN> 48
 9.391225e+00 -8.511787e+01 -1.405847e+01 -3.245535e+01 2.981441e+00 2.985967e+01 1.864007e+01 3.808307e+01 1.580175e+01 -8.055494e+00 -2.034223e+00 2.900922e+00 -4.835048e+00 3.384497e+00 6.122535e+00 1.336035e+02 8.770633e-02 9.240495e-02 -3.188808e-02 -3.461813e-01 7.542561e-02 3.327004e-01 -8.588585e-02 -1.365054e-01 -3.096271e-01 -2.024997e-01 -7.531513e-02 4.734029e-02 -7.759713e-02 -1.298881e-01 -1.323690e-02 -4.479741e-01 -3.596850e-01 1.403932e-01 1.279354e-01 1.296685e-01 -1.445496e-02 1.217863e-01 -1.319224e-01 -1.130511e-01 -7.355425e-02 -1.131560e-02 3.183438e-03 3.549922e-03 -3.324524e-02 -2.971149e-02 3.205048e-02 -7.467037e-01
<VARIANCE> 48
 7.534595e+01 6.438646e+01 1.230985e+02 1.700598e+02 6.885811e+01 7.832156e+01 6.663125e+01 8.021342e+01 1.046004e+02 5.884606e+01 5.002713e+01 5.070357e+01 2.548862e+01 2.194323e+01 1.549132e+01 1.638763e+02 5.332740e+00 5.514806e+00 4.579495e+00 8.644439e+00 3.836255e+00 3.589016e+00 4.323739e+00 4.566174e+00 5.758036e+00 5.513384e+00 4.290786e+00 3.024421e+00 1.606869e+00 1.554244e+00 1.364772e+00 1.806530e+01 6.150976e-01 9.643704e-01 8.343970e-01 1.462511e+00 7.725427e-01 6.102098e-01 7.642258e-01 8.647626e-01 1.165815e+00 1.170886e+00 9.079094e-01 5.848753e-01 3.059161e-01 3.067095e-01 2.843408e-01 1.374587e+00
<GCONST> 1.722500e+02
<STATE> 5
<MEAN> 48
 8.539512e+00 -8.440262e+01 -1.373973e+01 -3.304548e+01 3.142511e+00 3.116156e+01 1.796677e+01 3.732362e+01 1.473742e+01 -8.599380e+00 -2.217861e+00 3.056855e+00 -5.145011e+00 2.936510e+00 6.194482e+00 1.299945e+02 -9.369066e-01 3.722014e-01 3.072609e-01 8.416672e-02 6.629665e-02 6.298081e-01 -3.791113e-01 -4.277045e-01 -4.724929e-01 -1.774711e-01 -2.021022e-03 9.571511e-02 -1.372971e-01 -1.740829e-01 7.324347e-02 -2.365879e+00 -3.494540e-01 5.434559e-02 7.278109e-02 2.067910e-01 -3.125007e-03 8.761537e-02 -7.080157e-02 -7.504360e-02 -2.988503e-02 1.618330e-02 3.833417e-02 2.247177e-02 -1.756922e-03 5.888138e-03 3.165884e-02 -5.385683e-01
<VARIANCE> 48
 7.416074e+01 6.269598e+01 1.143159e+02 1.458653e+02 7.032757e+01 7.731155e+01 6.756698e+01 7.461653e+01 9.635458e+01 5.798929e+01 5.496199e+01 4.960838e+01 2.636394e+01 2.161075e+01 1.491832e+01 1.927359e+02 5.382802e+00 4.897988e+00 4.591244e+00 9.205193e+00 3.693831e+00 3.508878e+00 3.436900e+00 4.044405e+00 5.221225e+00 5.147593e+00 4.103708e+00 2.944917e+00 1.543666e+00 1.450959e+00 1.330431e+00 1.126170e+01 6.351735e-01 8.863131e-01 8.397775e-01 1.507124e+00 7.800755e-01 5.907295e-01 5.944518e-01 7.254593e-01 1.060438e+00 1.093895e+00 8.522360e-01 5.663862e-01 2.962623e-01 2.891648e-01 2.757984e-01 8.908737e-01
<GCONST> 1.694697e+02
<TRANSP> 6
 0.000000e+00 1.000000e+00 0.000000e+00 0.000000e+00 0.000000e+00 0.000000e+00
 0.000000e+00 5.649955e-01 4.350045e-01 0.000000e+00 0.000000e+00 0.000000e+00
 0.000000e+00 0.000000e+00 5.649956e-01 4.350044e-01 0.000000e+00 0.000000e+00
 0.000000e+00 0.000000e+00 0.000000e+00 6.564924e-01 3.435075e-01 0.000000e+00
 0.000000e+00 0.000000e+00 0.000000e+00 0.000000e+00 6.564921e-01 3.435079e-01
 0.000000e+00 0.000000e+00 0.000000e+00 0.000000e+00 0.000000e+00 0.000000e+00
<ENDHMM>
~h "b"
<BEGINHMM>
<NUMSTATES> 6
<STATE> 2
<MEAN> 48
 -1.279049e+01 -7.629618e+01 -9.734686e+00 -2.537749e+01 2.622039e+00 3.820840e+01 9.883572e+00 3.259140e+01 1.759596e+01 -7.591584e+00 -2.128918e+00 3.317511e+00 -5.748869e+00 2.869662e+00 9.389786e+00 9.505799e+01 1.260542e+00 -3.128442e-01 -2.754463e-01 3.012504e-03 1.303833e-01 -4.725858e-01 1.929075e-01 4.380071e-02 -2.982626e-01 -8.170237e-02 4.796009e-02 -7.937817e-02 -6.856206e-03 7.688890e-02 -1.575985e-01 1.786296e+00 4.899275e-02 -1.501345e-01 1.308338e-01 2.243485e-01 1.830108e-01 -1.152733e-01 -4.305864e-02 -1.020019e-01 -1.204937e-01 1.695473e-03 3.145101e-02 5.598173e-03 1.864086e-02 -1.496874e-03 -3.289640e-02 3.435907e-01
<VARIANCE> 48
 8.878453e+01 9.319844e+01 1.725658e+02 1.182193e+02 1.180548e+02 6.068613e+01 5.919376e+01 8.373723e+01 1.253220e+02 6.380146e+01 4.112540e+01 3.854390e+01 2.569098e+01 2.306553e+01 1.535050e+01 2.273992e+02 5.626456e+00 5.469898e+00 4.756934e+00 6.872787e+00 6.026876e+00 3.690722e+00 5.094124e+00 6.886130e+00 7.254210e+00 5.006275e+00 3.223103e+00 2.845833e+00 1.902736e+00 1.456412e+00 1.218903e+00 1.249858e+01 9.936462e-01 1.062652e+00 8.806408e-01 1.138662e+00 1.061730e+00 6.930346e-01 9.970508e-01 1.289554e+00 1.481507e+00 1.062871e+00 6.446282e-01 5.560740e-01 3.736077e-01 2.972781e-01 2.458126e-01 1.904954e+00
<GCONST> 1.750435e+02
<STATE> 3
<MEAN> 48
 -9.933674e+00 -7.748108e+01 -9.841829e+00 -2.464446e+01 3.486829e+00 3.683434e+01 1.018835e+01 3.234946e+01 1.650406e+01 -7.765929e+00 -1.901780e+00 3.199404e+00 -5.711662e+00 3.019468e+00 8.953470e+00 1.000435e+02 1.405438e+00 -7.359961e-01 5.066067e-03 5.170187e-01 5.897630e-01 -7.217962e-01 1.063421e-01 -2.086548e-01 -5.608515e-01 -2.683706e-02 1.434147e-01 -7.510505e-02 4.202121e-02 9.401447e-02 -2.106884e-01 2.690142e+00 6.969970e-02 -1.976964e-01 1.008835e-01 2.044570e-01 1.924686e-01 -1.035054e-01 -2.611248e-02 -9.444977e-02 -8.565782e-02 3.957815e-02 4.038218e-02 3.733419e-03 2.519030e-02 1.259950e-02 -1.573671e-02 4.082041e-01
<VARIANCE> 48
 1.138451e+02 1.159307e+02 1.685067e+02 1.457605e+02 1.411922e+02 6.969339e+01 6.601391e+01 9.315807e+01 1.321009e+02 6.490823e+01 4.324764e+01 3.798933e+01 2.509866e+01 2.229805e+01 1.620720e+01 3.547448e+02 7.129300e+00 8.015149e+00 4.805937e+00 8.031068e+00 7.352719e+00 4.047859e+00 5.811601e+00 7.330935e+00 7.714171e+00 5.388215e+00 3.425715e+00 2.933018e+00 1.856937e+00 1.492964e+00 1.332794e+00 1.957483e+01 1.231657e+00 1.507271e+00 9.040918e-01 1.272562e+00 1.257640e+00 7.566699e-01 1.122306e+00 1.378634e+00 1.581423e+00 1.130499e+00 6.944572e-01 5.577416e-01 3.614772e-01 3.011144e-01 2.734683e-01 2.973225e+00
<GCONST> 1.806914e+02
<STATE> 4
<MEAN> 48
 -6.007026e+00 -8.015537e+01 -9.482310e+00 -2.255109e+01 5.643553e+00 3.473069e+01 1.044905e+01 3.151160e+01 1.478353e+01 -7.622118e+00 -1.334224e+00 3.075354e+00 -5.509336e+00 3.289463e+00 8.400202e+00 1.084708e+02 1.558215e+00 -1.205240e+00 1.641112e-01 8.593184e-01 9.792262e-01 -8.994049e-01 8.804951e-02 -3.545812e-01 -6.485616e-01 1.056314e-01 2.324410e-01 -6.470492e-02 1.034808e-01 1.443298e-01 -2.144780e-01 3.589528e+00 1.908301e-02 -1.313180e-01 2.831280e-02 7.912894e-02 9.741358e-02 -3.826400e-02 -2.266379e-03 -2.402854e-02 1.246546e-02 4.338976e-02 1.885890e-02 6.386191e-03 1.923542e-02 1.474540e-02 5.795006e-03 2.240401e-01
<VARIANCE> 48
 1.422160e+02 1.440004e+02 1.561271e+02 2.013328e+02 1.714357e+02 8.054329e+01 7.973455e+01 1.109802e+02 1.349260e+02 6.536818e+01 4.566638e+01 3.842579e+01 2.362744e+01 2.264569e+01 1.735839e+01 5.064979e+02 8.210754e+00 1.009505e+01 5.028647e+00 9.444354e+00 8.371216e+00 4.243426e+00 6.462398e+00 7.901888e+00 8.345198e+00 5.750706e+00 3.599580e+00 3.152253e+00 1.797424e+00 1.582070e+00 1.454396e+00 2.474842e+01 1.432107e+00 1.920221e+00 9.284326e-01 1.412675e+00 1.445167e+00 7.888377e-01 1.205805e+00 1.477178e+00 1.674672e+00 1.180282e+00 7.366650e-01 5.721378e-01 3.408144e-01 3.173440e-01 2.984854e-01 4.082543e+00
<GCONST> 1.855325e+02
<STATE> 5
<MEAN> 48
 -1.651312e+00 -8.399597e+01 -8.883571e+00 -2.002189e+01 8.701612e+00 3.214297e+01 1.070659e+01 3.049314e+01 1.308117e+01 -7.145932e+00 -6.318837e-01 2.908593e+00 -5.173862e+00 3.767282e+00 7.847349e+00 1.192099e+02 1.450306e+00 -1.332123e+00 1.301163e-01 8.444845e-01 1.040147e+00 -8.735120e-01 8.377729e-02 -3.134248e-01 -4.570667e-01 1.824845e-01 2.149438e-01 -6.059203e-02 1.255209e-01 1.694038e-01 -1.718863e-01 3.658728e+00 -1.159124e-01 5.112620e-02 -1.486324e-02 -6.585313e-02 -4.219079e-02 5.916490e-02 -1.636196e-02 2.833589e-02 8.895389e-02 6.625839e-04 -2.595948e-02 5.624418e-03 -7.868694e-03 -5.427792e-03 2.382607e-02 -2.144567e-01
<VARIANCE> 48
 1.456844e+02 1.491887e+02 1.450966e+02 2.769565e+02 1.898575e+02 8.849126e+01 1.011231e+02 1.331348e+02 1.294662e+02 6.241180e+01 4.659703e+01 4.141202e+01 2.186545e+01 2.300819e+01 1.783881e+01 5.240538e+02 8.073725e+00 1.034129e+01 5.220464e+00 1.050677e+01 8.503735e+00 4.247776e+00 6.648234e+00 8.140787e+00 8.380863e+00 5.713544e+00 3.728631e+00 3.268738e+00 1.715458e+00 1.642147e+00 1.502211e+00 2.682338e+01 1.358957e+00 1.975464e+00 9.239116e-01 1.496278e+00 1.480527e+00 7.765905e-01 1.210690e+00 1.496041e+00 1.613487e+00 1.166420e+00 7.669046e-01 5.852892e-01 3.182409e-01 3.320539e-01 3.076635e-01 4.332263e+00
<GCONST> 1.869937e+02
<TRANSP> 6
 0.000000e+00 1.000000e+00 0.000000e+00 0.000000e+00 0.000000e+00 0.000000e+00
 0.000000e+00 5.624624e-01 4.375376e-01 0.000000e+00 0.000000e+00 0.000000e+00
 0.000000e+00 0.000000e+00 5.624626e-01 4.375374e-01 0.000000e+00 0.000000e+00
 0.000000e+00 0.000000e+00 0.000000e+00 6.545170e-01 3.454830e-01 0.000000e+00
 0.000000e+00 0.000000e+00 0.000000e+00 0.000000e+00 6.545171e-01 3.454830e-01
 0.000000e+00 0.000000e+00 0.000000e+00 0.000000e+00 0.000000e+00 0.000000e+00
<ENDHMM>
~h "e"
<BEGINHMM>
<NUMSTATES> 6
<STATE> 2
<MEAN> 48
 -1.843448e+00 -9.108710e+01 -4.515275e+00 -6.508885e+00 2.040590e+01 3.027215e+01 4.396842e+00 2.221006e+01 7.983788e+00 -5.827538e+00 1.459904e+00 2.821926e+00 -4.837332e+00 4.936191e+00 8.412114e+00 1.290883e+02 4.610154e-01 -1.120115e+00 5.781807e-01 1.761683e+00 1.330732e+00 -8.666363e-01 -6.606263e-01 -8.586802e-01 -3.574731e-01 2.345623e-01 1.516457e-01 -1.829256e-01 1.593059e-02 1.790138e-01 -1.069132e-02 2.157062e+00 -1.941011e-01 2.188717e-01 -9.708445e-03 -2.752637e-01 -1.952308e-01 9.512995e-02 1.511882e-02 1.285838e-01 1.648049e-01 -2.076627e-02 -7.898423e-02 5.274972e-03 -2.776171e-02 -2.433800e-02 2.407628e-02 -6.218443e-01
<VARIANCE> 48
 7.994602e+01 1.164290e+02 1.103544e+02 2.569781e+02 1.306548e+02 9.365076e+01 7.508829e+01 9.894769e+01 8.275089e+01 4.871856e+01 4.124725e+01 4.242707e+01 1.808779e+01 1.817270e+01 1.360938e+01 3.496568e+02 6.228504e+00 9.785748e+00 4.449600e+00 9.432724e+00 1.025637e+01 3.585385e+00 5.172626e+00 7.982391e+00 7.024367e+00 4.879623e+00 3.291808e+00 2.868437e+00 1.419677e+00 1.546715e+00 1.282106e+00 2.674245e+01 1.045688e+00 1.790795e+00 8.609176e-01 1.445478e+00 1.823243e+00 6.468734e-01 1.055844e+00 1.533450e+00 1.247053e+00 9.947145e-01 6.545643e-01 5.127022e-01 2.603754e-01 3.231238e-01 2.657443e-01 3.320021e+00
<GCONST> 1.792563e+02
<STATE> 3
<MEAN> 48
 -1.329425e+00 -9.298759e+01 -3.270030e+00 -3.280588e+00 2.282693e+01 2.855388e+01 2.985779e+00 2.061236e+01 7.639746e+00 -5.349454e+00 1.602067e+00 2.377000e+00 -4.889293e+00 5.282312e+00 8.445621e+00 1.323363e+02 1.717880e-02 -5.625864e-01 5.246382e-01 1.022697e+00 8.502960e-01 -5.863845e-01 -6.161571e-01 -5.373352e-01 1.600512e-02 1.902724e-01 -2.156758e-02 -1.486418e-01 -4.938902e-02 1.072220e-01 4.495044e-02 6.068662e-01 -2.106473e-01 2.581054e-01 -2.629482e-02 -3.365386e-01 -2.256578e-01 1.539023e-01 1.323520e-02 1.546112e-01 1.439970e-01 -2.016623e-02 -7.459505e-02 2.577793e-02 -2.229520e-02 -3.512195e-02 2.825433e-02 -7.432295e-01
<VARIANCE> 48
 6.704446e+01 9.292440e+01 1.095646e+02 2.215802e+02 1.057428e+02 9.674394e+01 7.804391e+01 8.669988e+01 7.679792e+01 4.563851e+01 4.027074e+01 4.399898e+01 1.681981e+01 1.739023e+01 1.314121e+01 2.533578e+02 5.212578e+00 8.091838e+00 4.477833e+00 9.166423e+00 8.807500e+00 3.736151e+00 5.617128e+00 8.299578e+00 6.454808e+00 4.542800e+00 3.039284e+00 2.385143e+00 1.308457e+00 1.489619e+00 1.214613e+00 2.395381e+01 8.338205e-01 1.421781e+00 8.799822e-01 1.314041e+00 1.537137e+00 6.348937e-01 1.160963e+00 1.579422e+00 1.179003e+00 9.313596e-01 6.121292e-01 4.414112e-01 2.504493e-01 3.088050e-01 2.505082e-01 2.388875e+00
<GCONST> 1.753349e+02
<STATE> 4
<MEAN> 48
 -1.956018e+00 -9.357150e+01 -2.077338e+00 -1.638325e+00 2.404571e+01 2.757129e+01 1.572734e+00 1.977539e+01 8.175478e+00 -4.881778e+00 1.341109e+00 2.006710e+00 -5.121102e+00 5.429545e+00 8.651835e+00 1.316306e+02 -4.755519e-01 4.726057e-02 4.446035e-01 2.189731e-01 3.123099e-01 -1.786771e-01 -5.793025e-01 -1.532768e-01 2.956640e-01 1.349918e-01 -1.815290e-01 -6.059325e-02 -8.471588e-02 1.579968e-02 1.074076e-01 -1.139561e+00 -2.022287e-01 2.347167e-01 -4.537547e-02 -2.894118e-01 -2.225150e-01 1.789039e-01 2.161097e-02 1.543517e-01 8.078135e-02 -2.771802e-02 -5.679877e-02 3.721647e-02 -4.474300e-03 -3.404301e-02 2.428742e-02 -6.761822e-01
<VARIANCE> 48
 6.199288e+01 8.471649e+01 1.102638e+02 1.880129e+02 9.011392e+01 1.028800e+02 8.210806e+01 8.168246e+01 8.061490e+01 4.399009e+01 4.076426e+01 4.313354e+01 1.562544e+01 1.760308e+01 1.331303e+01 2.414568e+02 4.487127e+00 6.753935e+00 4.841825e+00 8.804010e+00 7.285214e+00 4.110563e+00 6.185852e+00 8.599056e+00 6.109763e+00 4.342957e+00 2.842513e+00 2.012660e+00 1.273462e+00 1.483924e+00 1.168711e+00 1.939675e+01 7.024072e-01 1.189709e+00 9.662592e-01 1.332088e+00 1.297469e+00 6.661573e-01 1.283196e+00 1.646822e+00 1.172113e+00 8.836206e-01 5.698909e-01 3.820823e-01 2.509453e-01 3.044813e-01 2.350806e-01 1.844508e+00
<GCONST> 1.731033e+02
<STATE> 5
<MEAN> 48
 -3.876921e+00 -9.266749e+01 -9.665704e-01 -1.910315e+00 2.424208e+01 2.751213e+01 3.655815e-02 1.982816e+01 9.263640e+00 -4.610784e+00 6.378167e-01 1.944279e+00 -5.356750e+00 5.354847e+00 8.978728e+00 1.265011e+02 -9.843053e-01 6.591524e-01 2.883090e-01 -4.594394e-01 -2.636173e-01 2.808713e-01 -5.041566e-01 2.192782e-01 4.255794e-01 3.146221e-02 -3.187636e-01 4.572409e-02 -7.225814e-02 -7.274461e-02 1.527756e-01 -2.783994e+00 -1.718417e-01 2.056667e-01 -1.014000e-01 -2.179313e-01 -2.425351e-01 1.751474e-01 9.584755e-02 1.210338e-01 3.329763e-02 -3.662296e-02 -2.251789e-02 2.730893e-02 2.460746e-03 -2.995416e-02 1.141385e-02 -4.530616e-01
<VARIANCE> 48
 6.314877e+01 1.004071e+02 1.083888e+02 1.630131e+02 8.366101e+01 1.108830e+02 8.712940e+01 8.679428e+01 8.856493e+01 4.381246e+01 4.110798e+01 4.053368e+01 1.499155e+01 1.994142e+01 1.430840e+01 3.082139e+02 4.264863e+00 6.607369e+00 5.704443e+00 8.872624e+00 6.343055e+00 4.755469e+00 6.773455e+00 9.108843e+00 6.309418e+00 4.288358e+00 2.723101e+00 1.998656e+00 1.375708e+00 1.611807e+00 1.221329e+00 1.508975e+01 6.786819e-01 1.198472e+00 1.133083e+00 1.476603e+00 1.165397e+00 7.319804e-01 1.400978e+00 1.764405e+00 1.223657e+00 8.664374e-01 5.362852e-01 3.789023e-01 2.693986e-01 3.242836e-01 2.375525e-01 1.875039e+00
<GCONST> 1.743593e+02
<TRANSP> 6
 0.000000e+00 1.000000e+00 0.000000e+00 0.000000e+00 0.000000e+00 0.000000e+00
 0.000000e+00 5.598946e-01 4.401054e-01 0.000000e+00 0.000000e+00 0.000000e+00
 0.000000e+00 0.000000e+00 5.598946e-01 4.401054e-01 0.000000e+00 0.000000e+00
 0.000000e+00 0.000000e+00 0.000000e+00 6.525112e-01 3.474889e-01 0.000000e+00
 0.000000e+00 0.000000e+00 0.000000e+00 0.000000e+00 6.525110e-01 3.474891e-01
 0.000000e+00 0.000000e+00 0.000000e+00 0.000000e+00 0.000000e+00 0.000000e+00
<ENDHMM>
~h "silence"
<BEGINHMM>
<NUMSTATES> 6
<STATE> 2
<MEAN> 48
 -1.120492e+01 -8.189954e+01 -4.557209e+00 -1.976504e+01 9.297846e+00 3.511375e+01 8.181319e+00 2.957921e+01 1.439074e+01 -7.199240e+00 -1.736054e+00 3.541599e+00 -5.526806e+00 2.863948e+00 8.892878e+00 1.044797e+02 -8.366323e-01 7.522885e-01 -2.034935e-01 2.555045e-02 -3.498666e-01 2.978401e-01 -4.612209e-01 -2.368976e-01 -8.332558e-02 -3.250382e-01 -1.988919e-01 5.102264e-02 5.876259e-03 -6.226084e-02 7.049441e-02 -2.151940e+00 -6.116800e-02 -4.945850e-02 -1.178372e-01 -6.067545e-02 -8.784441e-02 1.074099e-01 1.474174e-01 1.294148e-01 1.142625e-01 1.362683e-01 1.260644e-01 5.057178e-02 5.511083e-03 2.463722e-03 1.924881e-03 -3.796546e-02
<VARIANCE> 48
 1.829647e+02 1.269258e+02 1.441314e+02 2.102578e+02 1.554303e+02 9.619193e+01 1.092776e+02 1.087781e+02 1.002405e+02 5.843273e+01 4.245004e+01 3.804438e+01 2.198625e+01 2.529880e+01 1.689799e+01 4.684665e+02 4.086680e+00 5.201805e+00 5.066816e+00 7.062941e+00 4.374017e+00 4.166606e+00 5.464719e+00 7.402684e+00 6.436014e+00 5.479928e+00 3.200287e+00 2.905114e+00 1.876637e+00 1.828883e+00 1.377743e+00 8.542526e+00 4.841396e-01 7.884055e-01 7.997196e-01 1.071743e+00 7.057506e-01 5.366399e-01 8.480601e-01 1.071931e+00 1.040323e+00 9.292923e-01 5.478515e-01 4.516608e-01 2.959821e-01 2.944556e-01 2.220349e-01 8.223596e-01
<GCONST> 1.739203e+02
<STATE> 3
<MEAN> 48
 -1.301789e+01 -8.027717e+01 -5.410941e+00 -1.992032e+01 8.309324e+00 3.601844e+01 7.451881e+00 2.927513e+01 1.443830e+01 -7.638144e+00 -1.935551e+00 3.688517e+00 -5.519460e+00 2.779181e+00 9.062504e+00 9.964783e+01 -7.785492e-01 6.441804e-01 -4.570280e-01 -2.275596e-01 -5.822506e-01 5.302293e-01 -5.073825e-02 5.257919e-02 1.508211e-01 -5.564311e-02 3.392260e-02 1.094979e-01 -8.463309e-03 -5.631850e-02 7.886371e-02 -1.965632e+00 1.053849e-01 -4.055959e-02 -7.200689e-02 -1.526945e-01 -8.468822e-02 5.471952e-02 1.655914e-01 1.124633e-01 8.595906e-02 6.883354e-02 5.786873e-02 1.220272e-03 -1.740360e-02 8.249912e-03 2.192657e-03 2.171243e-01
<VARIANCE> 48
 1.439250e+02 1.309741e+02 1.454621e+02 1.826762e+02 1.402955e+02 9.219557e+01 1.032266e+02 9.974842e+01 9.738082e+01 5.877329e+01 4.311667e+01 3.465714e+01 2.193851e+01 2.496850e+01 1.767848e+01 3.781107e+02 4.920894e+00 4.640100e+00 5.278250e+00 6.864829e+00 4.561379e+00 3.850025e+00 4.978614e+00 6.558311e+00 6.553645e+00 4.949479e+00 3.072738e+00 2.865936e+00 1.905568e+00 1.696983e+00 1.306913e+00 8.248350e+00 6.203333e-01 8.435535e-01 9.812915e-01 1.173334e+00 8.153143e-01 6.773531e-01 9.225036e-01 1.243351e+00 1.315235e+00 1.066635e+00 6.267811e-01 5.573301e-01 3.697274e-01 3.498348e-01 2.559946e-01 8.309072e-01
<GCONST> 1.750387e+02
<STATE> 4
<MEAN> 48
 -1.401867e+01 -7.881523e+01 -6.982916e+00 -2.092218e+01 6.642138e+00 3.738555e+01 7.904782e+00 2.970927e+01 1.504643e+01 -7.503571e+00 -1.765550e+00 3.878612e+00 -5.616998e+00 2.640716e+00 9.286269e+00 9.587891e+01 -4.084541e-01 5.861229e-01 -5.099456e-01 -5.766900e-01 -7.281249e-01 5.178489e-01 2.742737e-01 2.684444e-01 2.875016e-01 -3.934619e-02 4.046342e-02 8.871203e-02 -3.987583e-02 -3.832854e-02 6.511305e-02 -1.261477e+00 1.637106e-01 -7.379945e-02 1.960266e-02 -1.136589e-01 1.581393e-03 -5.755246e-02 7.941122e-02 9.758613e-02 7.234326e-02 1.512323e-02 2.060546e-02 -2.488390e-03 4.327518e-05 2.428147e-02 -2.241606e-02 3.471036e-01
<VARIANCE> 48
 1.049388e+02 1.319547e+02 1.462562e+02 1.558055e+02 1.245880e+02 8.682381e+01 9.446651e+01 1.003974e+02 1.057859e+02 6.139972e+01 4.087891e+01 3.469057e+01 2.315116e+01 2.473219e+01 1.747467e+01 2.745110e+02 5.997890e+00 4.414321e+00 5.461636e+00 6.542971e+00 4.982037e+00 3.944907e+00 5.084418e+00 6.540045e+00 6.879944e+00 4.862079e+00 3.108285e+00 2.778080e+00 1.890991e+00 1.624187e+00 1.237895e+00 8.739359e+00 7.053812e-01 8.097916e-01 1.021932e+00 1.099944e+00 8.905649e-01 6.798307e-01 8.967406e-01 1.266660e+00 1.356091e+00 1.021618e+00 5.971116e-01 5.398692e-01 3.623877e-01 3.293706e-01 2.456595e-01 8.171314e-01
<GCONST> 1.742451e+02
<STATE> 5
<MEAN> 48
 -1.478570e+01 -7.735104e+01 -8.233047e+00 -2.278289e+01 4.624329e+00 3.864218e+01 8.917826e+00 3.074273e+01 1.601702e+01 -7.724344e+00 -1.646191e+00 4.223516e+00 -5.672409e+00 2.582345e+00 9.353329e+00 9.330765e+01 -6.517231e-03 2.302844e-01 -3.185798e-01 -7.014672e-01 -5.424837e-01 2.731390e-01 3.521817e-01 5.277672e-01 4.596880e-01 1.234067e-02 1.508203e-01 1.103794e-01 1.232916e-02 5.269764e-02 -5.141193e-02 -1.999689e-01 1.680946e-01 -1.750069e-01 9.842709e-02 3.499104e-02 1.477352e-01 -1.115243e-01 -4.305376e-02 4.154447e-02 2.046126e-02 2.820965e-02 5.646367e-02 -1.342893e-02 1.257825e-02 4.610638e-02 -4.810590e-02 4.027616e-01
<VARIANCE> 48
 7.647743e+01 1.169323e+02 1.530677e+02 1.204753e+02 1.096445e+02 6.994339e+01 7.508590e+01 9.331040e+01 1.110884e+02 6.332995e+01 4.171519e+01 3.567622e+01 2.492685e+01 2.470167e+01 1.684565e+01 1.899548e+02 5.986787e+00 4.760061e+00 5.172716e+00 6.250692e+00 5.289753e+00 4.309798e+00 5.257640e+00 6.980214e+00 7.157514e+00 5.223847e+00 3.356712e+00 2.679436e+00 1.859712e+00 1.609128e+00 1.333977e+00 8.713369e+00 6.677819e-01 7.338948e-01 8.696396e-01 8.785515e-01 8.332012e-01 5.475135e-01 8.098955e-01 1.143435e+00 1.190062e+00 9.015037e-01 5.139796e-01 4.463872e-01 3.202035e-01 2.611733e-01 2.082583e-01 8.707732e-01
<GCONST> 1.710841e+02
<TRANSP> 6
 0.000000e+00 1.000000e+00 0.000000e+00 0.000000e+00 0.000000e+00 0.000000e+00
 0.000000e+00 5.624531e-01 4.375469e-01 0.000000e+00 0.000000e+00 0.000000e+00
 0.000000e+00 0.000000e+00 5.624534e-01 4.375466e-01 0.000000e+00 0.000000e+00
 0.000000e+00 0.000000e+00 0.000000e+00 6.545026e-01 3.454974e-01 0.000000e+00
 0.000000e+00 0.000000e+00 0.000000e+00 0.000000e+00 6.545022e-01 3.454979e-01
 0.000000e+00 0.000000e+00 0.000000e+00 0.000000e+00 0.000000e+00 0.000000e+00
<ENDHMM>
